{"learner":{"attributes":{"best_iteration":"99","best_ntree_limit":"100","scikit_learn":"{\"n_estimators\": 100, \"objective\": null, \"max_depth\": null, \"max_leaves\": null, \"max_bin\": null, \"grow_policy\": null, \"learning_rate\": null, \"verbosity\": null, \"booster\": null, \"tree_method\": null, \"gamma\": null, \"min_child_weight\": null, \"max_delta_step\": null, \"subsample\": null, \"sampling_method\": null, \"colsample_bytree\": null, \"colsample_bylevel\": null, \"colsample_bynode\": null, \"reg_alpha\": null, \"reg_lambda\": null, \"scale_pos_weight\": null, \"base_score\": null, \"missing\": NaN, \"num_parallel_tree\": null, \"random_state\": null, \"n_jobs\": null, \"monotone_constraints\": null, \"interaction_constraints\": null, \"importance_type\": null, \"gpu_id\": null, \"validate_parameters\": null, \"predictor\": null, \"enable_categorical\": false, \"feature_types\": null, \"max_cat_to_onehot\": null, \"max_cat_threshold\": null, \"eval_metric\": null, \"early_stopping_rounds\": null, \"callbacks\": null, \"_estimator_type\": \"regressor\"}"},"feature_names":[],"feature_types":[],"gradient_booster":{"model":{"gbtree_model_param":{"num_parallel_tree":"1","num_trees":"100","size_leaf_vector":"0"},"tree_info":[0,0,0,0,0,0,0,0,0,0,0,0,0,0,0,0,0,0,0,0,0,0,0,0,0,0,0,0,0,0,0,0,0,0,0,0,0,0,0,0,0,0,0,0,0,0,0,0,0,0,0,0,0,0,0,0,0,0,0,0,0,0,0,0,0,0,0,0,0,0,0,0,0,0,0,0,0,0,0,0,0,0,0,0,0,0,0,0,0,0,0,0,0,0,0,0,0,0,0,0],"trees":[{"base_weights":[-4.626416E-1,-1.1267029E0,1.349599E-1,-1.2458754E0,-8.547008E-1,-1.6839136E-1,2.4078913E-1,-1.2802961E0,-9.6758527E-1,-9.517775E-1,-6.963179E-1,-3.3646953E-1,-6.885197E-2,-2.9390235E-2,2.7613732E-1,-1.3262805E0,-1.0114577E0,-8.8862777E-1,-1.0963889E0,-9.9400574E-1,-7.479683E-1,-7.632524E-1,-6.094971E-1,-4.374391E-1,-2.7476332E-1,-2.691561E-1,-2.479884E-2,7.748015E-2,-1.0770035E-1,-1.3045161E-2,3.175926E-1,-1.348644E0,-1.2132975E0,-8.9484245E-1,-1.1339676E0,-9.475032E-1,-8.030807E-1,-1.1507137E0,-9.8478204E-1,-1.0521462E0,-7.8686064E-1,-6.823134E-1,-8.6423653E-1,-6.281146E-1,-7.96626E-1,-6.532814E-1,-5.635075E-1,-4.8842335E-1,-4.0515637E-1,-3.9324757E-1,-2.4331811E-1,-1.6283426E-1,-3.1591225E-1,-2.2256821E-1,3.971977E-2,-6.841599E-2,1.4272669E-1,-2.0240028E-1,-3.7362378E-2,1.1982541E-1,-1.2044242E-1,2.5545037E-1,3.4668976E-1,-4.13334E-1,-3.757391E-1,-3.3129895E-1,-3.8814053E-1,-2.851515E-1,-2.3791243E-1,-3.5688588E-1,-2.882063E-1,-2.6785251E-1,-2.9896805E-1,-2.6351807E-1,-2.2477844E-1,-3.302172E-1,-3.6714658E-1,-2.832567E-1,-3.4819406E-1,-2.7316427E-1,-3.2368857E-1,-2.072918E-1,-2.73249E-1,-2.1733308E-1,-1.8853402E-1,-2.764869E-1,-2.3364769E-1,-2.172441E-1,-1.8010268E-1,-2.0024672E-1,-2.548084E-1,-1.7076585E-1,-2.0295675E-1,-1.7507887E-1,-1.5853432E-1,-1.4787541E-1,-1.4240423E-1,-1.3799861E-1,-1.1686748E-1,-9.527894E-2,-1.257778E-1,-1.0988038E-1,-5.8350656E-2,-8.6255535E-2,-2.9303806E-2,-1.1228758E-1,-7.9800054E-2,-3.0935284E-2,-9.036173E-2,1.8803341E-2,-3.3562973E-2,9.298821E-3,-3.5316687E-2,7.183604E-2,2.7229732E-2,-7.486509E-2,-4.057356E-2,7.6471837E-3,-2.9128509E-2,-1.6991017E-2,5.599815E-2,-6.483879E-2,-1.5237331E-2,8.1938535E-2,2.3965785E-2,7.0290685E-2,1.07861795E-1],"categories":[],"categories_nodes":[],"categories_segments":[],"categories_sizes":[],"default_left":[0,0,0,0,0,0,0,0,0,0,0,0,0,0,0,0,0,0,0,0,0,0,0,0,0,0,0,0,0,0,0,0,0,0,0,0,0,0,0,0,0,0,0,0,0,0,0,0,0,0,0,0,0,0,0,0,0,0,0,0,0,0,0,0,0,0,0,0,0,0,0,0,0,0,0,0,0,0,0,0,0,0,0,0,0,0,0,0,0,0,0,0,0,0,0,0,0,0,0,0,0,0,0,0,0,0,0,0,0,0,0,0,0,0,0,0,0,0,0,0,0,0,0,0,0,0,0],"id":0,"left_children":[1,3,5,7,9,11,13,15,17,19,21,23,25,27,29,31,33,35,37,39,41,43,45,47,49,51,53,55,57,59,61,63,65,67,69,71,73,75,77,79,81,83,85,87,89,91,93,95,97,99,101,103,105,107,109,111,113,115,117,119,121,123,125,-1,-1,-1,-1,-1,-1,-1,-1,-1,-1,-1,-1,-1,-1,-1,-1,-1,-1,-1,-1,-1,-1,-1,-1,-1,-1,-1,-1,-1,-1,-1,-1,-1,-1,-1,-1,-1,-1,-1,-1,-1,-1,-1,-1,-1,-1,-1,-1,-1,-1,-1,-1,-1,-1,-1,-1,-1,-1,-1,-1,-1,-1,-1,-1],"loss_changes":[2.8446076E7,1.100576E6,1.2112085E6,2.26148E5,1.590365E5,1.6325425E5,2.6712712E5,2.59732E5,2.64275E4,5.5193E4,2.2842E4,2.2612875E4,5.4078117E4,2.7082623E4,2.9651862E5,4.5332E4,4.3842E4,8.113625E3,5.986625E3,6.3978E4,8.4015625E3,1.000975E4,3.4453125E3,2.26575E3,8.393E3,5.492422E3,6.410085E4,1.3026858E4,1.24399E4,4.4253707E4,3.9116E4,4.1968E4,2.60045E4,8.908375E3,1.4431125E4,2.558125E3,2.6614375E3,2.4263125E3,2.3071562E3,1.575E4,1.38391875E4,1.5959688E3,1.9462812E3,1.1719531E3,1.2121E4,1.7122188E3,5.8746875E2,3.2734375E1,7.20875E2,9.2960156E2,1.068482E4,2.7415068E3,2.235961E3,1.1607629E4,1.3183297E4,2.0728237E3,4.7525605E3,2.5202188E3,4.0232964E3,1.6348635E4,1.1429895E4,2.1412125E4,2.127775E4,0E0,0E0,0E0,0E0,0E0,0E0,0E0,0E0,0E0,0E0,0E0,0E0,0E0,0E0,0E0,0E0,0E0,0E0,0E0,0E0,0E0,0E0,0E0,0E0,0E0,0E0,0E0,0E0,0E0,0E0,0E0,0E0,0E0,0E0,0E0,0E0,0E0,0E0,0E0,0E0,0E0,0E0,0E0,0E0,0E0,0E0,0E0,0E0,0E0,0E0,0E0,0E0,0E0,0E0,0E0,0E0,0E0,0E0,0E0,0E0,0E0,0E0,0E0,0E0],"parents":[2147483647,0,0,1,1,2,2,3,3,4,4,5,5,6,6,7,7,8,8,9,9,10,10,11,11,12,12,13,13,14,14,15,15,16,16,17,17,18,18,19,19,20,20,21,21,22,22,23,23,24,24,25,25,26,26,27,27,28,28,29,29,30,30,31,31,32,32,33,33,34,34,35,35,36,36,37,37,38,38,39,39,40,40,41,41,42,42,43,43,44,44,45,45,46,46,47,47,48,48,49,49,50,50,51,51,52,52,53,53,54,54,55,55,56,56,57,57,58,58,59,59,60,60,61,61,62,62],"right_children":[2,4,6,8,10,12,14,16,18,20,22,24,26,28,30,32,34,36,38,40,42,44,46,48,50,52,54,56,58,60,62,64,66,68,70,72,74,76,78,80,82,84,86,88,90,92,94,96,98,100,102,104,106,108,110,112,114,116,118,120,122,124,126,-1,-1,-1,-1,-1,-1,-1,-1,-1,-1,-1,-1,-1,-1,-1,-1,-1,-1,-1,-1,-1,-1,-1,-1,-1,-1,-1,-1,-1,-1,-1,-1,-1,-1,-1,-1,-1,-1,-1,-1,-1,-1,-1,-1,-1,-1,-1,-1,-1,-1,-1,-1,-1,-1,-1,-1,-1,-1,-1,-1,-1,-1,-1,-1],"split_conditions":[0E0,-5.8986485E-2,4.8286173E-2,1.304346E-3,-2.0865638E-2,1.7076442E-2,1.301748E-3,-1.1726901E-2,-5.178727E-2,4.118126E-2,-8.925576E-3,5.6252475E-3,-3.4941517E-2,3.539141E-2,0E0,-5.7166833E-2,-9.748327E-2,7.557506E-2,6.322508E-2,3.6797274E-2,-1.32303545E-2,-7.028346E-2,-4.3287533E-3,1.3018274E-3,-4.3336775E-2,1.298321E-3,-2.692419E-2,-7.6149166E-2,-5.898114E-2,4.689276E-2,1.1277081E-1,-8.016336E-2,-7.813091E-2,7.7208646E-2,6.923377E-2,-9.520229E-2,-1.391157E-1,1.6181497E-1,1.9346972E-1,-1.1194021E-1,-4.6543203E-2,9.5842294E-2,8.704006E-2,2.8378703E-2,-6.2712036E-2,-5.716976E-2,-1.5684132E-3,1.2994664E-3,-4.6548218E-2,-1.6161153E-2,-3.8143676E-2,-1.02104075E-1,-8.221602E-2,3.1219706E-2,1.2785701E-1,-1.3648903E-1,-9.748327E-2,1.1504578E-1,6.3235916E-2,-8.0165E-2,-6.461916E-2,1.7829815E-1,6.1577912E-2,-4.13334E-1,-3.757391E-1,-3.3129895E-1,-3.8814053E-1,-2.851515E-1,-2.3791243E-1,-3.5688588E-1,-2.882063E-1,-2.6785251E-1,-2.9896805E-1,-2.6351807E-1,-2.2477844E-1,-3.302172E-1,-3.6714658E-1,-2.832567E-1,-3.4819406E-1,-2.7316427E-1,-3.2368857E-1,-2.072918E-1,-2.73249E-1,-2.1733308E-1,-1.8853402E-1,-2.764869E-1,-2.3364769E-1,-2.172441E-1,-1.8010268E-1,-2.0024672E-1,-2.548084E-1,-1.7076585E-1,-2.0295675E-1,-1.7507887E-1,-1.5853432E-1,-1.4787541E-1,-1.4240423E-1,-1.3799861E-1,-1.1686748E-1,-9.527894E-2,-1.257778E-1,-1.0988038E-1,-5.8350656E-2,-8.6255535E-2,-2.9303806E-2,-1.1228758E-1,-7.9800054E-2,-3.0935284E-2,-9.036173E-2,1.8803341E-2,-3.3562973E-2,9.298821E-3,-3.5316687E-2,7.183604E-2,2.7229732E-2,-7.486509E-2,-4.057356E-2,7.6471837E-3,-2.9128509E-2,-1.6991017E-2,5.599815E-2,-6.483879E-2,-1.5237331E-2,8.1938535E-2,2.3965785E-2,7.0290685E-2,1.07861795E-1],"split_indices":[0,0,0,4,0,0,5,5,7,4,0,0,5,2,4,4,2,4,4,5,7,5,0,0,5,2,4,5,5,7,0,5,7,5,5,8,0,8,7,6,2,4,4,3,4,5,0,9,5,2,4,5,5,7,3,2,2,0,1,4,4,7,5,0,0,0,0,0,0,0,0,0,0,0,0,0,0,0,0,0,0,0,0,0,0,0,0,0,0,0,0,0,0,0,0,0,0,0,0,0,0,0,0,0,0,0,0,0,0,0,0,0,0,0,0,0,0,0,0,0,0,0,0,0,0,0,0],"split_type":[0,0,0,0,0,0,0,0,0,0,0,0,0,0,0,0,0,0,0,0,0,0,0,0,0,0,0,0,0,0,0,0,0,0,0,0,0,0,0,0,0,0,0,0,0,0,0,0,0,0,0,0,0,0,0,0,0,0,0,0,0,0,0,0,0,0,0,0,0,0,0,0,0,0,0,0,0,0,0,0,0,0,0,0,0,0,0,0,0,0,0,0,0,0,0,0,0,0,0,0,0,0,0,0,0,0,0,0,0,0,0,0,0,0,0,0,0,0,0,0,0,0,0,0,0,0,0],"sum_hessian":[7.168075E7,3.3952436E7,3.772832E7,2.360872E7,1.0343716E7,9.75794E6,2.7970378E7,2.101006E7,2.598661E6,6.413017E6,3.930699E6,3.62943E6,6.12851E6,3.23605E6,2.4734328E7,1.7941238E7,3.068822E6,1.611072E6,9.87589E5,5.312326E6,1.100691E6,2.219538E6,1.711161E6,1.376714E6,2.252716E6,1.104857E6,5.023653E6,1.368478E6,1.867572E6,3.101183E6,2.1633144E7,1.497676E7,2.964478E6,1.572241E6,1.496581E6,9.54295E5,6.56777E5,6.64254E5,3.23335E5,4.148065E6,1.164261E6,7.03463E5,3.97228E5,4.39582E5,1.779956E6,8.76591E5,8.3457E5,5.33749E5,8.42965E5,4.72467E5,1.780249E6,3.37469E5,7.67388E5,1.235737E6,3.787916E6,4.22882E5,9.45596E5,7.95945E5,1.071627E6,1.386197E6,1.714986E6,6.899032E6,1.4734113E7,1.1494677E7,3.482083E6,1.259576E6,1.704902E6,1.016457E6,5.55784E5,1.132767E6,3.63814E5,4.51373E5,5.02922E5,2.73723E5,3.83054E5,3.94512E5,2.69742E5,2.62704E5,6.0631E4,6.60481E5,3.487584E6,6.56487E5,5.07774E5,3.94727E5,3.08736E5,2.37587E5,1.59641E5,9.8603E4,3.40979E5,5.16116E5,1.26384E6,1.89869E5,6.86722E5,5.30555E5,3.04015E5,4.02178E5,1.31571E5,1.86666E5,6.56299E5,1.2089E5,3.51577E5,5.05946E5,1.274303E6,1.15822E5,2.21647E5,3.53689E5,4.13699E5,4.90567E5,7.4517E5,3.289716E6,4.982E5,1.40203E5,2.82679E5,3.3045E5,6.15146E5,4.67622E5,3.28323E5,5.22175E5,5.49452E5,3.80796E5,1.005401E6,7.22464E5,9.92522E5,6.267899E6,6.31133E5,1.511749E6,1.3222364E7],"tree_param":{"num_deleted":"0","num_feature":"25","num_nodes":"127","size_leaf_vector":"0"}},{"base_weights":[-3.2384923E-1,-7.8869224E-1,9.4471894E-2,-8.6326087E-1,-5.707501E-1,-1.426237E-1,1.62098E-1,-8.8836443E-1,-6.5829885E-1,-6.2629724E-1,-4.5438817E-1,-2.630641E-1,-8.279388E-2,-1.4499472E-2,1.9109823E-1,-9.211772E-1,-6.8118966E-1,-6.125645E-1,-7.7135384E-1,-6.5955603E-1,-5.0713253E-1,-4.8813757E-1,-4.0356252E-1,-3.1973848E-1,-2.261557E-1,-1.9905461E-1,-4.8422903E-2,-9.2361234E-2,4.844553E-2,1.8330678E-2,2.337705E-1,-9.597195E-1,-8.781671E-1,-6.1650896E-1,-8.0004984E-1,-6.422317E-1,-5.226594E-1,-8.026634E-1,-6.647453E-1,-5.0782293E-1,-7.098979E-1,-4.6403572E-1,-6.0959095E-1,-5.104133E-1,-4.0425736E-1,-4.280364E-1,-3.816235E-1,-3.4189686E-1,-2.987018E-1,-2.0625217E-1,-3.0086207E-1,-1.3637273E-1,-2.4732737E-1,-1.6219772E-1,1.4040444E-2,-2.4043797E-3,-1.3877475E-1,1.3682732E-1,-3.0880928E-2,9.955426E-2,-8.6706035E-2,2.450429E-1,1.3102968E-1,-2.9242635E-1,-2.6026252E-1,-2.2539608E-1,-2.6950085E-1,-1.620728E-1,-1.9831105E-1,-2.5026625E-1,-1.8530443E-1,-2.1142723E-1,-1.8000111E-1,-1.8325898E-1,-1.4805591E-1,-2.5566146E-1,-2.25416E-1,-1.8403901E-1,-2.326288E-1,-1.9268586E-1,-1.3303834E-1,-2.2915648E-1,-1.9778205E-1,-1.252195E-1,-1.4786191E-1,-2.0024814E-1,-1.6230439E-1,-1.652007E-1,-1.255668E-1,-1.13284536E-1,-1.356554E-1,-1.1023576E-1,-1.3285866E-1,-1.05905846E-1,-1.1697786E-1,-9.861658E-2,-1.037017E-1,-1.02950215E-1,-8.619504E-2,-5.2217986E-2,-8.6368605E-2,-9.69744E-2,-7.582255E-2,-6.1064497E-2,-2.3237357E-2,-8.375808E-2,-6.382453E-2,-2.483143E-2,-7.157427E-2,-1.2042743E-2,1.7754938E-2,-3.80629E-2,2.0350007E-2,-6.304542E-2,-3.229146E-2,2.560293E-2,5.629614E-2,1.7264466E-4,-3.0375665E-2,-7.529214E-3,4.426641E-2,-4.6316087E-2,-1.1015618E-2,7.698854E-2,4.1565947E-2,-6.8258047E-3,6.289726E-2],"categories":[],"categories_nodes":[],"categories_segments":[],"categories_sizes":[],"default_left":[0,0,0,0,0,0,0,0,0,0,0,0,0,0,0,0,0,0,0,0,0,0,0,0,0,0,0,0,0,0,0,0,0,0,0,0,0,0,0,0,0,0,0,0,0,0,0,0,0,0,0,0,0,0,0,0,0,0,0,0,0,0,0,0,0,0,0,0,0,0,0,0,0,0,0,0,0,0,0,0,0,0,0,0,0,0,0,0,0,0,0,0,0,0,0,0,0,0,0,0,0,0,0,0,0,0,0,0,0,0,0,0,0,0,0,0,0,0,0,0,0,0,0,0,0,0,0],"id":1,"left_children":[1,3,5,7,9,11,13,15,17,19,21,23,25,27,29,31,33,35,37,39,41,43,45,47,49,51,53,55,57,59,61,63,65,67,69,71,73,75,77,79,81,83,85,87,89,91,93,95,97,99,101,103,105,107,109,111,113,115,117,119,121,123,125,-1,-1,-1,-1,-1,-1,-1,-1,-1,-1,-1,-1,-1,-1,-1,-1,-1,-1,-1,-1,-1,-1,-1,-1,-1,-1,-1,-1,-1,-1,-1,-1,-1,-1,-1,-1,-1,-1,-1,-1,-1,-1,-1,-1,-1,-1,-1,-1,-1,-1,-1,-1,-1,-1,-1,-1,-1,-1,-1,-1,-1,-1,-1,-1],"loss_changes":[1.3938582E7,5.51784E5,6.049304E5,1.30162E5,5.594425E4,6.0334844E4,1.503395E5,1.53202E5,1.4271625E4,2.3219E4,4.797125E3,5.8127188E3,2.2353805E4,2.029347E4,1.8589244E5,3.225E4,2.368925E4,5.2415625E3,2.6530938E3,3.498625E4,5.6445E3,3.1401562E3,5.990625E2,5.1076562E2,2.5023125E3,3.8622695E3,3.0684219E4,7.7283574E3,1.6052865E4,4.2608586E4,2.3418125E4,1.422E4,2.35235E4,6.7763125E3,6.7664375E3,3.9010625E3,1.2529688E3,1.5604375E3,1.0239844E3,9.874844E3,9.393875E3,1.2100156E3,1.5025625E3,4.9105E3,4.5016406E2,4.7367188E2,1.3961719E2,2.6433594E1,2.8452344E2,3.4926172E3,3.8129492E2,2.1978281E3,7.9452344E2,9.283891E3,6.8177305E3,5.5077764E3,2.7135996E3,2.8339805E3,2.6710679E3,1.6851477E4,7.3682E3,2.248025E4,2.4173227E4,0E0,0E0,0E0,0E0,0E0,0E0,0E0,0E0,0E0,0E0,0E0,0E0,0E0,0E0,0E0,0E0,0E0,0E0,0E0,0E0,0E0,0E0,0E0,0E0,0E0,0E0,0E0,0E0,0E0,0E0,0E0,0E0,0E0,0E0,0E0,0E0,0E0,0E0,0E0,0E0,0E0,0E0,0E0,0E0,0E0,0E0,0E0,0E0,0E0,0E0,0E0,0E0,0E0,0E0,0E0,0E0,0E0,0E0,0E0,0E0,0E0,0E0,0E0,0E0],"parents":[2147483647,0,0,1,1,2,2,3,3,4,4,5,5,6,6,7,7,8,8,9,9,10,10,11,11,12,12,13,13,14,14,15,15,16,16,17,17,18,18,19,19,20,20,21,21,22,22,23,23,24,24,25,25,26,26,27,27,28,28,29,29,30,30,31,31,32,32,33,33,34,34,35,35,36,36,37,37,38,38,39,39,40,40,41,41,42,42,43,43,44,44,45,45,46,46,47,47,48,48,49,49,50,50,51,51,52,52,53,53,54,54,55,55,56,56,57,57,58,58,59,59,60,60,61,61,62,62],"right_children":[2,4,6,8,10,12,14,16,18,20,22,24,26,28,30,32,34,36,38,40,42,44,46,48,50,52,54,56,58,60,62,64,66,68,70,72,74,76,78,80,82,84,86,88,90,92,94,96,98,100,102,104,106,108,110,112,114,116,118,120,122,124,126,-1,-1,-1,-1,-1,-1,-1,-1,-1,-1,-1,-1,-1,-1,-1,-1,-1,-1,-1,-1,-1,-1,-1,-1,-1,-1,-1,-1,-1,-1,-1,-1,-1,-1,-1,-1,-1,-1,-1,-1,-1,-1,-1,-1,-1,-1,-1,-1,-1,-1,-1,-1,-1,-1,-1,-1,-1,-1,-1,-1,-1,-1,-1,-1],"split_conditions":[0E0,-4.828329E-2,4.113269E-2,8.492569E-3,-1.4705275E-2,1.27693415E-2,9.912623E-3,0E0,0E0,3.2550912E-2,-5.793534E-3,4.1932934E-3,-2.535091E-2,-4.3336775E-2,2.2711426E-2,-1.68828E-1,-3.173086E-2,1.1693637E-1,9.052932E-2,-1.1443602E-1,2.2726515E-2,4.9767084E-2,-3.0423638E-3,1.3018274E-3,6.47258E-2,4.262575E-2,-1.3227574E-2,-1.144598E-1,-1.6163465E-2,8.5536495E-2,2.2105946E-1,-1.0452169E-1,-1.8396252E-1,-1.3913707E-1,1.0311022E-1,-1.1194588E-1,-1.8398646E-1,8.552667E-2,3.123888E-1,-1.32303545E-2,-3.1741377E-2,-1.7250068E-1,1.649977E-1,4.1174494E-2,6.323489E-2,-6.084387E-2,-5.003587E-2,0E0,-5.1795293E-2,6.0097363E-2,1.7090445E-2,-6.8373114E-2,-3.173286E-2,0E0,2.6985299E-2,-1.3614492E-1,-1.2242087E-1,-6.645577E-2,1.37216E-1,-5.1795293E-2,-4.163736E-2,2.3801884E-1,1.1903079E-1,-2.9242635E-1,-2.6026252E-1,-2.2539608E-1,-2.6950085E-1,-1.620728E-1,-1.9831105E-1,-2.5026625E-1,-1.8530443E-1,-2.1142723E-1,-1.8000111E-1,-1.8325898E-1,-1.4805591E-1,-2.5566146E-1,-2.25416E-1,-1.8403901E-1,-2.326288E-1,-1.9268586E-1,-1.3303834E-1,-2.2915648E-1,-1.9778205E-1,-1.252195E-1,-1.4786191E-1,-2.0024814E-1,-1.6230439E-1,-1.652007E-1,-1.255668E-1,-1.13284536E-1,-1.356554E-1,-1.1023576E-1,-1.3285866E-1,-1.05905846E-1,-1.1697786E-1,-9.861658E-2,-1.037017E-1,-1.02950215E-1,-8.619504E-2,-5.2217986E-2,-8.6368605E-2,-9.69744E-2,-7.582255E-2,-6.1064497E-2,-2.3237357E-2,-8.375808E-2,-6.382453E-2,-2.483143E-2,-7.157427E-2,-1.2042743E-2,1.7754938E-2,-3.80629E-2,2.0350007E-2,-6.304542E-2,-3.229146E-2,2.560293E-2,5.629614E-2,1.7264466E-4,-3.0375665E-2,-7.529214E-3,4.426641E-2,-4.6316087E-2,-1.1015618E-2,7.698854E-2,4.1565947E-2,-6.8258047E-3,6.289726E-2],"split_indices":[0,0,0,4,0,0,5,5,7,4,0,0,5,5,4,0,2,4,4,3,7,4,0,0,4,2,4,1,1,7,1,4,2,1,5,0,0,1,8,7,0,7,3,5,8,4,5,9,4,5,7,5,8,8,0,5,5,8,1,4,4,7,5,0,0,0,0,0,0,0,0,0,0,0,0,0,0,0,0,0,0,0,0,0,0,0,0,0,0,0,0,0,0,0,0,0,0,0,0,0,0,0,0,0,0,0,0,0,0,0,0,0,0,0,0,0,0,0,0,0,0,0,0,0,0,0,0],"split_type":[0,0,0,0,0,0,0,0,0,0,0,0,0,0,0,0,0,0,0,0,0,0,0,0,0,0,0,0,0,0,0,0,0,0,0,0,0,0,0,0,0,0,0,0,0,0,0,0,0,0,0,0,0,0,0,0,0,0,0,0,0,0,0,0,0,0,0,0,0,0,0,0,0,0,0,0,0,0,0,0,0,0,0,0,0,0,0,0,0,0,0,0,0,0,0,0,0,0,0,0,0,0,0,0,0,0,0,0,0,0,0,0,0,0,0,0,0,0,0,0,0,0,0,0,0,0,0],"sum_hessian":[7.168075E7,3.3952436E7,3.772832E7,2.5297072E7,8.655365E6,8.372949E6,2.9355368E7,2.2536784E7,2.760288E6,5.858646E6,2.796719E6,2.778894E6,5.594055E6,4.14067E6,2.52147E7,1.9455392E7,3.081391E6,1.965277E6,7.95011E5,4.580287E6,1.278359E6,1.680692E6,1.116027E6,1.095973E6,1.682921E6,1.276444E6,4.317611E6,1.851008E6,2.289662E6,4.994289E6,2.022041E7,1.0260622E7,9.194771E6,1.995498E6,1.085893E6,1.477665E6,4.87612E5,6.14526E5,1.80485E5,1.141065E6,3.439222E6,8.99859E5,3.785E5,1.328012E6,3.5268E5,5.27529E5,5.88498E5,5.33749E5,5.62224E5,1.32888E6,3.54041E5,5.55341E5,7.21103E5,1.530272E6,2.787339E6,6.29989E5,1.221019E6,1.083016E6,1.206646E6,2.816401E6,2.177888E6,1.8221232E7,1.999178E6,8.821717E6,1.438905E6,1.261431E6,7.93334E6,7.35596E5,1.259902E6,9.14531E5,1.71362E5,5.95666E5,8.81999E5,1.21083E5,3.66529E5,3.12544E5,3.01982E5,1.23344E5,5.7141E4,3.69372E5,7.71693E5,1.664806E6,1.774416E6,3.43823E5,5.56036E5,2.05216E5,1.73284E5,9.23355E5,4.04657E5,2.2668E5,1.26E5,1.03719E5,4.2381E5,1.32401E5,4.56097E5,1.18905E5,4.14844E5,1.14602E5,4.47622E5,9.5308E5,3.758E5,2.41628E5,1.12413E5,2.59478E5,2.95863E5,3.75268E5,3.45835E5,7.50193E5,7.80079E5,1.266823E6,1.520516E6,2.27256E5,4.02733E5,3.70861E5,8.50158E5,5.38028E5,5.44988E5,8.33892E5,3.72754E5,7.83011E5,2.03339E6,9.252E5,1.252688E6,1.6433362E7,1.78787E6,6.76352E5,1.322826E6],"tree_param":{"num_deleted":"0","num_feature":"25","num_nodes":"127","size_leaf_vector":"0"}},{"base_weights":[-2.2669455E-1,-5.5208474E-1,6.613032E-2,-6.2498146E-1,-4.3649584E-1,-6.0804892E-2,1.3366139E-1,-6.4479756E-1,-5.100887E-1,-4.895987E-1,-3.507692E-1,-1.5343519E-1,-8.2127135E-3,2.2621948E-2,1.535479E-1,-6.7175674E-1,-5.2766097E-1,-4.3378928E-1,-5.6029636E-1,-3.4532633E-1,-5.104641E-1,-3.874647E-1,-3.0513972E-1,-2.0721006E-1,-1.1637646E-1,-1.0942727E-1,1.83086E-2,8.225342E-2,-3.9890513E-2,4.7747143E-2,1.8512379E-1,-5.697647E-1,-6.835847E-1,-4.3626115E-1,-5.9433675E-1,-4.9475002E-1,-3.964421E-1,-5.323093E-1,-6.2295365E-1,-4.967933E-1,-3.120698E-1,-3.727794E-1,-5.4452103E-1,-3.0838305E-1,-4.1225675E-1,-2.606432E-1,-3.1920484E-1,-2.3376714E-1,-1.8687011E-1,-2.3336771E-1,-1.0217166E-1,-1.4629635E-2,-1.3592628E-1,-1.23660445E-1,5.1015418E-2,2.3665356E-2,1.3049422E-1,-1.0541311E-2,-9.938304E-2,1.05752446E-1,-6.2622495E-2,1.9398168E-1,1.0723628E-1,-1.9991116E-1,-1.4712176E-1,-1.7544016E-1,-2.0945461E-1,-1.1109948E-1,-1.406472E-1,-1.9258809E-1,-1.5387002E-1,-1.9997965E-1,-1.4192532E-1,-1.0315109E-1,-1.3006139E-1,-1.783657E-1,-1.4812826E-1,-1.927088E-1,-1.4863856E-1,-1.19171456E-1,-1.7015779E-1,-7.862899E-2,-1.031371E-1,-1.5219393E-1,-1.04298264E-1,-1.701546E-1,-1.3597283E-1,-1.10327855E-1,-8.348058E-2,-9.9698745E-2,-1.3953176E-1,-9.178953E-2,-7.42833E-2,-7.775183E-2,-1.03550814E-1,-7.4610025E-2,-6.8571046E-2,-6.793069E-2,-5.188677E-2,-8.162294E-2,-5.8901515E-2,-2.1738756E-2,-5.691317E-2,-4.505205E-2,7.3876097E-3,-5.1710658E-2,-2.455059E-2,7.504092E-3,-5.4514103E-2,2.0617867E-2,-2.913879E-2,4.1507978E-2,-3.6934433E-3,1.0999447E-3,4.3348618E-2,-1.3510855E-2,1.5442579E-2,-3.224144E-2,3.1668235E-2,-2.057347E-2,3.777147E-2,-3.2922387E-2,-2.0025784E-4,6.0665168E-2,2.8435243E-2,6.7216093E-3,5.576233E-2],"categories":[],"categories_nodes":[],"categories_segments":[],"categories_sizes":[],"default_left":[0,0,0,0,0,0,0,0,0,0,0,0,0,0,0,0,0,0,0,0,0,0,0,0,0,0,0,0,0,0,0,0,0,0,0,0,0,0,0,0,0,0,0,0,0,0,0,0,0,0,0,0,0,0,0,0,0,0,0,0,0,0,0,0,0,0,0,0,0,0,0,0,0,0,0,0,0,0,0,0,0,0,0,0,0,0,0,0,0,0,0,0,0,0,0,0,0,0,0,0,0,0,0,0,0,0,0,0,0,0,0,0,0,0,0,0,0,0,0,0,0,0,0,0,0,0,0],"id":2,"left_children":[1,3,5,7,9,11,13,15,17,19,21,23,25,27,29,31,33,35,37,39,41,43,45,47,49,51,53,55,57,59,61,63,65,67,69,71,73,75,77,79,81,83,85,87,89,91,93,95,97,99,101,103,105,107,109,111,113,115,117,119,121,123,125,-1,-1,-1,-1,-1,-1,-1,-1,-1,-1,-1,-1,-1,-1,-1,-1,-1,-1,-1,-1,-1,-1,-1,-1,-1,-1,-1,-1,-1,-1,-1,-1,-1,-1,-1,-1,-1,-1,-1,-1,-1,-1,-1,-1,-1,-1,-1,-1,-1,-1,-1,-1,-1,-1,-1,-1,-1,-1,-1,-1,-1,-1,-1,-1],"loss_changes":[6.829909E6,2.86085E5,3.2340984E5,4.74045E4,5.9777E4,6.38265E4,5.438022E4,5.6079E4,1.1733125E4,2.4408625E4,8.409875E3,9.455477E3,2.2432836E4,1.3943774E4,6.977516E4,1.7414E4,2.0247438E4,2.7673438E3,3.2390625E3,5.160578E3,3.3216875E4,5.4579375E3,1.4010938E3,1.0456016E3,4.6680312E3,4.3586797E3,3.074739E4,5.4107363E3,3.1886033E3,3.0733861E4,1.1097625E4,1.15006875E4,1.8653E4,3.0084375E3,7.4501875E3,1.7190625E3,1.4708281E3,3.0635625E3,1.4110312E3,1.2924844E3,1.3315625E3,4.746922E3,1.174675E4,1.1879883E3,8.952594E3,3.1752344E2,2.6514375E3,6.510547E1,6.034492E2,4.3587695E2,6.5143438E3,2.0169072E3,2.6730566E3,1.0701473E4,1.412088E4,3.5671833E3,1.8643672E3,2.6160764E3,1.00005664E3,1.1055387E4,4.8279233E3,1.17990625E4,1.0957324E4,0E0,0E0,0E0,0E0,0E0,0E0,0E0,0E0,0E0,0E0,0E0,0E0,0E0,0E0,0E0,0E0,0E0,0E0,0E0,0E0,0E0,0E0,0E0,0E0,0E0,0E0,0E0,0E0,0E0,0E0,0E0,0E0,0E0,0E0,0E0,0E0,0E0,0E0,0E0,0E0,0E0,0E0,0E0,0E0,0E0,0E0,0E0,0E0,0E0,0E0,0E0,0E0,0E0,0E0,0E0,0E0,0E0,0E0,0E0,0E0,0E0,0E0,0E0,0E0],"parents":[2147483647,0,0,1,1,2,2,3,3,4,4,5,5,6,6,7,7,8,8,9,9,10,10,11,11,12,12,13,13,14,14,15,15,16,16,17,17,18,18,19,19,20,20,21,21,22,22,23,23,24,24,25,25,26,26,27,27,28,28,29,29,30,30,31,31,32,32,33,33,34,34,35,35,36,36,37,37,38,38,39,39,40,40,41,41,42,42,43,43,44,44,45,45,46,46,47,47,48,48,49,49,50,50,51,51,52,52,53,53,54,54,55,55,56,56,57,57,58,58,59,59,60,60,61,61,62,62],"right_children":[2,4,6,8,10,12,14,16,18,20,22,24,26,28,30,32,34,36,38,40,42,44,46,48,50,52,54,56,58,60,62,64,66,68,70,72,74,76,78,80,82,84,86,88,90,92,94,96,98,100,102,104,106,108,110,112,114,116,118,120,122,124,126,-1,-1,-1,-1,-1,-1,-1,-1,-1,-1,-1,-1,-1,-1,-1,-1,-1,-1,-1,-1,-1,-1,-1,-1,-1,-1,-1,-1,-1,-1,-1,-1,-1,-1,-1,-1,-1,-1,-1,-1,-1,-1,-1,-1,-1,-1,-1,-1,-1,-1,-1,-1,-1,-1,-1,-1,-1,-1,-1,-1,-1,-1,-1,-1],"split_conditions":[0E0,-7.8125715E-2,6.611071E-2,-3.0132007E-2,-2.6925495E-2,2.271949E-2,2.978094E-2,-3.9766677E-2,-1.6162528E-1,-1.7626713E-1,-1.1722133E-2,8.483814E-3,-1.763605E-2,6.454472E-2,4.827643E-2,-2.6482582E-1,-1.3648903E-1,-1.7250338E-1,5.8567442E-2,-8.431121E-2,-1.3324887E-1,-6.268938E-2,-5.003587E-2,2.8769646E-3,-7.8125715E-2,-3.6539793E-2,-1.1195948E-1,-1.2480119E-1,1.6499211E-1,4.828182E-2,2.7422962E-1,-9.77498E-2,-2.2413969E-1,-2.2933333E-1,1.1506349E-1,4.113651E-2,-2.939025E-1,2.1209398E-2,3.2421377E-1,-2.7159846E-1,-2.7872726E-1,-4.1647512E-2,1.7092727E-2,-4.16386E-2,-5.0027277E-2,-3.173086E-2,-7.415654E-2,-5.355322E-2,-3.4941517E-2,-1.2479965E-1,6.771471E-2,-1.1957207E-1,-1.4712811E-2,2.2713615E-2,1.6828004E-1,-1.4863537E-1,-1.0450472E-1,0E0,2.663499E-1,-1.0677606E-1,-5.898547E-2,3.0174017E-1,1.7152603E-1,-1.9991116E-1,-1.4712176E-1,-1.7544016E-1,-2.0945461E-1,-1.1109948E-1,-1.406472E-1,-1.9258809E-1,-1.5387002E-1,-1.9997965E-1,-1.4192532E-1,-1.0315109E-1,-1.3006139E-1,-1.783657E-1,-1.4812826E-1,-1.927088E-1,-1.4863856E-1,-1.19171456E-1,-1.7015779E-1,-7.862899E-2,-1.031371E-1,-1.5219393E-1,-1.04298264E-1,-1.701546E-1,-1.3597283E-1,-1.10327855E-1,-8.348058E-2,-9.9698745E-2,-1.3953176E-1,-9.178953E-2,-7.42833E-2,-7.775183E-2,-1.03550814E-1,-7.4610025E-2,-6.8571046E-2,-6.793069E-2,-5.188677E-2,-8.162294E-2,-5.8901515E-2,-2.1738756E-2,-5.691317E-2,-4.505205E-2,7.3876097E-3,-5.1710658E-2,-2.455059E-2,7.504092E-3,-5.4514103E-2,2.0617867E-2,-2.913879E-2,4.1507978E-2,-3.6934433E-3,1.0999447E-3,4.3348618E-2,-1.3510855E-2,1.5442579E-2,-3.224144E-2,3.1668235E-2,-2.057347E-2,3.777147E-2,-3.2922387E-2,-2.0025784E-4,6.0665168E-2,2.8435243E-2,6.7216093E-3,5.576233E-2],"split_indices":[0,0,0,4,0,0,5,5,7,3,0,0,5,2,4,2,2,0,7,7,6,5,5,0,4,2,2,8,1,8,2,6,7,1,8,3,7,1,1,3,3,3,5,1,4,2,3,5,5,4,4,5,8,6,6,2,5,8,8,4,1,7,5,0,0,0,0,0,0,0,0,0,0,0,0,0,0,0,0,0,0,0,0,0,0,0,0,0,0,0,0,0,0,0,0,0,0,0,0,0,0,0,0,0,0,0,0,0,0,0,0,0,0,0,0,0,0,0,0,0,0,0,0,0,0,0,0],"split_type":[0,0,0,0,0,0,0,0,0,0,0,0,0,0,0,0,0,0,0,0,0,0,0,0,0,0,0,0,0,0,0,0,0,0,0,0,0,0,0,0,0,0,0,0,0,0,0,0,0,0,0,0,0,0,0,0,0,0,0,0,0,0,0,0,0,0,0,0,0,0,0,0,0,0,0,0,0,0,0,0,0,0,0,0,0,0,0,0,0,0,0,0,0,0,0,0,0,0,0,0,0,0,0,0,0,0,0,0,0,0,0,0,0,0,0,0,0,0,0,0,0,0,0,0,0,0,0],"sum_hessian":[7.168075E7,3.3952436E7,3.772832E7,2.0821342E7,1.3131095E7,1.3101674E7,2.4626644E7,1.7758456E7,3.062886E6,8.108393E6,5.022702E6,4.744758E6,8.356916E6,3.740572E6,2.0886072E7,1.4435981E7,3.322475E6,1.21559E6,1.847296E6,1.024509E6,7.083884E6,2.78388E6,2.238822E6,1.935787E6,2.808971E6,1.735114E6,6.621802E6,1.9144E6,1.826172E6,4.800645E6,1.6085427E7,1.500159E6,1.2935822E7,1.401412E6,1.921063E6,4.61798E5,7.53792E5,1.276938E6,5.70358E5,1.84444E5,8.40065E5,1.404761E6,5.679123E6,6.64446E5,2.119434E6,5.37716E5,1.701106E6,8.39576E5,1.096211E6,3.0413E5,2.504841E6,3.79061E5,1.356053E6,1.239885E6,5.381917E6,8.64488E5,1.049912E6,1.22289E6,6.03282E5,3.146819E6,1.653826E6,1.4442883E7,1.642544E6,6.76558E5,8.23601E5,1.665427E6,1.1270395E7,4.63329E5,9.38083E5,1.212182E6,7.08881E5,5.1699E4,4.10099E5,3.11735E5,4.42057E5,4.88369E5,7.88569E5,4.94997E5,7.5361E4,7.6404E4,1.0804E5,3.26189E5,5.13876E5,2.21012E5,1.183749E6,4.549619E6,1.129504E6,2.23588E5,4.40858E5,8.43601E5,1.275833E6,1.20083E5,4.17633E5,5.1361E5,1.187496E6,2.16743E5,6.22833E5,2.85205E5,8.11006E5,1.4869E5,1.5544E5,1.870148E6,6.34693E5,8.5126E4,2.93935E5,8.10198E5,5.45855E5,3.48185E5,8.917E5,4.807212E6,5.74705E5,2.06419E5,6.58069E5,1.04382E5,9.4553E5,7.85808E5,4.37082E5,5.80377E5,2.2905E4,3.26075E5,2.820744E6,9.39389E5,7.14437E5,1.3335728E7,1.107155E6,7.9016E5,8.52384E5],"tree_param":{"num_deleted":"0","num_feature":"25","num_nodes":"127","size_leaf_vector":"0"}},{"base_weights":[-1.5868625E-1,-3.8847598E-1,4.461609E-2,-4.4451106E-1,-3.1695426E-1,-3.902188E-2,9.794035E-2,-4.587223E-1,-3.697366E-1,-3.590546E-1,-2.6175082E-1,-1.0164538E-1,5.6971186E-3,2.6234733E-2,1.1272789E-1,-4.7861046E-1,-3.8275403E-1,-3.221341E-1,-4.184134E-1,-3.7882385E-1,-2.657948E-1,-2.7511153E-1,-1.7338131E-1,-1.4405428E-1,-7.235497E-2,2.2599475E-2,-1.0157782E-1,9.4030455E-2,-1.1161314E-2,4.3628965E-2,1.3905813E-1,-3.8246122E-1,-4.8524082E-1,-3.2982567E-1,-4.6060714E-1,-2.7221867E-1,-3.464117E-1,-4.432115E-1,-3.5320872E-1,-2.7607113E-1,-4.126416E-1,-2.2935015E-1,-3.133123E-1,-3.0580994E-1,-2.094206E-1,-2.0823717E-1,-1.3618425E-1,-1.635386E-1,-1.2786609E-1,-5.5559494E-2,-1.5033396E-1,4.5299675E-2,-8.342921E-2,-1.3408698E-1,-2.1908605E-2,2.5366899E-2,1.2773974E-1,-4.616494E-2,3.223044E-2,9.33304E-2,-4.099957E-2,1.4420968E-1,5.028E-2,-1.3692437E-1,-9.150466E-2,-1.2244088E-1,-1.4800255E-1,-1.162098E-1,-8.9049466E-2,-1.4707324E-1,-1.07963815E-1,-1.1523026E-1,-7.571046E-2,-1.2444415E-1,-9.987359E-2,-1.2481565E-1,-1.425206E-1,-1.0239024E-1,-1.445306E-1,-1.11938335E-1,-6.7256995E-2,-8.074714E-2,-1.2850583E-1,-7.261381E-2,-5.0573166E-2,-1.0162538E-1,-6.995409E-2,-6.407716E-2,-9.775791E-2,-5.226364E-2,-7.5488836E-2,-5.34587E-2,-8.665269E-2,-4.5995362E-2,-2.9929075E-2,-5.0076097E-2,-4.628232E-2,-5.420279E-2,-3.5163306E-2,-4.0094063E-2,-8.058667E-3,-5.8166873E-2,-2.8164892E-2,-9.350319E-3,1.9509096E-2,-4.561244E-2,-2.653732E-3,-3.328853E-2,-6.0109224E-2,7.5875875E-3,-2.795087E-2,-2.664182E-2,1.31187765E-2,1.8413063E-2,4.4678718E-2,-2.0773582E-2,-7.572404E-4,2.0499453E-2,-7.183672E-3,7.3555675E-3,4.050093E-2,-2.2801722E-3,-3.0296808E-2,4.4910904E-2,2.5982164E-2,-6.7894696E-3,3.1606987E-2],"categories":[],"categories_nodes":[],"categories_segments":[],"categories_sizes":[],"default_left":[0,0,0,0,0,0,0,0,0,0,0,0,0,0,0,0,0,0,0,0,0,0,0,0,0,0,0,0,0,0,0,0,0,0,0,0,0,0,0,0,0,0,0,0,0,0,0,0,0,0,0,0,0,0,0,0,0,0,0,0,0,0,0,0,0,0,0,0,0,0,0,0,0,0,0,0,0,0,0,0,0,0,0,0,0,0,0,0,0,0,0,0,0,0,0,0,0,0,0,0,0,0,0,0,0,0,0,0,0,0,0,0,0,0,0,0,0,0,0,0,0,0,0,0,0,0,0],"id":3,"left_children":[1,3,5,7,9,11,13,15,17,19,21,23,25,27,29,31,33,35,37,39,41,43,45,47,49,51,53,55,57,59,61,63,65,67,69,71,73,75,77,79,81,83,85,87,89,91,93,95,97,99,101,103,105,107,109,111,113,115,117,119,121,123,125,-1,-1,-1,-1,-1,-1,-1,-1,-1,-1,-1,-1,-1,-1,-1,-1,-1,-1,-1,-1,-1,-1,-1,-1,-1,-1,-1,-1,-1,-1,-1,-1,-1,-1,-1,-1,-1,-1,-1,-1,-1,-1,-1,-1,-1,-1,-1,-1,-1,-1,-1,-1,-1,-1,-1,-1,-1,-1,-1,-1,-1,-1,-1,-1],"loss_changes":[3.3486945E6,1.34854E5,1.6962166E5,2.004875E4,3.43535E4,4.1467363E4,2.462661E4,2.39525E4,6.9815625E3,1.5461125E4,7.5510312E3,7.6626562E3,1.5663482E4,1.0066956E4,3.5031016E4,8.00975E3,1.35539375E4,1.8459531E3,2.4086562E3,2.4043438E4,2.54E3,1.1203344E4,1.0890078E3,7.9484375E2,4.7786895E3,1.7961887E4,3.0453965E3,3.2673047E3,3.8869702E3,2.234532E4,6.3762188E3,4.642125E3,7.34175E3,3.7173438E3,3.9738438E3,1.1069922E3,9.462344E2,9.336094E2,6.2820703E2,8.627422E3,1.1735625E4,6.404375E2,1.2977383E3,7.0005938E3,2.6294297E3,1.0499707E3,2.5354541E2,3.579883E1,7.7449805E2,6.7274023E3,1.589832E3,9.273928E3,6.7343633E3,1.2798848E3,1.1461613E3,9.744813E2,1.3313574E3,1.4267324E3,2.317314E3,9.597527E3,3.9382886E3,4.169625E3,3.0705645E3,0E0,0E0,0E0,0E0,0E0,0E0,0E0,0E0,0E0,0E0,0E0,0E0,0E0,0E0,0E0,0E0,0E0,0E0,0E0,0E0,0E0,0E0,0E0,0E0,0E0,0E0,0E0,0E0,0E0,0E0,0E0,0E0,0E0,0E0,0E0,0E0,0E0,0E0,0E0,0E0,0E0,0E0,0E0,0E0,0E0,0E0,0E0,0E0,0E0,0E0,0E0,0E0,0E0,0E0,0E0,0E0,0E0,0E0,0E0,0E0,0E0,0E0,0E0,0E0],"parents":[2147483647,0,0,1,1,2,2,3,3,4,4,5,5,6,6,7,7,8,8,9,9,10,10,11,11,12,12,13,13,14,14,15,15,16,16,17,17,18,18,19,19,20,20,21,21,22,22,23,23,24,24,25,25,26,26,27,27,28,28,29,29,30,30,31,31,32,32,33,33,34,34,35,35,36,36,37,37,38,38,39,39,40,40,41,41,42,42,43,43,44,44,45,45,46,46,47,47,48,48,49,49,50,50,51,51,52,52,53,53,54,54,55,55,56,56,57,57,58,58,59,59,60,60,61,61,62,62],"right_children":[2,4,6,8,10,12,14,16,18,20,22,24,26,28,30,32,34,36,38,40,42,44,46,48,50,52,54,56,58,60,62,64,66,68,70,72,74,76,78,80,82,84,86,88,90,92,94,96,98,100,102,104,106,108,110,112,114,116,118,120,122,124,126,-1,-1,-1,-1,-1,-1,-1,-1,-1,-1,-1,-1,-1,-1,-1,-1,-1,-1,-1,-1,-1,-1,-1,-1,-1,-1,-1,-1,-1,-1,-1,-1,-1,-1,-1,-1,-1,-1,-1,-1,-1,-1,-1,-1,-1,-1,-1,-1,-1,-1,-1,-1,-1,-1,-1,-1,-1,-1,-1,-1,-1,-1,-1,-1],"split_conditions":[-1.5684132E-3,-9.294374E-2,7.393404E-2,-4.655431E-2,-3.6534242E-2,2.8374406E-2,4.262126E-2,-5.716976E-2,1.2975557E-3,2.4171524E-2,7.075456E-2,9.908161E-3,1.5321837E-1,0E0,6.6118665E-2,-3.3421773E-1,-5.356702E-2,-2.0962088E-1,4.118126E-2,-1.3325296E-1,3.122715E-2,2.6989127E-2,6.0088582E-2,2.8769646E-3,8.196189E-2,1.3483451E-1,6.324108E-2,-3.1725705E-2,-4.5037877E-2,1.068931E-1,3.2421377E-1,-2.0056622E-1,-2.6491588E-1,3.9629932E-2,3.397037E-2,-3.3423048E-1,-5.7166945E-2,3.5388194E-2,2.4492832E-1,-1.5723899E-3,-1.6522127E-1,2.3800555E-1,1.0881721E-1,-1.2239516E-1,2.5615394E-2,-8.221248E-2,3.242192E-1,1.3018274E-3,-1.02121994E-1,-7.028292E-2,2.6982967E-2,-6.2683284E-2,1.3048004E-3,2.6629034E-1,2.8271627E-1,-1.8006179E-1,-2.3466167E-1,1.5321837E-1,8.036285E-2,-1.0947334E-1,1.8546247E-1,2.449137E-1,1.1919653E-1,-1.3692437E-1,-9.150466E-2,-1.2244088E-1,-1.4800255E-1,-1.162098E-1,-8.9049466E-2,-1.4707324E-1,-1.07963815E-1,-1.1523026E-1,-7.571046E-2,-1.2444415E-1,-9.987359E-2,-1.2481565E-1,-1.425206E-1,-1.0239024E-1,-1.445306E-1,-1.11938335E-1,-6.7256995E-2,-8.074714E-2,-1.2850583E-1,-7.261381E-2,-5.0573166E-2,-1.0162538E-1,-6.995409E-2,-6.407716E-2,-9.775791E-2,-5.226364E-2,-7.5488836E-2,-5.34587E-2,-8.665269E-2,-4.5995362E-2,-2.9929075E-2,-5.0076097E-2,-4.628232E-2,-5.420279E-2,-3.5163306E-2,-4.0094063E-2,-8.058667E-3,-5.8166873E-2,-2.8164892E-2,-9.350319E-3,1.9509096E-2,-4.561244E-2,-2.653732E-3,-3.328853E-2,-6.0109224E-2,7.5875875E-3,-2.795087E-2,-2.664182E-2,1.31187765E-2,1.8413063E-2,4.4678718E-2,-2.0773582E-2,-7.572404E-4,2.0499453E-2,-7.183672E-3,7.3555675E-3,4.050093E-2,-2.2801722E-3,-3.0296808E-2,4.4910904E-2,2.5982164E-2,-6.7894696E-3,3.1606987E-2],"split_indices":[0,0,0,4,0,0,5,5,8,4,5,0,3,2,4,2,2,8,4,3,8,4,8,0,5,6,7,5,8,7,1,5,7,8,5,0,1,7,7,7,7,1,4,1,8,3,7,0,3,6,1,6,1,2,2,5,8,0,1,1,8,8,6,0,0,0,0,0,0,0,0,0,0,0,0,0,0,0,0,0,0,0,0,0,0,0,0,0,0,0,0,0,0,0,0,0,0,0,0,0,0,0,0,0,0,0,0,0,0,0,0,0,0,0,0,0,0,0,0,0,0,0,0,0,0,0,0],"split_type":[0,0,0,0,0,0,0,0,0,0,0,0,0,0,0,0,0,0,0,0,0,0,0,0,0,0,0,0,0,0,0,0,0,0,0,0,0,0,0,0,0,0,0,0,0,0,0,0,0,0,0,0,0,0,0,0,0,0,0,0,0,0,0,0,0,0,0,0,0,0,0,0,0,0,0,0,0,0,0,0,0,0,0,0,0,0,0,0,0,0,0,0,0,0,0,0,0,0,0,0,0,0,0,0,0,0,0,0,0,0,0,0,0,0,0,0,0,0,0,0,0,0,0,0,0,0,0],"sum_hessian":[7.168075E7,3.3648424E7,3.8032332E7,1.8866834E7,1.4781588E7,1.4807338E7,2.3224996E7,1.5853749E7,3.013085E6,8.386049E6,6.395539E6,6.168752E6,8.638586E6,3.970727E6,1.9254268E7,1.2564429E7,3.28932E6,1.523356E6,1.489729E6,6.919292E6,1.466757E6,5.555581E6,8.39958E5,2.52004E6,3.648712E6,7.462748E6,1.175838E6,1.411607E6,2.55912E6,5.312521E6,1.3941747E7,8.1054E5,1.1753889E7,1.958108E6,1.331212E6,4.9848E5,1.024876E6,1.079266E6,4.10463E5,1.713367E6,5.205925E6,8.30099E5,6.36658E5,3.786217E6,1.769364E6,4.33623E5,4.06335E5,1.143591E6,1.376449E6,3.002106E6,6.46606E5,6.146759E6,1.315989E6,8.35081E5,3.40757E5,4.64814E5,9.46793E5,1.41647E6,1.14265E6,3.346914E6,1.965607E6,1.3177113E7,7.64634E5,4.14616E5,3.95924E5,1.117519E6,1.063637E7,7.13604E5,1.244504E6,1.028573E6,3.02639E5,7.5112E4,4.23368E5,1.68924E5,8.55952E5,5.82597E5,4.96669E5,3.7567E5,3.4793E4,5.96834E5,1.116533E6,5.13778E5,4.692147E6,6.8665E5,1.43449E5,4.83243E5,1.53415E5,6.76169E5,3.110048E6,9.64681E5,8.04683E5,3.15893E5,1.1773E5,2.76334E5,1.30001E5,8.37764E5,3.05827E5,2.31088E5,1.145361E6,8.06784E5,2.195322E6,3.6499E5,2.81616E5,1.260727E6,4.886032E6,6.85432E5,6.30557E5,6.19077E5,2.16004E5,2.04984E5,1.35773E5,6.4398E4,4.00416E5,2.29143E5,7.1765E5,9.26481E5,4.89989E5,6.95617E5,4.47033E5,1.262394E6,2.08452E6,1.26264E6,7.02967E5,1.2029868E7,1.147245E6,3.29042E5,4.35592E5],"tree_param":{"num_deleted":"0","num_feature":"25","num_nodes":"127","size_leaf_vector":"0"}},{"base_weights":[-1.11080416E-1,-2.7329826E-1,3.0168965E-2,-3.1565294E-1,-2.2833873E-1,-4.172974E-2,6.3068815E-2,-3.2903185E-1,-2.668258E-1,-2.4179654E-1,-1.427013E-1,-8.484028E-2,-1.3346038E-2,4.1453097E-2,9.4871804E-2,-3.5277757E-1,-2.828377E-1,-2.3168272E-1,-3.262972E-1,-2.6805478E-1,-1.714735E-1,-1.8849416E-1,-1.0677781E-1,-1.07662894E-1,-6.4206235E-2,-1.449957E-1,-3.9069518E-3,5.074533E-2,-8.1478916E-2,3.764244E-2,1.0897742E-1,-2.1524943E-1,-3.5625812E-1,-2.3896962E-1,-3.51035E-1,-1.8547353E-1,-2.5419247E-1,-3.38005E-1,-2.3650981E-1,-1.8360327E-1,-2.8361645E-1,-1.3526179E-1,-2.0646815E-1,-1.5860385E-1,-2.7190763E-1,-1.2703231E-1,-6.421903E-2,-1.03252694E-1,-1.2831038E-1,-5.282512E-2,-1.3057879E-1,-1.872827E-1,-1.1067234E-1,1.591536E-2,-7.3277615E-2,-4.266706E-2,6.1807226E-2,-4.5512863E-2,-1.2494029E-1,1.15373194E-1,-7.720031E-3,4.8475858E-2,1.289554E-1,-9.38795E-2,-4.3281104E-2,-1.1042579E-1,-9.49402E-2,-9.1429204E-2,-6.408863E-2,-1.1245426E-1,-7.753474E-2,-4.1055605E-2,-6.0760364E-2,-9.978912E-2,-7.282929E-2,-9.541377E-2,-1.0904533E-1,-6.209389E-2,-1.0603776E-1,-8.6294636E-2,-3.7117347E-2,-5.9757624E-2,-8.97289E-2,-4.8595987E-2,-3.4258693E-2,-7.550355E-2,-4.8588272E-2,-5.613567E-2,-3.1096864E-2,-8.9242205E-2,-4.3353323E-2,-3.368541E-2,-6.727869E-2,-1.7068014E-2,-3.8743876E-2,-3.5854697E-2,-2.7815225E-2,-2.9440036E-2,-4.094691E-2,-1.0571058E-2,-3.566377E-2,-4.3487545E-2,-2.428476E-2,-6.319796E-2,-5.102043E-2,1.9964362E-2,-3.6172997E-2,8.647627E-3,-2.7715169E-2,-3.3182364E-2,-3.680033E-3,-4.021792E-2,-7.98212E-3,2.0975318E-2,-2.4282618E-3,-2.840811E-2,3.304622E-3,-5.00968E-2,-3.0952128E-2,1.2732142E-2,3.9084624E-2,1.2962382E-2,-8.799153E-3,2.8088635E-2,-1.178131E-3,1.0773291E-2,3.9706863E-2],"categories":[],"categories_nodes":[],"categories_segments":[],"categories_sizes":[],"default_left":[0,0,0,0,0,0,0,0,0,0,0,0,0,0,0,0,0,0,0,0,0,0,0,0,0,0,0,0,0,0,0,0,0,0,0,0,0,0,0,0,0,0,0,0,0,0,0,0,0,0,0,0,0,0,0,0,0,0,0,0,0,0,0,0,0,0,0,0,0,0,0,0,0,0,0,0,0,0,0,0,0,0,0,0,0,0,0,0,0,0,0,0,0,0,0,0,0,0,0,0,0,0,0,0,0,0,0,0,0,0,0,0,0,0,0,0,0,0,0,0,0,0,0,0,0,0,0],"id":4,"left_children":[1,3,5,7,9,11,13,15,17,19,21,23,25,27,29,31,33,35,37,39,41,43,45,47,49,51,53,55,57,59,61,63,65,67,69,71,73,75,77,79,81,83,85,87,89,91,93,95,97,99,101,103,105,107,109,111,113,115,117,119,121,123,125,-1,-1,-1,-1,-1,-1,-1,-1,-1,-1,-1,-1,-1,-1,-1,-1,-1,-1,-1,-1,-1,-1,-1,-1,-1,-1,-1,-1,-1,-1,-1,-1,-1,-1,-1,-1,-1,-1,-1,-1,-1,-1,-1,-1,-1,-1,-1,-1,-1,-1,-1,-1,-1,-1,-1,-1,-1,-1,-1,-1,-1,-1,-1,-1],"loss_changes":[1.6424338E6,6.3533E4,9.0636766E4,1.12225E4,1.8652188E4,1.4719078E4,1.8071438E4,1.47915E4,7.7223125E3,2.5826625E4,3.6156719E3,2.2489219E3,9.013433E3,1.7877842E4,8.587023E3,4.26325E3,1.369675E4,2.4157188E3,1.442625E3,1.33835E4,4.8186562E3,2.409039E3,1.0617275E3,2.064668E2,1.8945557E3,7.043076E2,9.306753E3,1.5035496E4,1.719229E3,7.416707E3,1.0314906E4,1.524207E3,4.088125E3,4.6451875E3,3.9511094E3,6.310508E2,1.3998516E3,6.173125E2,5.4667676E2,9.871957E3,1.12380625E4,1.0520859E3,3.891086E3,1.1145332E3,8.3018164E2,1.1966172E3,1.8890076E2,3.201211E2,9.84917E1,2.4872842E3,2.6198047E2,8.745557E1,4.7016113E2,7.3598203E3,3.4257808E3,2.2613093E3,7.3758555E3,1.6731503E3,4.5581543E2,8.428467E2,1.4618458E3,5.012514E3,2.0300312E3,0E0,0E0,0E0,0E0,0E0,0E0,0E0,0E0,0E0,0E0,0E0,0E0,0E0,0E0,0E0,0E0,0E0,0E0,0E0,0E0,0E0,0E0,0E0,0E0,0E0,0E0,0E0,0E0,0E0,0E0,0E0,0E0,0E0,0E0,0E0,0E0,0E0,0E0,0E0,0E0,0E0,0E0,0E0,0E0,0E0,0E0,0E0,0E0,0E0,0E0,0E0,0E0,0E0,0E0,0E0,0E0,0E0,0E0,0E0,0E0,0E0,0E0,0E0,0E0],"parents":[2147483647,0,0,1,1,2,2,3,3,4,4,5,5,6,6,7,7,8,8,9,9,10,10,11,11,12,12,13,13,14,14,15,15,16,16,17,17,18,18,19,19,20,20,21,21,22,22,23,23,24,24,25,25,26,26,27,27,28,28,29,29,30,30,31,31,32,32,33,33,34,34,35,35,36,36,37,37,38,38,39,39,40,40,41,41,42,42,43,43,44,44,45,45,46,46,47,47,48,48,49,49,50,50,51,51,52,52,53,53,54,54,55,55,56,56,57,57,58,58,59,59,60,60,61,61,62,62],"right_children":[2,4,6,8,10,12,14,16,18,20,22,24,26,28,30,32,34,36,38,40,42,44,46,48,50,52,54,56,58,60,62,64,66,68,70,72,74,76,78,80,82,84,86,88,90,92,94,96,98,100,102,104,106,108,110,112,114,116,118,120,122,124,126,-1,-1,-1,-1,-1,-1,-1,-1,-1,-1,-1,-1,-1,-1,-1,-1,-1,-1,-1,-1,-1,-1,-1,-1,-1,-1,-1,-1,-1,-1,-1,-1,-1,-1,-1,-1,-1,-1,-1,-1,-1,-1,-1,-1,-1,-1,-1,-1,-1,-1,-1,-1,-1,-1,-1,-1,-1,-1,-1,-1,-1,-1,-1,-1],"split_conditions":[-3.0423638E-3,-1.06939614E-1,5.713237E-2,-8.221605E-2,5.1197972E-2,1.9897124E-2,1.7153521E-1,-1.0947182E-1,-3.173408E-2,1.707387E-2,3.5379756E-2,7.1724174E-3,-9.072398E-2,2.5120622E-1,1.1895827E-1,-5.566954E-1,-1.515675E-1,-1.6162531E-1,2.9134932E-1,-1.4549349E-1,2.8858865E-3,1.70922E-2,2.270831E-1,7.7208646E-2,1.3244744E-1,-1.4548683E-1,1.1277047E-1,-2.3981553E-2,3.499464E-1,1.3012936E-3,1.233974E-1,-3.128492E-1,-1.42169E-1,-1.1725586E-2,1.8546247E-1,-4.655431E-2,-1.0452E-1,-5.5347152E-2,2.1113195E-1,-5.355322E-2,-1.22214906E-1,-4.1647512E-2,5.7141863E-2,1.233974E-1,1.3482451E-1,9.223064E-2,2.2657809E-1,-2.6926115E-2,0E0,1.08818E-1,9.222224E-2,-2.0506905E-1,-2.293332E-1,1.502902E-1,2.837785E-2,-1.6159377E-1,1.6826852E-1,4.3641934E-3,9.938593E-2,-3.5898465E-1,1.304346E-3,9.938573E-2,-5.566954E-1,-9.38795E-2,-4.3281104E-2,-1.1042579E-1,-9.49402E-2,-9.1429204E-2,-6.408863E-2,-1.1245426E-1,-7.753474E-2,-4.1055605E-2,-6.0760364E-2,-9.978912E-2,-7.282929E-2,-9.541377E-2,-1.0904533E-1,-6.209389E-2,-1.0603776E-1,-8.6294636E-2,-3.7117347E-2,-5.9757624E-2,-8.97289E-2,-4.8595987E-2,-3.4258693E-2,-7.550355E-2,-4.8588272E-2,-5.613567E-2,-3.1096864E-2,-8.9242205E-2,-4.3353323E-2,-3.368541E-2,-6.727869E-2,-1.7068014E-2,-3.8743876E-2,-3.5854697E-2,-2.7815225E-2,-2.9440036E-2,-4.094691E-2,-1.0571058E-2,-3.566377E-2,-4.3487545E-2,-2.428476E-2,-6.319796E-2,-5.102043E-2,1.9964362E-2,-3.6172997E-2,8.647627E-3,-2.7715169E-2,-3.3182364E-2,-3.680033E-3,-4.021792E-2,-7.98212E-3,2.0975318E-2,-2.4282618E-3,-2.840811E-2,3.304622E-3,-5.00968E-2,-3.0952128E-2,1.2732142E-2,3.9084624E-2,1.2962382E-2,-8.799153E-3,2.8088635E-2,-1.178131E-3,1.0773291E-2,3.9706863E-2],"split_indices":[0,0,0,4,5,0,0,5,7,4,8,0,4,6,4,2,3,8,1,1,8,2,8,5,3,4,3,5,6,7,5,5,4,8,8,4,1,6,7,5,7,0,4,5,5,2,2,5,0,6,7,4,7,7,7,5,2,1,0,1,4,2,1,0,0,0,0,0,0,0,0,0,0,0,0,0,0,0,0,0,0,0,0,0,0,0,0,0,0,0,0,0,0,0,0,0,0,0,0,0,0,0,0,0,0,0,0,0,0,0,0,0,0,0,0,0,0,0,0,0,0,0,0,0,0,0,0],"split_type":[0,0,0,0,0,0,0,0,0,0,0,0,0,0,0,0,0,0,0,0,0,0,0,0,0,0,0,0,0,0,0,0,0,0,0,0,0,0,0,0,0,0,0,0,0,0,0,0,0,0,0,0,0,0,0,0,0,0,0,0,0,0,0,0,0,0,0,0,0,0,0,0,0,0,0,0,0,0,0,0,0,0,0,0,0,0,0,0,0,0,0,0,0,0,0,0,0,0,0,0,0,0,0,0,0,0,0,0,0,0,0,0,0,0,0,0,0,0,0,0,0,0,0,0,0,0,0],"sum_hessian":[7.168075E7,3.336394E7,3.8316816E7,1.7179648E7,1.6184291E7,1.2028959E7,2.6287856E7,1.3484739E7,3.694909E6,1.3986353E7,2.197938E6,4.775578E6,7.253381E6,1.5650556E7,1.0637301E7,8.90645E6,4.578289E6,2.322496E6,1.372413E6,1.018378E7,3.802573E6,9.66238E5,1.2317E6,2.267533E6,2.508045E6,4.85263E5,6.768118E6,1.4550693E7,1.099863E6,2.103397E6,8.533904E6,2.19841E5,8.686609E6,2.786117E6,1.792172E6,7.60766E5,1.56173E6,1.214098E6,1.58315E5,1.584558E6,8.599222E6,1.868792E6,1.933781E6,7.1134E5,2.54898E5,8.3453E5,3.9717E5,1.868448E6,3.99085E5,2.140934E6,3.67111E5,2.17408E5,2.67855E5,5.263967E6,1.504151E6,1.540649E6,1.3010044E7,6.01828E5,4.98035E5,7.75146E5,1.328251E6,2.118428E6,6.415476E6,9.2516E4,1.27325E5,6.696162E6,1.990447E6,7.74699E5,2.011418E6,1.425531E6,3.66641E5,1.97611E5,5.63155E5,1.986E5,1.36313E6,6.80806E5,5.33292E5,1.26401E5,3.1914E4,5.78811E5,1.005747E6,1.332427E6,7.266795E6,8.23756E5,1.045036E6,9.59311E5,9.7447E5,4.68309E5,2.43031E5,2.12293E5,4.2605E4,7.24623E5,1.09907E5,3.56903E5,4.0267E4,7.34545E5,1.133903E6,8.5106E4,3.13979E5,1.690741E6,4.50193E5,2.84638E5,8.2473E4,9.2196E4,1.25212E5,1.4177E4,2.53678E5,4.7033E6,5.60667E5,9.33175E5,5.70976E5,2.30266E5,1.310383E6,1.1657457E7,1.352587E6,3.21829E5,2.79999E5,1.6987E5,3.28165E5,1.31562E5,6.43584E5,3.95709E5,9.32542E5,1.137931E6,9.80497E5,2.26221E5,6.189255E6],"tree_param":{"num_deleted":"0","num_feature":"25","num_nodes":"127","size_leaf_vector":"0"}},{"base_weights":[-7.775633E-2,-1.9418226E-1,1.912938E-2,-2.0881973E-1,-1.3490133E-1,-5.0760005E-2,3.894665E-2,-2.1837842E-1,-1.594276E-1,-1.5014574E-1,-9.886499E-2,-7.165613E-2,-3.3621334E-2,-3.7276793E-2,4.677137E-2,-2.2731136E-1,-1.4058346E-1,-1.3491906E-1,-1.9759424E-1,-1.0636872E-1,-1.8116638E-1,-5.771089E-2,-1.5003742E-1,-7.936666E-2,-6.1274286E-2,-8.924661E-2,-2.296228E-2,6.431063E-2,-5.8333136E-2,-4.601343E-3,5.912598E-2,-1.707015E-1,-2.3674841E-1,-1.610545E-1,-6.1740216E-2,-1.6583493E-1,-1.10989824E-1,-2.1124248E-1,-1.18277766E-1,-1.5287703E-1,-6.929755E-2,-1.9095047E-1,-4.648821E-2,-1.03176534E-1,-3.4892492E-2,-1.7270055E-1,-6.6400096E-2,-8.321023E-2,-7.325021E-2,-4.9846917E-2,-9.351979E-2,-1.7722638E-2,-1.3979015E-1,-7.658431E-2,1.0234163E-3,-7.9802714E-2,9.146879E-2,-8.077238E-2,-1.7943924E-2,2.4351958E-2,-4.730916E-2,6.8296745E-2,2.5728349E-2,-7.1294904E-2,-3.360728E-2,-5.6341127E-2,-7.3482014E-2,-6.7484155E-2,-4.1367877E-2,-4.326926E-2,-1.3481557E-2,-5.6303583E-2,-3.752226E-2,-4.537692E-2,-2.7594054E-2,-5.64269E-2,-7.834199E-2,-2.9711215E-2,-7.543827E-2,-3.150944E-2,-5.7292264E-2,-1.1561606E-2,-2.4551101E-2,-3.3960335E-2,-6.312483E-2,-2.7080419E-2,8.1732115E-3,-1.655623E-2,-3.898324E-2,-1.8707788E-2,1.1772544E-3,-6.440434E-2,-4.5027714E-2,-2.9891493E-2,-6.4187166E-3,-2.5969444E-2,-2.044458E-2,-1.7911384E-2,-2.543795E-2,-2.5152698E-2,-6.341183E-3,-3.503408E-2,-1.8888313E-2,-3.8254596E-2,5.7218043E-4,-3.4394544E-2,-4.8718054E-2,-1.0330963E-2,-3.207082E-2,1.0414093E-2,-1.5423962E-2,1.7834792E-2,-3.2785553E-2,8.235442E-3,4.0882934E-2,-3.1271726E-2,-7.4622747E-3,-3.1865902E-2,-3.2759068E-4,-5.718814E-3,1.7866043E-2,-1.9797841E-2,-4.451098E-3,2.3574758E-2,5.3501166E-3,-1.4840686E-2,2.310356E-2],"categories":[],"categories_nodes":[],"categories_segments":[],"categories_sizes":[],"default_left":[0,0,0,0,0,0,0,0,0,0,0,0,0,0,0,0,0,0,0,0,0,0,0,0,0,0,0,0,0,0,0,0,0,0,0,0,0,0,0,0,0,0,0,0,0,0,0,0,0,0,0,0,0,0,0,0,0,0,0,0,0,0,0,0,0,0,0,0,0,0,0,0,0,0,0,0,0,0,0,0,0,0,0,0,0,0,0,0,0,0,0,0,0,0,0,0,0,0,0,0,0,0,0,0,0,0,0,0,0,0,0,0,0,0,0,0,0,0,0,0,0,0,0,0,0,0,0],"id":5,"left_children":[1,3,5,7,9,11,13,15,17,19,21,23,25,27,29,31,33,35,37,39,41,43,45,47,49,51,53,55,57,59,61,63,65,67,69,71,73,75,77,79,81,83,85,87,89,91,93,95,97,99,101,103,105,107,109,111,113,115,117,119,121,123,125,-1,-1,-1,-1,-1,-1,-1,-1,-1,-1,-1,-1,-1,-1,-1,-1,-1,-1,-1,-1,-1,-1,-1,-1,-1,-1,-1,-1,-1,-1,-1,-1,-1,-1,-1,-1,-1,-1,-1,-1,-1,-1,-1,-1,-1,-1,-1,-1,-1,-1,-1,-1,-1,-1,-1,-1,-1,-1,-1,-1,-1,-1,-1,-1],"loss_changes":[8.085595E5,2.8250625E4,5.418671E4,1.232725E4,3.5416953E3,3.0952773E3,1.8179492E4,1.52026875E4,3.9602031E3,6.152383E3,4.0361465E3,3.1175E2,2.81535E3,6.069992E3,1.75447E4,1.0483375E4,3.6367812E3,1.9072812E3,1.7921523E3,3.2394902E3,3.494E3,1.1020364E3,1.6192793E3,5.2530273E1,6.1158154E2,2.7603643E3,5.1250576E3,1.9068167E3,2.1302612E3,6.626643E3,6.8251562E3,1.10144375E4,6.7434375E3,2.647164E3,6.437201E2,1.0015117E3,1.1124141E3,1.6317578E3,6.2279956E2,1.5190645E3,4.032627E2,3.7411875E3,5.797069E2,4.559729E2,7.540849E2,6.379121E2,2.7244727E2,6.9333984E1,1.3483691E2,1.1960459E3,3.08688E2,6.814097E2,2.5423535E2,1.5737324E3,4.8638535E3,3.1717212E2,1.1759014E3,1.9820615E3,1.2488307E3,4.8810117E3,1.3136367E3,9.074664E3,1.8513568E4,0E0,0E0,0E0,0E0,0E0,0E0,0E0,0E0,0E0,0E0,0E0,0E0,0E0,0E0,0E0,0E0,0E0,0E0,0E0,0E0,0E0,0E0,0E0,0E0,0E0,0E0,0E0,0E0,0E0,0E0,0E0,0E0,0E0,0E0,0E0,0E0,0E0,0E0,0E0,0E0,0E0,0E0,0E0,0E0,0E0,0E0,0E0,0E0,0E0,0E0,0E0,0E0,0E0,0E0,0E0,0E0,0E0,0E0,0E0,0E0,0E0,0E0,0E0,0E0],"parents":[2147483647,0,0,1,1,2,2,3,3,4,4,5,5,6,6,7,7,8,8,9,9,10,10,11,11,12,12,13,13,14,14,15,15,16,16,17,17,18,18,19,19,20,20,21,21,22,22,23,23,24,24,25,25,26,26,27,27,28,28,29,29,30,30,31,31,32,32,33,33,34,34,35,35,36,36,37,37,38,38,39,39,40,40,41,41,42,42,43,43,44,44,45,45,46,46,47,47,48,48,49,49,50,50,51,51,52,52,53,53,54,54,55,55,56,56,57,57,58,58,59,59,60,60,61,61,62,62],"right_children":[2,4,6,8,10,12,14,16,18,20,22,24,26,28,30,32,34,36,38,40,42,44,46,48,50,52,54,56,58,60,62,64,66,68,70,72,74,76,78,80,82,84,86,88,90,92,94,96,98,100,102,104,106,108,110,112,114,116,118,120,122,124,126,-1,-1,-1,-1,-1,-1,-1,-1,-1,-1,-1,-1,-1,-1,-1,-1,-1,-1,-1,-1,-1,-1,-1,-1,-1,-1,-1,-1,-1,-1,-1,-1,-1,-1,-1,-1,-1,-1,-1,-1,-1,-1,-1,-1,-1,-1,-1,-1,-1,-1,-1,-1,-1,-1,-1,-1,-1,-1,-1,-1,-1,-1,-1,-1],"split_conditions":[-7.2575267E-3,-4.332146E-2,3.5382476E-2,-1.4706319E-2,1.8577121E-2,1.1350202E-2,-1.9320711E-2,2.5632259E-2,4.6894096E-2,-5.536942E-2,2.8372504E-2,2.8769646E-3,-1.3041286E-1,-9.748357E-2,2.122153E-2,-1.6888028E-1,1.3721211E-1,4.6890154E-2,2.4417152E-1,-1.5754771E-3,1.9776389E-1,1.2975557E-3,1.0687955E-1,2.122153E-2,5.1378895E-2,1.1338372E-2,-1.02429595E-2,-1.3911316E-1,-3.4937613E-2,2.2721287E-2,1.1506349E-1,-6.836988E-2,-1.9208863E-1,-2.5357058E-2,-1.9205435E-1,5.4143347E-2,-1.3039848E-1,-3.1728834E-2,2.6631558E-1,-1.6522719E-1,3.2550912E-2,-9.294935E-2,2.9134932E-1,-2.1432303E-1,-1.1443602E-1,-3.0455461E-3,2.6638994E-1,1.1691713E-1,-1.5684132E-3,-1.7639931E-2,3.3973433E-2,-2.7865243E-1,5.2677777E-2,9.910557E-3,5.8555763E-2,-3.342244E-1,-1.4218806E-1,1.2555304E-1,-1.2221631E-1,-9.7479016E-2,-1.5718222E-3,1.4752409E-1,6.157161E-2,-7.1294904E-2,-3.360728E-2,-5.6341127E-2,-7.3482014E-2,-6.7484155E-2,-4.1367877E-2,-4.326926E-2,-1.3481557E-2,-5.6303583E-2,-3.752226E-2,-4.537692E-2,-2.7594054E-2,-5.64269E-2,-7.834199E-2,-2.9711215E-2,-7.543827E-2,-3.150944E-2,-5.7292264E-2,-1.1561606E-2,-2.4551101E-2,-3.3960335E-2,-6.312483E-2,-2.7080419E-2,8.1732115E-3,-1.655623E-2,-3.898324E-2,-1.8707788E-2,1.1772544E-3,-6.440434E-2,-4.5027714E-2,-2.9891493E-2,-6.4187166E-3,-2.5969444E-2,-2.044458E-2,-1.7911384E-2,-2.543795E-2,-2.5152698E-2,-6.341183E-3,-3.503408E-2,-1.8888313E-2,-3.8254596E-2,5.7218043E-4,-3.4394544E-2,-4.8718054E-2,-1.0330963E-2,-3.207082E-2,1.0414093E-2,-1.5423962E-2,1.7834792E-2,-3.2785553E-2,8.235442E-3,4.0882934E-2,-3.1271726E-2,-7.4622747E-3,-3.1865902E-2,-3.2759068E-4,-5.718814E-3,1.7866043E-2,-1.9797841E-2,-4.451098E-3,2.3574758E-2,5.3501166E-3,-1.4840686E-2,2.310356E-2],"split_indices":[0,0,0,4,5,0,4,5,8,5,1,0,1,7,5,1,5,1,1,1,1,8,5,5,4,5,5,4,1,1,8,6,7,8,0,4,0,6,7,6,4,1,1,3,3,8,6,1,0,4,8,6,8,1,5,7,1,0,4,8,8,2,3,0,0,0,0,0,0,0,0,0,0,0,0,0,0,0,0,0,0,0,0,0,0,0,0,0,0,0,0,0,0,0,0,0,0,0,0,0,0,0,0,0,0,0,0,0,0,0,0,0,0,0,0,0,0,0,0,0,0,0,0,0,0,0,0],"split_type":[0,0,0,0,0,0,0,0,0,0,0,0,0,0,0,0,0,0,0,0,0,0,0,0,0,0,0,0,0,0,0,0,0,0,0,0,0,0,0,0,0,0,0,0,0,0,0,0,0,0,0,0,0,0,0,0,0,0,0,0,0,0,0,0,0,0,0,0,0,0,0,0,0,0,0,0,0,0,0,0,0,0,0,0,0,0,0,0,0,0,0,0,0,0,0,0,0,0,0,0,0,0,0,0,0,0,0,0,0,0,0,0,0,0,0,0,0,0,0,0,0,0,0,0,0,0,0],"sum_hessian":[7.168075E7,3.2557252E7,3.9123504E7,2.6110196E7,6.447057E6,8.642848E6,3.0480656E7,2.1876504E7,4.23369E6,4.530515E6,1.916542E6,3.894509E6,4.748339E6,2.837689E6,2.7642966E7,1.9623234E7,2.253271E6,2.578148E6,1.655542E6,1.878931E6,2.651584E6,1.062254E6,8.54288E5,2.234761E6,1.659748E6,7.6357E5,3.984769E6,4.87194E5,2.350495E6,5.359052E6,2.2283914E7,2.803851E6,1.6819384E7,1.788817E6,4.64454E5,1.124858E6,1.45329E6,1.412489E6,2.43053E5,8.33387E5,1.045544E6,2.471998E6,1.79586E5,3.54971E5,7.07283E5,6.72154E5,1.82134E5,1.372359E6,8.62402E5,1.225463E6,4.34285E5,3.16166E5,4.47404E5,1.231545E6,2.753224E6,7.7253E4,4.09941E5,1.511013E6,8.39482E5,3.19383E6,2.165222E6,1.7483154E7,4.80076E6,1.309624E6,1.494227E6,2.411396E6,1.4407987E7,4.75929E5,1.312888E6,7.8591E4,3.85863E5,7.32375E5,3.92483E5,4.66062E5,9.87228E5,9.64813E5,4.47676E5,2.12374E5,3.0679E4,3.6943E5,4.63957E5,3.02797E5,7.42747E5,4.94976E5,1.977022E6,1.1268E5,6.6906E4,1.27103E5,2.27868E5,4.14196E5,2.93087E5,2.35273E5,4.36881E5,1.04761E5,7.7373E4,1.122375E6,2.49984E5,3.96784E5,4.65618E5,5.6108E5,6.64383E5,2.46587E5,1.87698E5,4.7953E4,2.68213E5,2.11812E5,2.35592E5,5.15255E5,7.1629E5,1.676246E6,1.076978E6,1.3498E4,6.3755E4,1.6879E5,2.41151E5,1.064234E6,4.46779E5,1.34568E5,7.04914E5,1.430083E6,1.763747E6,1.374417E6,7.90805E5,1.4522966E7,2.960188E6,1.946539E6,2.854221E6],"tree_param":{"num_deleted":"0","num_feature":"25","num_nodes":"127","size_leaf_vector":"0"}},{"base_weights":[-5.442945E-2,-1.3727888E-1,1.2363087E-2,-1.6096725E-1,-1.1796647E-1,-1.7020449E-2,4.008032E-2,-4.8776537E-2,-1.6342111E-1,-5.3769086E-2,-1.2385239E-1,-3.9942637E-2,6.5991684E-4,3.341209E-2,7.38015E-2,-9.769556E-2,1.5806833E-2,-1.7321396E-1,-1.3421297E-1,-1.6701692E-1,-4.5358375E-2,-4.872372E-2,-1.3006742E-1,-5.397182E-2,-2.9204918E-2,-5.330225E-2,1.1873603E-2,3.9428495E-2,-2.9765304E-2,1.5488392E-2,8.613347E-2,-2.0663464E-1,-7.8311674E-2,7.157525E-2,-3.3991482E-2,-1.9136411E-1,-1.4459364E-1,-1.0553236E-1,-1.7771894E-1,-9.3246505E-2,-2.06007E-1,1.9538903E-3,-6.079412E-2,-1.7940383E-1,-3.5271954E-2,-1.400289E-1,-9.278529E-2,-5.6966178E-2,-4.745758E-2,-2.3672435E-2,-1.028407E-1,5.014773E-3,-9.9839255E-2,-4.6327163E-2,2.5708463E-2,4.314187E-2,-3.2708038E-2,-4.700549E-2,7.198676E-2,6.5454975E-2,-1.5090982E-2,1.9296696E-2,1.0596032E-1,-7.773026E-2,-5.2264526E-2,-1.6465424E-2,-5.392137E-2,3.6810715E-2,1.612387E-5,-2.3604015E-2,-6.548753E-4,-5.9533E-2,-4.505811E-2,-5.032113E-2,-3.0677525E-2,-3.9251212E-2,-2.2924434E-2,-5.5070233E-2,-2.9796405E-2,-6.556731E-2,-1.827998E-2,-1.3158379E-2,-6.509917E-2,3.1430952E-2,-5.492467E-3,-2.1297995E-2,-7.5116674E-3,-2.4155115E-3,-6.487448E-2,-1.1778977E-3,-1.6812293E-2,-4.770491E-2,-2.9230313E-2,-1.5956247E-2,-4.1082133E-2,-1.3764889E-2,-1.8683352E-2,-1.2520572E-2,-2.5654642E-2,-1.8777294E-2,-3.2948288E-3,-2.4235822E-2,-4.070583E-2,-3.5152815E-2,6.047864E-3,-1.8109888E-2,-3.5601556E-2,-2.7872335E-2,-8.360568E-3,9.307317E-3,-2.8324723E-2,-2.800553E-2,1.3331004E-2,-1.6425304E-2,1.6558466E-2,-7.7536786E-3,-3.0981563E-2,1.2837623E-2,3.337915E-2,6.5109013E-3,2.5804313E-2,2.5252778E-2,-9.395887E-3,3.2748945E-2,1.5811973E-3,3.288267E-2,8.570253E-3],"categories":[],"categories_nodes":[],"categories_segments":[],"categories_sizes":[],"default_left":[0,0,0,0,0,0,0,0,0,0,0,0,0,0,0,0,0,0,0,0,0,0,0,0,0,0,0,0,0,0,0,0,0,0,0,0,0,0,0,0,0,0,0,0,0,0,0,0,0,0,0,0,0,0,0,0,0,0,0,0,0,0,0,0,0,0,0,0,0,0,0,0,0,0,0,0,0,0,0,0,0,0,0,0,0,0,0,0,0,0,0,0,0,0,0,0,0,0,0,0,0,0,0,0,0,0,0,0,0,0,0,0,0,0,0,0,0,0,0,0,0,0,0,0,0,0,0],"id":6,"left_children":[1,3,5,7,9,11,13,15,17,19,21,23,25,27,29,31,33,35,37,39,41,43,45,47,49,51,53,55,57,59,61,63,65,67,69,71,73,75,77,79,81,83,85,87,89,91,93,95,97,99,101,103,105,107,109,111,113,115,117,119,121,123,125,-1,-1,-1,-1,-1,-1,-1,-1,-1,-1,-1,-1,-1,-1,-1,-1,-1,-1,-1,-1,-1,-1,-1,-1,-1,-1,-1,-1,-1,-1,-1,-1,-1,-1,-1,-1,-1,-1,-1,-1,-1,-1,-1,-1,-1,-1,-1,-1,-1,-1,-1,-1,-1,-1,-1,-1,-1,-1,-1,-1,-1,-1,-1,-1],"loss_changes":[3.9666153E5,1.46368125E4,3.2321586E4,3.9559375E3,6.659875E3,7.8071763E3,4.592129E3,9.717087E2,4.0220625E3,1.4099253E3,7.538547E3,1.2636543E3,6.5809297E3,6.4808926E3,2.4246113E3,3.6953748E2,3.6814447E2,5.4704375E3,4.4056484E3,2.9432837E2,1.00629346E3,2.1684348E3,5.5379062E3,7.093848E1,1.93577E3,5.078144E3,7.2502944E3,4.1701836E3,2.6007092E3,8.9929846E2,3.6880527E3,4.4919067E1,3.5301276E2,2.286601E2,9.954457E1,1.8781719E3,4.0041094E3,1.5679297E3,6.431914E2,1.4327606E2,1.1929468E2,7.061528E2,3.788794E2,7.268374E2,7.2811804E2,9.5169375E3,5.4973496E3,1.466753E2,2.4941724E2,2.1826807E3,2.4052954E2,1.5368341E3,7.7361914E2,1.4869036E3,4.6456157E3,2.6166719E3,1.4767922E3,1.5093589E3,2.4630005E2,2.0099463E2,5.881939E2,8.025611E2,6.060781E2,0E0,0E0,0E0,0E0,0E0,0E0,0E0,0E0,0E0,0E0,0E0,0E0,0E0,0E0,0E0,0E0,0E0,0E0,0E0,0E0,0E0,0E0,0E0,0E0,0E0,0E0,0E0,0E0,0E0,0E0,0E0,0E0,0E0,0E0,0E0,0E0,0E0,0E0,0E0,0E0,0E0,0E0,0E0,0E0,0E0,0E0,0E0,0E0,0E0,0E0,0E0,0E0,0E0,0E0,0E0,0E0,0E0,0E0,0E0,0E0,0E0,0E0,0E0,0E0],"parents":[2147483647,0,0,1,1,2,2,3,3,4,4,5,5,6,6,7,7,8,8,9,9,10,10,11,11,12,12,13,13,14,14,15,15,16,16,17,17,18,18,19,19,20,20,21,21,22,22,23,23,24,24,25,25,26,26,27,27,28,28,29,29,30,30,31,31,32,32,33,33,34,34,35,35,36,36,37,37,38,38,39,39,40,40,41,41,42,42,43,43,44,44,45,45,46,46,47,47,48,48,49,49,50,50,51,51,52,52,53,53,54,54,55,55,56,56,57,57,58,58,59,59,60,60,61,61,62,62],"right_children":[2,4,6,8,10,12,14,16,18,20,22,24,26,28,30,32,34,36,38,40,42,44,46,48,50,52,54,56,58,60,62,64,66,68,70,72,74,76,78,80,82,84,86,88,90,92,94,96,98,100,102,104,106,108,110,112,114,116,118,120,122,124,126,-1,-1,-1,-1,-1,-1,-1,-1,-1,-1,-1,-1,-1,-1,-1,-1,-1,-1,-1,-1,-1,-1,-1,-1,-1,-1,-1,-1,-1,-1,-1,-1,-1,-1,-1,-1,-1,-1,-1,-1,-1,-1,-1,-1,-1,-1,-1,-1,-1,-1,-1,-1,-1,-1,-1,-1,-1,-1,-1,-1,-1,-1,-1,-1],"split_conditions":[-1.0228283E-2,-1.3360097E-1,9.05288E-2,-6.428274E-1,-2.3463422E-1,3.1237418E-2,3.3709088E-1,-3.5914138E-1,-1.1444714E-1,-2.0060296E-1,-2.4007663E-1,7.1724174E-3,-1.2758036E-1,3.1231526E-1,2.2656363E-1,-5.062706E-1,0E0,-1.4525288E-1,-4.1642185E-2,-3.5913122E-1,-3.932771E-1,-1.220713E-1,8.657068E-3,1.3018274E-3,2.1113251E-1,4.969223E-2,-8.745283E-3,3.6405092E-1,1.8926257E-1,8.530766E-2,2.3803683E-1,-5.064459E-1,0E0,-7.809232E-1,-2.4009538E-1,1.2990719E-3,1.3245176E-1,9.3948975E-2,3.8203135E-1,-4.3718654E-1,-3.9340517E-1,1.301748E-3,1.5888305E-1,-4.137172E-1,-2.8604823E-1,2.8775327E-3,4.9773805E-2,-3.0132007E-2,1.3963255E-1,-8.855693E-2,3.124149E-1,-3.0299932E-1,-1.4712811E-2,-1.6162531E-1,2.6638994E-1,-6.428274E-1,1.7829771E-1,3.242192E-1,2.4494939E-1,-4.6665367E-1,9.912623E-3,1.304346E-3,4.9754462E-1,-7.773026E-2,-5.2264526E-2,-1.6465424E-2,-5.392137E-2,3.6810715E-2,1.612387E-5,-2.3604015E-2,-6.548753E-4,-5.9533E-2,-4.505811E-2,-5.032113E-2,-3.0677525E-2,-3.9251212E-2,-2.2924434E-2,-5.5070233E-2,-2.9796405E-2,-6.556731E-2,-1.827998E-2,-1.3158379E-2,-6.509917E-2,3.1430952E-2,-5.492467E-3,-2.1297995E-2,-7.5116674E-3,-2.4155115E-3,-6.487448E-2,-1.1778977E-3,-1.6812293E-2,-4.770491E-2,-2.9230313E-2,-1.5956247E-2,-4.1082133E-2,-1.3764889E-2,-1.8683352E-2,-1.2520572E-2,-2.5654642E-2,-1.8777294E-2,-3.2948288E-3,-2.4235822E-2,-4.070583E-2,-3.5152815E-2,6.047864E-3,-1.8109888E-2,-3.5601556E-2,-2.7872335E-2,-8.360568E-3,9.307317E-3,-2.8324723E-2,-2.800553E-2,1.3331004E-2,-1.6425304E-2,1.6558466E-2,-7.7536786E-3,-3.0981563E-2,1.2837623E-2,3.337915E-2,6.5109013E-3,2.5804313E-2,2.5252778E-2,-9.395887E-3,3.2748945E-2,1.5811973E-3,3.288267E-2,8.570253E-3],"split_indices":[0,0,0,2,3,0,0,0,4,7,7,0,1,6,5,5,5,5,7,3,3,3,5,0,2,5,5,2,4,2,4,6,5,2,0,3,8,1,1,7,6,5,8,7,8,4,1,4,6,1,1,6,8,8,6,1,8,8,4,8,5,4,2,0,0,0,0,0,0,0,0,0,0,0,0,0,0,0,0,0,0,0,0,0,0,0,0,0,0,0,0,0,0,0,0,0,0,0,0,0,0,0,0,0,0,0,0,0,0,0,0,0,0,0,0,0,0,0,0,0,0,0,0,0,0,0,0],"split_type":[0,0,0,0,0,0,0,0,0,0,0,0,0,0,0,0,0,0,0,0,0,0,0,0,0,0,0,0,0,0,0,0,0,0,0,0,0,0,0,0,0,0,0,0,0,0,0,0,0,0,0,0,0,0,0,0,0,0,0,0,0,0,0,0,0,0,0,0,0,0,0,0,0,0,0,0,0,0,0,0,0,0,0,0,0,0,0,0,0,0,0,0,0,0,0,0,0,0,0,0,0,0,0,0,0,0,0,0,0,0,0,0,0,0,0,0,0,0,0,0,0,0,0,0,0,0,0],"sum_hessian":[7.168075E7,3.1994628E7,3.968613E7,1.4369355E7,1.7625272E7,1.9264008E7,2.042212E7,3.07564E5,1.4061791E7,1.480251E6,1.6145022E7,8.388504E6,1.0875504E7,1.705046E7,3.371659E6,1.75005E5,1.32559E5,1.0530978E7,3.530813E6,1.02334E5,1.377917E6,1.233555E6,1.4911467E7,3.636844E6,4.75166E6,1.87116E6,9.004344E6,1.5567922E7,1.482538E6,5.88565E5,2.783094E6,2.6434E4,1.48571E5,6.2531E4,7.0028E4,6.444234E6,4.086744E6,2.12798E6,1.402833E6,3.5386E4,6.6948E4,3.38962E5,1.038955E6,1.15126E5,1.118429E6,1.1767331E7,3.144136E6,2.491558E6,1.145286E6,4.419603E6,3.32057E5,8.30471E5,1.040689E6,1.729336E6,7.275008E6,1.4805765E7,7.62157E5,1.267741E6,2.14797E5,2.23449E5,3.65116E5,6.36715E5,2.146379E6,1.0093E4,1.6341E4,1.20695E5,2.7876E4,3.6464E4,2.6067E4,2.9118E4,4.091E4,5.498728E6,9.45506E5,2.642282E6,1.444462E6,1.138526E6,9.89454E5,1.305445E6,9.7388E4,7.253E3,2.8133E4,4.25E3,6.2698E4,5.5802E4,2.8316E5,8.08367E5,2.30588E5,2.0374E4,9.4752E4,4.45723E5,6.72706E5,8.139131E6,3.6282E6,1.657612E6,1.486524E6,8.07225E5,1.684333E6,9.95592E5,1.49694E5,1.086712E6,3.332891E6,1.98664E5,1.33393E5,9.158E4,7.38891E5,3.36142E5,7.04547E5,4.90797E5,1.238539E6,6.966707E6,3.08301E5,1.3913E5,1.4666635E7,6.09353E5,1.52804E5,9.2128E5,3.46461E5,1.23214E5,9.1583E4,7.1434E4,1.52015E5,5.1303E4,3.13813E5,8.5959E4,5.50756E5,2.049746E6,9.6633E4],"tree_param":{"num_deleted":"0","num_feature":"25","num_nodes":"127","size_leaf_vector":"0"}},{"base_weights":[-3.8100626E-2,-9.8146036E-2,7.355522E-3,-1.2076518E-1,-8.991472E-2,-1.2436514E-2,2.9395437E-2,-1.2875377E-1,-9.44893E-2,-4.3029044E-2,-9.457389E-2,-3.1275336E-2,-4.571043E-4,7.251737E-3,3.6395863E-2,-1.455744E-1,-9.568481E-2,-6.53217E-2,-1.2750694E-1,4.071779E-3,-5.4928966E-2,-5.2542627E-2,-1.0190463E-1,-3.7428316E-2,-2.0687433E-2,6.539336E-3,-5.5856034E-2,6.1427552E-2,-1.9239036E-2,4.2282515E-3,5.198093E-2,-9.230185E-2,-1.4973979E-1,-7.4941546E-2,-1.4083347E-1,-4.3127056E-2,-1.3717422E-1,-1.400714E-1,-8.862277E-2,-1.1463146E-1,1.17562525E-2,-1.3137908E-1,-4.7742214E-2,-9.290268E-2,-3.8377766E-2,-1.0462123E-1,-2.0625303E-2,-4.1444004E-2,-3.3635367E-2,-6.732406E-2,-1.24619E-2,-2.6984772E-2,2.0553315E-2,-6.808865E-2,2.7766481E-2,7.454922E-2,-1.194044E-3,-5.1283713E-2,2.50124E-2,6.147305E-2,-2.205975E-2,2.4462128E-3,5.7260778E-2,-4.7491856E-2,-2.0213747E-2,-4.574739E-2,-3.345887E-2,-1.6306618E-2,-3.703606E-2,-4.7157343E-2,-3.1940565E-2,-1.888014E-2,-1.9902705E-4,-2.6375387E-2,-4.980023E-2,-3.4464654E-2,-4.603653E-2,-2.1318797E-2,-3.9556403E-2,-2.3172325E-2,-5.7263684E-2,1.5311065E-2,-4.8082527E-3,-2.0604756E-2,-4.6383325E-2,-1.6160738E-2,1.6991514E-3,-3.5186812E-2,-1.3297441E-2,1.34831555E-2,-1.3232042E-2,-3.2240164E-2,-4.0146373E-3,2.452595E-3,-3.925803E-2,-1.3848321E-2,-8.520105E-3,-8.398256E-3,-1.2089435E-2,9.499163E-3,-2.8536214E-2,-1.7532522E-2,1.2400765E-3,7.923713E-3,-1.8235631E-2,-1.6909454E-2,1.0468575E-2,-1.6472047E-2,-3.835032E-2,1.5016092E-2,-2.7165493E-2,1.1435696E-2,2.4090318E-2,-1.850065E-2,1.46034835E-2,-5.744629E-3,-2.4332589E-2,1.0766394E-2,-1.1026775E-2,8.520783E-3,2.4517378E-2,-1.3972428E-2,4.323485E-4,1.475603E-2,-1.3987812E-2,1.8053925E-2,-3.169527E-4],"categories":[],"categories_nodes":[],"categories_segments":[],"categories_sizes":[],"default_left":[0,0,0,0,0,0,0,0,0,0,0,0,0,0,0,0,0,0,0,0,0,0,0,0,0,0,0,0,0,0,0,0,0,0,0,0,0,0,0,0,0,0,0,0,0,0,0,0,0,0,0,0,0,0,0,0,0,0,0,0,0,0,0,0,0,0,0,0,0,0,0,0,0,0,0,0,0,0,0,0,0,0,0,0,0,0,0,0,0,0,0,0,0,0,0,0,0,0,0,0,0,0,0,0,0,0,0,0,0,0,0,0,0,0,0,0,0,0,0,0,0,0,0,0,0,0,0],"id":7,"left_children":[1,3,5,7,9,11,13,15,17,19,21,23,25,27,29,31,33,35,37,39,41,43,45,47,49,51,53,55,57,59,61,63,65,67,69,71,73,75,77,79,81,83,85,87,89,91,93,95,97,99,101,103,105,107,109,111,113,115,117,119,121,123,125,-1,-1,-1,-1,-1,-1,-1,-1,-1,-1,-1,-1,-1,-1,-1,-1,-1,-1,-1,-1,-1,-1,-1,-1,-1,-1,-1,-1,-1,-1,-1,-1,-1,-1,-1,-1,-1,-1,-1,-1,-1,-1,-1,-1,-1,-1,-1,-1,-1,-1,-1,-1,-1,-1,-1,-1,-1,-1,-1,-1,-1,-1,-1,-1],"loss_changes":[1.9564781E5,5.7501875E3,1.779606E4,1.7296875E3,4.9465E3,4.8508125E3,2.9921309E3,3.5149453E3,1.8501875E3,1.1472231E3,6.346375E3,5.44312E2,5.092722E3,6.65395E3,7.352455E3,9.294453E2,1.9953047E3,1.6267427E3,4.402373E2,3.76566E2,8.9774756E2,1.7487373E3,3.8724844E3,8.048486E1,1.1780164E3,5.4807393E3,1.5070898E3,1.251105E3,4.4154473E3,7.202939E3,2.583791E3,4.9967285E2,4.0840625E2,1.4578916E3,3.7700977E2,6.554772E2,3.4179688E2,2.2958301E2,1.6705762E2,7.154343E1,4.231476E2,2.0449707E2,4.887185E2,9.413843E2,1.080832E3,4.4067656E3,1.8008376E3,1.5792578E2,1.0213843E2,1.2668552E3,1.9919224E3,6.2070273E3,9.075544E3,1.0122412E3,4.9580585E2,2.6376953E2,7.95541E2,1.7309023E3,8.7854456E2,1.0088203E3,1.8897826E3,2.1826416E3,1.5197246E3,0E0,0E0,0E0,0E0,0E0,0E0,0E0,0E0,0E0,0E0,0E0,0E0,0E0,0E0,0E0,0E0,0E0,0E0,0E0,0E0,0E0,0E0,0E0,0E0,0E0,0E0,0E0,0E0,0E0,0E0,0E0,0E0,0E0,0E0,0E0,0E0,0E0,0E0,0E0,0E0,0E0,0E0,0E0,0E0,0E0,0E0,0E0,0E0,0E0,0E0,0E0,0E0,0E0,0E0,0E0,0E0,0E0,0E0,0E0,0E0,0E0,0E0,0E0,0E0],"parents":[2147483647,0,0,1,1,2,2,3,3,4,4,5,5,6,6,7,7,8,8,9,9,10,10,11,11,12,12,13,13,14,14,15,15,16,16,17,17,18,18,19,19,20,20,21,21,22,22,23,23,24,24,25,25,26,26,27,27,28,28,29,29,30,30,31,31,32,32,33,33,34,34,35,35,36,36,37,37,38,38,39,39,40,40,41,41,42,42,43,43,44,44,45,45,46,46,47,47,48,48,49,49,50,50,51,51,52,52,53,53,54,54,55,55,56,56,57,57,58,58,59,59,60,60,61,61,62,62],"right_children":[2,4,6,8,10,12,14,16,18,20,22,24,26,28,30,32,34,36,38,40,42,44,46,48,50,52,54,56,58,60,62,64,66,68,70,72,74,76,78,80,82,84,86,88,90,92,94,96,98,100,102,104,106,108,110,112,114,116,118,120,122,124,126,-1,-1,-1,-1,-1,-1,-1,-1,-1,-1,-1,-1,-1,-1,-1,-1,-1,-1,-1,-1,-1,-1,-1,-1,-1,-1,-1,-1,-1,-1,-1,-1,-1,-1,-1,-1,-1,-1,-1,-1,-1,-1,-1,-1,-1,-1,-1,-1,-1,-1,-1,-1,-1,-1,-1,-1,-1,-1,-1,-1,-1,-1,-1,-1],"split_conditions":[-1.6165722E-2,-2.1431911E-1,9.761894E-2,-1.6883497E-1,-2.5189874E-1,2.5456646E-2,8.357855E-2,-1.8398646E-1,-8.0165E-2,-3.1282794E-1,-2.0961836E-1,9.908161E-3,1.7487141E-1,9.396302E-2,-4.318964E-3,-4.1380766E-1,-1.8790242E-1,-1.1726901E-2,2.270831E-1,-1.7626648E-1,-1.5482067E-1,-6.455764E-2,3.1237677E-1,0E0,-1.3325682E-1,7.174034E-3,2.2120981E-1,1.2975557E-3,-3.3362757E-2,-3.8142268E-2,-1.763922E-2,-2.7158716E-1,3.1233205E-2,-3.0132007E-2,1.5026249E-1,2.0650785E-1,-5.060166E-1,-1.8398803E-1,1.3963175E-1,-9.978532E-2,8.492569E-3,-3.604294E-1,1.8926257E-1,4.8278835E-2,-5.0626487E-1,3.49857E-1,1.2785701E-1,8.552667E-2,5.1197972E-2,-5.355874E-2,-5.355874E-2,-4.6544906E-2,-1.3076614E-1,3.2421377E-1,1.2553342E-1,-2.715967E-1,-1.2479965E-1,1.304346E-3,2.270831E-1,-2.5821176E-1,-1.4218006E-1,5.7120573E-2,4.196562E-1,-4.7491856E-2,-2.0213747E-2,-4.574739E-2,-3.345887E-2,-1.6306618E-2,-3.703606E-2,-4.7157343E-2,-3.1940565E-2,-1.888014E-2,-1.9902705E-4,-2.6375387E-2,-4.980023E-2,-3.4464654E-2,-4.603653E-2,-2.1318797E-2,-3.9556403E-2,-2.3172325E-2,-5.7263684E-2,1.5311065E-2,-4.8082527E-3,-2.0604756E-2,-4.6383325E-2,-1.6160738E-2,1.6991514E-3,-3.5186812E-2,-1.3297441E-2,1.34831555E-2,-1.3232042E-2,-3.2240164E-2,-4.0146373E-3,2.452595E-3,-3.925803E-2,-1.3848321E-2,-8.520105E-3,-8.398256E-3,-1.2089435E-2,9.499163E-3,-2.8536214E-2,-1.7532522E-2,1.2400765E-3,7.923713E-3,-1.8235631E-2,-1.6909454E-2,1.0468575E-2,-1.6472047E-2,-3.835032E-2,1.5016092E-2,-2.7165493E-2,1.1435696E-2,2.4090318E-2,-1.850065E-2,1.46034835E-2,-5.744629E-3,-2.4332589E-2,1.0766394E-2,-1.1026775E-2,8.520783E-3,2.4517378E-2,-1.3972428E-2,4.323485E-4,1.475603E-2,-1.3987812E-2,1.8053925E-2,-3.169527E-4],"split_indices":[0,0,0,5,6,0,4,4,2,8,3,0,3,6,6,2,6,5,8,4,2,8,7,5,7,4,8,8,1,2,3,6,6,4,1,8,2,3,2,0,4,6,4,5,1,1,3,1,5,3,3,8,8,1,5,1,1,4,8,8,8,7,2,0,0,0,0,0,0,0,0,0,0,0,0,0,0,0,0,0,0,0,0,0,0,0,0,0,0,0,0,0,0,0,0,0,0,0,0,0,0,0,0,0,0,0,0,0,0,0,0,0,0,0,0,0,0,0,0,0,0,0,0,0,0,0,0],"split_type":[0,0,0,0,0,0,0,0,0,0,0,0,0,0,0,0,0,0,0,0,0,0,0,0,0,0,0,0,0,0,0,0,0,0,0,0,0,0,0,0,0,0,0,0,0,0,0,0,0,0,0,0,0,0,0,0,0,0,0,0,0,0,0,0,0,0,0,0,0,0,0,0,0,0,0,0,0,0,0,0,0,0,0,0,0,0,0,0,0,0,0,0,0,0,0,0,0,0,0,0,0,0,0,0,0,0,0,0,0,0,0,0,0,0,0,0,0,0,0,0,0,0,0,0,0,0,0],"sum_hessian":[7.168075E7,3.08842E7,4.0796556E7,8.240315E6,2.2643884E7,2.14944E7,1.9302156E7,6.319124E6,1.921191E6,2.046798E6,2.0597086E7,8.355125E6,1.3139274E7,4.636383E6,1.4665774E7,4.188584E6,2.13054E6,1.02007E6,9.01121E5,4.12821E5,1.633977E6,3.05887E6,1.7538216E7,5.284263E6,3.070862E6,1.1665958E7,1.473316E6,1.52258E6,3.113803E6,4.786477E6,9.879297E6,3.03757E5,3.884827E6,1.459832E6,6.70708E5,7.7934E5,2.4073E5,6.81053E5,2.20068E5,2.5099E4,3.87722E5,1.40403E5,1.493574E6,7.94653E5,2.264217E6,1.6970994E7,5.67222E5,2.566761E6,2.717502E6,4.60416E5,2.610446E6,3.439063E6,8.226895E6,1.285298E6,1.88018E5,1.25881E6,2.6377E5,1.805993E6,1.30781E6,1.506317E6,3.28016E6,9.51594E5,8.927703E6,8.3257E4,2.205E5,3.623871E6,2.60956E5,1.024911E6,4.34921E5,4.54407E5,2.16301E5,5.3145E5,2.4789E5,8.8874E4,1.51856E5,2.36309E5,4.44744E5,1.56502E5,6.3566E4,1.6842E4,8.257E3,1.60627E5,2.27095E5,3.7961E4,1.02442E5,1.339861E6,1.53713E5,5.29058E5,2.65595E5,1.45667E5,2.11855E6,1.6457638E7,5.13356E5,4.49725E5,1.17497E5,1.885054E6,6.81707E5,1.471568E6,1.245934E6,1.00943E5,3.59473E5,6.92311E5,1.918135E6,1.333091E6,2.105972E6,1.292893E6,6.934002E6,1.052979E6,2.32319E5,1.58216E5,2.9802E4,1.71649E5,1.087161E6,1.19213E5,1.44557E5,8.69331E5,9.36662E5,1.112017E6,1.95793E5,5.72096E5,9.34221E5,1.605441E6,1.674719E6,4.87376E5,4.64218E5,8.502144E6,4.25559E5],"tree_param":{"num_deleted":"0","num_feature":"25","num_nodes":"127","size_leaf_vector":"0"}},{"base_weights":[-2.6670458E-2,-6.9106944E-2,4.9669873E-3,-8.063172E-2,-5.725318E-2,-6.1207204E-3,2.6401516E-2,-5.5610646E-2,-8.559323E-2,-6.310381E-2,-1.7980564E-2,-3.5389632E-2,-1.2049108E-3,-5.4248698E-2,2.773377E-2,-1.0814815E-1,-3.7956137E-2,-3.7389215E-2,-8.9781076E-2,-7.4484766E-2,-3.4998555E-2,3.0899143E-2,-7.5709276E-2,2.263252E-3,-6.1635915E-2,-2.8503595E-2,8.551532E-3,-9.529563E-2,5.6228977E-2,5.8598462E-3,3.3067096E-2,-1.1945139E-2,-1.1356886E-1,2.4870105E-2,-4.389633E-2,-1.4311644E-1,-1.6006885E-2,-9.5815405E-2,-7.0009455E-2,-4.942878E-2,-9.3857646E-2,-6.102645E-2,-3.0291956E-3,-5.2007068E-2,3.7766963E-2,-8.7569386E-2,9.453637E-3,-4.6303775E-2,1.5238526E-2,6.525482E-3,-6.921091E-2,-3.6979917E-2,-1.0852133E-2,-1.5723033E-2,1.8475283E-2,-5.4805804E-2,-1.24086715E-1,1.8842602E-1,4.0198747E-2,4.0274043E-2,-1.8778564E-2,1.32219205E-2,4.4389796E-2,-2.2809405E-2,1.8802188E-2,-3.3201866E-2,-6.776738E-2,1.454671E-2,-4.73815E-3,-1.0642477E-2,-2.182704E-2,-5.2855574E-2,-3.232732E-2,6.6081127E-3,-9.722032E-3,-3.0431999E-2,-2.5268262E-2,-3.0186612E-2,-1.74284E-2,-2.5820546E-2,-3.2172366E-3,-4.7963774E-3,-3.394339E-2,-1.22935455E-2,-4.2149186E-2,2.085275E-3,-2.0265328E-2,5.188039E-2,-2.0779984E-2,1.8830704E-2,2.896567E-3,-2.9842384E-2,3.0423673E-3,1.5429574E-2,-3.3340536E-2,-2.78921E-2,-9.920306E-3,-8.167419E-3,1.0724676E-2,4.3241074E-3,-5.0546466E-3,-2.2526734E-2,-4.286378E-3,-3.8479161E-3,-1.31541705E-2,-1.38794E-2,8.7793986E-4,7.281544E-3,-9.208194E-3,9.399241E-3,-7.3900283E-3,-3.002175E-2,-3.8132153E-3,-4.7056053E-2,-2.046806E-2,1.9357206E-2,6.38157E-2,1.3729547E-4,2.2444684E-2,-2.8753234E-3,1.677602E-2,7.7639343E-3,-1.1764987E-2,1.4703619E-2,-4.00894E-3,1.3869892E-2,-1.0371872E-2],"categories":[],"categories_nodes":[],"categories_segments":[],"categories_sizes":[],"default_left":[0,0,0,0,0,0,0,0,0,0,0,0,0,0,0,0,0,0,0,0,0,0,0,0,0,0,0,0,0,0,0,0,0,0,0,0,0,0,0,0,0,0,0,0,0,0,0,0,0,0,0,0,0,0,0,0,0,0,0,0,0,0,0,0,0,0,0,0,0,0,0,0,0,0,0,0,0,0,0,0,0,0,0,0,0,0,0,0,0,0,0,0,0,0,0,0,0,0,0,0,0,0,0,0,0,0,0,0,0,0,0,0,0,0,0,0,0,0,0,0,0,0,0,0,0,0,0],"id":8,"left_children":[1,3,5,7,9,11,13,15,17,19,21,23,25,27,29,31,33,35,37,39,41,43,45,47,49,51,53,55,57,59,61,63,65,67,69,71,73,75,77,79,81,83,85,87,89,91,93,95,97,99,101,103,105,107,109,111,113,115,117,119,121,123,125,-1,-1,-1,-1,-1,-1,-1,-1,-1,-1,-1,-1,-1,-1,-1,-1,-1,-1,-1,-1,-1,-1,-1,-1,-1,-1,-1,-1,-1,-1,-1,-1,-1,-1,-1,-1,-1,-1,-1,-1,-1,-1,-1,-1,-1,-1,-1,-1,-1,-1,-1,-1,-1,-1,-1,-1,-1,-1,-1,-1,-1,-1,-1,-1],"loss_changes":[9.623728E4,4.182422E3,9.759607E3,1.9270547E3,3.4677422E3,3.8941418E3,1.5042871E3,2.3825771E3,2.6151016E3,4.201543E3,5.52176E3,3.8462651E3,6.1718867E3,1.0317196E3,1.6067461E3,3.3692578E2,7.175415E2,2.3409014E3,1.422E3,4.5382734E3,3.1502827E3,6.033438E2,9.062202E2,1.0074057E3,1.184123E3,9.1288477E2,4.112496E3,1.9336841E2,1.3059981E2,2.2892156E3,2.4881084E3,1.648135E2,1.989253E2,1.5951517E2,4.2692798E2,2.0365405E2,5.37234E2,5.951797E2,1.0165469E3,5.7813506E3,7.9188906E3,3.3249136E3,1.0940853E3,3.1473407E2,6.877921E2,9.1611475E2,5.5519745E2,2.0819934E2,1.0987571E3,4.229364E1,6.663594E2,6.837119E2,9.6581775E2,2.9662153E3,6.7155186E3,1.3135854E2,1.774325E2,2.0047577E1,7.56201E1,8.7872473E2,1.4360764E3,3.8274412E3,1.026127E3,0E0,0E0,0E0,0E0,0E0,0E0,0E0,0E0,0E0,0E0,0E0,0E0,0E0,0E0,0E0,0E0,0E0,0E0,0E0,0E0,0E0,0E0,0E0,0E0,0E0,0E0,0E0,0E0,0E0,0E0,0E0,0E0,0E0,0E0,0E0,0E0,0E0,0E0,0E0,0E0,0E0,0E0,0E0,0E0,0E0,0E0,0E0,0E0,0E0,0E0,0E0,0E0,0E0,0E0,0E0,0E0,0E0,0E0,0E0,0E0,0E0,0E0,0E0,0E0],"parents":[2147483647,0,0,1,1,2,2,3,3,4,4,5,5,6,6,7,7,8,8,9,9,10,10,11,11,12,12,13,13,14,14,15,15,16,16,17,17,18,18,19,19,20,20,21,21,22,22,23,23,24,24,25,25,26,26,27,27,28,28,29,29,30,30,31,31,32,32,33,33,34,34,35,35,36,36,37,37,38,38,39,39,40,40,41,41,42,42,43,43,44,44,45,45,46,46,47,47,48,48,49,49,50,50,51,51,52,52,53,53,54,54,55,55,56,56,57,57,58,58,59,59,60,60,61,61,62,62],"right_children":[2,4,6,8,10,12,14,16,18,20,22,24,26,28,30,32,34,36,38,40,42,44,46,48,50,52,54,56,58,60,62,64,66,68,70,72,74,76,78,80,82,84,86,88,90,92,94,96,98,100,102,104,106,108,110,112,114,116,118,120,122,124,126,-1,-1,-1,-1,-1,-1,-1,-1,-1,-1,-1,-1,-1,-1,-1,-1,-1,-1,-1,-1,-1,-1,-1,-1,-1,-1,-1,-1,-1,-1,-1,-1,-1,-1,-1,-1,-1,-1,-1,-1,-1,-1,-1,-1,-1,-1,-1,-1,-1,-1,-1,-1,-1,-1,-1,-1,-1,-1,-1,-1,-1,-1,-1,-1],"split_conditions":[-1.762292E-2,-1.2208167E-1,1.3722989E-1,-2.1433029E-1,1.6828552E-1,-1.548179E-1,-7.809232E-1,-1.486437E-1,-3.2242233E-1,-7.268935E-3,1.2990719E-3,1.00818435E-2,-4.3284604E-3,3.2433164E-1,9.395283E-2,-7.809232E-1,-5.566954E-1,-3.2234475E-1,-9.294899E-2,-8.442119E-2,7.2423235E-2,-9.9790856E-2,3.8199422E-1,-1.1414298E-1,0E0,2.271442E-2,-4.32026E-3,0E0,2.978094E-2,-7.813036E-2,1.372151E-1,-3.933007E-1,0E0,0E0,-1.1726901E-2,-4.666756E-1,-3.9334965E-1,0E0,-8.747765E-3,0E0,-9.5188506E-2,-4.827421E-2,1.7083354E-2,-6.428274E-1,3.6797274E-2,1.3244432E-1,4.546416E-2,-4.3736053E-1,1.304346E-3,-4.3287533E-3,9.052932E-2,3.2550912E-2,0E0,-8.641066E-2,1.1921999E-1,2.4492155E-1,2.064946E-1,-7.221663E-2,4.4154936E-1,-3.1282794E-1,9.912623E-3,1.4225058E-1,5.3775895E-1,-2.2809405E-2,1.8802188E-2,-3.3201866E-2,-6.776738E-2,1.454671E-2,-4.73815E-3,-1.0642477E-2,-2.182704E-2,-5.2855574E-2,-3.232732E-2,6.6081127E-3,-9.722032E-3,-3.0431999E-2,-2.5268262E-2,-3.0186612E-2,-1.74284E-2,-2.5820546E-2,-3.2172366E-3,-4.7963774E-3,-3.394339E-2,-1.22935455E-2,-4.2149186E-2,2.085275E-3,-2.0265328E-2,5.188039E-2,-2.0779984E-2,1.8830704E-2,2.896567E-3,-2.9842384E-2,3.0423673E-3,1.5429574E-2,-3.3340536E-2,-2.78921E-2,-9.920306E-3,-8.167419E-3,1.0724676E-2,4.3241074E-3,-5.0546466E-3,-2.2526734E-2,-4.286378E-3,-3.8479161E-3,-1.31541705E-2,-1.38794E-2,8.7793986E-4,7.281544E-3,-9.208194E-3,9.399241E-3,-7.3900283E-3,-3.002175E-2,-3.8132153E-3,-4.7056053E-2,-2.046806E-2,1.9357206E-2,6.38157E-2,1.3729547E-4,2.2444684E-2,-2.8753234E-3,1.677602E-2,7.7639343E-3,-1.1764987E-2,1.4703619E-2,-4.00894E-3,1.3869892E-2,-1.0371872E-2],"split_indices":[0,0,0,2,8,1,1,6,7,4,3,6,5,4,5,2,1,4,4,3,1,5,7,5,0,8,4,4,5,1,4,5,4,5,5,4,8,6,1,8,7,6,6,1,5,4,4,6,4,0,4,4,0,8,2,0,4,8,4,8,5,6,2,0,0,0,0,0,0,0,0,0,0,0,0,0,0,0,0,0,0,0,0,0,0,0,0,0,0,0,0,0,0,0,0,0,0,0,0,0,0,0,0,0,0,0,0,0,0,0,0,0,0,0,0,0,0,0,0,0,0,0,0,0,0,0,0],"split_type":[0,0,0,0,0,0,0,0,0,0,0,0,0,0,0,0,0,0,0,0,0,0,0,0,0,0,0,0,0,0,0,0,0,0,0,0,0,0,0,0,0,0,0,0,0,0,0,0,0,0,0,0,0,0,0,0,0,0,0,0,0,0,0,0,0,0,0,0,0,0,0,0,0,0,0,0,0,0,0,0,0,0,0,0,0,0,0,0,0,0,0,0,0,0,0,0,0,0,0,0,0,0,0,0,0,0,0,0,0,0,0,0,0,0,0,0,0,0,0,0,0,0,0,0,0,0,0],"sum_hessian":[7.168075E7,3.0615304E7,4.1065452E7,1.5523062E7,1.5092242E7,2.7065132E7,1.4000319E7,2.568754E6,1.2954308E7,1.3135396E7,1.956846E6,3.892002E6,2.317313E7,2.27511E5,1.3772808E7,6.46085E5,1.922669E6,1.035479E6,1.1918829E7,9.349432E6,3.785964E6,1.059637E6,8.97209E5,1.598622E6,2.29338E6,6.101377E6,1.7071752E7,1.6588E5,6.1631E4,2.699828E6,1.107298E7,3.4463E4,6.11622E5,1.66084E5,1.756585E6,1.74187E5,8.61292E5,9.13179E6,2.787039E6,4.076752E6,5.27268E6,2.086906E6,1.699058E6,8.1063E4,9.78574E5,7.87534E5,1.09675E5,3.37045E5,1.261577E6,2.29379E5,2.064001E6,4.12198E6,1.979397E6,4.953923E6,1.211783E7,6.8936E4,9.6944E4,6.664E3,5.4967E4,1.126444E6,1.573384E6,4.022605E6,7.050375E6,1.854E4,1.5923E4,5.96251E5,1.5371E4,1.05061E5,6.1023E4,1.359801E6,3.96784E5,9.0006E4,8.4181E4,2.59491E5,6.01801E5,6.147751E6,2.984039E6,7.80836E5,2.006203E6,2.094241E6,1.982511E6,1.046702E6,4.225978E6,1.666502E6,4.20404E5,1.471457E6,2.27601E5,5.776E3,7.5287E4,5.17933E5,4.60641E5,7.02001E5,8.5533E4,8.1355E4,2.832E4,7.4468E4,2.62577E5,4.10893E5,8.50684E5,1.71502E5,5.7877E4,1.864455E6,1.99546E5,9.12514E5,3.209466E6,5.54435E5,1.424962E6,1.349292E6,3.604631E6,9.334249E6,2.783581E6,3.3216E4,3.572E4,6.1101E4,3.5843E4,1.093E3,5.571E3,2.559E4,2.9377E4,2.69056E5,8.57388E5,4.93989E5,1.079395E6,1.714482E6,2.308123E6,6.889557E6,1.60818E5],"tree_param":{"num_deleted":"0","num_feature":"25","num_nodes":"127","size_leaf_vector":"0"}},{"base_weights":[-1.8669326E-2,-4.5794275E-2,6.4802296E-3,-5.3506702E-2,-2.5304846E-2,-1.5862899E-2,1.15673095E-2,-3.751466E-2,-5.769693E-2,-3.3937804E-2,-2.0998318E-2,-2.1333594E-2,-8.856584E-3,7.330409E-3,2.776814E-2,-7.959486E-2,-1.9364439E-2,-3.3933792E-2,-6.4732626E-2,-4.4255566E-2,-1.6833602E-2,-2.877395E-2,-1.9708082E-2,-1.6696187E-2,-2.7000954E-2,-2.0095306E-3,-2.18028E-2,9.78548E-3,-5.3812996E-2,6.098338E-3,3.3851177E-2,-5.5766147E-2,-9.182393E-2,-3.5267968E-2,-6.4395936E-3,-9.7002484E-2,-1.848599E-2,-6.951943E-2,-3.6921524E-2,-5.675844E-2,6.048019E-3,3.0782928E-3,-6.553618E-2,-1.7914072E-2,-5.5357154E-2,-1.6217412E-2,-2.5439082E-2,-1.8927285E-2,1.7168283E-2,-7.075528E-2,-2.3559509E-2,8.68374E-3,-3.6794458E-2,-3.8557477E-2,8.56763E-3,1.401929E-2,-2.2142723E-2,-6.8755604E-2,3.1416535E-2,5.1982045E-2,-8.808514E-3,1.1604832E-2,4.608684E-2,-2.25503E-2,-8.243137E-3,-7.0265615E-3,-2.8447839E-2,-2.0298472E-2,-9.178291E-3,2.3157855E-3,-1.2133398E-2,-3.320747E-2,-2.3162859E-2,2.7910824E-4,-9.220862E-3,-2.3808366E-2,-1.3927198E-2,-4.4407914E-3,-2.669461E-2,-8.176653E-3,-2.3247853E-2,8.115367E-3,-1.36022E-2,-1.7279137E-2,6.802766E-3,-2.5121877E-2,-3.819906E-3,-8.098645E-3,4.9274485E-3,-2.3655793E-2,-1.1975522E-2,-6.9046817E-3,-1.4025604E-3,-4.0162606E-3,-1.015893E-2,-6.364308E-3,4.187185E-3,2.602553E-3,1.2982525E-2,-3.3692252E-2,-1.6449535E-2,-3.0083826E-3,-1.1174003E-2,-1.5843024E-2,3.9216797E-3,-1.6787179E-2,8.413267E-4,-1.3600734E-2,1.0779589E-2,4.2938627E-3,-9.848544E-3,6.3417293E-3,-1.4486302E-3,-8.9508975E-3,1.7077986E-2,-7.838787E-3,-2.8340882E-2,2.2287922E-2,-2.011058E-3,2.1560833E-2,1.11705065E-2,2.0994449E-2,-7.3210043E-3,1.2790947E-2,-4.1042096E-3,2.4895482E-3,1.533581E-2],"categories":[],"categories_nodes":[],"categories_segments":[],"categories_sizes":[],"default_left":[0,0,0,0,0,0,0,0,0,0,0,0,0,0,0,0,0,0,0,0,0,0,0,0,0,0,0,0,0,0,0,0,0,0,0,0,0,0,0,0,0,0,0,0,0,0,0,0,0,0,0,0,0,0,0,0,0,0,0,0,0,0,0,0,0,0,0,0,0,0,0,0,0,0,0,0,0,0,0,0,0,0,0,0,0,0,0,0,0,0,0,0,0,0,0,0,0,0,0,0,0,0,0,0,0,0,0,0,0,0,0,0,0,0,0,0,0,0,0,0,0,0,0,0,0,0,0],"id":9,"left_children":[1,3,5,7,9,11,13,15,17,19,21,23,25,27,29,31,33,35,37,39,41,43,45,47,49,51,53,55,57,59,61,63,65,67,69,71,73,75,77,79,81,83,85,87,89,91,93,95,97,99,101,103,105,107,109,111,113,115,117,119,121,123,125,-1,-1,-1,-1,-1,-1,-1,-1,-1,-1,-1,-1,-1,-1,-1,-1,-1,-1,-1,-1,-1,-1,-1,-1,-1,-1,-1,-1,-1,-1,-1,-1,-1,-1,-1,-1,-1,-1,-1,-1,-1,-1,-1,-1,-1,-1,-1,-1,-1,-1,-1,-1,-1,-1,-1,-1,-1,-1,-1,-1,-1,-1,-1,-1],"loss_changes":[4.889921E4,5.449586E3,4.2276035E3,1.6789453E3,3.506245E2,2.643949E2,2.0796106E3,3.9730376E3,3.31925E3,5.5392896E2,6.3124756E1,1.0180139E2,2.6810193E2,3.60508E3,8.2791797E2,4.56792E2,7.470399E2,4.418574E3,2.0392031E3,1.2313447E3,1.145298E3,2.585166E2,1.07960205E2,1.6095605E2,2.6247974E2,7.3583563E2,5.323863E2,3.1211157E3,1.1806902E3,9.416078E2,1.3348901E3,2.9179395E2,2.1273242E2,2.4668542E2,9.6532007E2,2.4175586E2,8.6649524E2,2.9704805E3,2.5901584E3,9.592261E2,4.2066025E2,9.96797E2,3.2942932E2,1.9826E2,9.4209045E1,2.6316577E2,2.073888E2,1.5031647E2,2.9196075E1,8.40957E1,2.9930658E2,4.0833612E2,3.529626E2,3.4045203E2,8.846972E1,2.7356514E3,1.6444517E3,8.645857E2,2.2603436E2,9.90025E1,1.2767345E3,1.3654385E3,6.016846E2,0E0,0E0,0E0,0E0,0E0,0E0,0E0,0E0,0E0,0E0,0E0,0E0,0E0,0E0,0E0,0E0,0E0,0E0,0E0,0E0,0E0,0E0,0E0,0E0,0E0,0E0,0E0,0E0,0E0,0E0,0E0,0E0,0E0,0E0,0E0,0E0,0E0,0E0,0E0,0E0,0E0,0E0,0E0,0E0,0E0,0E0,0E0,0E0,0E0,0E0,0E0,0E0,0E0,0E0,0E0,0E0,0E0,0E0,0E0,0E0,0E0,0E0,0E0,0E0],"parents":[2147483647,0,0,1,1,2,2,3,3,4,4,5,5,6,6,7,7,8,8,9,9,10,10,11,11,12,12,13,13,14,14,15,15,16,16,17,17,18,18,19,19,20,20,21,21,22,22,23,23,24,24,25,25,26,26,27,27,28,28,29,29,30,30,31,31,32,32,33,33,34,34,35,35,36,36,37,37,38,38,39,39,40,40,41,41,42,42,43,43,44,44,45,45,46,46,47,47,48,48,49,49,50,50,51,51,52,52,53,53,54,54,55,55,56,56,57,57,58,58,59,59,60,60,61,61,62,62],"right_children":[2,4,6,8,10,12,14,16,18,20,22,24,26,28,30,32,34,36,38,40,42,44,46,48,50,52,54,56,58,60,62,64,66,68,70,72,74,76,78,80,82,84,86,88,90,92,94,96,98,100,102,104,106,108,110,112,114,116,118,120,122,124,126,-1,-1,-1,-1,-1,-1,-1,-1,-1,-1,-1,-1,-1,-1,-1,-1,-1,-1,-1,-1,-1,-1,-1,-1,-1,-1,-1,-1,-1,-1,-1,-1,-1,-1,-1,-1,-1,-1,-1,-1,-1,-1,-1,-1,-1,-1,-1,-1,-1,-1,-1,-1,-1,-1,-1,-1,-1,-1,-1,-1,-1,-1,-1,-1],"split_conditions":[1.3009409E-3,-3.3347234E-2,1.3060367E-3,-1.5156934E-1,-7.2649904E-3,-8.934426E-3,2.3265024E-1,-1.1194021E-1,-1.3911428E-1,0E0,-1.1444714E-1,1.3018274E-3,7.394257E-2,3.242192E-1,1.7829955E-1,-2.9401392E-1,6.453037E-2,-1.094687E-1,-7.263847E-3,1.1505495E-1,4.1172724E-2,1.3018274E-3,4.118126E-2,1.6496867E-1,-1.6520055E-1,9.052538E-2,4.117209E-2,1.934948E-1,1.7155063E-1,-7.613824E-2,5.560245E-2,-1.9206046E-1,-4.6662176E-1,-1.6882953E-1,1.301748E-3,-1.5481229E-1,-1.9623378E-1,3.820731E-2,6.156703E-2,-7.4161224E-2,-5.797146E-3,-4.8286084E-2,6.0097363E-2,1.7152603E-1,-1.9205499E-1,1.3018274E-3,1.3018274E-3,1.6499585E-1,5.3775895E-1,4.689276E-2,3.6793932E-2,-1.1444714E-1,-1.7642198E-2,9.761912E-2,2.6625967E-1,1.08818E-1,2.3799875E-1,0E0,1.682503E-1,-2.5818536E-1,1.304346E-3,4.262575E-2,-3.1279045E-1,-2.25503E-2,-8.243137E-3,-7.0265615E-3,-2.8447839E-2,-2.0298472E-2,-9.178291E-3,2.3157855E-3,-1.2133398E-2,-3.320747E-2,-2.3162859E-2,2.7910824E-4,-9.220862E-3,-2.3808366E-2,-1.3927198E-2,-4.4407914E-3,-2.669461E-2,-8.176653E-3,-2.3247853E-2,8.115367E-3,-1.36022E-2,-1.7279137E-2,6.802766E-3,-2.5121877E-2,-3.819906E-3,-8.098645E-3,4.9274485E-3,-2.3655793E-2,-1.1975522E-2,-6.9046817E-3,-1.4025604E-3,-4.0162606E-3,-1.015893E-2,-6.364308E-3,4.187185E-3,2.602553E-3,1.2982525E-2,-3.3692252E-2,-1.6449535E-2,-3.0083826E-3,-1.1174003E-2,-1.5843024E-2,3.9216797E-3,-1.6787179E-2,8.413267E-4,-1.3600734E-2,1.0779589E-2,4.2938627E-3,-9.848544E-3,6.3417293E-3,-1.4486302E-3,-8.9508975E-3,1.7077986E-2,-7.838787E-3,-2.8340882E-2,2.2287922E-2,-2.011058E-3,2.1560833E-2,1.11705065E-2,2.0994449E-2,-7.3210043E-3,1.2790947E-2,-4.1042096E-3,2.4895482E-3,1.533581E-2],"split_indices":[12,13,14,2,13,13,0,6,7,5,4,0,3,7,4,2,8,3,5,1,2,0,4,4,4,8,8,3,4,7,6,6,7,8,5,3,8,3,2,6,6,8,5,5,4,0,0,5,3,7,4,4,1,6,1,6,8,4,5,7,4,2,1,0,0,0,0,0,0,0,0,0,0,0,0,0,0,0,0,0,0,0,0,0,0,0,0,0,0,0,0,0,0,0,0,0,0,0,0,0,0,0,0,0,0,0,0,0,0,0,0,0,0,0,0,0,0,0,0,0,0,0,0,0,0,0,0],"split_type":[0,0,0,0,0,0,0,0,0,0,0,0,0,0,0,0,0,0,0,0,0,0,0,0,0,0,0,0,0,0,0,0,0,0,0,0,0,0,0,0,0,0,0,0,0,0,0,0,0,0,0,0,0,0,0,0,0,0,0,0,0,0,0,0,0,0,0,0,0,0,0,0,0,0,0,0,0,0,0,0,0,0,0,0,0,0,0,0,0,0,0,0,0,0,0,0,0,0,0,0,0,0,0,0,0,0,0,0,0,0,0,0,0,0,0,0,0,0,0,0,0,0,0,0,0,0,0],"sum_hessian":[7.168075E7,3.448601E7,3.7194744E7,2.505504E7,9.430969E6,6.897966E6,3.029678E7,5.201913E6,1.9853128E7,3.138819E6,6.29215E6,3.873468E6,3.024498E6,2.4016024E7,6.280757E6,1.567577E6,3.634336E6,4.535255E6,1.5317872E7,1.957809E6,1.18101E6,8.95483E5,5.396667E6,2.130311E6,1.743157E6,1.978239E6,1.046259E6,2.308894E7,9.27082E5,1.376655E6,4.904102E6,5.31649E5,1.035928E6,1.629409E6,2.004927E6,8.92292E5,3.642963E6,1.3068534E7,2.249338E6,1.568068E6,3.89741E5,8.38282E5,3.42728E5,6.35761E5,2.59722E5,3.353874E6,2.042793E6,1.998635E6,1.31676E5,1.27107E5,1.61605E6,1.513097E6,4.65142E5,6.74276E5,3.71983E5,2.0385712E7,2.703228E6,7.8879E5,1.38292E5,3.37578E5,1.039077E6,1.740182E6,3.16392E6,3.15362E5,2.16287E5,4.3556E4,9.92372E5,2.05444E5,1.423965E6,1.415534E6,5.89393E5,5.27477E5,3.64815E5,1.409281E6,2.233682E6,9.163597E6,3.904937E6,1.578629E6,6.70709E5,6.47188E5,9.2088E5,2.76665E5,1.13076E5,2.04655E5,6.33627E5,2.54865E5,8.7863E4,5.02791E5,1.3297E5,1.02987E5,1.56735E5,2.110701E6,1.243173E6,8.40443E5,1.20235E6,1.868672E6,1.29963E5,9.9355E4,3.2321E4,3.5213E4,9.1894E4,8.12645E5,8.03405E5,1.00789E5,1.412308E6,3.13454E5,1.51688E5,6.18037E5,5.6239E4,3.26649E5,4.5334E4,1.4796407E7,5.589306E6,2.463523E6,2.39705E5,2.96794E5,4.91996E5,6.5085E4,7.3207E4,1.43736E5,1.93842E5,1.71682E5,8.67395E5,7.81314E5,9.58868E5,3.7184E5,2.79208E6],"tree_param":{"num_deleted":"0","num_feature":"25","num_nodes":"127","size_leaf_vector":"0"}},{"base_weights":[-1.3068537E-2,-3.250394E-2,4.977615E-3,-3.8232476E-2,-1.8451016E-2,-1.1924508E-2,9.238336E-3,-2.7494699E-2,-4.1918553E-2,-1.2221403E-2,-2.2614732E-2,-1.34667205E-2,9.430415E-3,-4.7756657E-3,1.345738E-2,-5.1766083E-2,-8.2389945E-3,-2.9029828E-2,-5.2723516E-2,-3.127768E-2,5.4185684E-3,-9.037278E-3,-3.3246044E-2,-2.6270784E-2,-1.0781786E-2,5.0414875E-2,5.7267887E-3,5.5435743E-2,-1.909978E-2,-1.3777532E-2,2.3234902E-2,4.173724E-2,-5.3751636E-2,3.3188562E-3,-2.938839E-2,-6.2292058E-2,-1.743861E-2,-3.4372065E-2,-6.449706E-2,-4.4541873E-2,-1.8207371E-2,1.5844624E-2,-2.9112523E-2,-2.8250765E-2,7.950315E-3,-5.1020212E-2,-1.6762873E-2,5.2165226E-3,-3.8548168E-2,-6.3170795E-3,-2.2640102E-2,-4.4144213E-2,6.4341545E-2,-1.8350916E-2,1.1519563E-2,6.291784E-2,9.6462155E-3,-3.3910282E-2,6.688545E-3,3.0516092E-2,-3.0324237E-2,2.7845584E-2,-1.783283E-3,-2.667501E-3,3.8546048E-2,-1.893969E-2,-1.2124672E-2,-1.7738534E-2,2.5050119E-3,-2.0272376E-2,-5.1366743E-3,-6.9247503E-3,-2.0030275E-2,-1.697774E-2,-3.2062717E-3,-2.0451909E-2,-4.0608253E-3,-1.2274801E-2,-2.1070099E-2,-7.971751E-4,-1.6308354E-2,-6.239115E-3,6.9584064E-3,5.7260497E-3,-1.7557552E-2,-7.824849E-3,-1.4621061E-2,-1.3417362E-2,1.8659494E-3,9.496307E-3,-1.2235743E-2,9.280581E-3,-1.8692162E-2,-1.5072837E-2,-2.2440383E-3,-1.102622E-2,6.4291465E-3,5.243296E-4,-1.6089715E-2,-8.102333E-3,-3.0290766E-4,-1.1575259E-2,-6.8155257E-4,-2.070931E-2,-3.6339348E-4,5.779152E-2,1.7342295E-2,1.4034959E-2,-1.064693E-2,1.4903948E-2,1.5720978E-3,-1.3213834E-2,1.9692302E-2,-1.1349343E-2,1.4530519E-2,-1.572307E-2,-6.016138E-3,1.650253E-2,-9.57685E-4,-3.8300287E-3,1.618361E-2,-1.1623729E-2,3.1796813E-3,1.0852188E-2,8.306016E-4,-1.2100874E-2,7.820638E-3],"categories":[],"categories_nodes":[],"categories_segments":[],"categories_sizes":[],"default_left":[0,0,0,0,0,0,0,0,0,0,0,0,0,0,0,0,0,0,0,0,0,0,0,0,0,0,0,0,0,0,0,0,0,0,0,0,0,0,0,0,0,0,0,0,0,0,0,0,0,0,0,0,0,0,0,0,0,0,0,0,0,0,0,0,0,0,0,0,0,0,0,0,0,0,0,0,0,0,0,0,0,0,0,0,0,0,0,0,0,0,0,0,0,0,0,0,0,0,0,0,0,0,0,0,0,0,0,0,0,0,0,0,0,0,0,0,0,0,0,0,0,0,0,0,0,0,0],"id":10,"left_children":[1,3,5,7,9,11,13,15,17,19,21,23,25,27,29,31,33,35,37,39,41,43,45,47,49,51,53,55,57,59,61,63,65,67,69,71,73,75,77,79,81,83,85,87,89,91,93,95,97,99,101,103,105,107,109,111,113,115,117,119,121,123,125,-1,-1,-1,-1,-1,-1,-1,-1,-1,-1,-1,-1,-1,-1,-1,-1,-1,-1,-1,-1,-1,-1,-1,-1,-1,-1,-1,-1,-1,-1,-1,-1,-1,-1,-1,-1,-1,-1,-1,-1,-1,-1,-1,-1,-1,-1,-1,-1,-1,-1,-1,-1,-1,-1,-1,-1,-1,-1,-1,-1,-1,-1,-1,-1],"loss_changes":[2.514089E4,2.7783086E3,2.6767197E3,9.7041406E2,2.5923682E2,2.4645068E2,1.7551814E3,2.9282964E3,2.5418145E3,1.3459153E3,8.6470166E2,2.3993054E2,7.650608E1,5.9244395E3,6.0758E3,5.1460254E2,8.5402655E2,3.2090908E3,2.1451895E3,3.336753E2,7.4856415E2,8.586455E2,9.8432104E2,4.67688E2,3.0545325E2,5.50121E1,6.447375E1,4.5226636E2,2.1193818E3,4.4175625E3,1.9366367E3,2.5314058E2,3.39542E2,7.097976E2,5.782864E2,3.7745703E2,1.6315564E3,2.7328237E3,8.181758E2,3.9287415E2,1.0394031E2,3.850779E2,2.8667816E1,7.010165E2,1.613E3,1.495376E3,5.417556E2,2.3095827E2,5.2906665E2,4.6026453E2,5.124776E2,5.7300844E0,3.051059E1,1.00074486E2,8.928331E1,3.3051416E2,3.414532E2,9.035437E2,9.6647815E2,1.6623586E3,1.5123059E3,2.960752E3,2.805388E3,0E0,0E0,0E0,0E0,0E0,0E0,0E0,0E0,0E0,0E0,0E0,0E0,0E0,0E0,0E0,0E0,0E0,0E0,0E0,0E0,0E0,0E0,0E0,0E0,0E0,0E0,0E0,0E0,0E0,0E0,0E0,0E0,0E0,0E0,0E0,0E0,0E0,0E0,0E0,0E0,0E0,0E0,0E0,0E0,0E0,0E0,0E0,0E0,0E0,0E0,0E0,0E0,0E0,0E0,0E0,0E0,0E0,0E0,0E0,0E0,0E0,0E0,0E0,0E0],"parents":[2147483647,0,0,1,1,2,2,3,3,4,4,5,5,6,6,7,7,8,8,9,9,10,10,11,11,12,12,13,13,14,14,15,15,16,16,17,17,18,18,19,19,20,20,21,21,22,22,23,23,24,24,25,25,26,26,27,27,28,28,29,29,30,30,31,31,32,32,33,33,34,34,35,35,36,36,37,37,38,38,39,39,40,40,41,41,42,42,43,43,44,44,45,45,46,46,47,47,48,48,49,49,50,50,51,51,52,52,53,53,54,54,55,55,56,56,57,57,58,58,59,59,60,60,61,61,62,62],"right_children":[2,4,6,8,10,12,14,16,18,20,22,24,26,28,30,32,34,36,38,40,42,44,46,48,50,52,54,56,58,60,62,64,66,68,70,72,74,76,78,80,82,84,86,88,90,92,94,96,98,100,102,104,106,108,110,112,114,116,118,120,122,124,126,-1,-1,-1,-1,-1,-1,-1,-1,-1,-1,-1,-1,-1,-1,-1,-1,-1,-1,-1,-1,-1,-1,-1,-1,-1,-1,-1,-1,-1,-1,-1,-1,-1,-1,-1,-1,-1,-1,-1,-1,-1,-1,-1,-1,-1,-1,-1,-1,-1,-1,-1,-1,-1,-1,-1,-1,-1,-1,-1,-1,-1,-1,-1,-1],"split_conditions":[1.4354205E-3,-3.660164E-2,5.6346203E-3,-1.2221656E-1,-4.6548218E-2,1.9777037E-1,-3.1728834E-2,-5.5347152E-2,-9.294922E-2,1.558547E-2,-3.8142785E-2,-1.9625312E-1,9.912623E-3,-4.3289154E-3,-2.2409702E-2,-7.809232E-1,1.301748E-3,-7.2216004E-2,-7.415654E-2,-2.3967825E-2,-1.5684132E-3,7.1766237E-3,-5.793534E-3,1.5558655E-2,5.7141863E-2,-2.1912746E-1,-4.3720153E-1,-5.716581E-2,-5.535622E-2,-2.0866336E-2,2.0666386E-1,-2.4008097E-1,-1.3324887E-1,-8.4317826E-2,-1.616308E-1,-2.5821176E-1,-6.2678464E-2,1.8583754E-2,-5.716843E-2,-2.0061427E-1,2.1114641E-1,2.663499E-1,4.9754462E-1,1.3018274E-3,-1.5684132E-3,-8.4317826E-2,-8.858902E-2,-1.2242087E-1,1.3018274E-3,-9.979541E-2,2.8858865E-3,2.8273377E-1,-6.428274E-1,2.978079E-2,1.304346E-3,1.3018274E-3,-1.8396594E-1,1.6181318E-1,5.8568735E-2,-1.3650419E-1,3.2562844E-2,1.2553866E-1,1.0689619E-1,-2.667501E-3,3.8546048E-2,-1.893969E-2,-1.2124672E-2,-1.7738534E-2,2.5050119E-3,-2.0272376E-2,-5.1366743E-3,-6.9247503E-3,-2.0030275E-2,-1.697774E-2,-3.2062717E-3,-2.0451909E-2,-4.0608253E-3,-1.2274801E-2,-2.1070099E-2,-7.971751E-4,-1.6308354E-2,-6.239115E-3,6.9584064E-3,5.7260497E-3,-1.7557552E-2,-7.824849E-3,-1.4621061E-2,-1.3417362E-2,1.8659494E-3,9.496307E-3,-1.2235743E-2,9.280581E-3,-1.8692162E-2,-1.5072837E-2,-2.2440383E-3,-1.102622E-2,6.4291465E-3,5.243296E-4,-1.6089715E-2,-8.102333E-3,-3.0290766E-4,-1.1575259E-2,-6.8155257E-4,-2.070931E-2,-3.6339348E-4,5.779152E-2,1.7342295E-2,1.4034959E-2,-1.064693E-2,1.4903948E-2,1.5720978E-3,-1.3213834E-2,1.9692302E-2,-1.1349343E-2,1.4530519E-2,-1.572307E-2,-6.016138E-3,1.650253E-2,-9.57685E-4,-3.8300287E-3,1.618361E-2,-1.1623729E-2,3.1796813E-3,1.0852188E-2,8.306016E-4,-1.2100874E-2,7.820638E-3],"split_indices":[20,21,22,2,5,0,6,6,6,1,3,1,5,3,3,2,5,3,3,0,0,8,0,5,4,5,1,2,8,7,2,5,6,8,0,8,1,8,6,8,8,8,2,0,0,8,8,5,0,4,8,0,1,6,4,0,8,4,3,3,1,7,6,0,0,0,0,0,0,0,0,0,0,0,0,0,0,0,0,0,0,0,0,0,0,0,0,0,0,0,0,0,0,0,0,0,0,0,0,0,0,0,0,0,0,0,0,0,0,0,0,0,0,0,0,0,0,0,0,0,0,0,0,0,0,0,0],"split_type":[0,0,0,0,0,0,0,0,0,0,0,0,0,0,0,0,0,0,0,0,0,0,0,0,0,0,0,0,0,0,0,0,0,0,0,0,0,0,0,0,0,0,0,0,0,0,0,0,0,0,0,0,0,0,0,0,0,0,0,0,0,0,0,0,0,0,0,0,0,0,0,0,0,0,0,0,0,0,0,0,0,0,0,0,0,0,0,0,0,0,0,0,0,0,0,0,0,0,0,0,0,0,0,0,0,0,0,0,0,0,0,0,0,0,0,0,0,0,0,0,0,0,0,0,0,0,0],"sum_hessian":[7.168075E7,3.451196E7,3.7168796E7,2.4517596E7,9.994361E6,7.483203E6,2.9685594E7,6.265578E6,1.825202E7,4.003886E6,5.990475E6,6.97918E6,5.04023E5,6.869112E6,2.2816482E7,2.771793E6,3.493785E6,8.323415E6,9.928604E6,1.924677E6,2.079209E6,2.630726E6,3.359749E6,1.209802E6,5.769378E6,4.1771E4,4.62252E5,1.320094E6,5.549018E6,6.027397E6,1.6789084E7,5.7635E4,2.714158E6,2.259177E6,1.234608E6,2.150971E6,6.172444E6,3.88033E6,6.048274E6,9.55252E5,9.69425E5,1.597018E6,4.82191E5,1.234485E6,1.396241E6,1.616567E6,1.743182E6,3.39388E5,8.70414E5,4.191327E6,1.578051E6,5.362E3,3.6409E4,8.9644E4,3.72608E5,1.134684E6,1.8541E5,3.524729E6,2.024289E6,1.639267E6,4.38813E6,1.4176459E7,2.612626E6,3.6395E4,2.124E4,1.593369E6,1.120789E6,1.68443E5,2.090734E6,3.00161E5,9.34447E5,2.20367E5,1.930604E6,9.07754E5,5.26469E6,1.479776E6,2.400554E6,1.183469E6,4.864805E6,1.81416E5,7.73836E5,9.12358E5,5.7067E4,1.530304E6,6.6714E4,4.17706E5,6.4485E4,8.35292E5,3.99193E5,9.3936E5,4.56881E5,1.95685E5,1.420882E6,3.78402E5,1.36478E6,9.4575E4,2.44813E5,2.3708E5,6.33334E5,8.55639E5,3.335688E6,8.85157E5,6.92894E5,3.394E3,1.968E3,1.763E3,3.4646E4,1.8674E4,7.097E4,5.2648E4,3.1996E5,2.817E4,1.106514E6,8.3368E4,1.02042E5,1.509447E6,2.015282E6,3.43666E5,1.680623E6,5.7571E5,1.063557E6,3.63922E6,7.4891E5,1.0642082E7,3.534377E6,1.095806E6,1.51682E6],"tree_param":{"num_deleted":"0","num_feature":"25","num_nodes":"127","size_leaf_vector":"0"}},{"base_weights":[-9.147979E-3,-2.5989546E-2,1.5224027E-3,-2.7104847E-2,1.5849788E-2,-3.5845763E-3,1.3440179E-2,-2.8420357E-2,3.697098E-3,4.5779077E-3,4.6636153E-2,-2.4941633E-3,-4.0730637E-2,-1.39887305E-2,1.5076876E-2,-2.9855454E-2,-3.8397785E-3,-4.561507E-2,3.3238947E-2,-4.33616E-3,4.073855E-2,2.9522307E-2,9.776507E-2,-2.8366273E-2,-8.9000614E-4,1.6085548E-2,-5.57977E-2,4.3099787E-2,-3.4964044E-2,1.5967613E-2,-4.0331267E-2,-3.1055016E-2,-6.0825907E-3,-3.7588906E-2,3.5880405E-2,-4.8876014E-2,1.8439527E-1,4.6546917E-2,-9.124911E-2,-6.0869604E-2,-1.2046454E-3,-5.4433078E-2,6.394303E-2,4.7586463E-2,-1.0384946E-3,4.1344814E-2,1.0652525E-1,1.4877874E-2,-5.9795767E-2,-1.1079283E-2,4.497072E-3,6.49292E-2,2.5612516E-3,-6.675633E-2,3.3091694E-2,-5.4807696E-2,5.1523503E-2,-5.086449E-2,4.250866E-2,4.7670654E-3,1.9219114E-2,-5.4961696E-2,7.2182156E-2,-7.160438E-3,-1.0333205E-2,-4.46168E-3,7.580646E-3,-6.715711E-3,-2.1843173E-2,1.5410546E-2,-1.8260712E-2,-1.7460387E-2,-8.085478E-3,7.35378E-2,-4.0588234E-2,2.4005482E-2,4.7988957E-3,-4.163749E-2,-7.058913E-3,-1.0704442E-2,-2.6643096E-2,2.8206913E-3,-4.4663106E-3,-6.9857617E-3,-4.8351407E-2,2.568416E-2,-9.534659E-3,-1.8528091E-3,1.5994946E-2,2.3457155E-2,-1.3797572E-3,-8.735269E-3,1.6787766E-2,2.7355267E-2,4.0107995E-2,-1.1287448E-2,1.1001029E-2,-1.2337952E-2,-3.1779286E-2,-5.3139776E-3,2.6742173E-3,4.3082847E-3,-2.8226797E-3,3.5301555E-2,-1.1449694E-2,-5.1641446E-3,6.894943E-3,-8.414259E-3,-2.9706776E-2,-3.0192483E-2,1.7357282E-2,3.1627525E-2,-2.1320293E-2,-2.7878605E-2,1.6272916E-2,-4.152924E-3,-2.1525303E-2,5.8067245E-3,1.9357327E-2,1.1634523E-2,-1.3826595E-3,9.096702E-4,7.378707E-3,-9.807E-3,-2.7285488E-2,9.63304E-3,3.6651425E-2],"categories":[],"categories_nodes":[],"categories_segments":[],"categories_sizes":[],"default_left":[0,0,0,0,0,0,0,0,0,0,0,0,0,0,0,0,0,0,0,0,0,0,0,0,0,0,0,0,0,0,0,0,0,0,0,0,0,0,0,0,0,0,0,0,0,0,0,0,0,0,0,0,0,0,0,0,0,0,0,0,0,0,0,0,0,0,0,0,0,0,0,0,0,0,0,0,0,0,0,0,0,0,0,0,0,0,0,0,0,0,0,0,0,0,0,0,0,0,0,0,0,0,0,0,0,0,0,0,0,0,0,0,0,0,0,0,0,0,0,0,0,0,0,0,0,0,0],"id":11,"left_children":[1,3,5,7,9,11,13,15,17,19,21,23,25,27,29,31,33,35,37,39,41,43,45,47,49,51,53,55,57,59,61,63,65,67,69,71,73,75,77,79,81,83,85,87,89,91,93,95,97,99,101,103,105,107,109,111,113,115,117,119,121,123,125,-1,-1,-1,-1,-1,-1,-1,-1,-1,-1,-1,-1,-1,-1,-1,-1,-1,-1,-1,-1,-1,-1,-1,-1,-1,-1,-1,-1,-1,-1,-1,-1,-1,-1,-1,-1,-1,-1,-1,-1,-1,-1,-1,-1,-1,-1,-1,-1,-1,-1,-1,-1,-1,-1,-1,-1,-1,-1,-1,-1,-1,-1,-1,-1],"loss_changes":[1.2881457E4,1.297293E3,2.670687E3,1.0972578E3,2.5049458E2,1.2441759E3,5.909133E2,9.161074E2,1.6157766E3,1.703196E2,1.6927615E2,1.238488E3,7.498811E2,8.8755237E2,6.1305566E2,6.997344E2,1.9204098E3,3.1167853E2,1.1491078E3,7.504397E1,2.3077112E2,8.001768E1,2.3974213E1,2.3679207E3,1.5423531E3,1.2128754E2,6.744402E2,1.6425653E2,6.6772076E2,4.4521802E2,3.2351422E2,5.6893164E2,3.2480475E2,4.1473315E2,9.861074E2,8.3766846E1,1.128147E2,6.407716E2,2.1566809E2,1.5654404E1,5.8293224E1,6.809732E1,1.7428104E2,2.8063995E1,1.519144E1,6.717758E0,1.7490326E1,8.3898975E2,8.689995E2,1.2889432E3,2.521243E3,2.1649834E2,5.8071175E1,7.698447E2,2.516868E2,4.1115105E1,7.204492E1,3.477605E2,4.7049255E1,8.771733E2,8.2457227E2,1.3939978E2,4.5297783E1,0E0,0E0,0E0,0E0,0E0,0E0,0E0,0E0,0E0,0E0,0E0,0E0,0E0,0E0,0E0,0E0,0E0,0E0,0E0,0E0,0E0,0E0,0E0,0E0,0E0,0E0,0E0,0E0,0E0,0E0,0E0,0E0,0E0,0E0,0E0,0E0,0E0,0E0,0E0,0E0,0E0,0E0,0E0,0E0,0E0,0E0,0E0,0E0,0E0,0E0,0E0,0E0,0E0,0E0,0E0,0E0,0E0,0E0,0E0,0E0,0E0,0E0,0E0,0E0],"parents":[2147483647,0,0,1,1,2,2,3,3,4,4,5,5,6,6,7,7,8,8,9,9,10,10,11,11,12,12,13,13,14,14,15,15,16,16,17,17,18,18,19,19,20,20,21,21,22,22,23,23,24,24,25,25,26,26,27,27,28,28,29,29,30,30,31,31,32,32,33,33,34,34,35,35,36,36,37,37,38,38,39,39,40,40,41,41,42,42,43,43,44,44,45,45,46,46,47,47,48,48,49,49,50,50,51,51,52,52,53,53,54,54,55,55,56,56,57,57,58,58,59,59,60,60,61,61,62,62],"right_children":[2,4,6,8,10,12,14,16,18,20,22,24,26,28,30,32,34,36,38,40,42,44,46,48,50,52,54,56,58,60,62,64,66,68,70,72,74,76,78,80,82,84,86,88,90,92,94,96,98,100,102,104,106,108,110,112,114,116,118,120,122,124,126,-1,-1,-1,-1,-1,-1,-1,-1,-1,-1,-1,-1,-1,-1,-1,-1,-1,-1,-1,-1,-1,-1,-1,-1,-1,-1,-1,-1,-1,-1,-1,-1,-1,-1,-1,-1,-1,-1,-1,-1,-1,-1,-1,-1,-1,-1,-1,-1,-1,-1,-1,-1,-1,-1,-1,-1,-1,-1,-1,-1,-1,-1,-1,-1],"split_conditions":[-3.335486E-2,1.150529E-1,1.4484833E-1,4.1978794E-1,2.111309E-1,3.498648E-1,-4.666756E-1,3.3696222E-1,-2.458713E-1,-1.3325296E-1,-9.748327E-2,-2.7160487E-1,1.3018274E-3,2.4153538E-2,5.908419E-1,6.771471E-2,-1.2764207E-1,-1.2480052E-1,1.1919653E-1,-2.940185E-1,-8.01638E-2,-7.8125715E-2,-1.7626648E-1,2.2711426E-2,1.0077224E-2,7.075456E-2,1.4225322E-1,-7.809232E-1,3.8203135E-1,-2.2405786E-2,4.197697E-1,-8.6423375E-2,-1.32303545E-2,1.2990719E-3,9.9378176E-2,-3.6043727E-1,1.301748E-3,2.5881007E-1,-5.53578E-2,-6.428274E-1,-7.8125715E-2,1.7148109E-1,3.3704284E-1,-3.0302498E-1,-1.5723899E-3,-2.8606835E-1,-1.3043153E-1,-1.116279E-1,0E0,6.0090706E-2,9.395254E-2,1.5597807E-1,-4.6543203E-2,-5.355874E-2,-2.1912137E-1,-3.4614858E-1,-2.786497E-1,2.2711426E-2,4.9754462E-1,-1.24800354E-1,-1.4218806E-1,5.908419E-1,3.6493656E-1,-7.160438E-3,-1.0333205E-2,-4.46168E-3,7.580646E-3,-6.715711E-3,-2.1843173E-2,1.5410546E-2,-1.8260712E-2,-1.7460387E-2,-8.085478E-3,7.35378E-2,-4.0588234E-2,2.4005482E-2,4.7988957E-3,-4.163749E-2,-7.058913E-3,-1.0704442E-2,-2.6643096E-2,2.8206913E-3,-4.4663106E-3,-6.9857617E-3,-4.8351407E-2,2.568416E-2,-9.534659E-3,-1.8528091E-3,1.5994946E-2,2.3457155E-2,-1.3797572E-3,-8.735269E-3,1.6787766E-2,2.7355267E-2,4.0107995E-2,-1.1287448E-2,1.1001029E-2,-1.2337952E-2,-3.1779286E-2,-5.3139776E-3,2.6742173E-3,4.3082847E-3,-2.8226797E-3,3.5301555E-2,-1.1449694E-2,-5.1641446E-3,6.894943E-3,-8.414259E-3,-2.9706776E-2,-3.0192483E-2,1.7357282E-2,3.1627525E-2,-2.1320293E-2,-2.7878605E-2,1.6272916E-2,-4.152924E-3,-2.1525303E-2,5.8067245E-3,1.9357327E-2,1.1634523E-2,-1.3826595E-3,9.096702E-4,7.378707E-3,-9.807E-3,-2.7285488E-2,9.63304E-3,3.6651425E-2],"split_indices":[0,5,0,1,5,7,1,8,4,3,2,8,0,6,2,4,5,0,6,0,8,0,0,4,4,5,4,2,4,6,5,2,7,3,3,4,5,3,4,2,0,2,1,0,7,0,3,4,5,1,3,3,2,3,1,8,5,4,4,2,1,1,6,0,0,0,0,0,0,0,0,0,0,0,0,0,0,0,0,0,0,0,0,0,0,0,0,0,0,0,0,0,0,0,0,0,0,0,0,0,0,0,0,0,0,0,0,0,0,0,0,0,0,0,0,0,0,0,0,0,0,0,0,0,0,0,0],"split_type":[0,0,0,0,0,0,0,0,0,0,0,0,0,0,0,0,0,0,0,0,0,0,0,0,0,0,0,0,0,0,0,0,0,0,0,0,0,0,0,0,0,0,0,0,0,0,0,0,0,0,0,0,0,0,0,0,0,0,0,0,0,0,0,0,0,0,0,0,0,0,0,0,0,0,0,0,0,0,0,0,0,0,0,0,0,0,0,0,0,0,0,0,0,0,0,0,0,0,0,0,0,0,0,0,0,0,0,0,0,0,0,0,0,0,0,0,0,0,0,0,0,0,0,0,0,0,0],"sum_hessian":[7.168075E7,2.7801048E7,4.3879704E7,2.7079204E7,7.21844E5,3.0716948E7,1.3162758E7,2.597006E7,1.109146E6,5.28386E5,1.93458E5,2.9840976E7,8.75973E5,7.412E5,1.2421558E7,2.4537476E7,1.432582E6,4.1553E5,6.93616E5,4.23892E5,1.04494E5,1.44944E5,4.8514E4,1.742216E6,2.809876E7,1.83608E5,6.92365E5,1.99156E5,5.42044E5,1.222503E7,1.96528E5,2.3358808E7,1.178668E6,7.74506E5,6.58076E5,4.09722E5,5.808E3,6.26629E5,6.6987E4,2.2247E4,4.01645E5,2.0483E4,8.4011E4,9.1097E4,5.3847E4,6.521E3,4.1993E4,7.33284E5,1.008932E6,9.717948E6,1.8380812E7,3.9814E4,1.43794E5,6.16376E5,7.5989E4,1.5777E4,1.83379E5,4.4974E5,9.2304E4,2.750454E6,9.474576E6,1.73914E5,2.2614E4,7.485234E6,1.5873575E7,9.20576E5,2.58092E5,5.40992E5,2.33514E5,5.67266E5,9.081E4,2.87455E5,1.22267E5,4.881E3,9.27E2,2.9902E5,3.27609E5,3.9356E4,2.7631E4,1.1701E4,1.0546E4,2.26255E5,1.7539E5,1.5857E4,4.626E3,6.8503E4,1.5508E4,8.774E3,8.2323E4,2.315E3,5.1532E4,1.12E3,5.401E3,2.6841E4,1.5152E4,2.15087E5,5.18197E5,7.18274E5,2.90658E5,7.296802E6,2.421146E6,1.0753257E7,7.627554E6,2.6339E4,1.3475E4,7.3054E4,7.074E4,2.80214E5,3.36162E5,1.1873E4,6.4116E4,1.453E3,1.4324E4,3.388E3,1.79991E5,1.62215E5,2.87525E5,4.4991E4,4.7313E4,5.94323E5,2.156131E6,2.362367E6,7.112209E6,1.07433E5,6.6481E4,1.2553E4,1.0061E4],"tree_param":{"num_deleted":"0","num_feature":"25","num_nodes":"127","size_leaf_vector":"0"}},{"base_weights":[-6.403591E-3,-1.6478032E-2,2.9376377E-3,-2.0766906E-2,-9.514935E-3,-7.2998926E-3,5.6283865E-3,3.8454343E-2,-2.1271104E-2,2.186796E-4,-1.508233E-2,4.7919573E-4,-1.3777498E-2,-3.120072E-3,9.4188005E-3,4.2752298E-3,6.069548E-2,-2.1690173E-2,3.3793483E-2,-3.557846E-2,1.1246718E-2,6.659995E-3,-2.6388945E-2,7.6918355E-3,-1.212791E-2,-1.8559208E-2,7.5917793E-3,2.1828065E-2,-2.3768857E-2,-1.0084203E-2,1.7160295E-2,-4.869692E-2,1.2597123E-2,9.15814E-2,2.7958238E-2,-2.2128155E-2,2.9991971E-2,-5.497966E-2,4.141708E-2,-4.7753178E-2,3.3468917E-2,4.255195E-2,-5.852577E-3,-1.7861618E-2,1.9293075E-2,-3.879326E-2,-1.2132984E-2,-1.8854853E-2,1.6889732E-2,-1.318483E-3,-2.2171766E-2,-2.7349168E-2,-5.3131464E-4,4.4642787E-2,-8.1459264E-4,-3.3037182E-2,2.6788611E-2,-4.4437774E-2,-3.1610805E-4,2.4955228E-2,-2.3653938E-2,-8.280035E-3,2.0799607E-2,-9.892639E-3,-2.7943738E-2,6.474133E-3,-8.9633465E-3,-6.446124E-3,3.247489E-2,2.6390083E-2,6.9045513E-3,-1.6383775E-2,-6.438889E-3,5.844699E-3,1.829529E-2,-3.73786E-2,-1.1251458E-2,8.665572E-3,2.2989465E-2,6.1981585E-3,-1.8138165E-2,1.2258132E-2,-2.6957834E-2,2.761895E-4,2.4017956E-2,-3.4095894E-3,5.848092E-3,-2.34634E-2,-3.908142E-3,9.76922E-3,-8.710122E-3,-1.5649905E-2,8.44213E-3,2.5148215E-4,-7.739677E-3,1.7491857E-2,-6.71381E-3,1.1692944E-3,8.4808925E-3,3.4130902E-3,-4.419298E-3,-1.6629154E-2,8.553434E-4,-4.9438374E-3,-1.4734702E-2,7.69307E-4,-1.3378856E-2,-1.1326404E-2,1.7786754E-2,-6.00759E-3,2.2004526E-3,-1.1816895E-2,1.3173393E-2,-5.7199057E-3,8.704086E-3,-6.0085044E-3,-1.8258212E-2,-3.0348292E-3,1.0166841E-2,-4.0471973E-3,1.4763245E-2,-1.4977998E-3,-1.2759773E-2,1.0412405E-2,-5.4170853E-3,7.470311E-3,-9.141456E-4],"categories":[],"categories_nodes":[],"categories_segments":[],"categories_sizes":[],"default_left":[0,0,0,0,0,0,0,0,0,0,0,0,0,0,0,0,0,0,0,0,0,0,0,0,0,0,0,0,0,0,0,0,0,0,0,0,0,0,0,0,0,0,0,0,0,0,0,0,0,0,0,0,0,0,0,0,0,0,0,0,0,0,0,0,0,0,0,0,0,0,0,0,0,0,0,0,0,0,0,0,0,0,0,0,0,0,0,0,0,0,0,0,0,0,0,0,0,0,0,0,0,0,0,0,0,0,0,0,0,0,0,0,0,0,0,0,0,0,0,0,0,0,0,0,0,0,0],"id":12,"left_children":[1,3,5,7,9,11,13,15,17,19,21,23,25,27,29,31,33,35,37,39,41,43,45,47,49,51,53,55,57,59,61,63,65,67,69,71,73,75,77,79,81,83,85,87,89,91,93,95,97,99,101,103,105,107,109,111,113,115,117,119,121,123,125,-1,-1,-1,-1,-1,-1,-1,-1,-1,-1,-1,-1,-1,-1,-1,-1,-1,-1,-1,-1,-1,-1,-1,-1,-1,-1,-1,-1,-1,-1,-1,-1,-1,-1,-1,-1,-1,-1,-1,-1,-1,-1,-1,-1,-1,-1,-1,-1,-1,-1,-1,-1,-1,-1,-1,-1,-1,-1,-1,-1,-1,-1,-1,-1],"loss_changes":[6.7457085E3,1.0299111E3,1.0245652E3,6.372461E2,7.12353E2,3.9007385E2,9.7666095E2,1.3695798E2,4.8832227E2,1.888199E3,2.0557097E3,3.198226E2,4.3160522E2,4.5865537E3,3.1025942E3,3.1309582E1,1.10354095E2,4.7539062E2,1.0817322E2,9.4694934E2,1.9573357E3,8.8625104E2,9.7283813E2,5.462809E2,1.3896288E2,5.4694946E2,2.4055687E2,1.0973372E3,2.3613914E3,2.7763433E3,1.3619575E3,6.735466E0,2.3421543E1,1.0584259E2,1.5714767E1,4.4999902E2,5.7482864E1,1.537336E1,6.495479E1,8.3251636E2,1.5392638E2,2.0169971E3,3.3043085E2,2.838032E2,1.2109482E3,2.6331777E3,4.537342E2,1.5656554E2,2.4566003E2,1.049739E2,5.5216345E2,5.4896204E2,1.5432143E2,1.7237079E2,9.8554565E1,1.6341861E2,3.7725977E2,1.0380205E3,7.649714E2,1.5200571E3,1.4828442E3,7.737521E2,1.2586929E3,0E0,0E0,0E0,0E0,0E0,0E0,0E0,0E0,0E0,0E0,0E0,0E0,0E0,0E0,0E0,0E0,0E0,0E0,0E0,0E0,0E0,0E0,0E0,0E0,0E0,0E0,0E0,0E0,0E0,0E0,0E0,0E0,0E0,0E0,0E0,0E0,0E0,0E0,