{"learner":{"attributes":{"best_iteration":"99","best_ntree_limit":"100","scikit_learn":"{\"n_estimators\": 100, \"objective\": null, \"max_depth\": null, \"max_leaves\": null, \"max_bin\": null, \"grow_policy\": null, \"learning_rate\": null, \"verbosity\": null, \"booster\": null, \"tree_method\": null, \"gamma\": null, \"min_child_weight\": null, \"max_delta_step\": null, \"subsample\": null, \"sampling_method\": null, \"colsample_bytree\": null, \"colsample_bylevel\": null, \"colsample_bynode\": null, \"reg_alpha\": null, \"reg_lambda\": null, \"scale_pos_weight\": null, \"base_score\": null, \"missing\": NaN, \"num_parallel_tree\": null, \"random_state\": null, \"n_jobs\": null, \"monotone_constraints\": null, \"interaction_constraints\": null, \"importance_type\": null, \"gpu_id\": null, \"validate_parameters\": null, \"predictor\": null, \"enable_categorical\": false, \"feature_types\": null, \"max_cat_to_onehot\": null, \"max_cat_threshold\": null, \"eval_metric\": null, \"early_stopping_rounds\": null, \"callbacks\": null, \"_estimator_type\": \"regressor\"}"},"feature_names":[],"feature_types":[],"gradient_booster":{"model":{"gbtree_model_param":{"num_parallel_tree":"1","num_trees":"100","size_leaf_vector":"0"},"tree_info":[0,0,0,0,0,0,0,0,0,0,0,0,0,0,0,0,0,0,0,0,0,0,0,0,0,0,0,0,0,0,0,0,0,0,0,0,0,0,0,0,0,0,0,0,0,0,0,0,0,0,0,0,0,0,0,0,0,0,0,0,0,0,0,0,0,0,0,0,0,0,0,0,0,0,0,0,0,0,0,0,0,0,0,0,0,0,0,0,0,0,0,0,0,0,0,0,0,0,0,0],"trees":[{"base_weights":[-4.626416E-1,-1.1267029E0,1.349599E-1,-1.2458661E0,-8.5467786E-1,-1.6792144E-1,2.4095471E-1,-1.3219335E0,-1.1529031E0,-9.514317E-1,-6.9575614E-1,-3.3601257E-1,-6.821182E-2,1.4295165E-1,3.0075023E-1,-1.3555757E0,-1.2769427E0,-1.1698599E0,-1.0196472E0,-1.0001316E0,-8.885823E-1,-7.6234895E-1,-6.089273E-1,-4.3739474E-1,-2.7431637E-1,-1.326627E-1,-1.4852104E-2,-9.230364E-3,1.5978408E-1,2.6832545E-1,3.4861794E-1,-1.3645687E0,-1.2552292E0,-1.1136955E0,-1.2872021E0,-1.1901903E0,-1.0255361E0,-9.099983E-1,-1.0642842E0,-8.651128E-1,-1.0182209E0,-7.654639E-1,-9.042095E-1,-7.967677E-1,-7.285835E-1,-6.5397483E-1,-5.651194E-1,-4.8699376E-1,-4.0378723E-1,-3.1406134E-1,-2.353372E-1,-2.4663453E-1,-1.1782869E-1,-1.5536098E-1,1.005086E-3,2.8113324E-2,-1.3677828E-1,-6.59948E-3,1.7771035E-1,2.7945146E-1,1.0950848E-1,2.5965047E-1,3.5802492E-1,-4.1255155E-1,-3.7587398E-1,-3.3974406E-1,-3.9055827E-1,-3.5015798E-1,-3.057046E-1,-3.3340618E-1,-3.8936937E-1,-3.660013E-1,-3.443902E-1,-2.741845E-1,-3.227452E-1,-2.844632E-1,-2.4880971E-1,-3.2642972E-1,-2.9754165E-1,-2.6849297E-1,-2.308452E-1,-2.578639E-1,-3.1066716E-1,-2.3910104E-1,-2.0997265E-1,-2.3008719E-1,-2.7587768E-1,-2.0791584E-1,-2.42965E-1,-1.9592471E-1,-2.2200005E-1,-1.798638E-1,-1.986777E-1,-1.7474905E-1,-1.5751189E-1,-1.4754501E-1,-1.4191902E-1,-1.3015991E-1,-1.1636399E-1,-1.13597E-1,-9.135039E-2,-9.7573556E-2,-6.694731E-2,-6.520937E-2,-9.493104E-2,-7.268739E-2,-3.0866295E-2,-3.7392855E-2,-7.7804044E-2,5.3738137E-3,-4.359348E-2,-3.3763233E-3,2.2682121E-2,-6.664936E-2,-2.7885143E-2,1.1558905E-2,-4.2703558E-2,3.807294E-2,6.355042E-2,4.4827152E-2,8.848336E-2,-3.327433E-4,4.8821755E-2,9.186981E-2,5.4185767E-2,7.4590705E-2,1.1063083E-1],"categories":[],"categories_nodes":[],"categories_segments":[],"categories_sizes":[],"default_left":[0,0,0,0,0,0,0,0,0,0,0,0,0,0,0,0,0,0,0,0,0,0,0,0,0,0,0,0,0,0,0,0,0,0,0,0,0,0,0,0,0,0,0,0,0,0,0,0,0,0,0,0,0,0,0,0,0,0,0,0,0,0,0,0,0,0,0,0,0,0,0,0,0,0,0,0,0,0,0,0,0,0,0,0,0,0,0,0,0,0,0,0,0,0,0,0,0,0,0,0,0,0,0,0,0,0,0,0,0,0,0,0,0,0,0,0,0,0,0,0,0,0,0,0,0,0,0],"id":0,"left_children":[1,3,5,7,9,11,13,15,17,19,21,23,25,27,29,31,33,35,37,39,41,43,45,47,49,51,53,55,57,59,61,63,65,67,69,71,73,75,77,79,81,83,85,87,89,91,93,95,97,99,101,103,105,107,109,111,113,115,117,119,121,123,125,-1,-1,-1,-1,-1,-1,-1,-1,-1,-1,-1,-1,-1,-1,-1,-1,-1,-1,-1,-1,-1,-1,-1,-1,-1,-1,-1,-1,-1,-1,-1,-1,-1,-1,-1,-1,-1,-1,-1,-1,-1,-1,-1,-1,-1,-1,-1,-1,-1,-1,-1,-1,-1,-1,-1,-1,-1,-1,-1,-1,-1,-1,-1,-1],"loss_changes":[2.8446076E7,1.100584E6,1.2112245E6,1.66952E5,1.59029E5,1.6392384E5,1.6377812E5,1.9652E4,2.4007E4,1.96755E4,2.2630375E4,2.2777312E4,2.1112303E4,2.712839E4,2.69405E4,6.702E3,9.304E3,2.7655E4,5.8695E3,8.84575E3,5.39925E3,2.573625E3,3.352125E3,2.2962812E3,3.5071875E3,4.7008516E3,7.482866E3,5.0237505E3,2.8441578E4,1.828475E4,5.8663125E3,8.07E3,3.4963125E3,1.6627188E3,9.829E3,1.0399E4,6.528875E3,1.0684062E3,1.4701875E3,1.2214375E3,8.7855E3,6.530625E2,5.257625E3,1.4915625E3,9.63375E2,3.7728125E2,5.9953125E2,3.715625E1,3.9278125E2,6.9209375E2,1.2514961E3,6.541699E2,4.575117E3,1.0878721E3,7.4657935E3,1.5254203E3,8.9388965E2,5.6817095E3,1.4922719E4,1.9481312E4,3.9891143E3,2.4675508E3,7.450625E3,0E0,0E0,0E0,0E0,0E0,0E0,0E0,0E0,0E0,0E0,0E0,0E0,0E0,0E0,0E0,0E0,0E0,0E0,0E0,0E0,0E0,0E0,0E0,0E0,0E0,0E0,0E0,0E0,0E0,0E0,0E0,0E0,0E0,0E0,0E0,0E0,0E0,0E0,0E0,0E0,0E0,0E0,0E0,0E0,0E0,0E0,0E0,0E0,0E0,0E0,0E0,0E0,0E0,0E0,0E0,0E0,0E0,0E0,0E0,0E0,0E0,0E0,0E0,0E0],"parents":[2147483647,0,0,1,1,2,2,3,3,4,4,5,5,6,6,7,7,8,8,9,9,10,10,11,11,12,12,13,13,14,14,15,15,16,16,17,17,18,18,19,19,20,20,21,21,22,22,23,23,24,24,25,25,26,26,27,27,28,28,29,29,30,30,31,31,32,32,33,33,34,34,35,35,36,36,37,37,38,38,39,39,40,40,41,41,42,42,43,43,44,44,45,45,46,46,47,47,48,48,49,49,50,50,51,51,52,52,53,53,54,54,55,55,56,56,57,57,58,58,59,59,60,60,61,61,62,62],"right_children":[2,4,6,8,10,12,14,16,18,20,22,24,26,28,30,32,34,36,38,40,42,44,46,48,50,52,54,56,58,60,62,64,66,68,70,72,74,76,78,80,82,84,86,88,90,92,94,96,98,100,102,104,106,108,110,112,114,116,118,120,122,124,126,-1,-1,-1,-1,-1,-1,-1,-1,-1,-1,-1,-1,-1,-1,-1,-1,-1,-1,-1,-1,-1,-1,-1,-1,-1,-1,-1,-1,-1,-1,-1,-1,-1,-1,-1,-1,-1,-1,-1,-1,-1,-1,-1,-1,-1,-1,-1,-1,-1,-1,-1,-1,-1,-1,-1,-1,-1,-1,-1,-1,-1,-1,-1,-1],"split_conditions":[0E0,-5.897874E-2,4.840305E-2,-1.4866097E-1,-2.0772731E-2,1.7139027E-2,1.1079633E-1,-2.2876771E-1,-3.8176157E-2,-3.6657434E-2,-8.860455E-3,5.6302366E-3,3.1193819E-2,-1.0311224E-2,2.2687708E-1,-1.8382452E-1,-3.2240644E-1,-3.9961588E-2,-1.8356287E-1,-1.3616401E-1,-1.2212622E-1,-1.4814075E-2,-4.467368E-3,1.4197815E-3,1.1346336E-2,-6.265831E-2,-7.621605E-2,1.7142053E-1,-8.665823E-3,2.9184923E-1,1.8995818E-1,-1.8806191E-1,-4.143449E-1,-1.0446309E-1,-3.0333245E-1,-9.51583E-2,-1.8035512E-1,1.4492849E-1,1.2111268E-1,4.0978935E-2,-1.4237556E-1,9.991847E-3,-1.2215616E-1,-9.9760994E-2,-9.525131E-2,-9.080735E-2,-1.3454631E-3,1.4879322E-3,2.8816226E-3,-8.015905E-2,-8.224615E-2,8.701061E-2,-7.422153E-2,1.18991084E-1,1.2807016E-1,7.2502635E-2,-1.4538513E-1,1.7852898E-1,7.2502635E-2,3.3943612E-2,1.013581E-1,3.5005465E-1,1.8550828E-1,-4.1255155E-1,-3.7587398E-1,-3.3974406E-1,-3.9055827E-1,-3.5015798E-1,-3.057046E-1,-3.3340618E-1,-3.8936937E-1,-3.660013E-1,-3.443902E-1,-2.741845E-1,-3.227452E-1,-2.844632E-1,-2.4880971E-1,-3.2642972E-1,-2.9754165E-1,-2.6849297E-1,-2.308452E-1,-2.578639E-1,-3.1066716E-1,-2.3910104E-1,-2.0997265E-1,-2.3008719E-1,-2.7587768E-1,-2.0791584E-1,-2.42965E-1,-1.9592471E-1,-2.2200005E-1,-1.798638E-1,-1.986777E-1,-1.7474905E-1,-1.5751189E-1,-1.4754501E-1,-1.4191902E-1,-1.3015991E-1,-1.1636399E-1,-1.13597E-1,-9.135039E-2,-9.7573556E-2,-6.694731E-2,-6.520937E-2,-9.493104E-2,-7.268739E-2,-3.0866295E-2,-3.7392855E-2,-7.7804044E-2,5.3738137E-3,-4.359348E-2,-3.3763233E-3,2.2682121E-2,-6.664936E-2,-2.7885143E-2,1.1558905E-2,-4.2703558E-2,3.807294E-2,6.355042E-2,4.4827152E-2,8.848336E-2,-3.327433E-4,4.8821755E-2,9.186981E-2,5.4185767E-2,7.4590705E-2,1.1063083E-1],"split_indices":[0,0,0,0,0,0,0,0,5,0,0,0,0,3,0,5,7,4,2,1,1,0,0,0,0,2,8,6,6,1,5,4,3,4,3,0,7,7,8,6,8,5,8,2,1,1,0,1,0,1,1,6,8,3,7,0,3,3,0,3,5,3,4,0,0,0,0,0,0,0,0,0,0,0,0,0,0,0,0,0,0,0,0,0,0,0,0,0,0,0,0,0,0,0,0,0,0,0,0,0,0,0,0,0,0,0,0,0,0,0,0,0,0,0,0,0,0,0,0,0,0,0,0,0,0,0,0],"split_type":[0,0,0,0,0,0,0,0,0,0,0,0,0,0,0,0,0,0,0,0,0,0,0,0,0,0,0,0,0,0,0,0,0,0,0,0,0,0,0,0,0,0,0,0,0,0,0,0,0,0,0,0,0,0,0,0,0,0,0,0,0,0,0,0,0,0,0,0,0,0,0,0,0,0,0,0,0,0,0,0,0,0,0,0,0,0,0,0,0,0,0,0,0,0,0,0,0,0,0,0,0,0,0,0,0,0,0,0,0,0,0,0,0,0,0,0,0,0,0,0,0,0,0,0,0,0,0],"sum_hessian":[7.168075E7,3.3952436E7,3.772832E7,2.3609892E7,1.0342546E7,9.780482E6,2.7947836E7,1.298491E7,1.0624981E7,6.428672E6,3.913874E6,3.641543E6,6.138939E6,1.0590434E7,1.7357402E7,7.429449E6,5.555461E6,9.425572E6,1.199409E6,3.622051E6,2.806621E6,2.21505E6,1.698824E6,1.377675E6,2.263868E6,2.780497E6,3.358442E6,1.054719E6,9.535715E6,1.034791E7,7.009492E6,6.818373E6,6.11076E5,3.285E5,5.226961E6,8.261755E6,1.163817E6,3.47011E5,8.52398E5,4.27943E5,3.194108E6,3.16121E5,2.4905E6,1.096901E6,1.118149E6,8.37555E5,8.61269E5,5.56444E5,8.21231E5,1.120919E6,1.142949E6,3.20216E5,2.460281E6,3.40581E5,3.017861E6,8.15853E5,2.38866E5,9.27459E5,8.608256E6,9.670441E6,6.77469E5,6.7028E5,6.339212E6,6.227026E6,5.91347E5,1.6824E5,4.42836E5,2.09892E5,1.18608E5,2.99697E5,4.927264E6,4.842443E6,3.419312E6,3.61522E5,8.02295E5,2.35429E5,1.11582E5,6.41577E5,2.10821E5,3.26098E5,1.01845E5,3.14608E5,2.8795E6,2.13427E5,1.02694E5,2.51001E5,2.239499E6,1.23146E5,9.73755E5,1.46876E5,9.71273E5,1.10647E5,7.26908E5,6.00776E5,2.60493E5,4.13314E5,1.4313E5,2.84065E5,5.37166E5,1.44503E5,9.76416E5,1.36356E5,1.006593E6,2.25614E5,9.4602E4,2.63687E5,2.196594E6,2.62916E5,7.7665E4,2.705256E6,3.12605E5,4.46089E5,3.69764E5,8.1019E4,1.57847E5,6.96054E5,2.31405E5,3.458955E6,5.149301E6,1.029578E6,8.640863E6,2.20095E5,4.57374E5,4.21713E5,2.48567E5,5.66967E5,5.772245E6],"tree_param":{"num_deleted":"0","num_feature":"9","num_nodes":"127","size_leaf_vector":"0"}},{"base_weights":[-3.2384923E-1,-7.8869224E-1,9.447192E-2,-8.660015E-1,-5.8146846E-1,-1.0314166E-1,1.7471355E-1,-9.185939E-1,-7.8932506E-1,-6.435479E-1,-4.7270897E-1,-2.1733679E-1,-2.3764087E-2,1.2086478E-1,2.2199155E-1,-9.4433355E-1,-8.766365E-1,-6.609022E-1,-8.0156386E-1,-6.753032E-1,-5.919341E-1,-5.149998E-1,-4.155392E-1,-2.9715082E-1,-1.6984655E-1,-1.3411039E-1,-9.242641E-3,1.3176118E-1,-3.2772485E-2,1.09752215E-1,2.2982861E-1,-9.512127E-1,-8.5616684E-1,-7.5122464E-1,-8.868776E-1,-6.8747747E-1,-5.7098275E-1,-8.1956416E-1,-7.025174E-1,-6.878283E-1,-5.5761343E-1,-6.0267365E-1,-4.9189028E-1,-4.353067E-1,-5.2548593E-1,-4.3937773E-1,-3.8043195E-1,-3.2832778E-1,-2.654341E-1,-2.5448176E-1,-1.6048522E-1,-1.0836752E-1,-2.0727688E-1,5.886928E-3,-1.3887067E-1,1.7507035E-2,1.485365E-1,-1.0864837E-1,1.3062606E-2,1.6101155E-1,4.599507E-2,1.2060573E-1,2.3904446E-1,-2.8769755E-1,-2.558157E-1,-2.1693614E-1,-2.6718628E-1,-2.3691033E-1,-2.0055471E-1,-2.7078602E-1,-2.3880515E-1,-2.1732217E-1,-1.8885551E-1,-1.459271E-1,-1.7830256E-1,-2.545703E-1,-2.3363428E-1,-1.842335E-1,-2.1952997E-1,-1.7414486E-1,-2.1176662E-1,-1.4184514E-1,-1.7649874E-1,-1.5725848E-1,-1.8601714E-1,-1.2877251E-1,-1.5623471E-1,-1.3749208E-1,-1.1642199E-1,-1.6109592E-1,-1.3473544E-1,-1.176202E-1,-1.3364105E-1,-1.1732081E-1,-1.102585E-1,-1.0226885E-1,-9.111208E-2,-9.367238E-2,-7.774476E-2,-7.021439E-2,-9.2095196E-2,-4.4832397E-2,-7.235276E-2,-4.0836453E-2,-2.1387408E-2,-7.699413E-2,-5.286556E-2,-1.1016492E-2,1.3433299E-2,-6.556142E-2,-3.1137196E-2,1.2884682E-2,-3.0163454E-2,1.2065792E-2,4.7612425E-2,-5.7342466E-2,-2.4094863E-2,-1.2832865E-2,1.4257737E-2,3.4332935E-2,5.5485886E-2,-9.77123E-3,2.5160747E-2,4.8780788E-2,9.0444155E-5,6.8512715E-2,8.449696E-2],"categories":[],"categories_nodes":[],"categories_segments":[],"categories_sizes":[],"default_left":[0,0,0,0,0,0,0,0,0,0,0,0,0,0,0,0,0,0,0,0,0,0,0,0,0,0,0,0,0,0,0,0,0,0,0,0,0,0,0,0,0,0,0,0,0,0,0,0,0,0,0,0,0,0,0,0,0,0,0,0,0,0,0,0,0,0,0,0,0,0,0,0,0,0,0,0,0,0,0,0,0,0,0,0,0,0,0,0,0,0,0,0,0,0,0,0,0,0,0,0,0,0,0,0,0,0,0,0,0,0,0,0,0,0,0,0,0,0,0,0,0,0,0,0,0,0,0],"id":1,"left_children":[1,3,5,7,9,11,13,15,17,19,21,23,25,27,29,31,33,35,37,39,41,43,45,47,49,51,53,55,57,59,61,63,65,67,69,71,73,75,77,79,81,83,85,87,89,91,93,95,97,99,101,103,105,107,109,111,113,115,117,119,121,123,125,-1,-1,-1,-1,-1,-1,-1,-1,-1,-1,-1,-1,-1,-1,-1,-1,-1,-1,-1,-1,-1,-1,-1,-1,-1,-1,-1,-1,-1,-1,-1,-1,-1,-1,-1,-1,-1,-1,-1,-1,-1,-1,-1,-1,-1,-1,-1,-1,-1,-1,-1,-1,-1,-1,-1,-1,-1,-1,-1,-1,-1,-1,-1,-1],"loss_changes":[1.3938586E7,5.43928E5,5.982519E5,9.9716E4,6.2285E4,9.876297E4,6.83125E4,1.5839E4,1.5811E4,9.62525E3,8.104625E3,1.6934969E4,1.029959E4,2.1000906E4,1.25681875E4,5.5135E3,7.162E3,2.0913125E3,1.6375E4,5.359125E3,2.40325E3,1.6099688E3,1.1927188E3,1.6480312E3,2.2193203E3,1.4079072E3,1.1140004E4,2.2451406E4,2.8892769E3,3.0477002E3,1.34434375E4,6.46E3,3.0154062E3,1.3392969E3,7.374E3,1.4456875E3,3.9414453E2,9.193E3,3.652125E3,6.3705E3,9.106328E2,2.7555625E3,3.923125E2,2.4323828E2,1.49525E3,2.4453125E2,7.8984375E1,2.5998438E2,2.4297266E2,2.9921484E2,2.2475898E3,5.6898535E2,2.982666E2,8.428701E3,1.659127E3,4.504285E3,1.12535625E4,7.3121313E2,9.966769E2,5.7632227E2,1.2366956E3,5.2505293E3,5.5991875E3,0E0,0E0,0E0,0E0,0E0,0E0,0E0,0E0,0E0,0E0,0E0,0E0,0E0,0E0,0E0,0E0,0E0,0E0,0E0,0E0,0E0,0E0,0E0,0E0,0E0,0E0,0E0,0E0,0E0,0E0,0E0,0E0,0E0,0E0,0E0,0E0,0E0,0E0,0E0,0E0,0E0,0E0,0E0,0E0,0E0,0E0,0E0,0E0,0E0,0E0,0E0,0E0,0E0,0E0,0E0,0E0,0E0,0E0,0E0,0E0,0E0,0E0,0E0,0E0],"parents":[2147483647,0,0,1,1,2,2,3,3,4,4,5,5,6,6,7,7,8,8,9,9,10,10,11,11,12,12,13,13,14,14,15,15,16,16,17,17,18,18,19,19,20,20,21,21,22,22,23,23,24,24,25,25,26,26,27,27,28,28,29,29,30,30,31,31,32,32,33,33,34,34,35,35,36,36,37,37,38,38,39,39,40,40,41,41,42,42,43,43,44,44,45,45,46,46,47,47,48,48,49,49,50,50,51,51,52,52,53,53,54,54,55,55,56,56,57,57,58,58,59,59,60,60,61,61,62,62],"right_children":[2,4,6,8,10,12,14,16,18,20,22,24,26,28,30,32,34,36,38,40,42,44,46,48,50,52,54,56,58,60,62,64,66,68,70,72,74,76,78,80,82,84,86,88,90,92,94,96,98,100,102,104,106,108,110,112,114,116,118,120,122,124,126,-1,-1,-1,-1,-1,-1,-1,-1,-1,-1,-1,-1,-1,-1,-1,-1,-1,-1,-1,-1,-1,-1,-1,-1,-1,-1,-1,-1,-1,-1,-1,-1,-1,-1,-1,-1,-1,-1,-1,-1,-1,-1,-1,-1,-1,-1,-1,-1,-1,-1,-1,-1,-1,-1,-1,-1,-1,-1,-1,-1,-1,-1,-1,-1],"split_conditions":[0E0,-5.182495E-2,5.4247484E-2,-1.3054852E-1,-1.770413E-2,2.1316882E-2,1.3471869E-1,-2.0049186E-1,-2.0487742E-1,-3.0127387E-2,-7.4157403E-3,7.1098064E-3,-6.83306E-2,2.1097186E-1,9.754872E-2,-1.5494128E-1,-2.8640202E-1,7.712447E-2,2.1237545E-2,9.229672E-2,9.941148E-2,-1.0454575E-1,-2.980041E-3,2.8816226E-3,-9.515309E-2,9.942857E-2,1.3969949E-1,-3.9981537E-2,5.424259E-2,2.2675966E-1,1.0683767E-1,-1.5482017E-1,-4.3844432E-1,-9.7469725E-2,-5.7114244E-2,-8.855711E-2,-3.921957E-1,-8.011566E-2,-1.6527624E-1,-1.1169493E-1,-9.083066E-2,-9.080735E-2,-8.0283076E-2,4.394843E-2,7.716173E-2,-9.9716455E-2,-1.3454631E-3,1.4197815E-3,-8.8529766E-2,9.2231914E-2,1.12866476E-1,3.821888E-2,-1.2214588E-1,3.6843978E-2,-2.8439318E-3,1.8551007E-1,-4.1648682E-2,-1.7269027E-1,9.751161E-2,-9.290146E-2,-1.7269027E-1,2.9224762E-1,3.8024095E-1,-2.8769755E-1,-2.558157E-1,-2.1693614E-1,-2.6718628E-1,-2.3691033E-1,-2.0055471E-1,-2.7078602E-1,-2.3880515E-1,-2.1732217E-1,-1.8885551E-1,-1.459271E-1,-1.7830256E-1,-2.545703E-1,-2.3363428E-1,-1.842335E-1,-2.1952997E-1,-1.7414486E-1,-2.1176662E-1,-1.4184514E-1,-1.7649874E-1,-1.5725848E-1,-1.8601714E-1,-1.2877251E-1,-1.5623471E-1,-1.3749208E-1,-1.1642199E-1,-1.6109592E-1,-1.3473544E-1,-1.176202E-1,-1.3364105E-1,-1.1732081E-1,-1.102585E-1,-1.0226885E-1,-9.111208E-2,-9.367238E-2,-7.774476E-2,-7.021439E-2,-9.2095196E-2,-4.4832397E-2,-7.235276E-2,-4.0836453E-2,-2.1387408E-2,-7.699413E-2,-5.286556E-2,-1.1016492E-2,1.3433299E-2,-6.556142E-2,-3.1137196E-2,1.2884682E-2,-3.0163454E-2,1.2065792E-2,4.7612425E-2,-5.7342466E-2,-2.4094863E-2,-1.2832865E-2,1.4257737E-2,3.4332935E-2,5.5485886E-2,-9.77123E-3,2.5160747E-2,4.8780788E-2,9.0444155E-5,6.8512715E-2,8.449696E-2],"split_indices":[0,0,0,0,0,0,0,0,8,0,0,0,1,1,5,4,1,1,7,1,1,8,0,0,8,6,1,1,5,3,4,5,6,5,3,0,7,0,3,2,5,1,6,3,7,8,0,0,8,2,8,0,3,0,5,7,8,8,0,8,8,7,0,0,0,0,0,0,0,0,0,0,0,0,0,0,0,0,0,0,0,0,0,0,0,0,0,0,0,0,0,0,0,0,0,0,0,0,0,0,0,0,0,0,0,0,0,0,0,0,0,0,0,0,0,0,0,0,0,0,0,0,0,0,0,0,0],"split_type":[0,0,0,0,0,0,0,0,0,0,0,0,0,0,0,0,0,0,0,0,0,0,0,0,0,0,0,0,0,0,0,0,0,0,0,0,0,0,0,0,0,0,0,0,0,0,0,0,0,0,0,0,0,0,0,0,0,0,0,0,0,0,0,0,0,0,0,0,0,0,0,0,0,0,0,0,0,0,0,0,0,0,0,0,0,0,0,0,0,0,0,0,0,0,0,0,0,0,0,0,0,0,0,0,0,0,0,0,0,0,0,0,0,0,0,0,0,0,0,0,0,0,0,0,0,0,0],"sum_hessian":[7.168075E7,3.3952436E7,3.772832E7,2.4727366E7,9.225071E6,1.0895538E7,2.683278E7,1.4667144E7,1.0060222E7,5.872864E6,3.352207E6,4.467888E6,6.42765E6,1.2544653E7,1.4288127E7,9.090419E6,5.576725E6,8.75333E5,9.184889E6,3.635877E6,2.236987E6,1.926837E6,1.42537E6,1.666722E6,2.801166E6,7.475E5,5.68015E6,1.1713872E7,8.30781E5,9.32548E5,1.3355579E7,8.432468E6,6.57951E5,4.2102E5,5.155705E6,6.75643E5,1.9969E5,7.772365E6,1.412524E6,3.286146E6,3.49731E5,2.020125E6,2.16862E5,2.24059E5,1.702778E6,8.48923E5,5.76447E5,8.40509E5,8.26213E5,2.78972E5,2.522194E6,5.52952E5,1.94548E5,5.086481E6,5.93669E5,1.499694E6,1.0214178E7,3.12863E5,5.17918E5,5.16939E5,4.15609E5,1.039213E6,1.2316366E7,7.815207E6,6.17261E5,1.35342E5,5.22609E5,2.8734E5,1.3368E5,4.394336E6,7.61369E5,4.12683E5,2.6296E5,4.3228E4,1.56462E5,4.542147E6,3.230218E6,3.51161E5,1.061363E6,4.7326E5,2.812886E6,9.3001E4,2.5673E5,3.66331E5,1.653794E6,6.8451E4,1.48411E5,1.50678E5,7.3381E4,1.479909E6,2.22869E5,9.6856E4,7.52067E5,3.15954E5,2.60493E5,5.56444E5,2.84065E5,9.7799E4,7.28414E5,2.00819E5,7.8153E4,2.21855E6,3.03644E5,3.1623E5,2.36722E5,7.5124E4,1.19424E5,2.427223E6,2.659258E6,1.81492E5,4.12177E5,1.233794E6,2.659E5,8.76829E5,9.337349E6,7.9981E4,2.32882E5,1.9766E5,3.20258E5,1.75527E5,3.41412E5,1.35184E5,2.80425E5,7.70307E5,2.68906E5,9.850191E6,2.466175E6],"tree_param":{"num_deleted":"0","num_feature":"9","num_nodes":"127","size_leaf_vector":"0"}},{"base_weights":[-2.2669455E-1,-5.5208474E-1,6.613032E-2,-6.17138E-1,-4.2888623E-1,-6.2063932E-2,1.2805617E-1,-6.560697E-1,-5.787504E-1,-4.8194116E-1,-3.5087594E-1,-1.4447153E-1,-4.709027E-3,7.0685074E-2,1.4623319E-1,-6.616356E-1,-5.7424307E-1,-4.7871044E-1,-5.8882594E-1,-4.9402627E-1,-3.839898E-1,-3.9100185E-1,-3.0626434E-1,-1.9756666E-1,-1.022608E-1,-1.0190585E-1,6.4818743E-3,8.323297E-2,-5.1430833E-2,5.1192526E-2,1.5232477E-1,-6.6812325E-1,-5.7722795E-1,-4.1970825E-1,-5.934084E-1,-5.1816964E-1,-4.2463326E-1,-6.034775E-1,-5.04642E-1,-3.9395717E-1,-5.093572E-1,-3.2141146E-1,-4.0796155E-1,-3.1750736E-1,-4.0072307E-1,-3.3093596E-1,-2.8100693E-1,-2.2403742E-1,-1.7162026E-1,-9.4289444E-2,-1.8361703E-1,-7.7275835E-2,-1.7339736E-1,-1.0482313E-1,1.8433653E-2,-2.9512104E-2,9.454161E-2,-1.9184908E-2,-1.1055082E-1,9.578441E-2,-3.8529383E-3,4.554441E-2,1.5887636E-1,-2.1952192E-1,-1.9957885E-1,-1.1664388E-1,-1.7758052E-1,-1.4404668E-1,-1.0122398E-1,-1.8450932E-1,-1.5672249E-1,-1.6149294E-1,-1.3364692E-1,-1.07646726E-1,-1.319232E-1,-1.8389973E-1,-1.6277519E-1,-1.2398108E-1,-1.5766507E-1,-1.2742421E-1,-9.735577E-2,-1.6044268E-1,-1.4327571E-1,-1.0553027E-1,-7.931121E-2,-1.3272132E-1,-1.1457052E-1,-1.028246E-1,-8.344036E-2,-1.2403413E-1,-9.760301E-2,-1.0115403E-1,-8.280085E-2,-8.905611E-2,-7.989083E-2,-7.158825E-2,-6.277596E-2,-6.666646E-2,-4.969209E-2,-4.8915453E-2,-2.4766728E-2,-6.856873E-2,-4.8886467E-2,-4.007364E-2,-1.7792549E-2,-4.5809243E-2,-6.777087E-2,-2.064798E-2,-4.6681724E-2,8.182807E-3,-2.2622667E-2,-1.2174837E-4,-2.9747136E-2,3.1091914E-2,2.1638963E-3,-1.6843595E-2,1.4733084E-3,-2.6372405E-2,-4.677365E-2,1.1377705E-2,3.352693E-2,-1.0123158E-2,2.0617783E-2,2.809781E-2,-9.049382E-3,4.5262605E-2,5.7790045E-2],"categories":[],"categories_nodes":[],"categories_segments":[],"categories_sizes":[],"default_left":[0,0,0,0,0,0,0,0,0,0,0,0,0,0,0,0,0,0,0,0,0,0,0,0,0,0,0,0,0,0,0,0,0,0,0,0,0,0,0,0,0,0,0,0,0,0,0,0,0,0,0,0,0,0,0,0,0,0,0,0,0,0,0,0,0,0,0,0,0,0,0,0,0,0,0,0,0,0,0,0,0,0,0,0,0,0,0,0,0,0,0,0,0,0,0,0,0,0,0,0,0,0,0,0,0,0,0,0,0,0,0,0,0,0,0,0,0,0,0,0,0,0,0,0,0,0,0],"id":2,"left_children":[1,3,5,7,9,11,13,15,17,19,21,23,25,27,29,31,33,35,37,39,41,43,45,47,49,51,53,55,57,59,61,63,65,67,69,71,73,75,77,79,81,83,85,87,89,91,93,95,97,99,101,103,105,107,109,111,113,115,117,119,121,123,125,-1,-1,-1,-1,-1,-1,-1,-1,-1,-1,-1,-1,-1,-1,-1,-1,-1,-1,-1,-1,-1,-1,-1,-1,-1,-1,-1,-1,-1,-1,-1,-1,-1,-1,-1,-1,-1,-1,-1,-1,-1,-1,-1,-1,-1,-1,-1,-1,-1,-1,-1,-1,-1,-1,-1,-1,-1,-1,-1,-1,-1,-1,-1,-1],"loss_changes":[6.8299095E6,2.72111E5,2.9950762E5,3.3207E4,4.856E4,5.808301E4,2.6529219E4,5.0235E3,1.127675E4,8.266375E3,8.50175E3,1.1302336E4,7.881433E3,9.378867E3,1.1184531E4,5.656E3,2.0806406E3,2.1842188E3,1.253675E4,9.53675E3,1.1504219E3,1.7862812E3,1.4013438E3,1.5340078E3,1.8219883E3,1.3173091E3,8.643854E3,7.076801E3,1.0872666E3,2.8562512E3,1.2700906E4,1.745E3,2.0427031E3,3.8548633E2,9.592969E2,8.6609375E2,4.293125E2,5.01925E3,2.8783438E3,1.7655469E3,4.35875E3,3.677422E2,4.975703E2,2.9020117E2,2.1179062E3,3.9014062E2,2.58875E2,2.3842578E2,3.4127344E2,2.0644902E3,2.3278906E2,5.628816E2,2.0831348E2,1.1517373E3,4.868918E3,1.0256674E3,4.007957E3,3.286701E2,2.0673096E2,5.940791E2,1.1298062E3,3.823141E3,4.6200312E3,0E0,0E0,0E0,0E0,0E0,0E0,0E0,0E0,0E0,0E0,0E0,0E0,0E0,0E0,0E0,0E0,0E0,0E0,0E0,0E0,0E0,0E0,0E0,0E0,0E0,0E0,0E0,0E0,0E0,0E0,0E0,0E0,0E0,0E0,0E0,0E0,0E0,0E0,0E0,0E0,0E0,0E0,0E0,0E0,0E0,0E0,0E0,0E0,0E0,0E0,0E0,0E0,0E0,0E0,0E0,0E0,0E0,0E0,0E0,0E0,0E0,0E0,0E0,0E0],"parents":[2147483647,0,0,1,1,2,2,3,3,4,4,5,5,6,6,7,7,8,8,9,9,10,10,11,11,12,12,13,13,14,14,15,15,16,16,17,17,18,18,19,19,20,20,21,21,22,22,23,23,24,24,25,25,26,26,27,27,28,28,29,29,30,30,31,31,32,32,33,33,34,34,35,35,36,36,37,37,38,38,39,39,40,40,41,41,42,42,43,43,44,44,45,45,46,46,47,47,48,48,49,49,50,50,51,51,52,52,53,53,54,54,55,55,56,56,57,57,58,58,59,59,60,60,61,61,62,62],"right_children":[2,4,6,8,10,12,14,16,18,20,22,24,26,28,30,32,34,36,38,40,42,44,46,48,50,52,54,56,58,60,62,64,66,68,70,72,74,76,78,80,82,84,86,88,90,92,94,96,98,100,102,104,106,108,110,112,114,116,118,120,122,124,126,-1,-1,-1,-1,-1,-1,-1,-1,-1,-1,-1,-1,-1,-1,-1,-1,-1,-1,-1,-1,-1,-1,-1,-1,-1,-1,-1,-1,-1,-1,-1,-1,-1,-1,-1,-1,-1,-1,-1,-1,-1,-1,-1,-1,-1,-1,-1,-1,-1,-1,-1,-1,-1,-1,-1,-1,-1,-1,-1,-1,-1,-1,-1,-1],"split_conditions":[0E0,-6.8271205E-2,6.1683826E-2,-1.7263931E-1,-2.5398305E-2,2.42275E-2,9.751161E-2,-1.2504685E-1,-2.286655E-1,6.173406E-2,-1.1776519E-2,9.997003E-3,-2.791107E-3,1.7127456E-1,6.616636E-2,-1.3337497E-1,-5.0793135E-1,-1.1951415E-1,3.6889464E-2,-1.248321E-1,-9.74945E-2,-9.7666E-2,-5.7687834E-3,4.2424626E-3,1.2773871E-1,1.3722542E-1,-3.667476E-2,-7.621605E-2,2.587275E-1,1.85674E-1,6.457529E-2,-7.8719985E-1,-5.530444E-1,2.3254506E-1,1.8174288E-1,3.976694E-2,-3.751279E-1,-3.3436403E-2,-2.1915916E-1,2.8829437E-3,-4.3155912E-2,1.6477E-1,-4.486581E-2,1.5686773E-2,4.696724E-2,1.03098266E-1,-2.980041E-3,1.4197815E-3,-6.079E-2,-3.9803937E-2,-2.241586E-2,-1.4217949E-1,2.9224762E-1,9.932451E-2,1.3966903E-1,1.3983417E-1,1.5578806E-1,5.709711E-2,2.6610798E-1,-1.6872272E-1,1.9794439E-1,2.2124603E-1,3.363706E-1,-2.1952192E-1,-1.9957885E-1,-1.1664388E-1,-1.7758052E-1,-1.4404668E-1,-1.0122398E-1,-1.8450932E-1,-1.5672249E-1,-1.6149294E-1,-1.3364692E-1,-1.07646726E-1,-1.319232E-1,-1.8389973E-1,-1.6277519E-1,-1.2398108E-1,-1.5766507E-1,-1.2742421E-1,-9.735577E-2,-1.6044268E-1,-1.4327571E-1,-1.0553027E-1,-7.931121E-2,-1.3272132E-1,-1.1457052E-1,-1.028246E-1,-8.344036E-2,-1.2403413E-1,-9.760301E-2,-1.0115403E-1,-8.280085E-2,-8.905611E-2,-7.989083E-2,-7.158825E-2,-6.277596E-2,-6.666646E-2,-4.969209E-2,-4.8915453E-2,-2.4766728E-2,-6.856873E-2,-4.8886467E-2,-4.007364E-2,-1.7792549E-2,-4.5809243E-2,-6.777087E-2,-2.064798E-2,-4.6681724E-2,8.182807E-3,-2.2622667E-2,-1.2174837E-4,-2.9747136E-2,3.1091914E-2,2.1638963E-3,-1.6843595E-2,1.4733084E-3,-2.6372405E-2,-4.677365E-2,1.1377705E-2,3.352693E-2,-1.0123158E-2,2.0617783E-2,2.809781E-2,-9.049382E-3,4.5262605E-2,5.7790045E-2],"split_indices":[0,0,0,0,0,0,0,5,1,7,0,0,4,8,5,4,2,0,1,7,4,7,0,0,1,6,6,8,8,3,4,0,8,8,8,8,2,6,6,4,0,6,0,4,6,1,0,0,3,3,5,1,7,3,8,3,1,4,6,8,0,6,0,0,0,0,0,0,0,0,0,0,0,0,0,0,0,0,0,0,0,0,0,0,0,0,0,0,0,0,0,0,0,0,0,0,0,0,0,0,0,0,0,0,0,0,0,0,0,0,0,0,0,0,0,0,0,0,0,0,0,0,0,0,0,0,0],"split_type":[0,0,0,0,0,0,0,0,0,0,0,0,0,0,0,0,0,0,0,0,0,0,0,0,0,0,0,0,0,0,0,0,0,0,0,0,0,0,0,0,0,0,0,0,0,0,0,0,0,0,0,0,0,0,0,0,0,0,0,0,0,0,0,0,0,0,0,0,0,0,0,0,0,0,0,0,0,0,0,0,0,0,0,0,0,0,0,0,0,0,0,0,0,0,0,0,0,0,0,0,0,0,0,0,0,0,0,0,0,0,0,0,0,0,0,0,0,0,0,0,0,0,0,0,0,0,0],"sum_hessian":[7.168075E7,3.3952436E7,3.772832E7,2.2219652E7,1.1732786E7,1.2288853E7,2.5439464E7,1.1031644E7,1.1188007E7,6.983376E6,4.74941E6,5.043026E6,7.245827E6,6.120785E6,1.931868E7,1.0329048E7,7.02596E5,1.023706E6,1.0164301E7,6.2164E6,7.66976E5,2.50041E6,2.249E6,2.233542E6,2.809484E6,7.48122E5,6.497705E6,5.550454E6,5.70331E5,1.16364E6,1.815504E7,9.591808E6,7.3724E5,7.7524E4,6.25072E5,5.91841E5,4.31865E5,8.657523E6,1.506778E6,8.25855E5,5.390545E6,2.12433E5,5.54543E5,2.92101E5,2.208309E6,1.137687E6,1.111313E6,1.105595E6,1.127947E6,2.558775E6,2.50709E5,5.56426E5,1.91696E5,6.30059E5,5.867646E6,5.05975E5,5.044479E6,3.69044E5,2.01287E5,6.42862E5,5.20778E5,1.049523E6,1.7105516E7,4.12717E5,9.179091E6,5.3382E4,6.83858E5,4.4692E4,3.2832E4,4.79144E5,1.45928E5,4.63418E5,1.28423E5,8.0648E4,3.51217E5,7.486839E6,1.170684E6,2.80589E5,1.226189E6,5.72148E5,2.53707E5,2.992933E6,2.397612E6,1.38644E5,7.3789E4,2.38847E5,3.15696E5,1.77988E5,1.14113E5,1.88938E6,3.18929E5,1.021563E6,1.16124E5,5.34866E5,5.76447E5,5.56444E5,5.49151E5,1.19207E5,1.00874E6,3.72985E5,2.18579E6,7.8954E4,1.71755E5,1.34608E5,4.21818E5,1.37494E5,5.4202E4,3.68708E5,2.61351E5,5.362374E6,5.05272E5,3.56843E5,1.49132E5,4.56852E6,4.75959E5,1.45643E5,2.23401E5,1.34268E5,6.7019E4,1.39073E5,5.03789E5,3.68865E5,1.51913E5,6.41704E5,4.07819E5,1.382804E7,3.277477E6],"tree_param":{"num_deleted":"0","num_feature":"9","num_nodes":"127","size_leaf_vector":"0"}},{"base_weights":[-1.5868625E-1,-3.8645944E-1,4.6291202E-2,-4.3481335E-1,-3.0425403E-1,-7.006932E-2,8.102696E-2,-4.495706E-1,-3.9010295E-1,-3.3836198E-1,-2.4239334E-1,-1.2896541E-1,-3.8412027E-2,3.062435E-2,1.0037921E-1,-4.5518032E-1,-3.8164437E-1,-3.0777255E-1,-4.022782E-1,-2.5529253E-1,-3.4829623E-1,-2.6793322E-1,-2.0976052E-1,-1.5682632E-1,-1.1297726E-1,-9.2728086E-2,-2.8631052E-2,4.030593E-2,-5.5096906E-2,5.0097827E-2,1.0873666E-1,-4.6138594E-1,-3.7952757E-1,-3.3812392E-1,-4.257017E-1,-3.204254E-1,-2.2459203E-1,-3.1823644E-1,-4.1737974E-1,-2.8071076E-1,-2.1704295E-1,-3.618832E-1,-2.641151E-1,-2.1111505E-1,-2.7631584E-1,-2.2312701E-1,-1.9267583E-1,-1.6703936E-1,-1.4647734E-1,-1.58867E-1,-1.06597885E-1,-7.343791E-2,-1.3375053E-1,-1.5821705E-2,-8.933776E-2,4.9644027E-2,-5.3166315E-2,-9.569343E-2,-2.8554276E-2,7.350357E-2,6.631589E-3,4.6854287E-2,1.17943704E-1,-1.3993616E-1,-1.3010421E-1,-9.8583505E-2,-1.2518103E-1,-1.0659773E-1,-7.1541615E-2,-1.3020606E-1,-1.11428455E-1,-7.935027E-2,-1.0125123E-1,-4.316047E-2,-7.28829E-2,-1.04348026E-1,-8.8342056E-2,-1.2826604E-1,-1.1028679E-1,-7.447947E-2,-9.2506945E-2,-4.8930615E-2,-6.962475E-2,-1.1510008E-1,-1.0057773E-1,-6.0493845E-2,-8.549632E-2,-7.023484E-2,-5.480579E-2,-8.6265475E-2,-6.5153286E-2,-5.3155247E-2,-6.8894684E-2,-5.979235E-2,-5.3213917E-2,-4.5938496E-2,-5.1377773E-2,-5.3552557E-2,-4.266953E-2,-4.2309545E-2,-5.6513283E-2,-2.9773684E-2,-4.757526E-2,-3.518009E-2,-1.7296378E-2,-5.1996194E-2,-3.6641043E-2,-2.1332053E-2,-2.3936527E-3,-3.9414946E-2,-1.975055E-2,-2.2546477E-3,1.7812364E-2,-1.008179E-2,-4.038655E-2,-2.4983317E-2,-4.8082713E-2,-2.4613647E-3,-2.4660869E-2,1.5872288E-2,3.547254E-2,-7.024738E-3,2.5635898E-2,1.9001165E-2,-1.4375113E-2,3.060497E-2,4.0172596E-2],"categories":[],"categories_nodes":[],"categories_segments":[],"categories_sizes":[],"default_left":[0,0,0,0,0,0,0,0,0,0,0,0,0,0,0,0,0,0,0,0,0,0,0,0,0,0,0,0,0,0,0,0,0,0,0,0,0,0,0,0,0,0,0,0,0,0,0,0,0,0,0,0,0,0,0,0,0,0,0,0,0,0,0,0,0,0,0,0,0,0,0,0,0,0,0,0,0,0,0,0,0,0,0,0,0,0,0,0,0,0,0,0,0,0,0,0,0,0,0,0,0,0,0,0,0,0,0,0,0,0,0,0,0,0,0,0,0,0,0,0,0,0,0,0,0,0,0],"id":3,"left_children":[1,3,5,7,9,11,13,15,17,19,21,23,25,27,29,31,33,35,37,39,41,43,45,47,49,51,53,55,57,59,61,63,65,67,69,71,73,75,77,79,81,83,85,87,89,91,93,95,97,99,101,103,105,107,109,111,113,115,117,119,121,123,125,-1,-1,-1,-1,-1,-1,-1,-1,-1,-1,-1,-1,-1,-1,-1,-1,-1,-1,-1,-1,-1,-1,-1,-1,-1,-1,-1,-1,-1,-1,-1,-1,-1,-1,-1,-1,-1,-1,-1,-1,-1,-1,-1,-1,-1,-1,-1,-1,-1,-1,-1,-1,-1,-1,-1,-1,-1,-1,-1,-1,-1,-1,-1,-1],"loss_changes":[3.3466568E6,1.349595E5,1.52493E5,1.410525E4,2.6531625E4,1.6171508E4,2.8340266E4,6.1245E3,5.317625E3,6.6888125E3,3.7246562E3,1.3506602E3,2.9969707E3,6.689775E3,8.822219E3,6.96975E3,2.3508281E3,7.192461E2,5.865375E3,8.416992E2,8.2805E3,1.1939844E3,4.4802344E2,1.1683203E2,5.6399805E2,6.8118945E2,3.7172886E3,6.3218613E3,8.814407E2,3.0441113E3,1.0256672E4,1.9265E3,2.1627656E3,1.0572734E3,2.7491406E2,5.665078E2,1.3364355E2,4.9489844E2,1.983E3,4.6648438E2,2.8037695E2,3.6151875E3,1.3118125E3,2.1072266E2,1.4515781E3,3.298125E2,8.733594E1,3.263867E1,7.46543E1,1.2373291E2,6.464961E2,4.0502734E2,1.2650488E2,1.7115923E3,8.230708E2,3.6624727E3,1.0481433E3,2.592937E2,5.3999854E2,1.7920625E3,2.4803677E3,3.642059E3,3.9845938E3,0E0,0E0,0E0,0E0,0E0,0E0,0E0,0E0,0E0,0E0,0E0,0E0,0E0,0E0,0E0,0E0,0E0,0E0,0E0,0E0,0E0,0E0,0E0,0E0,0E0,0E0,0E0,0E0,0E0,0E0,0E0,0E0,0E0,0E0,0E0,0E0,0E0,0E0,0E0,0E0,0E0,0E0,0E0,0E0,0E0,0E0,0E0,0E0,0E0,0E0,0E0,0E0,0E0,0E0,0E0,0E0,0E0,0E0,0E0,0E0,0E0,0E0,0E0,0E0],"parents":[2147483647,0,0,1,1,2,2,3,3,4,4,5,5,6,6,7,7,8,8,9,9,10,10,11,11,12,12,13,13,14,14,15,15,16,16,17,17,18,18,19,19,20,20,21,21,22,22,23,23,24,24,25,25,26,26,27,27,28,28,29,29,30,30,31,31,32,32,33,33,34,34,35,35,36,36,37,37,38,38,39,39,40,40,41,41,42,42,43,43,44,44,45,45,46,46,47,47,48,48,49,49,50,50,51,51,52,52,53,53,54,54,55,55,56,56,57,57,58,58,59,59,60,60,61,61,62,62],"right_children":[2,4,6,8,10,12,14,16,18,20,22,24,26,28,30,32,34,36,38,40,42,44,46,48,50,52,54,56,58,60,62,64,66,68,70,72,74,76,78,80,82,84,86,88,90,92,94,96,98,100,102,104,106,108,110,112,114,116,118,120,122,124,126,-1,-1,-1,-1,-1,-1,-1,-1,-1,-1,-1,-1,-1,-1,-1,-1,-1,-1,-1,-1,-1,-1,-1,-1,-1,-1,-1,-1,-1,-1,-1,-1,-1,-1,-1,-1,-1,-1,-1,-1,-1,-1,-1,-1,-1,-1,-1,-1,-1,-1,-1,-1,-1,-1,-1,-1,-1,-1,-1,-1,-1,-1,-1,-1],"split_conditions":[0E0,-7.413483E-2,4.2676162E-2,-1.16887584E-1,-2.3841137E-2,1.4053041E-2,8.701968E-2,-9.287539E-2,-1.5519962E-1,-1.1686104E-1,-1.0251297E-2,4.2424626E-3,-5.3578485E-2,1.3002664E-1,-8.729075E-3,-9.289893E-2,-1.9643185E-1,9.5753096E-2,-1.6176897E-1,-2.8439318E-3,2.826132E-2,-7.405472E-2,-4.467368E-3,1.4197815E-3,-5.173068E-2,7.712447E-2,1.0325277E-1,1.3483052E-1,2.4061106E-2,1.7831193E-1,-1.4198716E-3,-3.832788E-2,-2.3448539E-1,3.1243944E-1,2.1591295E-1,-2.7858543E-1,-3.0258894E-1,-7.626564E-2,1.977756E-2,-1.7653075E-1,-2.789319E-1,-4.486581E-2,-1.11962646E-1,1.5649334E-2,6.3128494E-2,-6.640978E-2,-1.3454631E-3,0E0,-7.816677E-2,6.614492E-2,7.711358E-2,-1.6213517E-1,-2.1903501E-1,-5.0000556E-2,-7.3971795E-3,-3.0102083E-2,2.830633E-1,3.1218028E-1,2.213667E-1,2.0190215E-1,2.2652827E-1,3.9898273E-1,1.7499799E-1,-1.3993616E-1,-1.3010421E-1,-9.8583505E-2,-1.2518103E-1,-1.0659773E-1,-7.1541615E-2,-1.3020606E-1,-1.11428455E-1,-7.935027E-2,-1.0125123E-1,-4.316047E-2,-7.28829E-2,-1.04348026E-1,-8.8342056E-2,-1.2826604E-1,-1.1028679E-1,-7.447947E-2,-9.2506945E-2,-4.8930615E-2,-6.962475E-2,-1.1510008E-1,-1.0057773E-1,-6.0493845E-2,-8.549632E-2,-7.023484E-2,-5.480579E-2,-8.6265475E-2,-6.5153286E-2,-5.3155247E-2,-6.8894684E-2,-5.979235E-2,-5.3213917E-2,-4.5938496E-2,-5.1377773E-2,-5.3552557E-2,-4.266953E-2,-4.2309545E-2,-5.6513283E-2,-2.9773684E-2,-4.757526E-2,-3.518009E-2,-1.7296378E-2,-5.1996194E-2,-3.6641043E-2,-2.1332053E-2,-2.3936527E-3,-3.9414946E-2,-1.975055E-2,-2.2546477E-3,1.7812364E-2,-1.008179E-2,-4.038655E-2,-2.4983317E-2,-4.8082713E-2,-2.4613647E-3,-2.4660869E-2,1.5872288E-2,3.547254E-2,-7.024738E-3,2.5635898E-2,1.9001165E-2,-1.4375113E-2,3.060497E-2,4.0172596E-2],"split_indices":[0,0,0,0,0,0,0,5,6,3,0,0,8,6,8,4,3,3,1,5,3,3,0,0,6,1,8,3,4,1,1,1,6,8,8,8,5,5,1,1,3,0,5,5,2,3,0,1,2,3,6,8,8,1,3,1,1,6,8,0,5,8,0,0,0,0,0,0,0,0,0,0,0,0,0,0,0,0,0,0,0,0,0,0,0,0,0,0,0,0,0,0,0,0,0,0,0,0,0,0,0,0,0,0,0,0,0,0,0,0,0,0,0,0,0,0,0,0,0,0,0,0,0,0,0,0,0],"split_type":[0,0,0,0,0,0,0,0,0,0,0,0,0,0,0,0,0,0,0,0,0,0,0,0,0,0,0,0,0,0,0,0,0,0,0,0,0,0,0,0,0,0,0,0,0,0,0,0,0,0,0,0,0,0,0,0,0,0,0,0,0,0,0,0,0,0,0,0,0,0,0,0,0,0,0,0,0,0,0,0,0,0,0,0,0,0,0,0,0,0,0,0,0,0,0,0,0,0,0,0,0,0,0,0,0,0,0,0,0,0,0,0,0,0,0,0,0,0,0,0,0,0,0,0,0,0,0],"sum_hessian":[7.168075E7,3.3952436E7,3.772832E7,2.1377822E7,1.2574615E7,8.673421E6,2.9054896E7,1.6072777E7,5.305045E6,8.105503E6,4.469112E6,3.032211E6,5.64121E6,8.060769E6,2.0994128E7,1.4846652E7,1.226125E6,6.83457E5,4.621588E6,8.65798E5,7.239705E6,2.507009E6,1.962103E6,1.105595E6,1.926616E6,8.60827E5,4.780383E6,7.242754E6,8.18015E5,2.992169E6,1.800196E7,1.3721137E7,1.125515E6,6.16825E5,6.093E5,5.93218E5,9.0239E4,7.03965E5,3.917623E6,5.2014E5,3.45658E5,6.23359E6,1.006115E6,3.2232E5,2.184689E6,1.100834E6,8.61269E5,5.56444E5,5.49151E5,2.35138E5,1.691478E6,5.85505E5,2.75322E5,3.947456E6,8.32927E5,6.584907E6,6.57847E5,3.23391E5,4.94624E5,1.944885E6,1.047284E6,2.331498E6,1.5670461E7,1.159933E7,2.121807E6,4.79144E5,6.46371E5,5.26021E5,9.0804E4,5.28318E5,8.0982E4,1.38784E5,4.54434E5,1.6716E4,7.3523E4,3.13532E5,3.90433E5,3.252571E6,6.65052E5,2.393E5,2.8084E5,7.5365E4,2.70293E5,3.428445E6,2.805145E6,2.51981E5,7.54134E5,1.78165E5,1.44155E5,1.835884E6,3.48805E5,1.36849E5,9.63985E5,6.00776E5,2.60493E5,1.29518E5,4.26926E5,6.4264E4,4.84887E5,1.46565E5,8.8573E4,1.4819E6,2.09578E5,1.5502E5,4.30485E5,6.2468E4,2.12854E5,4.90421E5,3.457035E6,2.98649E5,5.34278E5,9.57909E5,5.626998E6,5.30465E5,1.27382E5,2.71247E5,5.2144E4,3.58602E5,1.36022E5,1.331781E6,6.13104E5,7.58238E5,2.89046E5,1.986074E6,3.45424E5,7.844522E6,7.825939E6],"tree_param":{"num_deleted":"0","num_feature":"9","num_nodes":"127","size_leaf_vector":"0"}},{"base_weights":[-1.1108042E-1,-2.705217E-1,3.240383E-2,-3.0837616E-1,-2.1813649E-1,-2.8945832E-2,6.50812E-2,-3.25954E-1,-2.905902E-1,-2.4401808E-1,-1.750298E-1,-7.046177E-2,1.8914763E-3,-6.0528847E-3,6.985207E-2,-2.8162882E-1,-3.3058864E-1,-2.0465304E-1,-2.97973E-1,-1.8371603E-1,-2.538845E-1,-1.9638388E-1,-1.513395E-1,-1.0168531E-1,-5.3493857E-2,1.0766137E-2,-5.623652E-2,-8.121599E-2,1.093552E-2,-3.7974762E-3,7.455645E-2,-3.3680463E-1,-1.7410097E-1,-2.3737058E-1,-3.351656E-1,-1.254E-1,-2.1722761E-1,-2.1912873E-1,-3.0466124E-1,-2.0223409E-1,-1.5295528E-1,-2.675396E-1,-1.8872902E-1,-1.5098533E-1,-2.0591083E-1,-1.13554224E-1,-1.5576296E-1,-1.13189936E-1,-9.310588E-2,-4.717335E-2,-1.0860921E-1,-4.417411E-2,2.1745145E-2,-9.425133E-2,-3.4144886E-2,-1.5583298E-1,-5.9530992E-2,4.199577E-2,-1.4677322E-2,-8.126693E-2,1.0038248E-2,6.458062E-2,8.8355534E-2,-1.1426902E-1,-9.25348E-2,-3.1627998E-2,-6.9013946E-2,-9.444079E-2,-4.6819914E-2,-1.076854E-1,-9.63986E-2,-3.1361945E-2,-7.208671E-2,-5.894524E-2,-6.964022E-2,-3.899443E-2,-6.961667E-2,-9.362263E-2,-8.093171E-2,-5.5619776E-2,-6.802758E-2,-4.8785906E-2,-3.3929754E-2,-6.131724E-2,-8.293404E-2,-6.1712943E-2,-4.3600198E-2,-5.076678E-2,-3.7002716E-2,-6.52116E-2,-4.2975247E-2,-3.7462533E-2,-2.7393665E-2,-4.8660535E-2,-3.7313554E-2,-3.5245817E-2,-3.1523418E-2,-2.6569663E-2,-3.9462708E-2,-2.863583E-2,-1.1859156E-2,-2.8056383E-2,-4.407126E-2,-7.6182606E-3,-2.5261318E-2,-9.916545E-3,8.864374E-3,-2.4716781E-2,-3.693018E-2,-5.7955524E-3,-2.7612172E-2,-5.3848434E-2,-1.4722058E-2,-2.4381155E-2,4.5512756E-3,9.934123E-3,3.647418E-2,-8.818065E-3,1.790061E-2,-4.383069E-2,-1.7186293E-2,1.2349296E-2,-3.510283E-3,2.169742E-2,-1.0161903E-2,2.4900317E-2,3.5411492E-2],"categories":[],"categories_nodes":[],"categories_segments":[],"categories_sizes":[],"default_left":[0,0,0,0,0,0,0,0,0,0,0,0,0,0,0,0,0,0,0,0,0,0,0,0,0,0,0,0,0,0,0,0,0,0,0,0,0,0,0,0,0,0,0,0,0,0,0,0,0,0,0,0,0,0,0,0,0,0,0,0,0,0,0,0,0,0,0,0,0,0,0,0,0,0,0,0,0,0,0,0,0,0,0,0,0,0,0,0,0,0,0,0,0,0,0,0,0,0,0,0,0,0,0,0,0,0,0,0,0,0,0,0,0,0,0,0,0,0,0,0,0,0,0,0,0,0,0],"id":4,"left_children":[1,3,5,7,9,11,13,15,17,19,21,23,25,27,29,31,33,35,37,39,41,43,45,47,49,51,53,55,57,59,61,63,65,67,69,71,73,75,77,79,81,83,85,87,89,91,93,95,97,99,101,103,105,107,109,111,113,115,117,119,121,123,125,-1,-1,-1,-1,-1,-1,-1,-1,-1,-1,-1,-1,-1,-1,-1,-1,-1,-1,-1,-1,-1,-1,-1,-1,-1,-1,-1,-1,-1,-1,-1,-1,-1,-1,-1,-1,-1,-1,-1,-1,-1,-1,-1,-1,-1,-1,-1,-1,-1,-1,-1,-1,-1,-1,-1,-1,-1,-1,-1,-1,-1,-1,-1,-1],"loss_changes":[1.6398629E6,6.732825E4,7.563569E4,6.16175E3,1.589E4,1.678623E4,8.354141E3,2.036375E3,6.2156875E3,5.29475E3,2.7030469E3,2.960668E3,3.8811104E3,1.975657E3,7.992953E3,5.567297E3,3.828875E3,7.7238086E2,4.757375E3,7.1277344E2,6.8044375E3,1.2154062E3,4.2336328E2,1.9419922E2,1.26129E3,3.937005E3,8.368694E2,4.6152234E2,1.0039673E3,1.4845997E3,2.9849922E3,7.7522656E2,1.2225996E3,2.6442324E3,2.8154375E3,2.5434363E2,2.0679102E2,8.129453E2,2.151125E3,3.2245312E2,1.8111035E2,3.5564375E3,9.764414E2,2.4571289E2,1.6680703E3,6.683301E1,4.5821484E2,2.9279297E1,1.9668457E2,1.1985562E3,2.1521143E2,8.1722925E2,2.3260664E3,1.25326904E2,5.409924E2,1.6223889E2,3.5891632E2,4.0315863E2,7.567289E2,3.2630273E2,7.9520685E2,9.595746E3,1.4460781E3,0E0,0E0,0E0,0E0,0E0,0E0,0E0,0E0,0E0,0E0,0E0,0E0,0E0,0E0,0E0,0E0,0E0,0E0,0E0,0E0,0E0,0E0,0E0,0E0,0E0,0E0,0E0,0E0,0E0,0E0,0E0,0E0,0E0,0E0,0E0,0E0,0E0,0E0,0E0,0E0,0E0,0E0,0E0,0E0,0E0,0E0,0E0,0E0,0E0,0E0,0E0,0E0,0E0,0E0,0E0,0E0,0E0,0E0,0E0,0E0,0E0,0E0,0E0,0E0],"parents":[2147483647,0,0,1,1,2,2,3,3,4,4,5,5,6,6,7,7,8,8,9,9,10,10,11,11,12,12,13,13,14,14,15,15,16,16,17,17,18,18,19,19,20,20,21,21,22,22,23,23,24,24,25,25,26,26,27,27,28,28,29,29,30,30,31,31,32,32,33,33,34,34,35,35,36,36,37,37,38,38,39,39,40,40,41,41,42,42,43,43,44,44,45,45,46,46,47,47,48,48,49,49,50,50,51,51,52,52,53,53,54,54,55,55,56,56,57,57,58,58,59,59,60,60,61,61,62,62],"right_children":[2,4,6,8,10,12,14,16,18,20,22,24,26,28,30,32,34,36,38,40,42,44,46,48,50,52,54,56,58,60,62,64,66,68,70,72,74,76,78,80,82,84,86,88,90,92,94,96,98,100,102,104,106,108,110,112,114,116,118,120,122,124,126,-1,-1,-1,-1,-1,-1,-1,-1,-1,-1,-1,-1,-1,-1,-1,-1,-1,-1,-1,-1,-1,-1,-1,-1,-1,-1,-1,-1,-1,-1,-1,-1,-1,-1,-1,-1,-1,-1,-1,-1,-1,-1,-1,-1,-1,-1,-1,-1,-1,-1,-1,-1,-1,-1,-1,-1,-1,-1,-1,-1,-1,-1,-1,-1],"split_conditions":[0E0,-8.6401E-2,6.6166125E-2,-1.88128E-1,-2.8737513E-2,2.6977146E-2,4.3984573E-2,-5.043577E-1,-2.5827152E-1,-1.3329612E-1,-1.3293125E-2,8.6451955E-3,1.2331644E-1,-2.286655E-1,4.2530954E-2,-4.1328317E-1,-5.582885E-1,-4.6882787E-1,-2.289815E-1,5.593746E-3,5.1306102E-2,-8.426397E-2,-7.416914E-2,2.8816226E-3,8.714182E-2,-3.185435E-2,-1.3809755E-3,-5.0472796E-1,1.1292546E-1,-2.6479152E-1,1.8576753E-1,-7.863295E-1,-6.3622457E-1,-4.1193032E-1,-3.033312E-1,-1.1704368E-1,-3.223549E-1,-4.37298E-1,0E0,-1.6872272E-1,2.0179754E-1,-1.2511224E-1,1.6520278E-1,1.977756E-2,8.044482E-2,6.9358E-2,2.5490247E-2,1.5612171E-3,1.0898902E-1,-1.9218544E-2,1.6513856E-1,8.051025E-2,-3.8299162E-2,2.3844859E-1,2.3844859E-1,2.827768E-1,1.8938883E-1,1.5874848E-1,1.7499799E-1,-5.043577E-1,1.1483014E-1,2.2673996E-1,4.6735775E-1,-1.1426902E-1,-9.25348E-2,-3.1627998E-2,-6.9013946E-2,-9.444079E-2,-4.6819914E-2,-1.076854E-1,-9.63986E-2,-3.1361945E-2,-7.208671E-2,-5.894524E-2,-6.964022E-2,-3.899443E-2,-6.961667E-2,-9.362263E-2,-8.093171E-2,-5.5619776E-2,-6.802758E-2,-4.8785906E-2,-3.3929754E-2,-6.131724E-2,-8.293404E-2,-6.1712943E-2,-4.3600198E-2,-5.076678E-2,-3.7002716E-2,-6.52116E-2,-4.2975247E-2,-3.7462533E-2,-2.7393665E-2,-4.8660535E-2,-3.7313554E-2,-3.5245817E-2,-3.1523418E-2,-2.6569663E-2,-3.9462708E-2,-2.863583E-2,-1.1859156E-2,-2.8056383E-2,-4.407126E-2,-7.6182606E-3,-2.5261318E-2,-9.916545E-3,8.864374E-3,-2.4716781E-2,-3.693018E-2,-5.7955524E-3,-2.7612172E-2,-5.3848434E-2,-1.4722058E-2,-2.4381155E-2,4.5512756E-3,9.934123E-3,3.647418E-2,-8.818065E-3,1.790061E-2,-4.383069E-2,-1.7186293E-2,1.2349296E-2,-3.510283E-3,2.169742E-2,-1.0161903E-2,2.4900317E-2,3.5411492E-2],"split_indices":[0,0,0,0,0,0,4,8,8,8,0,0,1,1,5,4,1,8,3,1,8,8,6,0,3,2,8,1,6,8,0,4,8,5,0,5,8,1,8,8,1,1,8,1,8,3,5,8,1,4,3,5,8,1,1,0,0,0,0,8,3,8,0,0,0,0,0,0,0,0,0,0,0,0,0,0,0,0,0,0,0,0,0,0,0,0,0,0,0,0,0,0,0,0,0,0,0,0,0,0,0,0,0,0,0,0,0,0,0,0,0,0,0,0,0,0,0,0,0,0,0,0,0,0,0,0,0],"split_type":[0,0,0,0,0,0,0,0,0,0,0,0,0,0,0,0,0,0,0,0,0,0,0,0,0,0,0,0,0,0,0,0,0,0,0,0,0,0,0,0,0,0,0,0,0,0,0,0,0,0,0,0,0,0,0,0,0,0,0,0,0,0,0,0,0,0,0,0,0,0,0,0,0,0,0,0,0,0,0,0,0,0,0,0,0,0,0,0,0,0,0,0,0,0,0,0,0,0,0,0,0,0,0,0,0,0,0,0,0,0,0,0,0,0,0,0,0,0,0,0,0,0,0,0,0,0,0],"sum_hessian":[7.168075E7,3.3952436E7,3.772832E7,1.9709788E7,1.4242649E7,1.3111785E7,2.4616532E7,9.912888E6,9.7969E6,8.899386E6,5.343263E6,5.588306E6,7.523479E6,1.547226E6,2.3069308E7,9.38379E5,8.974509E6,7.75063E5,9.021837E6,1.251351E6,7.648035E6,2.810192E6,2.533071E6,1.967607E6,3.620699E6,6.526977E6,9.96502E5,2.85235E5,1.261991E6,1.385085E6,2.1684222E7,6.20156E5,3.18223E5,4.20023E5,8.554486E6,1.06136E5,6.68927E5,7.05469E5,8.316368E6,7.81113E5,4.70238E5,6.322899E6,1.325136E6,4.87437E5,2.322755E6,2.65467E5,2.267604E6,8.40509E5,1.127098E6,3.248204E6,3.72495E5,1.087083E6,5.439894E6,3.66255E5,6.30247E5,6.4227E4,2.21008E5,5.70344E5,6.91647E5,2.09885E5,1.1752E6,1.2585638E7,9.098584E6,2.42719E5,3.77437E5,1.42861E5,1.75362E5,2.15133E5,2.0489E5,3.146174E6,5.408312E6,8.9828E4,1.6308E4,2.79707E5,3.8922E5,8.9343E4,6.16126E5,6.858803E6,1.457565E6,4.63175E5,3.17938E5,3.78464E5,9.1774E4,7.81609E5,5.54129E6,9.52437E5,3.72699E5,2.93679E5,1.93758E5,1.963591E6,3.59164E5,1.75921E5,8.9546E4,1.881576E6,3.86028E5,5.49484E5,2.91025E5,1.008027E6,1.19071E5,4.43927E5,2.804277E6,2.67217E5,1.05278E5,7.39945E5,3.47138E5,6.78021E5,4.761873E6,2.59542E5,1.06713E5,5.01755E5,1.28492E5,5.2574E4,1.1653E4,1.71189E5,4.9819E4,5.13083E5,5.7261E4,5.77363E5,1.14284E5,5.6666E4,1.53219E5,4.83264E5,6.91936E5,1.1667873E7,9.17765E5,7.708119E6,1.390465E6],"tree_param":{"num_deleted":"0","num_feature":"9","num_nodes":"127","size_leaf_vector":"0"}},{"base_weights":[-7.775633E-2,-1.9021834E-1,2.1985244E-2,-2.0829293E-1,-1.3579442E-1,-4.003906E-2,3.9457034E-2,-2.2065808E-1,-1.8336809E-1,-1.4768064E-1,-1.1209318E-1,-6.416945E-2,-2.1626478E-2,1.1718607E-2,4.936998E-2,-2.2496144E-1,-1.7917828E-1,-1.3441285E-1,-1.9248162E-1,-1.0080193E-1,-1.5479131E-1,-8.301817E-2,-1.18128724E-1,-7.760737E-2,-5.600137E-2,-1.4650288E-2,-6.2224995E-2,1.9879036E-2,-3.7808962E-2,9.177885E-3,5.370998E-2,-2.2887024E-1,-1.7249553E-1,-1.1670403E-1,-1.929301E-1,-1.4859699E-1,-1.163673E-1,-1.3335402E-1,-2.0264249E-1,-1.1155442E-1,-5.4858647E-2,-1.6497877E-1,-1.0564712E-1,-9.325995E-2,-6.262733E-2,-1.2580016E-1,-8.531303E-2,-8.148138E-2,-7.184412E-2,-8.6886436E-2,-5.0028156E-2,-7.287602E-3,-6.284576E-2,-4.9915623E-2,-1.0013475E-1,-2.571767E-2,3.17025E-2,-6.552019E-2,-2.1327382E-2,2.4388306E-2,-3.2698162E-2,-1.7843415E-3,5.7498515E-2,-7.294468E-2,-6.656588E-2,-6.7077704E-2,-4.6517752E-2,-5.827829E-2,-2.6036547E-2,-7.015646E-2,-5.196282E-2,-4.023139E-2,-5.0422035E-2,-3.581786E-2,-1.103437E-2,-4.7953792E-2,-3.2628525E-2,-6.27441E-2,-4.3205883E-2,-2.3798203E-2,-3.6523316E-2,-4.5528673E-3,-2.024625E-2,-3.858199E-2,-5.1632226E-2,-2.33952E-2,-3.8848955E-2,-2.35647E-2,-3.1113213E-2,-1.419685E-2,-2.0551248E-2,-4.038576E-2,-3.17051E-2,-1.8879402E-2,-2.960718E-2,-2.2559522E-2,-2.5307868E-2,-2.0503907E-2,-2.994831E-2,-2.2193743E-2,-3.0939937E-2,-2.596142E-2,-1.3011404E-2,-1.6260745E-2,-6.020566E-4,-1.5460864E-2,-3.254878E-2,-2.0492729E-2,-1.044964E-2,-2.2643693E-2,-3.3716217E-2,-2.1825172E-2,-2.9173878E-3,1.1379045E-2,-2.2301266E-3,-3.0029546E-2,-1.842011E-2,-1.8355137E-3,-1.6070453E-2,2.7194603E-3,2.1256283E-2,-1.9147974E-2,3.950036E-3,3.1426975E-3,-2.8951908E-2,1.4016061E-2,1.9952763E-2],"categories":[],"categories_nodes":[],"categories_segments":[],"categories_sizes":[],"default_left":[0,0,0,0,0,0,0,0,0,0,0,0,0,0,0,0,0,0,0,0,0,0,0,0,0,0,0,0,0,0,0,0,0,0,0,0,0,0,0,0,0,0,0,0,0,0,0,0,0,0,0,0,0,0,0,0,0,0,0,0,0,0,0,0,0,0,0,0,0,0,0,0,0,0,0,0,0,0,0,0,0,0,0,0,0,0,0,0,0,0,0,0,0,0,0,0,0,0,0,0,0,0,0,0,0,0,0,0,0,0,0,0,0,0,0,0,0,0,0,0,0,0,0,0,0,0,0],"id":5,"left_children":[1,3,5,7,9,11,13,15,17,19,21,23,25,27,29,31,33,35,37,39,41,43,45,47,49,51,53,55,57,59,61,63,65,67,69,71,73,75,77,79,81,83,85,87,89,91,93,95,97,99,101,103,105,107,109,111,113,115,117,119,121,123,125,-1,-1,-1,-1,-1,-1,-1,-1,-1,-1,-1,-1,-1,-1,-1,-1,-1,-1,-1,-1,-1,-1,-1,-1,-1,-1,-1,-1,-1,-1,-1,-1,-1,-1,-1,-1,-1,-1,-1,-1,-1,-1,-1,-1,-1,-1,-1,-1,-1,-1,-1,-1,-1,-1,-1,-1,-1,-1,-1,-1,-1,-1,-1,-1],"loss_changes":[8.040529E5,3.3142375E4,4.1167547E4,7.795E3,2.3663438E3,3.7095928E3,8.1499766E3,3.0175625E3,3.7417812E3,1.8647578E3,4.923125E2,3.9662598E2,1.3412573E3,3.1539434E3,3.8089297E3,3.1410625E3,1.365168E3,3.3689258E2,4.2478594E3,3.639712E2,2.4318828E3,1.0071167E2,5.8485156E2,3.0495117E1,4.1461426E2,1.4340376E3,3.240459E2,3.6118835E3,5.0416748E2,1.3554927E3,4.1434414E3,1.4214375E3,9.461328E2,6.6511646E2,1.051043E3,2.079961E2,1.3948193E2,6.7549414E2,2.3006719E3,1.960586E2,7.0026764E1,1.0431797E3,5.502471E2,4.9346924E1,1.4499695E1,3.3405078E2,1.317976E2,1.4766602E1,5.374414E1,7.6369385E1,4.5769922E2,8.685255E2,2.764939E2,1.4543457E2,5.1412354E1,1.0376919E3,1.2966655E3,5.86416E1,3.394162E2,1.1115107E3,8.095371E2,1.4625958E3,1.7917031E3,0E0,0E0,0E0,0E0,0E0,0E0,0E0,0E0,0E0,0E0,0E0,0E0,0E0,0E0,0E0,0E0,0E0,0E0,0E0,0E0,0E0,0E0,0E0,0E0,0E0,0E0,0E0,0E0,0E0,0E0,0E0,0E0,0E0,0E0,0E0,0E0,0E0,0E0,0E0,0E0,0E0,0E0,0E0,0E0,0E0,0E0,0E0,0E0,0E0,0E0,0E0,0E0,0E0,0E0,0E0,0E0,0E0,0E0,0E0,0E0,0E0,0E0,0E0,0E0],"parents":[2147483647,0,0,1,1,2,2,3,3,4,4,5,5,6,6,7,7,8,8,9,9,10,10,11,11,12,12,13,13,14,14,15,15,16,16,17,17,18,18,19,19,20,20,21,21,22,22,23,23,24,24,25,25,26,26,27,27,28,28,29,29,30,30,31,31,32,32,33,33,34,34,35,35,36,36,37,37,38,38,39,39,40,40,41,41,42,42,43,43,44,44,45,45,46,46,47,47,48,48,49,49,50,50,51,51,52,52,53,53,54,54,55,55,56,56,57,57,58,58,59,59,60,60,61,61,62,62],"right_children":[2,4,6,8,10,12,14,16,18,20,22,24,26,28,30,32,34,36,38,40,42,44,46,48,50,52,54,56,58,60,62,64,66,68,70,72,74,76,78,80,82,84,86,88,90,92,94,96,98,100,102,104,106,108,110,112,114,116,118,120,122,124,126,-1,-1,-1,-1,-1,-1,-1,-1,-1,-1,-1,-1,-1,-1,-1,-1,-1,-1,-1,-1,-1,-1,-1,-1,-1,-1,-1,-1,-1,-1,-1,-1,-1,-1,-1,-1,-1,-1,-1,-1,-1,-1,-1,-1,-1,-1,-1,-1,-1,-1,-1,-1,-1,-1,-1,-1,-1,-1,-1,-1,-1,-1,-1,-1],"split_conditions":[-1.3454631E-3,-4.8313722E-2,3.9678488E-2,-1.09350525E-1,-1.6153904E-2,1.567788E-2,8.197254E-2,7.544606E-2,-1.45215E-1,-8.8459305E-2,-7.418904E-2,4.2424626E-3,1.03098266E-1,1.3021648E-1,-5.9008237E-2,9.750869E-2,-3.7498745E-1,-3.3375137E-2,-1.3040441E-1,4.6790924E-2,4.3123784E-3,4.3913092E-2,7.4001946E-2,1.4197815E-3,-6.270779E-2,8.201144E-2,2.1097186E-1,-2.2344597E-2,1.2834287E-2,2.4447964E-1,-9.30142E-2,-2.6483932E-1,-2.5205153E-1,-3.2202303E-1,-2.71754E-1,-1.8397027E-1,4.182846E-1,-1.1667031E-2,7.092732E-2,-2.0936984E-1,-1.9655968E-1,-8.4350534E-2,-5.8987267E-2,-1.3616401E-1,-2.0041889E-1,-5.7687834E-3,-3.994302E-2,0E0,7.0741564E-2,3.2562464E-2,-6.0698368E-2,-1.31569225E-2,2.0191614E-1,1.2821914E-2,5.709711E-2,-1.4844897E-1,1.1898553E-1,-2.647148E-1,2.0191614E-1,2.5168315E-1,2.827768E-1,4.9818575E-1,1.5580773E-1,-7.294468E-2,-6.656588E-2,-6.7077704E-2,-4.6517752E-2,-5.827829E-2,-2.6036547E-2,-7.015646E-2,-5.196282E-2,-4.023139E-2,-5.0422035E-2,-3.581786E-2,-1.103437E-2,-4.7953792E-2,-3.2628525E-2,-6.27441E-2,-4.3205883E-2,-2.3798203E-2,-3.6523316E-2,-4.5528673E-3,-2.024625E-2,-3.858199E-2,-5.1632226E-2,-2.33952E-2,-3.8848955E-2,-2.35647E-2,-3.1113213E-2,-1.419685E-2,-2.0551248E-2,-4.038576E-2,-3.17051E-2,-1.8879402E-2,-2.960718E-2,-2.2559522E-2,-2.5307868E-2,-2.0503907E-2,-2.994831E-2,-2.2193743E-2,-3.0939937E-2,-2.596142E-2,-1.3011404E-2,-1.6260745E-2,-6.020566E-4,-1.5460864E-2,-3.254878E-2,-2.0492729E-2,-1.044964E-2,-2.2643693E-2,-3.3716217E-2,-2.1825172E-2,-2.9173878E-3,1.1379045E-2,-2.2301266E-3,-3.0029546E-2,-1.842011E-2,-1.8355137E-3,-1.6070453E-2,2.7194603E-3,2.1256283E-2,-1.9147974E-2,3.950036E-3,3.1426975E-3,-2.8951908E-2,1.4016061E-2,1.9952763E-2],"split_indices":[0,0,0,0,0,0,0,8,1,6,1,0,1,8,8,1,1,8,6,4,5,8,1,0,8,6,1,8,1,1,1,0,4,5,0,1,8,1,1,8,5,1,4,1,1,0,6,8,6,3,1,5,8,8,4,8,1,1,8,0,0,8,0,0,0,0,0,0,0,0,0,0,0,0,0,0,0,0,0,0,0,0,0,0,0,0,0,0,0,0,0,0,0,0,0,0,0,0,0,0,0,0,0,0,0,0,0,0,0,0,0,0,0,0,0,0,0,0,0,0,0,0,0,0,0,0,0],"split_type":[0,0,0,0,0,0,0,0,0,0,0,0,0,0,0,0,0,0,0,0,0,0,0,0,0,0,0,0,0,0,0,0,0,0,0,0,0,0,0,0,0,0,0,0,0,0,0,0,0,0,0,0,0,0,0,0,0,0,0,0,0,0,0,0,0,0,0,0,0,0,0,0,0,0,0,0,0,0,0,0,0,0,0,0,0,0,0,0,0,0,0,0,0,0,0,0,0,0,0,0,0,0,0,0,0,0,0,0,0,0,0,0,0,0,0,0,0,0,0,0,0,0,0,0,0,0,0],"sum_hessian":[7.168075E7,3.3691944E7,3.7988812E7,2.5292212E7,8.399733E6,8.349246E6,2.9639564E7,1.6905456E7,8.386755E6,5.594216E6,2.805517E6,3.613549E6,4.735697E6,7.803578E6,2.1835988E7,1.5316431E7,1.589025E6,1.316253E6,7.070502E6,7.36789E5,4.857427E6,4.82274E5,2.323243E6,1.366088E6,2.247461E6,4.041272E6,6.94425E5,6.6997E6,1.103878E6,2.128089E6,1.9707898E7,1.4254448E7,1.061983E6,2.86675E5,1.30235E6,7.36972E5,5.79281E5,1.036861E6,6.033641E6,5.97054E5,1.39735E5,4.023387E6,8.3404E5,3.21027E5,1.61247E5,1.883036E6,4.40207E5,8.16937E5,5.49151E5,3.64219E5,1.883242E6,3.505715E6,5.35557E5,5.24214E5,1.70211E5,1.379544E6,5.320156E6,4.11687E5,6.92191E5,1.56107E6,5.67019E5,1.259454E6,1.8448444E7,4.682041E6,9.572407E6,2.70189E5,7.91794E5,7.9796E4,2.06879E5,4.23495E5,8.78855E5,4.22557E5,3.14415E5,5.58065E5,2.1216E4,4.99149E5,5.37712E5,5.431037E6,6.02604E5,1.43434E5,4.5362E5,3.3735E4,1.06E5,6.59331E5,3.364056E6,3.86148E5,4.47892E5,1.3334E5,1.87687E5,4.4741E4,1.16506E5,1.309117E6,5.73919E5,1.64684E5,2.75523E5,2.56667E5,5.6027E5,4.8814E5,6.1011E4,2.02972E5,1.61247E5,2.90416E5,1.592826E6,3.5468E5,3.151035E6,4.29222E5,1.06335E5,2.3619E5,2.88024E5,5.6508E4,1.13703E5,3.50063E5,1.029481E6,4.589794E6,7.30362E5,4.3826E4,3.67861E5,4.70325E5,2.21866E5,1.173934E6,3.87136E5,3.37773E5,2.29246E5,1.115123E6,1.44331E5,8.400287E6,1.0048157E7],"tree_param":{"num_deleted":"0","num_feature":"9","num_nodes":"127","size_leaf_vector":"0"}},{"base_weights":[-5.4429453E-2,-1.338529E-1,1.4774378E-2,-1.4856462E-1,-1.0223462E-1,-3.239955E-2,2.686346E-2,-1.5068096E-1,-9.098034E-2,-1.0905741E-1,-6.892967E-2,-4.9070016E-2,-1.974962E-2,-2.2646183E-2,3.0337624E-2,-1.5426138E-1,-1.139244E-1,-1.0773188E-1,-2.4788411E-2,-1.1734122E-1,-7.2045915E-2,-7.910068E-2,-3.2687657E-2,-5.6317825E-2,-4.3814763E-2,-1.5275167E-2,-6.123252E-2,-1.448392E-2,-8.912758E-2,-2.4150845E-2,3.3788778E-2,-1.2814917E-1,-1.5711147E-1,-9.136933E-2,-1.4758839E-1,-1.14083454E-1,5.7219394E-2,-4.0456753E-2,2.8759906E-2,-8.598369E-2,-1.2430515E-1,-5.4493062E-2,-9.302156E-2,-5.5161092E-2,-9.625768E-2,-6.388723E-2,-2.0524682E-2,-5.847006E-2,-5.2892286E-2,-4.0137567E-2,-7.354988E-2,-1.0295451E-2,-6.1144233E-2,-5.334623E-2,-9.484347E-2,-1.9669676E-2,5.0726872E-2,-1.08621225E-1,9.279306E-3,-8.2957536E-2,-1.4273053E-2,1.3521709E-2,3.778955E-2,-4.9067542E-2,-1.8567586E-2,-3.320208E-2,-4.794436E-2,-2.9957144E-2,-4.706419E-3,-3.1553764E-2,-4.653474E-2,-3.0130545E-2,-4.886094E-2,3.6460463E-2,-1.2378878E-2,-9.148998E-3,-3.296712E-2,-2.4859982E-2,1.1452727E-2,-3.093236E-2,-2.119363E-2,-4.2146318E-2,-3.248828E-2,-1.850464E-2,-9.811117E-3,-3.0690491E-2,-1.4686505E-2,-2.07E-2,-1.4538191E-2,-2.9757893E-2,-1.3692233E-2,-2.080465E-2,-2.5186413E-3,-1.1598065E-2,-5.2805286E-4,-1.6420895E-2,-1.9556051E-2,-1.7039914E-2,-1.4781037E-2,-1.0530821E-2,-2.0392139E-2,-2.7551679E-2,-1.8833006E-2,-9.984331E-3,-1.5753835E-3,-3.0449016E-2,-1.5216481E-2,-2.6003951E-2,-1.3944863E-2,-2.6433319E-2,-3.8420238E-2,-1.7427092E-2,-2.8682228E-3,-2.7937189E-2,1.879322E-2,-2.7150666E-2,-5.136832E-2,-1.438786E-2,2.1325579E-2,-6.903163E-2,-2.2114627E-2,3.2530134E-3,-9.216878E-3,9.84937E-3,-4.2299805E-3,3.2865845E-3,1.2808457E-2],"categories":[],"categories_nodes":[],"categories_segments":[],"categories_sizes":[],"default_left":[0,0,0,0,0,0,0,0,0,0,0,0,0,0,0,0,0,0,0,0,0,0,0,0,0,0,0,0,0,0,0,0,0,0,0,0,0,0,0,0,0,0,0,0,0,0,0,0,0,0,0,0,0,0,0,0,0,0,0,0,0,0,0,0,0,0,0,0,0,0,0,0,0,0,0,0,0,0,0,0,0,0,0,0,0,0,0,0,0,0,0,0,0,0,0,0,0,0,0,0,0,0,0,0,0,0,0,0,0,0,0,0,0,0,0,0,0,0,0,0,0,0,0,0,0,0,0],"id":6,"left_children":[1,3,5,7,9,11,13,15,17,19,21,23,25,27,29,31,33,35,37,39,41,43,45,47,49,51,53,55,57,59,61,63,65,67,69,71,73,75,77,79,81,83,85,87,89,91,93,95,97,99,101,103,105,107,109,111,113,115,117,119,121,123,125,-1,-1,-1,-1,-1,-1,-1,-1,-1,-1,-1,-1,-1,-1,-1,-1,-1,-1,-1,-1,-1,-1,-1,-1,-1,-1,-1,-1,-1,-1,-1,-1,-1,-1,-1,-1,-1,-1,-1,-1,-1,-1,-1,-1,-1,-1,-1,-1,-1,-1,-1,-1,-1,-1,-1,-1,-1,-1,-1,-1,-1,-1,-1,-1],"loss_changes":[3.9398662E5,1.5525125E4,2.1844805E4,2.775875E3,2.4082656E3,1.6477764E3,5.244588E3,2.8913438E3,8.9531934E2,2.6969062E3,6.642451E2,1.2840137E2,8.2461096E2,1.0848976E3,5.357801E3,1.4899062E3,1.4807188E3,6.7512354E2,1.3682576E2,1.5695547E3,5.92292E2,5.7793555E2,1.4985251E2,1.0443848E1,2.1367432E2,9.1596533E2,1.1464624E2,6.0216907E2,4.1938745E2,9.8580853E2,2.1726094E3,4.622123E3,2.2656875E3,7.50125E2,2.4975E2,4.1313574E2,1.5134177E2,8.724664E1,3.8804035E1,3.4306152E2,1.5238359E3,1.371897E2,2.9970557E2,5.446814E1,1.21776855E2,3.3569366E1,9.6690254E1,2.1820068E1,7.735718E0,2.4373975E2,4.236975E1,4.1941202E2,1.6516296E2,8.014685E1,1.8375E1,6.4065454E2,2.2487708E2,2.0697949E2,1.27884224E2,3.319026E2,6.003375E2,2.3560305E3,2.9455215E3,0E0,0E0,0E0,0E0,0E0,0E0,0E0,0E0,0E0,0E0,0E0,0E0,0E0,0E0,0E0,0E0,0E0,0E0,0E0,0E0,0E0,0E0,0E0,0E0,0E0,0E0,0E0,0E0,0E0,0E0,0E0,0E0,0E0,0E0,0E0,0E0,0E0,0E0,0E0,0E0,0E0,0E0,0E0,0E0,0E0,0E0,0E0,0E0,0E0,0E0,0E0,0E0,0E0,0E0,0E0,0E0,0E0,0E0,0E0,0E0,0E0,0E0,0E0,0E0],"parents":[2147483647,0,0,1,1,2,2,3,3,4,4,5,5,6,6,7,7,8,8,9,9,10,10,11,11,12,12,13,13,14,14,15,15,16,16,17,17,18,18,19,19,20,20,21,21,22,22,23,23,24,24,25,25,26,26,27,27,28,28,29,29,30,30,31,31,32,32,33,33,34,34,35,35,36,36,37,37,38,38,39,39,40,40,41,41,42,42,43,43,44,44,45,45,46,46,47,47,48,48,49,49,50,50,51,51,52,52,53,53,54,54,55,55,56,56,57,57,58,58,59,59,60,60,61,61,62,62],"right_children":[2,4,6,8,10,12,14,16,18,20,22,24,26,28,30,32,34,36,38,40,42,44,46,48,50,52,54,56,58,60,62,64,66,68,70,72,74,76,78,80,82,84,86,88,90,92,94,96,98,100,102,104,106,108,110,112,114,116,118,120,122,124,126,-1,-1,-1,-1,-1,-1,-1,-1,-1,-1,-1,-1,-1,-1,-1,-1,-1,-1,-1,-1,-1,-1,-1,-1,-1,-1,-1,-1,-1,-1,-1,-1,-1,-1,-1,-1,-1,-1,-1,-1,-1,-1,-1,-1,-1,-1,-1,-1,-1,-1,-1,-1,-1,-1,-1,-1,-1,-1,-1,-1,-1,-1,-1,-1],"split_conditions":[-2.980041E-3,-6.448174E-2,3.5331037E-2,-1.3143081E-2,5.5683807E-2,1.2849491E-2,2.1330073E-2,-5.546205E-2,2.659356E-1,1.980227E-2,1.8564232E-1,2.8816226E-3,6.783192E-2,3.245529E-1,1.8384404E-2,-3.7560204E-1,-1.07095495E-1,2.9233384E-1,5.3764135E-1,-9.7405136E-2,-5.009649E-2,-3.9963618E-2,-1.0301634E-2,1.4746117E-3,4.838384E-2,6.919786E-2,2.2161719E-1,1.650991E-1,2.6619017E-1,-9.7469725E-2,9.974819E-3,-3.1257686E-1,-3.9191836E-1,1.127733E-1,-1.0214322E-1,-6.101891E-2,-3.7479454E-1,1.7070848E-2,-3.5908082E-1,-4.1670468E-2,-3.3384103E-2,1.4751808E-1,1.3250023E-1,-4.1670468E-2,2.3254506E-1,3.1251645E-1,2.7440092E-1,0E0,0E0,8.5284024E-2,-4.163965E-2,-3.9981537E-2,-7.044002E-2,-6.4462386E-2,4.6702683E-1,-1.587268E-1,-2.8660342E-1,5.38288E-1,-2.5825053E-1,-4.3768236E-1,6.755756E-2,1.0898902E-1,1.4275564E-2,-4.9067542E-2,-1.8567586E-2,-3.320208E-2,-4.794436E-2,-2.9957144E-2,-4.706419E-3,-3.1553764E-2,-4.653474E-2,-3.0130545E-2,-4.886094E-2,3.6460463E-2,-1.2378878E-2,-9.148998E-3,-3.296712E-2,-2.4859982E-2,1.1452727E-2,-3.093236E-2,-2.119363E-2,-4.2146318E-2,-3.248828E-2,-1.850464E-2,-9.811117E-3,-3.0690491E-2,-1.4686505E-2,-2.07E-2,-1.4538191E-2,-2.9757893E-2,-1.3692233E-2,-2.080465E-2,-2.5186413E-3,-1.1598065E-2,-5.2805286E-4,-1.6420895E-2,-1.9556051E-2,-1.7039914E-2,-1.4781037E-2,-1.0530821E-2,-2.0392139E-2,-2.7551679E-2,-1.8833006E-2,-9.984331E-3,-1.5753835E-3,-3.0449016E-2,-1.5216481E-2,-2.6003951E-2,-1.3944863E-2,-2.6433319E-2,-3.8420238E-2,-1.7427092E-2,-2.8682228E-3,-2.7937189E-2,1.879322E-2,-2.7150666E-2,-5.136832E-2,-1.438786E-2,2.1325579E-2,-6.903163E-2,-2.2114627E-2,3.2530134E-3,-9.216878E-3,9.84937E-3,-4.2299805E-3,3.2865845E-3,1.2808457E-2],"split_indices":[0,0,0,4,1,0,4,5,1,6,1,0,5,6,5,8,3,4,1,8,2,8,4,5,5,4,7,0,0,5,8,4,1,5,1,6,5,6,0,0,0,8,8,0,8,7,1,5,0,1,4,1,5,4,8,1,4,6,3,5,2,1,1,0,0,0,0,0,0,0,0,0,0,0,0,0,0,0,0,0,0,0,0,0,0,0,0,0,0,0,0,0,0,0,0,0,0,0,0,0,0,0,0,0,0,0,0,0,0,0,0,0,0,0,0,0,0,0,0,0,0,0,0,0,0,0,0],"split_type":[0,0,0,0,0,0,0,0,0,0,0,0,0,0,0,0,0,0,0,0,0,0,0,0,0,0,0,0,0,0,0,0,0,0,0,0,0,0,0,0,0,0,0,0,0,0,0,0,0,0,0,0,0,0,0,0,0,0,0,0,0,0,0,0,0,0,0,0,0,0,0,0,0,0,0,0,0,0,0,0,0,0,0,0,0,0,0,0,0,0,0,0,0,0,0,0,0,0,0,0,0,0,0,0,0,0,0,0,0,0,0,0,0,0,0,0,0,0,0,0,0,0,0,0,0,0,0],"sum_hessian":[7.168075E7,3.337599E7,3.8304764E7,2.2777716E7,1.0598274E7,7.813801E6,3.0490964E7,2.197026E7,8.07456E5,8.796281E6,1.801993E6,3.371168E6,4.442633E6,1.999302E6,2.8491662E7,2.0020116E7,1.950144E6,6.44379E5,1.63077E5,7.187575E6,1.608706E6,1.407101E6,3.94892E5,1.416956E6,1.954212E6,4.010095E6,4.32538E5,1.78068E6,2.18622E5,1.697095E6,2.6794568E7,1.970115E6,1.805E7,1.167749E6,7.82395E5,6.20487E5,2.3892E4,1.26162E5,3.6915E4,1.306157E6,5.881418E6,8.75812E5,7.32894E5,5.87438E5,8.19663E5,1.10764E5,2.84128E5,8.702E5,5.46756E5,1.739143E6,2.15069E5,3.61738E6,3.92715E5,3.50339E5,8.2199E4,1.649507E6,1.31173E5,1.82475E5,3.6147E4,2.44065E5,1.45303E6,4.417328E6,2.237724E7,1.283945E6,6.8617E5,9.92866E5,1.7057136E7,1.04999E6,1.17759E5,1.1794E5,6.64455E5,4.8485E5,1.35637E5,1.4453E4,9.439E3,1.10336E5,1.5826E4,2.871E3,3.4044E4,6.17147E5,6.8901E5,2.925024E6,2.956394E6,6.58536E5,2.17276E5,6.054E5,1.27494E5,1.91634E5,3.95804E5,7.74735E5,4.4928E4,1.00839E5,9.925E3,1.44485E5,1.39643E5,5.59302E5,3.10898E5,2.63014E5,2.83742E5,1.472762E6,2.66381E5,7.9722E4,1.35347E5,6.50973E5,2.966407E6,8.0611E4,3.12104E5,5.9816E4,2.90523E5,6.8352E4,1.3847E4,3.43599E5,1.305908E6,1.0035E4,1.21138E5,1.4152E5,4.0955E4,1.8767E4,1.738E4,1.4422E4,2.29643E5,5.75037E5,8.77993E5,2.599847E6,1.817481E6,3.45837E6,1.8918868E7],"tree_param":{"num_deleted":"0","num_feature":"9","num_nodes":"127","size_leaf_vector":"0"}},{"base_weights":[-3.8100626E-2,-9.321628E-2,1.078096E-2,-1.09166846E-1,-7.5464085E-2,-1.0251501E-2,2.4989923E-2,-1.1376444E-1,-9.123835E-2,-7.992539E-2,-4.245966E-2,-3.0006656E-2,-2.2056107E-3,2.8430272E-2,-7.8083656E-4,-1.2047118E-1,-8.587462E-2,-6.4558916E-2,-1.08789876E-1,-8.6805314E-2,-5.2119594E-2,-4.963139E-2,-6.445805E-3,-5.0227184E-2,-2.7292497E-2,3.3969365E-3,-3.2041993E-2,3.28755E-2,-1.862988E-2,-6.591946E-2,3.3777013E-2,-9.9179916E-2,-1.2308154E-1,-6.588596E-2,-1.11157306E-1,-1.0893453E-1,-5.3160936E-2,-1.1052221E-1,-8.993311E-3,-5.5143796E-2,-9.33179E-2,-3.596505E-2,-6.6569075E-2,-3.9227206E-2,-6.2176254E-2,2.0552715E-3,-6.0402475E-2,-4.1014478E-2,-5.939555E-2,-3.6881134E-2,-1.9542111E-2,8.929995E-3,-3.335889E-2,-2.4444664E-2,-5.3597752E-2,2.2915311E-2,4.8590712E-2,-6.6112876E-2,2.7050678E-2,-4.834321E-2,-9.4127394E-2,2.2583302E-4,5.0412595E-2,-3.6109492E-2,-1.2763503E-2,-2.995315E-2,-3.7850082E-2,1.8853546E-3,-2.1853672E-2,-3.583144E-2,-2.508423E-2,-1.2128334E-2,-3.6506306E-2,7.748624E-3,-1.7707413E-2,-4.364094E-2,-3.1721037E-2,9.558624E-3,-3.4049314E-2,-1.9910177E-2,-1.0451531E-2,-1.7677361E-2,-2.9865429E-2,4.0696627E-3,-1.1868526E-2,-1.1530866E-2,-2.1685345E-2,-1.0631833E-3,-1.2466738E-2,-1.9347638E-2,-6.675941E-3,-5.9900843E-3,5.553144E-3,-3.028694E-2,-1.2160126E-2,-1.7287795E-2,-1.1064523E-2,-2.2422401E-2,-1.6237784E-2,-9.452555E-3,-1.6673831E-2,-4.1402285E-3,-1.111432E-2,-1.0173448E-2,3.6195845E-3,-7.825767E-3,-2.1612786E-2,-1.4078246E-2,-4.131873E-3,-1.3597874E-2,-2.1122605E-2,8.778204E-3,-8.3305165E-3,1.2859727E-2,1.859235E-2,-1.6647173E-2,-3.8772672E-2,1.1646028E-2,-8.319822E-3,-2.1480365E-2,-8.904145E-3,3.3304351E-3,-3.0849513E-2,6.0005276E-3,-2.0331634E-2,1.2073125E-2,1.9514117E-2],"categories":[],"categories_nodes":[],"categories_segments":[],"categories_sizes":[],"default_left":[0,0,0,0,0,0,0,0,0,0,0,0,0,0,0,0,0,0,0,0,0,0,0,0,0,0,0,0,0,0,0,0,0,0,0,0,0,0,0,0,0,0,0,0,0,0,0,0,0,0,0,0,0,0,0,0,0,0,0,0,0,0,0,0,0,0,0,0,0,0,0,0,0,0,0,0,0,0,0,0,0,0,0,0,0,0,0,0,0,0,0,0,0,0,0,0,0,0,0,0,0,0,0,0,0,0,0,0,0,0,0,0,0,0,0,0,0,0,0,0,0,0,0,0,0,0,0],"id":7,"left_children":[1,3,5,7,9,11,13,15,17,19,21,23,25,27,29,31,33,35,37,39,41,43,45,47,49,51,53,55,57,59,61,63,65,67,69,71,73,75,77,79,81,83,85,87,89,91,93,95,97,99,101,103,105,107,109,111,113,115,117,119,121,123,125,-1,-1,-1,-1,-1,-1,-1,-1,-1,-1,-1,-1,-1,-1,-1,-1,-1,-1,-1,-1,-1,-1,-1,-1,-1,-1,-1,-1,-1,-1,-1,-1,-1,-1,-1,-1,-1,-1,-1,-1,-1,-1,-1,-1,-1,-1,-1,-1,-1,-1,-1,-1,-1,-1,-1,-1,-1,-1,-1,-1,-1,-1,-1,-1],"loss_changes":[1.9311803E5,9.540125E3,1.1352937E4,1.4627969E3,2.3478516E3,2.434553E3,2.0101211E3,2.6419531E3,1.696084E3,2.6871562E3,4.904087E2,2.4327832E2,1.8193481E3,4.1842627E3,6.010801E3,6.327969E2,1.3837363E3,7.269697E2,3.7770703E2,2.3219062E3,6.5036035E2,2.0666382E2,1.4463419E2,4.430713E1,2.904402E2,1.8635504E3,2.8178064E2,2.8606172E3,3.7444062E3,4.5888867E2,9.737594E2,1.4920039E3,7.272031E2,7.680596E2,2.757295E2,2.5661865E2,5.296792E2,3.591328E2,1.5916882E2,4.378047E2,2.0022891E3,2.3434802E2,2.3647168E2,7.19209E1,6.6369385E1,9.871382E1,3.457733E1,1.7961426E1,2.1257751E1,1.7549292E2,2.1722058E2,1.069773E3,3.3730933E2,3.0524884E2,6.2347534E1,3.5974985E3,5.4321484E2,5.676013E2,5.67297E2,2.475227E2,3.2545728E2,7.776583E2,1.7356665E2,0E0,0E0,0E0,0E0,0E0,0E0,0E0,0E0,0E0,0E0,0E0,0E0,0E0,0E0,0E0,0E0,0E0,0E0,0E0,0E0,0E0,0E0,0E0,0E0,0E0,0E0,0E0,0E0,0E0,0E0,0E0,0E0,0E0,0E0,0E0,0E0,0E0,0E0,0E0,0E0,0E0,0E0,0E0,0E0,0E0,0E0,0E0,0E0,0E0,0E0,0E0,0E0,0E0,0E0,0E0,0E0,0E0,0E0,0E0,0E0,0E0,0E0,0E0,0E0],"parents":[2147483647,0,0,1,1,2,2,3,3,4,4,5,5,6,6,7,7,8,8,9,9,10,10,11,11,12,12,13,13,14,14,15,15,16,16,17,17,18,18,19,19,20,20,21,21,22,22,23,23,24,24,25,25,26,26,27,27,28,28,29,29,30,30,31,31,32,32,33,33,34,34,35,35,36,36,37,37,38,38,39,39,40,40,41,41,42,42,43,43,44,44,45,45,46,46,47,47,48,48,49,49,50,50,51,51,52,52,53,53,54,54,55,55,56,56,57,57,58,58,59,59,60,60,61,61,62,62],"right_children":[2,4,6,8,10,12,14,16,18,20,22,24,26,28,30,32,34,36,38,40,42,44,46,48,50,52,54,56,58,60,62,64,66,68,70,72,74,76,78,80,82,84,86,88,90,92,94,96,98,100,102,104,106,108,110,112,114,116,118,120,122,124,126,-1,-1,-1,-1,-1,-1,-1,-1,-1,-1,-1,-1,-1,-1,-1,-1,-1,-1,-1,-1,-1,-1,-1,-1,-1,-1,-1,-1,-1,-1,-1,-1,-1,-1,-1,-1,-1,-1,-1,-1,-1,-1,-1,-1,-1,-1,-1,-1,-1,-1,-1,-1,-1,-1,-1,-1,-1,-1,-1,-1,-1,-1,-1,-1],"split_conditions":[-1.3454631E-3,-1.0209643E-1,7.7093676E-2,-3.3375137E-2,8.6468365E-3,1.9822082E-2,3.3720383E-1,-4.5003958E-2,-1.7232303E-1,-6.0050595E-3,1.5896602E-1,-2.6972514E-2,1.14916034E-1,3.3604434E-1,3.0169466E-1,-4.1409034E-1,-1.7269027E-1,-2.8597036E-1,1.0890841E-1,-1.1947546E-1,-5.5327334E-2,-3.3525236E-2,-1.0294886E-2,3.8109157E-2,1.4288739E-3,1.0314969E-1,2.1112014E-1,1.6831644E-1,2.5890383E-1,4.4340456E-1,3.6437526E-1,-3.7525243E-1,-3.452266E-1,-6.3622457E-1,-8.018469E-2,-7.776132E-1,-6.37603E-1,-3.4538358E-1,-1.6909969E-1,-1.9323412E-2,-1.1421564E-1,-2.4602887E-1,-5.1705763E-2,-3.0334428E-1,2.0683111E-1,-1.3329612E-1,-4.1670468E-2,-1.552465E-1,-9.980278E-2,7.077592E-2,6.93536E-2,-1.0448413E-1,1.4736766E-1,1.4879322E-3,3.3604434E-1,1.859423E-1,2.7399695E-1,5.8786106E-1,5.8786106E-1,1.9794439E-1,1.6833854E-1,5.3764135E-1,5.380569E-1,-3.6109492E-2,-1.2763503E-2,-2.995315E-2,-3.7850082E-2,1.8853546E-3,-2.1853672E-2,-3.583144E-2,-2.508423E-2,-1.2128334E-2,-3.6506306E-2,7.748624E-3,-1.7707413E-2,-4.364094E-2,-3.1721037E-2,9.558624E-3,-3.4049314E-2,-1.9910177E-2,-1.0451531E-2,-1.7677361E-2,-2.9865429E-2,4.0696627E-3,-1.1868526E-2,-1.1530866E-2,-2.1685345E-2,-1.0631833E-3,-1.2466738E-2,-1.9347638E-2,-6.675941E-3,-5.9900843E-3,5.553144E-3,-3.028694E-2,-1.2160126E-2,-1.7287795E-2,-1.1064523E-2,-2.2422401E-2,-1.6237784E-2,-9.452555E-3,-1.6673831E-2,-4.1402285E-3,-1.111432E-2,-1.0173448E-2,3.6195845E-3,-7.825767E-3,-2.1612786E-2,-1.4078246E-2,-4.131873E-3,-1.3597874E-2,-2.1122605E-2,8.778204E-3,-8.3305165E-3,1.2859727E-2,1.859235E-2,-1.6647173E-2,-3.8772672E-2,1.1646028E-2,-8.319822E-3,-2.1480365E-2,-8.904145E-3,3.3304351E-3,-3.0849513E-2,6.0005276E-3,-2.0331634E-2,1.2073125E-2,1.9514117E-2],"split_indices":[0,0,0,8,4,0,1,1,1,5,3,5,8,8,0,8,8,5,4,8,3,7,5,4,4,3,8,0,4,1,5,0,1,8,4,1,1,0,5,1,1,4,1,6,1,8,0,8,5,7,1,1,4,1,8,8,0,8,8,0,3,1,0,0,0,0,0,0,0,0,0,0,0,0,0,0,0,0,0,0,0,0,0,0,0,0,0,0,0,0,0,0,0,0,0,0,0,0,0,0,0,0,0,0,0,0,0,0,0,0,0,0,0,0,0,0,0,0,0,0,0,0,0,0,0,0,0],"split_type":[0,0,0,0,0,0,0,0,0,0,0,0,0,0,0,0,0,0,0,0,0,0,0,0,0,0,0,0,0,0,0,0,0,0,0,0,0,0,0,0,0,0,0,0,0,0,0,0,0,0,0,0,0,0,0,0,0,0,0,0,0,0,0,0,0,0,0,0,0,0,0,0,0,0,0,0,0,0,0,0,0,0,0,0,0,0,0,0,0,0,0,0,0,0,0,0,0,0,0,0,0,0,0,0,0,0,0,0,0,0,0,0,0,0,0,0,0,0,0,0,0,0,0,0,0,0,0],"sum_hessian":[7.168075E7,3.3691944E7,3.7988812E7,1.7746492E7,1.5945452E7,1.5316681E7,2.267213E7,1.4124411E7,3.622081E6,1.4046716E7,1.898736E6,4.432794E6,1.0883887E7,2.0001912E7,2.670218E6,1.1386311E7,2.7381E6,1.437299E6,2.184782E6,1.1260544E7,2.786172E6,1.583417E6,3.15319E5,5.24588E5,3.908206E6,9.163252E6,1.720635E6,1.8275624E7,1.726287E6,9.25579E5,1.744639E6,1.243534E6,1.0142777E7,1.529149E6,1.208951E6,2.93727E5,1.143572E6,2.147504E6,3.7278E4,1.921077E6,9.339467E6,1.315474E6,1.470698E6,8.65561E5,7.17856E5,2.72402E5,4.2917E4,2.61664E5,2.62924E5,1.746931E6,2.161275E6,7.964337E6,1.198915E6,1.272237E6,4.48398E5,1.1186011E7,7.089614E6,8.46444E5,8.79843E5,5.70257E5,3.55322E5,5.78302E5,1.166337E6,9.05004E5,3.3853E5,1.188866E6,8.953911E6,1.34491E5,1.394658E6,9.29496E5,2.79455E5,4.6099E4,2.47628E5,7.9026E4,1.064546E6,2.58641E5,1.888863E6,2.6801E4,1.0477E4,1.237221E6,6.83856E5,1.432987E6,7.90648E6,8.9057E4,1.226417E6,2.48334E5,1.222364E6,5.3024E4,8.12537E5,6.78497E5,3.9359E4,1.16495E5,1.55907E5,1.4111E4,2.8806E4,5.2127E4,2.09537E5,6.7204E4,1.9572E5,1.357019E6,3.89912E5,1.627502E6,5.33773E5,5.4311E5,7.421227E6,1.009179E6,1.89736E5,4.09505E5,8.62732E5,3.00531E5,1.47867E5,9.941394E6,1.244617E6,4.965578E6,2.124036E6,7.24534E5,1.2191E5,7.24249E5,1.55594E5,2.53872E5,3.16385E5,2.7146E4,3.28176E5,4.48008E5,1.30294E5,6.88165E5,4.78172E5],"tree_param":{"num_deleted":"0","num_feature":"9","num_nodes":"127","size_leaf_vector":"0"}},{"base_weights":[-2.667045E-2,-6.634255E-2,6.8745697E-3,-8.192272E-2,-5.7524834E-2,-1.5431916E-2,1.409012E-2,-4.2097434E-2,-8.389869E-2,-2.800284E-2,-6.1226323E-2,-2.6882436E-2,-1.0005796E-2,7.273096E-3,2.3126023E-2,-9.063844E-2,2.992328E-2,-1.0251236E-1,-7.794713E-2,-1.825934E-2,-3.7503216E-2,-6.7047566E-2,-3.974659E-2,-2.2685336E-2,-3.705011E-2,-2.7062286E-2,-4.1002496E-3,1.3159922E-2,-3.910128E-2,2.6805853E-2,1.8678496E-3,-1.0783249E-1,-4.651787E-2,7.995706E-2,-1.2109298E-2,-3.9802283E-2,-1.06794365E-1,-1.32997865E-2,-8.2291245E-2,-1.25687355E-2,-5.312531E-2,-4.9499553E-2,-2.746174E-2,-7.250592E-2,-3.871616E-2,-2.4449116E-2,-5.221231E-2,-2.7860146E-2,-1.6289456E-2,-1.7935287E-2,-4.068339E-2,-1.646142E-2,-3.6687534E-2,-1.5733884E-4,-2.3779392E-2,1.9315265E-2,-2.9258203E-2,-2.7149903E-2,-5.8258142E-2,3.0434337E-2,-1.838262E-2,-4.0716104E-2,2.8110718E-2,-3.5538886E-2,-2.5028406E-2,-1.566958E-3,-3.0321756E-2,2.6643503E-2,-4.9086228E-2,-1.6683986E-2,3.0016496E-3,-3.6263544E-2,4.7646426E-3,-3.6246613E-2,-2.9475389E-2,5.6834496E-3,-1.0119809E-2,-1.29094785E-2,-2.5935695E-2,1.2560289E-2,-4.9514836E-3,1.6348064E-2,-1.7474266E-2,-1.853788E-2,-1.2500881E-2,-1.0955306E-2,-4.3656356E-3,-8.631041E-3,-2.313245E-2,-1.3458556E-2,-1.996453E-3,-1.2142571E-2,-4.4005616E-3,-1.7546855E-2,-4.7803773E-3,-7.490033E-3,-1.06112035E-2,-1.3674707E-2,-3.4268743E-3,-1.7548521E-3,-6.1642346E-3,-1.1384552E-2,-2.1541182E-2,-1.1151309E-2,-3.5565675E-3,-3.1687734E-3,-1.2049015E-2,1.2756079E-3,-6.0220347E-3,-1.3155752E-2,-5.317669E-3,-9.960156E-4,7.6295137E-3,-5.699512E-3,-1.9308707E-2,-1.3041782E-2,-5.11402E-3,-1.2055248E-3,-1.9655054E-2,7.727682E-3,1.3366014E-2,-1.5991984E-2,7.8495545E-3,-9.763444E-3,-2.7365996E-2,1.0009522E-3,1.2191549E-2],"categories":[],"categories_nodes":[],"categories_segments":[],"categories_sizes":[],"default_left":[0,0,0,0,0,0,0,0,0,0,0,0,0,0,0,0,0,0,0,0,0,0,0,0,0,0,0,0,0,0,0,0,0,0,0,0,0,0,0,0,0,0,0,0,0,0,0,0,0,0,0,0,0,0,0,0,0,0,0,0,0,0,0,0,0,0,0,0,0,0,0,0,0,0,0,0,0,0,0,0,0,0,0,0,0,0,0,0,0,0,0,0,0,0,0,0,0,0,0,0,0,0,0,0,0,0,0,0,0,0,0,0,0,0,0,0,0,0,0,0,0,0,0,0,0,0,0],"id":8,"left_children":[1,3,5,7,9,11,13,15,17,19,21,23,25,27,29,31,33,35,37,39,41,43,45,47,49,51,53,55,57,59,61,63,65,67,69,71,73,75,77,79,81,83,85,87,89,91,93,95,97,99,101,103,105,107,109,111,113,115,117,119,121,123,125,-1,-1,-1,-1,-1,-1,-1,-1,-1,-1,-1,-1,-1,-1,-1,-1,-1,-1,-1,-1,-1,-1,-1,-1,-1,-1,-1,-1,-1,-1,-1,-1,-1,-1,-1,-1,-1,-1,-1,-1,-1,-1,-1,-1,-1,-1,-1,-1,-1,-1,-1,-1,-1,-1,-1,-1,-1,-1,-1,-1,-1,-1,-1,-1],"loss_changes":[9.539284E4,4.51175E3,6.251377E3,9.3402344E2,2.2917188E3,5.898108E2,1.8076997E3,1.9614725E3,1.2527188E3,2.1628406E2,2.3301406E3,1.3024756E2,6.4876483E2,4.5664785E3,9.8718604E2,2.5425806E2,4.7507965E2,7.3566797E2,2.4063242E3,2.2886426E2,1.4250635E2,2.2673516E3,7.5772656E2,7.150171E1,6.1932007E1,1.6902026E2,3.7122742E2,3.875472E3,4.3138477E2,1.763853E3,2.080987E3,6.2559326E1,2.1174399E2,2.224527E2,1.1811246E2,7.905992E2,3.0732422E2,3.554654E2,1.3116211E3,2.1248528E2,8.922354E1,5.1883545E1,7.528668E1,2.4744453E3,4.666787E2,2.7965125E2,4.9857666E2,2.594928E1,1.377344E2,4.4964867E0,6.3773926E1,7.519682E1,7.8836914E1,3.5001468E2,9.7041504E1,1.7945635E3,6.7744165E2,1.9134698E2,2.8499805E2,6.5733984E2,1.2439838E3,2.9300623E2,3.5758063E2,0E0,0E0,0E0,0E0,0E0,0E0,0E0,0E0,0E0,0E0,0E0,0E0,0E0,0E0,0E0,0E0,0E0,0E0,0E0,0E0,0E0,0E0,0E0,0E0,0E0,0E0,0E0,0E0,0E0,0E0,0E0,0E0,0E0,0E0,0E0,0E0,0E0,0E0,0E0,0E0,0E0,0E0,0E0,0E0,0E0,0E0,0E0,0E0,0E0,0E0,0E0,0E0,0E0,0E0,0E0,0E0,0E0,0E0,0E0,0E0,0E0,0E0,0E0,0E0],"parents":[2147483647,0,0,1,1,2,2,3,3,4,4,5,5,6,6,7,7,8,8,9,9,10,10,11,11,12,12,13,13,14,14,15,15,16,16,17,17,18,18,19,19,20,20,21,21,22,22,23,23,24,24,25,25,26,26,27,27,28,28,29,29,30,30,31,31,32,32,33,33,34,34,35,35,36,36,37,37,38,38,39,39,40,40,41,41,42,42,43,43,44,44,45,45,46,46,47,47,48,48,49,49,50,50,51,51,52,52,53,53,54,54,55,55,56,56,57,57,58,58,59,59,60,60,61,61,62,62],"right_children":[2,4,6,8,10,12,14,16,18,20,22,24,26,28,30,32,34,36,38,40,42,44,46,48,50,52,54,56,58,60,62,64,66,68,70,72,74,76,78,80,82,84,86,88,90,92,94,96,98,100,102,104,106,108,110,112,114,116,118,120,122,124,126,-1,-1,-1,-1,-1,-1,-1,-1,-1,-1,-1,-1,-1,-1,-1,-1,-1,-1,-1,-1,-1,-1,-1,-1,-1,-1,-1,-1,-1,-1,-1,-1,-1,-1,-1,-1,-1,-1,-1,-1,-1,-1,-1,-1,-1,-1,-1,-1,-1,-1,-1,-1,-1,-1,-1,-1,-1,-1,-1,-1,-1,-1,-1,-1],"split_conditions":[-5.7687834E-3,-1.6192377E-1,4.1177515E-2,-6.3622457E-1,-1.8030894E-1,1.4746117E-3,1.5007639E-1,-6.381345E-1,-3.4538358E-1,-2.4029921E-1,3.1274825E-2,5.708325E-2,-1.7831307E-2,1.7482813E-1,3.814688E-1,-7.8719985E-1,-7.85112E-1,-7.776132E-1,-3.751279E-1,-6.0952377E-2,-9.510244E-2,2.8277088E-2,-5.1705763E-2,5.6302366E-3,1.4197815E-3,4.5463994E-2,9.229672E-2,1.6167852E-1,2.5113395E-1,4.4096887E-1,3.639763E-1,-7.8767055E-1,-7.85112E-1,-2.576251E-1,-5.0525486E-1,-7.8719985E-1,-4.6588305E-1,-4.6508172E-1,-3.3344755E-1,-5.530444E-1,-3.753004E-1,-1.3937712E-1,-1.8035512E-1,-1.8397027E-1,1.6179974E-1,-8.21872E-2,2.0656605E-1,0E0,-1.3044722E-1,-4.467368E-3,1.7468888E-1,-1.3036947E-1,0E0,8.2198955E-2,-7.226433E-3,-1.3809755E-3,2.7437797E-1,5.1306102E-2,6.457529E-2,2.9191026E-1,3.5006508E-1,5.937008E-1,4.1773465E-1,-3.5538886E-2,-2.5028406E-2,-1.566958E-3,-3.0321756E-2,2.6643503E-2,-4.9086228E-2,-1.6683986E-2,3.0016496E-3,-3.6263544E-2,4.7646426E-3,-3.6246613E-2,-2.9475389E-2,5.6834496E-3,-1.0119809E-2,-1.29094785E-2,-2.5935695E-2,1.2560289E-2,-4.9514836E-3,1.6348064E-2,-1.7474266E-2,-1.853788E-2,-1.2500881E-2,-1.0955306E-2,-4.3656356E-3,-8.631041E-3,-2.313245E-2,-1.3458556E-2,-1.996453E-3,-1.2142571E-2,-4.4005616E-3,-1.7546855E-2,-4.7803773E-3,-7.490033E-3,-1.06112035E-2,-1.3674707E-2,-3.4268743E-3,-1.7548521E-3,-6.1642346E-3,-1.1384552E-2,-2.1541182E-2,-1.1151309E-2,-3.5565675E-3,-3.1687734E-3,-1.2049015E-2,1.2756079E-3,-6.0220347E-3,-1.3155752E-2,-5.317669E-3,-9.960156E-4,7.6295137E-3,-5.699512E-3,-1.9308707E-2,-1.3041782E-2,-5.11402E-3,-1.2055248E-3,-1.9655054E-2,7.727682E-3,1.3366014E-2,-1.5991984E-2,7.8495545E-3,-9.763444E-3,-2.7365996E-2,1.0009522E-3,1.2191549E-2],"split_indices":[0,0,0,8,8,5,0,0,0,8,8,3,3,1,1,0,8,1,2,5,3,1,1,0,0,6,1,8,1,8,0,3,8,6,0,0,0,1,8,8,4,0,7,1,1,0,8,5,8,0,4,1,0,8,8,8,8,8,4,0,4,1,5,0,0,0,0,0,0,0,0,0,0,0,0,0,0,0,0,0,0,0,0,0,0,0,0,0,0,0,0,0,0,0,0,0,0,0,0,0,0,0,0,0,0,0,0,0,0,0,0,0,0,0,0,0,0,0,0,0,0,0,0,0,0,0,0],"split_type":[0,0,0,0,0,0,0,0,0,0,0,0,0,0,0,0,0,0,0,0,0,0,0,0,0,0,0,0,0,0,0,0,0,0,0,0,0,0,0,0,0,0,0,0,0,0,0,0,0,0,0,0,0,0,0,0,0,0,0,0,0,0,0,0,0,0,0,0,0,0,0,0,0,0,0,0,0,0,0,0,0,0,0,0,0,0,0,0,0,0,0,0,0,0,0,0,0,0,0,0,0,0,0,0,0,0,0,0,0,0,0,0,0,0,0,0,0,0,0,0,0,0,0,0,0,0,0],"sum_hessian":[7.168075E7,3.2841124E7,3.883963E7,1.1869206E7,2.0971918E7,9.492885E6,2.9346746E7,5.61067E5,1.1308139E7,2.336522E6,1.8635396E7,3.052119E6,6.440766E6,1.6727155E7,1.2619591E7,3.35168E5,2.25899E5,2.739685E6,8.568454E6,1.153503E6,1.183019E6,1.4661868E7,3.973528E6,2.160353E6,8.91766E5,1.656483E6,4.784283E6,1.4842969E7,1.884186E6,1.0757454E7,1.862137E6,2.41178E5,9.399E4,1.03133E5,1.22766E5,1.75116E5,2.564569E6,5.39521E5,8.028933E6,9.91653E5,1.6185E5,5.39038E5,6.43981E5,1.2293407E7,2.368461E6,1.784122E6,2.189406E6,1.194167E6,9.66186E5,1.42432E5,7.49334E5,7.88292E5,8.68191E5,3.985708E6,7.98575E5,1.2962034E7,1.880935E6,1.160308E6,7.23878E5,9.957871E6,7.99583E5,7.10011E5,1.152126E6,1.67996E5,7.3182E4,5.3497E4,4.0493E4,9.9516E4,3.617E3,4.1374E4,8.1392E4,7.1301E4,1.03815E5,9.7069E5,1.593879E6,2.09273E5,3.30248E5,7.69425E5,7.259508E6,6.6869E4,9.24784E5,7.353E3,1.54497E5,2.09736E5,3.29302E5,3.7848E5,2.65501E5,1.170451E6,1.1122956E7,1.987488E6,3.80973E5,6.7617E5,1.107952E6,1.86645E6,3.22956E5,8.62067E5,3.321E5,1.37647E5,8.28539E5,2.5314E4,1.17118E5,6.88804E5,6.053E4,1.43428E5,6.44864E5,1.01947E5,7.66244E5,3.263238E6,7.2247E5,1.85035E5,6.1354E5,2.757451E6,1.0204583E7,1.455531E6,4.25404E5,4.43609E5,7.16699E5,8.544E4,6.38438E5,7.480704E6,2.477167E6,4.48205E5,3.51378E5,6.11134E5,9.8877E4,3.86939E5,7.65187E5],"tree_param":{"num_deleted":"0","num_feature":"9","num_nodes":"127","size_leaf_vector":"0"}},{"base_weights":[-1.8669324E-2,-4.75314E-2,4.2193327E-3,-5.1237285E-2,-2.9148296E-2,-7.0007457E-3,1.3282809E-2,-6.4328276E-2,-4.7380447E-2,-5.9549036E-3,-3.2343093E-2,-1.4885948E-2,-4.7267857E-4,1.6956398E-2,7.947498E-4,-3.6945242E-2,-6.801512E-2,-1.3732299E-2,-5.0136242E-2,-8.361617E-3,2.637466E-2,-1.4450336E-2,-3.8320903E-2,-1.8938577E-2,-1.0475025E-2,3.069629E-3,-2.8422775E-2,2.1759503E-2,-1.5901322E-2,-3.229249E-2,1.8205563E-2,-6.131889E-2,7.3612626E-3,-2.285697E-2,-7.0585035E-2,-9.586003E-3,-5.8441166E-2,-1.1966303E-2,-5.276696E-2,-2.999607E-2,-4.8322873E-3,9.338977E-3,4.6821557E-2,-2.5972897E-2,-2.5195559E-3,-1.5214295E-2,-4.2926963E-2,-1.4172069E-2,-2.0188153E-2,-2.4686225E-2,-5.9246123E-3,8.399222E-3,-1.5675398E-2,-7.627849E-2,-2.6057072E-2,-1.0279462E-2,2.3998156E-2,-4.5829084E-2,8.963835E-3,-4.429858E-2,-1.3817676E-2,-5.038552E-3,2.5048204E-2,-2.2810549E-2,-1.2459072E-2,2.0409046E-2,-4.020544E-3,-2.2611119E-2,6.060072E-3,-2.5221722E-2,-1.9792734E-2,1.9020186E-3,-7.427272E-3,9.062906E-3,-1.9773766E-2,-2.5079874E-3,-1.7242603E-2,-1.6309563E-2,-4.5383703E-3,7.8213884E-4,-1.1188628E-2,4.3244218E-3,-2.0369133E-3,1.012422E-2,-6.821596E-4,1.7950103E-2,7.959457E-3,-9.607039E-3,-3.8541872E-3,-4.8046913E-3,1.938748E-3,-8.701406E-3,-1.0233221E-3,-1.3233932E-4,-1.3816666E-2,-2.1243426E-3,-7.484005E-3,-4.5890263E-3,-6.324236E-3,-4.038002E-3,-1.1508396E-2,3.561217E-4,-7.0224823E-3,3.8844834E-3,-4.2166794E-3,-9.101389E-3,-1.3121393E-3,-3.3347264E-2,-1.191524E-2,-9.839341E-3,-5.606956E-3,-7.6717488E-3,1.9486358E-3,1.9588268E-4,8.176509E-3,-7.7833673E-3,-1.7569246E-2,4.6769716E-3,-1.9339839E-2,-4.146682E-3,-1.579494E-2,1.7268162E-3,-1.3127064E-2,2.568607E-4,-2.6007125E-2,9.053329E-3,3.675025E-3],"categories":[],"categories_nodes":[],"categories_segments":[],"categories_sizes":[],"default_left":[0,0,0,0,0,0,0,0,0,0,0,0,0,0,0,0,0,0,0,0,0,0,0,0,0,0,0,0,0,0,0,0,0,0,0,0,0,0,0,0,0,0,0,0,0,0,0,0,0,0,0,0,0,0,0,0,0,0,0,0,0,0,0,0,0,0,0,0,0,0,0,0,0,0,0,0,0,0,0,0,0,0,0,0,0,0,0,0,0,0,0,0,0,0,0,0,0,0,0,0,0,0,0,0,0,0,0,0,0,0,0,0,0,0,0,0,0,0,0,0,0,0,0,0,0,0,0],"id":9,"left_children":[1,3,5,7,9,11,13,15,17,19,21,23,25,27,29,31,33,35,37,39,41,43,45,47,49,51,53,55,57,59,61,63,65,67,69,71,73,75,77,79,81,83,85,87,89,91,93,95,97,99,101,103,105,107,109,111,113,115,117,119,121,123,125,-1,-1,-1,-1,-1,-1,-1,-1,-1,-1,-1,-1,-1,-1,-1,-1,-1,-1,-1,-1,-1,-1,-1,-1,-1,-1,-1,-1,-1,-1,-1,-1,-1,-1,-1,-1,-1,-1,-1,-1,-1,-1,-1,-1,-1,-1,-1,-1,-1,-1,-1,-1,-1,-1,-1,-1,-1,-1,-1,-1,-1,-1,-1,-1],"loss_changes":[4.7353312E4,2.1598203E3,4.0654102E3,1.3321484E3,3.941211E2,9.195215E2,1.01449805E3,6.0617773E2,1.8898008E3,5.0105225E1,5.000298E2,1.4462805E2,9.6757446E2,2.6967095E3,2.8956782E3,7.6943286E2,6.141328E2,2.859958E2,1.8915391E3,4.5762608E1,1.5540859E1,1.60944E2,3.7295508E2,2.5114258E1,2.5052563E2,8.6650775E2,1.2444641E2,1.0692715E3,1.6217075E3,3.8441138E2,5.2383386E2,1.338512E2,3.185167E2,6.4427637E2,3.112578E2,3.4113736E2,8.6726105E1,1.9933893E2,1.0601328E3,2.0004906E1,1.9413136E1,6.8992777E0,5.3521347E0,4.7296936E1,6.97246E1,9.480264E1,3.883667E2,6.691399E1,1.4586426E1,1.4424927E2,3.648687E2,6.898426E2,3.1818274E2,6.602612E1,5.201715E1,2.497774E2,1.0594702E3,2.5043066E2,5.7914496E2,2.6734863E2,4.0004047E2,3.6052676E2,1.6703967E2,0E0,0E0,0E0,0E0,0E0,0E0,0E0,0E0,0E0,0E0,0E0,0E0,0E0,0E0,0E0,0E0,0E0,0E0,0E0,0E0,0E0,0E0,0E0,0E0,0E0,0E0,0E0,0E0,0E0,0E0,0E0,0E0,0E0,0E0,0E0,0E0,0E0,0E0,0E0,0E0,0E0,0E0,0E0,0E0,0E0,0E0,0E0,0E0,0E0,0E0,0E0,0E0,0E0,0E0,0E0,0E0,0E0,0E0,0E0,0E0,0E0,0E0,0E0,0E0],"parents":[2147483647,0,0,1,1,2,2,3,3,4,4,5,5,6,6,7,7,8,8,9,9,10,10,11,11,12,12,13,13,14,14,15,15,16,16,17,17,18,18,19,19,20,20,21,21,22,22,23,23,24,24,25,25,26,26,27,27,28,28,29,29,30,30,31,31,32,32,33,33,34,34,35,35,36,36,37,37,38,38,39,39,40,40,41,41,42,42,43,43,44,44,45,45,46,46,47,47,48,48,49,49,50,50,51,51,52,52,53,53,54,54,55,55,56,56,57,57,58,58,59,59,60,60,61,61,62,62],"right_children":[2,4,6,8,10,12,14,16,18,20,22,24,26,28,30,32,34,36,38,40,42,44,46,48,50,52,54,56,58,60,62,64,66,68,70,72,74,76,78,80,82,84,86,88,90,92,94,96,98,100,102,104,106,108,110,112,114,116,118,120,122,124,126,-1,-1,-1,-1,-1,-1,-1,-1,-1,-1,-1,-1,-1,-1,-1,-1,-1,-1,-1,-1,-1,-1,-1,-1,-1,-1,-1,-1,-1,-1,-1,-1,-1,-1,-1,-1,-1,-1,-1,-1,-1,-1,-1,-1,-1,-1,-1,-1,-1,-1,-1,-1,-1,-1,-1,-1,-1,-1,-1,-1,-1,-1,-1,-1],"split_conditions":[-1.1776519E-2,-4.1670468E-2,8.033511E-2,-2.58131E-1,-6.4462386E-2,2.8258052E-2,2.3844859E-1,-5.530444E-1,-2.716527E-1,2.1609485E-1,-6.647279E-2,8.6451955E-3,9.589898E-2,2.658782E-1,2.4501082E-1,-5.589678E-1,-6.37603E-1,-8.648439E-2,-2.7858543E-1,-1.2215616E-1,-1.1195412E-1,-4.3738955E-3,-7.02504E-2,-2.241586E-2,-3.0307937E-2,9.941148E-2,-2.5199386E-1,-1.2485666E-1,2.4501082E-1,1.9386196E-1,2.269724E-1,-7.8719985E-1,-7.85112E-1,-6.381345E-1,-4.134795E-1,-3.3330926E-1,-3.9225066E-1,-8.438148E-2,1.6494007E-1,-3.0320612E-1,-2.788156E-1,-3.9191836E-1,9.57914E-2,-1.3143081E-2,-1.2208926E-1,0E0,-6.0952377E-2,-1.3454631E-3,-3.3394035E-2,3.1201355E-2,7.247515E-2,9.766883E-2,2.4131987E-2,1.3021648E-1,3.2532915E-2,1.7808695E-1,7.391831E-2,3.1243944E-1,6.874991E-1,5.424259E-2,2.8249052E-1,7.020897E-1,4.666928E-1,-2.2810549E-2,-1.2459072E-2,2.0409046E-2,-4.020544E-3,-2.2611119E-2,6.060072E-3,-2.5221722E-2,-1.9792734E-2,1.9020186E-3,-7.427272E-3,9.062906E-3,-1.9773766E-2,-2.5079874E-3,-1.7242603E-2,-1.6309563E-2,-4.5383703E-3,7.8213884E-4,-1.1188628E-2,4.3244218E-3,-2.0369133E-3,1.012422E-2,-6.821596E-4,1.7950103E-2,7.959457E-3,-9.607039E-3,-3.8541872E-3,-4.8046913E-3,1.938748E-3,-8.701406E-3,-1.0233221E-3,-1.3233932E-4,-1.3816666E-2,-2.1243426E-3,-7.484005E-3,-4.5890263E-3,-6.324236E-3,-4.038002E-3,-1.1508396E-2,3.561217E-4,-7.0224823E-3,3.8844834E-3,-4.2166794E-3,-9.101389E-3,-1.3121393E-3,-3.3347264E-2,-1.191524E-2,-9.839341E-3,-5.606956E-3,-7.6717488E-3,1.9486358E-3,1.9588268E-4,8.176509E-3,-7.7833673E-3,-1.7569246E-2,4.6769716E-3,-1.9339839E-2,-4.146682E-3,-1.579494E-2,1.7268162E-3,-1.3127064E-2,2.568607E-4,-2.6007125E-2,9.053329E-3,3.675025E-3],"split_indices":[0,0,0,0,4,0,1,8,1,6,8,0,5,8,0,0,1,4,8,8,1,1,1,5,8,1,3,8,0,0,6,0,8,0,0,1,5,5,1,1,1,1,1,4,7,8,5,0,4,1,8,8,8,8,1,0,4,8,8,5,3,1,1,0,0,0,0,0,0,0,0,0,0,0,0,0,0,0,0,0,0,0,0,0,0,0,0,0,0,0,0,0,0,0,0,0,0,0,0,0,0,0,0,0,0,0,0,0,0,0,0,0,0,0,0,0,0,0,0,0,0,0,0,0,0,0,0],"split_type":[0,0,0,0,0,0,0,0,0,0,0,0,0,0,0,0,0,0,0,0,0,0,0,0,0,0,0,0,0,0,0,0,0,0,0,0,0,0,0,0,0,0,0,0,0,0,0,0,0,0,0,0,0,0,0,0,0,0,0,0,0,0,0,0,0,0,0,0,0,0,0,0,0,0,0,0,0,0,0,0,0,0,0,0,0,0,0,0,0,0,0,0,0,0,0,0,0,0,0,0,0,0,0,0,0,0,0,0,0,0,0,0,0,0,0,0,0,0,0,0,0,0,0,0,0,0,0],"sum_hessian":[7.168075E7,3.1703436E7,3.997732E7,2.6384532E7,5.318906E6,1.7863412E7,2.2113908E7,6.004352E6,2.038018E7,6.43956E5,4.67495E6,8.090707E6,9.772704E6,1.7087352E7,5.026556E6,7.12495E5,5.291857E6,1.542788E6,1.8837392E7,5.9934E5,4.4616E4,1.17073E6,3.50422E6,4.216607E6,3.8741E6,8.673458E6,1.099246E6,1.4908102E7,2.179249E6,1.733065E6,3.293491E6,4.5964E5,2.52855E5,2.8494E5,5.006917E6,1.411854E6,1.30934E5,1.214585E6,1.7622806E7,8.4059E4,5.15281E5,2.4339E4,2.0277E4,5.95553E5,5.75177E5,5.82429E5,2.921791E6,8.75816E5,3.340791E6,9.39617E5,2.934483E6,6.753345E6,1.920113E6,5.1779E4,1.047467E6,9.7364E5,1.3934462E7,9.88948E5,1.190301E6,1.050429E6,6.82636E5,7.4904E5,2.544451E6,2.63603E5,1.96037E5,6.4471E4,1.88384E5,1.28373E5,1.56567E5,1.27527E6,3.731647E6,6.888E5,7.23054E5,1.0177E4,1.20757E5,1.125404E6,8.9181E4,1.6904976E7,7.1783E5,1.5377E4,6.8682E4,4.7566E4,4.67715E5,7.846E3,1.6493E4,1.2353E4,7.924E3,4.0764E5,1.87913E5,2.29835E5,3.45342E5,2.68603E5,3.13826E5,2.00399E5,2.721392E6,5.28201E5,3.47615E5,5.15577E5,2.825214E6,5.16012E5,4.23605E5,2.085985E6,8.48498E5,5.615681E6,1.137664E6,8.3578E5,1.084333E6,2.6498E4,2.5281E4,5.46989E5,5.00478E5,5.09316E5,4.64324E5,1.705986E6,1.2228476E7,3.86098E5,6.0285E5,1.091783E6,9.8518E4,2.25932E5,8.24497E5,4.12773E5,2.69863E5,6.98606E5,5.0434E4,1.816419E6,7.28032E5],"tree_param":{"num_deleted":"0","num_feature":"9","num_nodes":"127","size_leaf_vector":"0"}},{"base_weights":[-1.30685335E-2,-3.187258E-2,4.390125E-3,-3.6516532E-2,-1.6979136E-2,-1.327064E-2,7.7224714E-3,-4.3115504E-2,-3.2379568E-2,-1.830269E-2,9.3796157E-4,-1.382281E-2,5.8021586E-2,-4.898527E-3,9.764132E-3,-2.5075309E-2,-4.569497E-2,-1.1714919E-2,-3.6701184E-2,-3.643612E-2,-1.7280042E-2,2.3697216E-2,-2.3338174E-2,-2.928668E-2,-1.1055328E-2,-1.4135503E-2,1.09085046E-1,-8.394822E-3,4.0433608E-2,-2.4499728E-3,1.2750668E-2,-4.0519185E-2,8.421557E-3,-5.1471118E-2,-3.1771217E-2,-2.3995655E-2,1.497158E-4,-4.2312103E-3,-4.0062316E-2,-1.6377036E-2,-6.247688E-2,-2.2543088E-2,-1.3270549E-2,8.331546E-3,4.9187023E-2,-2.7768366E-2,9.06053E-2,-1.4748678E-2,-4.4121467E-2,-1.0334219E-2,-4.8783105E-2,-8.765113E-2,3.8782515E-2,1.3647835E-1,4.3451168E-2,5.463855E-3,-2.3304863E-2,3.275826E-2,8.3290495E-2,1.1335446E-2,-1.3039967E-2,1.5196525E-2,-6.580493E-5,-6.0953265E-3,-1.540481E-2,1.3315133E-2,-2.4313435E-4,-1.6665453E-2,-9.625076E-3,-3.3603474E-3,-1.4082977E-2,-2.9185505E-3,-1.0299573E-2,1.6766376E-3,-4.428614E-3,-5.9898687E-3,1.2976363E-3,-1.5567768E-2,-1.0498241E-2,-6.8726346E-2,-4.205012E-3,-1.5242123E-2,-3.3441287E-2,1.5580724E-2,-7.3120673E-3,-2.7784664E-2,-3.688832E-3,-2.0000223E-2,3.4672974E-3,-8.324494E-3,1.6494792E-2,-2.0717517E-2,-6.271844E-3,7.978836E-3,4.0825337E-2,7.929724E-3,-6.103148E-3,-3.103341E-2,-1.0934654E-2,-3.2782948E-3,1.6799293E-2,2.7692085E-2,-2.8720308E-2,-3.813984E-2,-4.2464E-3,3.4026664E-2,3.4121017E-3,3.183205E-2,5.8675595E-2,-2.1355725E-3,5.7310283E-2,-1.4873103E-3,3.4600708E-3,-2.0366218E-2,-6.2384224E-3,-4.782729E-3,1.157059E-2,1.46794515E-2,2.896965E-2,3.9654095E-3,-2.279835E-3,-5.0098537E-3,8.11544E-3,5.2843946E-3,-3.8940066E-3,-9.0518845E-3,4.3308064E-3],"categories":[],"categories_nodes":[],"categories_segments":[],"categories_sizes":[],"default_left":[0,0,0,0,0,0,0,0,0,0,0,0,0,0,0,0,0,0,0,0,0,0,0,0,0,0,0,0,0,0,0,0,0,0,0,0,0,0,0,0,0,0,0,0,0,0,0,0,0,0,0,0,0,0,0,0,0,0,0,0,0,0,0,0,0,0,0,0,0,0,0,0,0,0,0,0,0,0,0,0,0,0,0,0,0,0,0,0,0,0,0,0,0,0,0,0,0,0,0,0,0,0,0,0,0,0,0,0,0,0,0,0,0,0,0,0,0,0,0,0,0,0,0,0,0,0,0],"id":10,"left_children":[1,3,5,7,9,11,13,15,17,19,21,23,25,27,29,31,33,35,37,39,41,43,45,47,49,51,53,55,57,59,61,63,65,67,69,71,73,75,77,79,81,83,85,87,89,91,93,95,97,99,101,103,105,107,109,111,113,115,117,119,121,123,125,-1,-1,-1,-1,-1,-1,-1,-1,-1,-1,-1,-1,-1,-1,-1,-1,-1,-1,-1,-1,-1,-1,-1,-1,-1,-1,-1,-1,-1,-1,-1,-1,-1,-1,-1,-1,-1,-1,-1,-1,-1,-1,-1,-1,-1,-1,-1,-1,-1,-1,-1,-1,-1,-1,-1,-1,-1,-1,-1,-1,-1,-1,-1,-1],"loss_changes":[2.3532324E4,2.3869062E3,2.187527E3,7.181953E2,1.9452856E2,2.3226465E2,8.0575635E2,4.7173047E2,1.444082E3,1.4165332E2,3.1177072E2,2.5056421E2,1.6708664E2,6.900996E2,9.818313E2,6.560436E2,7.133047E2,4.0751346E2,1.4595273E3,2.1301172E2,1.5258813E2,1.1406937E2,1.3783229E2,1.9167554E2,1.351065E2,7.311384E1,4.7738068E1,8.35279E2,1.02551056E2,7.7202106E2,6.779646E2,1.898982E2,1.3286214E2,4.959043E2,8.115908E2,2.0266724E2,1.15374146E2,1.6890518E2,7.266289E2,1.1565056E2,1.0144592E2,4.2626782E2,3.1732794E2,4.3965683E1,4.8841797E1,7.446773E1,2.9744736E1,1.034264E2,2.0021722E2,1.9181665E2,6.169946E2,2.282346E1,2.2355076E1,3.3611725E1,5.8371357E1,1.3252272E2,2.1791614E2,7.4822205E1,2.1594177E1,8.1898346E1,4.3879373E2,1.2374312E3,1.5132462E3,0E0,0E0,0E0,0E0,0E0,0E0,0E0,0E0,0E0,0E0,0E0,0E0,0E0,0E0,0E0,0E0,0E0,0E0,0E0,0E0,0E0,0E0,0E0,0E0,0E0,0E0,0E0,0E0,0E0,0E0,0E0,0E0,0E0,0E0,0E0,0E0,0E0,0E0,0E0,0E0,0E0,0E0,0E0,0E0,0E0,0E0,0E0,0E0,0E0,0E0,0E0,0E0,0E0,0E0,0E0,0E0,0E0,0E0,0E0,0E0,0E0,0E0,0E0,0E0],"parents":[2147483647,0,0,1,1,2,2,3,3,4,4,5,5,6,6,7,7,8,8,9,9,10,10,11,11,12,12,13,13,14,14,15,15,16,16,17,17,18,18,19,19,20,20,21,21,22,22,23,23,24,24,25,25,26,26,27,27,28,28,29,29,30,30,31,31,32,32,33,33,34,34,35,35,36,36,37,37,38,38,39,39,40,40,41,41,42,42,43,43,44,44,45,45,46,46,47,47,48,48,49,49,50,50,51,51,52,52,53,53,54,54,55,55,56,56,57,57,58,58,59,59,60,60,61,61,62,62],"right_children":[2,4,6,8,10,12,14,16,18,20,22,24,26,28,30,32,34,36,38,40,42,44,46,48,50,52,54,56,58,60,62,64,66,68,70,72,74,76,78,80,82,84,86,88,90,92,94,96,98,100,102,104,106,108,110,112,114,116,118,120,122,124,126,-1,-1,-1,-1,-1,-1,-1,-1,-1,-1,-1,-1,-1,-1,-1,-1,-1,-1,-1,-1,-1,-1,-1,-1,-1,-1,-1,-1,-1,-1,-1,-1,-1,-1,-1,-1,-1,-1,-1,-1,-1,-1,-1,-1,-1,-1,-1,-1,-1,-1,-1,-1,-1,-1,-1,-1,-1,-1,-1,-1,-1,-1,-1,-1],"split_conditions":[1.4288739E-3,-2.241586E-2,7.1262172E-3,-1.8020645E-1,2.7437797E-1,3.129303E-1,-1.3186528E-2,-4.3953136E-1,-1.651629E-1,-3.0320612E-1,-1.3454631E-3,-2.0487742E-1,-4.121796E-1,3.238436E-1,1.8393157E-2,-4.134795E-1,-1.0454575E-1,-1.07095495E-1,-1.9188686E-1,2.8816226E-3,-1.3293125E-2,4.4096887E-1,3.236209E-1,1.4197815E-3,3.362745E-1,-2.4604376E-1,5.9378296E-1,7.098339E-2,6.9041634E-1,7.550834E-2,2.659356E-1,-7.85112E-1,-6.3622457E-1,-1.5504198E-1,-2.402696E-1,-2.2414224E-1,-3.9961588E-2,-8.8529766E-2,-1.06887266E-1,-5.0525486E-1,2.741304E-1,-3.4599662E-1,-2.2944187E-1,-2.8657708E-1,-3.1258896E-1,-4.37298E-1,-3.5852665E-1,-5.05133E-1,-5.530444E-1,1.7148706E-1,-2.980041E-3,4.9847007E-1,-4.8239492E-2,2.4447964E-1,5.380569E-1,5.1171843E-2,-3.6001304E-1,2.827768E-1,-3.0307937E-2,9.568633E-2,3.0165136E-1,2.9140493E-1,2.6619017E-1,-6.0953265E-3,-1.540481E-2,1.3315133E-2,-2.4313435E-4,-1.6665453E-2,-9.625076E-3,-3.3603474E-3,-1.4082977E-2,-2.9185505E-3,-1.0299573E-2,1.6766376E-3,-4.428614E-3,-5.9898687E-3,1.2976363E-3,-1.5567768E-2,-1.0498241E-2,-6.8726346E-2,-4.205012E-3,-1.5242123E-2,-3.3441287E-2,1.5580724E-2,-7.3120673E-3,-2.7784664E-2,-3.688832E-3,-2.0000223E-2,3.4672974E-3,-8.324494E-3,1.6494792E-2,-2.0717517E-2,-6.271844E-3,7.978836E-3,4.0825337E-2,7.929724E-3,-6.103148E-3,-3.103341E-2,-1.0934654E-2,-3.2782948E-3,1.6799293E-2,2.7692085E-2,-2.8720308E-2,-3.813984E-2,-4.2464E-3,3.4026664E-2,3.4121017E-3,3.183205E-2,5.8675595E-2,-2.1355725E-3,5.7310283E-2,-1.4873103E-3,3.4600708E-3,-2.0366218E-2,-6.2384224E-3,-4.782729E-3,1.157059E-2,1.46794515E-2,2.896965E-2,3.9654095E-3,-2.279835E-3,-5.0098537E-3,8.11544E-3,5.2843946E-3,-3.8940066E-3,-9.0518845E-3,4.3308064E-3],"split_indices":[4,5,5,0,8,0,1,8,8,1,0,8,6,4,8,0,8,3,1,0,0,8,0,0,4,5,4,8,0,1,1,8,8,3,2,8,4,8,0,0,5,4,4,0,0,1,3,6,8,0,0,0,3,1,0,0,1,0,8,2,5,8,0,0,0,0,0,0,0,0,0,0,0,0,0,0,0,0,0,0,0,0,0,0,0,0,0,0,0,0,0,0,0,0,0,0,0,0,0,0,0,0,0,0,0,0,0,0,0,0,0,0,0,0,0,0,0,0,0,0,0,0,0,0,0,0,0],"split_type":[0,0,0,0,0,0,0,0,0,0,0,0,0,0,0,0,0,0,0,0,0,0,0,0,0,0,0,0,0,0,0,0,0,0,0,0,0,0,0,0,0,0,0,0,0,0,0,0,0,0,0,0,0,0,0,0,0,0,0,0,0,0,0,0,0,0,0,0,0,0,0,0,0,0,0,0,0,0,0,0,0,0,0,0,0,0,0,0,0,0,0,0,0,0,0,0,0,0,0,0,0,0,0,0,0,0,0,0,0,0,0,0,0,0,0,0,0,0,0,0,0,0,0,0,0,0,0],"sum_hessian":[7.168075E7,3.4510656E7,3.71701E7,2.630763E7,8.203025E6,5.900204E6,3.1269896E7,1.0137323E7,1.6170307E7,7.638743E6,5.64282E5,5.854858E6,4.5346E4,4.354089E6,2.6915808E7,1.268153E6,8.86917E6,2.796811E6,1.3373496E7,4.07793E5,7.23095E6,2.9124E5,2.73042E5,8.88754E5,4.966104E6,1.8792E4,2.6554E4,4.042321E6,3.11768E5,5.288266E6,2.162754E7,8.67971E5,4.00182E5,6.268665E6,2.600505E6,1.374306E6,1.422505E6,1.2545E6,1.2118996E7,2.30354E5,1.77439E5,3.126698E6,4.104252E6,1.81706E5,1.09534E5,2.62824E5,1.0218E4,4.48868E5,4.39886E5,4.872966E6,9.3138E4,7.865E3,1.0927E4,1.8734E4,7.82E3,2.095025E6,1.947296E6,2.64415E5,4.7353E4,2.297508E6,2.990758E6,1.8161632E7,3.465909E6,3.02927E5,5.65044E5,8.1746E4,3.18436E5,5.178725E6,1.08994E6,1.10388E6,1.496625E6,5.77367E5,7.96939E5,1.042319E6,3.80186E5,4.41893E5,8.12607E5,3.634733E6,8.484263E6,2.527E3,2.27827E5,1.43307E5,3.4132E4,7.5001E4,3.051697E6,4.9792E4,4.05446E6,7.493E3,1.74213E5,7.673E3,1.01861E5,3.7454E4,2.2537E5,4.245E3,5.973E3,5.3691E4,3.95177E5,5.0376E4,3.8951E5,4.829758E6,4.3208E4,2.3255E4,6.9883E4,5.116E3,2.749E3,2.934E3,7.993E3,1.2377E4,6.357E3,5.825E3,1.995E3,7.71087E5,1.323938E6,1.03793E5,1.843503E6,2.8184E4,2.36231E5,1.3198E4,3.4155E4,2.089738E6,2.0777E5,2.740597E6,2.50161E5,1.6726184E7,1.435448E6,1.126724E6,2.339185E6],"tree_param":{"num_deleted":"0","num_feature":"9","num_nodes":"127","size_leaf_vector":"0"}},{"base_weights":[-9.147971E-3,-2.4374064E-2,1.6630412E-3,-2.6788453E-2,-1.2623292E-2,-3.5655536E-3,1.0177053E-2,-2.977968E-2,-1.3044534E-2,-4.683941E-3,-2.6404658E-2,-2.1296926E-3,-3.231254E-2,1.1346707E-2,-1.7433625E-2,-2.995991E-2,4.559384E-2,-6.9926917E-3,-2.942737E-2,-7.4943895E-3,2.451934E-2,-2.9129472E-2,2.1957107E-2,-8.7655423E-4,-3.3465672E-2,1.3096981E-2,-3.4240976E-2,1.4396352E-2,1.7728606E-4,-5.557963E-2,1.8966982E-2,-3.0197695E-2,1.9880055E-2,7.781118E-2,4.1021234E-3,-3.683429E-2,-2.939133E-3,-3.2564122E-2,1.4381665E-2,-1.4211687E-2,4.5931544E-3,-2.5707657E-2,3.4687363E-2,-4.411424E-2,-2.2836028E-2,5.2955613E-2,-1.81073E-2,-4.9202167E-3,9.13749E-3,-2.6681948E-2,-5.435E-2,2.8208522E-2,2.4043834E-3,-7.936105E-2,-3.2897856E-2,1.7611075E-2,-7.3471863E-4,-2.0789929E-2,1.49917165E-2,9.3017146E-2,-6.3353285E-2,1.5782447E-3,4.290519E-2,-1.0054467E-2,-8.224998E-3,2.7937659E-3,3.41991E-2,1.1251456E-3,2.8425848E-2,-1.6227545E-2,6.512218E-3,-6.0049123E-3,-1.833886E-2,8.487339E-3,-1.4924018E-3,-1.15196295E-2,-6.0128774E-3,1.6487364E-2,-2.4561334E-4,-1.1601826E-2,-3.4839811E-3,4.6251593E-3,-1.3372506E-3,-1.6669574E-3,-1.3742084E-2,7.64136E-3,1.86632E-2,-4.188868E-3,-1.5662698E-2,8.2163577E-4,-8.174933E-3,1.2397698E-2,4.3403998E-2,-3.1708844E-2,-4.1490933E-4,-2.8341506E-3,-5.6018383E-4,4.2456985E-3,-5.2436385E-3,-3.0164325E-3,-1.1524578E-2,-2.4968332E-2,-8.711445E-3,6.2616128E-3,1.2454358E-2,2.9744154E-3,-3.4765908E-3,-3.607836E-2,-1.4728896E-2,-6.2591564E-3,-1.2035296E-2,2.1837451E-3,6.4569986E-3,-8.541186E-3,4.2049396E-3,4.5074243E-3,-7.98141E-3,5.640572E-3,-4.250116E-3,-7.5825416E-2,3.1427342E-2,-1.3325012E-2,-3.4073662E-2,7.231257E-3,-1.4359112E-2,1.1243154E-2,2.5004903E-2],"categories":[],"categories_nodes":[],"categories_segments":[],"categories_sizes":[],"default_left":[0,0,0,0,0,0,0,0,0,0,0,0,0,0,0,0,0,0,0,0,0,0,0,0,0,0,0,0,0,0,0,0,0,0,0,0,0,0,0,0,0,0,0,0,0,0,0,0,0,0,0,0,0,0,0,0,0,0,0,0,0,0,0,0,0,0,0,0,0,0,0,0,0,0,0,0,0,0,0,0,0,0,0,0,0,0,0,0,0,0,0,0,0,0,0,0,0,0,0,0,0,0,0,0,0,0,0,0,0,0,0,0,0,0,0,0,0,0,0,0,0,0,0,0,0,0,0],"id":11,"left_children":[1,3,5,7,9,11,13,15,17,19,21,23,25,27,29,31,33,35,37,39,41,43,45,47,49,51,53,55,57,59,61,63,65,67,69,71,73,75,77,79,81,83,85,87,89,91,93,95,97,99,101,103,105,107,109,111,113,115,117,119,121,123,125,-1,-1,-1,-1,-1,-1,-1,-1,-1,-1,-1,-1,-1,-1,-1,-1,-1,-1,-1,-1,-1,-1,-1,-1,-1,-1,-1,-1,-1,-1,-1,-1,-1,-1,-1,-1,-1,-1,-1,-1,-1,-1,-1,-1,-1,-1,-1,-1,-1,-1,-1,-1,-1,-1,-1,-1,-1,-1,-1,-1,-1,-1,-1,-1],"loss_changes":[1.1799332E4,8.4440234E2,1.8660256E3,1.01503516E3,5.550589E2,1.0719342E3,5.1504956E2,2.7545508E2,4.3753998E2,2.6417258E2,2.4435022E2,9.7126544E2,1.0818567E2,5.2116504E2,8.999831E2,2.3973047E2,6.46584E1,3.8982446E2,1.6358911E2,2.384012E2,1.4430997E2,1.655404E2,1.22831E2,9.630542E2,1.3474304E2,8.132175E0,7.181616E1,5.8461304E2,1.01929456E3,3.6559393E2,1.380568E2,1.8572852E2,9.5530426E1,3.4162903E1,2.1662601E1,1.5747058E2,1.8036441E2,8.11582E1,4.9059456E1,1.1995734E2,1.0274739E2,1.9267923E1,5.960681E1,1.26714966E2,1.3954163E2,5.9476013E1,6.3198288E1,2.3414517E2,9.13127E2,1.4005637E2,1.7044775E2,2.0349808E0,3.097709E0,4.23985E1,9.998755E1,4.006787E2,8.61652E2,2.829391E2,2.1363419E2,6.389943E1,2.860432E2,2.1396361E2,3.0632935E1,0E0,0E0,0E0,0E0,0E0,0E0,0E0,0E0,0E0,0E0,0E0,0E0,0E0,0E0,0E0,0E0,0E0,0E0,0E0,0E0,0E0,0E0,0E0,0E0,0E0,0E0,0E0,0E0,0E0,0E0,0E0,0E0,0E0,0E0,0E0,0E0,0E0,0E0,0E0,0E0,0E0,0E0,0E0,0E0,0E0,0E0,0E0,0E0,0E0,0E0,0E0,0E0,0E0,0E0,0E0,0E0,0E0,0E0,0E0,0E0,0E0,0E0,0E0,0E0],"parents":[2147483647,0,0,1,1,2,2,3,3,4,4,5,5,6,6,7,7,8,8,9,9,10,10,11,11,12,12,13,13,14,14,15,15,16,16,17,17,18,18,19,19,20,20,21,21,22,22,23,23,24,24,25,25,26,26,27,27,28,28,29,29,30,30,31,31,32,32,33,33,34,34,35,35,36,36,37,37,38,38,39,39,40,40,41,41,42,42,43,43,44,44,45,45,46,46,47,47,48,48,49,49,50,50,51,51,52,52,53,53,54,54,55,55,56,56,57,57,58,58,59,59,60,60,61,61,62,62],"right_children":[2,4,6,8,10,12,14,16,18,20,22,24,26,28,30,32,34,36,38,40,42,44,46,48,50,52,54,56,58,60,62,64,66,68,70,72,74,76,78,80,82,84,86,88,90,92,94,96,98,100,102,104,106,108,110,112,114,116,118,120,122,124,126,-1,-1,-1,-1,-1,-1,-1,-1,-1,-1,-1,-1,-1,-1,-1,-1,-1,-1,-1,-1,-1,-1,-1,-1,-1,-1,-1,-1,-1,-1,-1,-1,-1,-1,-1,-1,-1,-1,-1,-1,-1,-1,-1,-1,-1,-1,-1,-1,-1,-1,-1,-1,-1,-1,-1,-1,-1,-1,-1,-1,-1,-1,-1,-1],"split_conditions":[-2.229175E-2,2.1209132E-2,1.21210925E-1,5.593746E-3,-5.7114244E-2,1.3722676E-1,5.3815293E-1,1.1082573E-1,-5.0044358E-2,3.650963E-1,9.768357E-2,1.4481232E-1,0E0,2.9219693E-1,4.9847007E-1,6.014533E-2,-2.4037786E-1,-3.2253006E-1,2.9722184E-2,-8.855711E-2,-3.1190312E-1,-9.2893526E-2,-3.667476E-2,6.7811765E-2,2.1655728E-1,-1.5181595E-1,-3.9223725E-1,2.659836E-1,2.827503E-1,1.938209E-1,6.9041634E-1,-1.5851364E-1,2.6615918E-1,-2.8657708E-1,-1.1683019E-1,-3.9231E-1,-3.335381E-1,7.881419E-2,-1.4556898E-1,-4.3783432E-1,1.980227E-2,-4.3669906E-1,5.8786106E-1,-1.6914599E-1,-5.7251092E-2,3.9893207E-1,7.0351935E-3,1.2849491E-2,1.3495037E-1,-8.665823E-3,2.1097186E-1,-9.755042E-2,-3.3394035E-2,1.818233E-1,-1.0311224E-2,5.5727664E-2,2.3868126E-1,6.616636E-2,5.937008E-1,-5.051716E-1,6.874991E-1,6.874991E-1,1E0,-1.0054467E-2,-8.224998E-3,2.7937659E-3,3.41991E-2,1.1251456E-3,2.8425848E-2,-1.6227545E-2,6.512218E-3,-6.0049123E-3,-1.833886E-2,8.487339E-3,-1.4924018E-3,-1.15196295E-2,-6.0128774E-3,1.6487364E-2,-2.4561334E-4,-1.1601826E-2,-3.4839811E-3,4.6251593E-3,-1.3372506E-3,-1.6669574E-3,-1.3742084E-2,7.64136E-3,1.86632E-2,-4.188868E-3,-1.5662698E-2,8.2163577E-4,-8.174933E-3,1.2397698E-2,4.3403998E-2,-3.1708844E-2,-4.1490933E-4,-2.8341506E-3,-5.6018383E-4,4.2456985E-3,-5.2436385E-3,-3.0164325E-3,-1.1524578E-2,-2.4968332E-2,-8.711445E-3,6.2616128E-3,1.2454358E-2,2.9744154E-3,-3.4765908E-3,-3.607836E-2,-1.4728896E-2,-6.2591564E-3,-1.2035296E-2,2.1837451E-3,6.4569986E-3,-8.541186E-3,4.2049396E-3,4.5074243E-3,-7.98141E-3,5.640572E-3,-4.250116E-3,-7.5825416E-2,3.1427342E-2,-1.3325012E-2,-3.4073662E-2,7.231257E-3,-1.4359112E-2,1.1243154E-2,2.5004903E-2],"split_indices":[0,8,0,1,3,5,8,4,8,8,4,4,0,2,0,5,5,0,4,0,5,0,6,0,4,4,3,7,5,6,0,0,5,0,2,6,5,1,5,0,6,3,8,6,1,4,2,0,8,6,1,1,4,7,3,8,0,5,1,5,8,8,0,0,0,0,0,0,0,0,0,0,0,0,0,0,0,0,0,0,0,0,0,0,0,0,0,0,0,0,0,0,0,0,0,0,0,0,0,0,0,0,0,0,0,0,0,0,0,0,0,0,0,0,0,0,0,0,0,0,0,0,0,0,0,0,0],"split_type":[0,0,0,0,0,0,0,0,0,0,0,0,0,0,0,0,0,0,0,0,0,0,0,0,0,0,0,0,0,0,0,0,0,0,0,0,0,0,0,0,0,0,0,0,0,0,0,0,0,0,0,0,0,0,0,0,0,0,0,0,0,0,0,0,0,0,0,0,0,0,0,0,0,0,0,0,0,0,0,0,0,0,0,0,0,0,0,0,0,0,0,0,0,0,0,0,0,0,0,0,0,0,0,0,0,0,0,0,0,0,0,0,0,0,0,0,0,0,0,0,0,0,0,0,0,0,0],"sum_hessian":[7.168075E7,2.9762968E7,4.1917788E7,2.4690002E7,5.072965E6,2.5969494E7,1.5948294E7,2.0276928E7,4.413074E6,3.218697E6,1.854268E6,2.4734072E7,1.235422E6,1.5300144E7,6.4815E5,2.022856E7,4.8369E4,3.222631E6,1.190443E6,2.936132E6,2.82565E5,1.755367E6,9.8901E4,2.3782982E7,9.5109E5,5.0328E4,1.185094E6,1.2018634E7,3.28151E6,3.16487E5,3.31663E5,2.0132508E7,9.6051E4,2.7227E4,2.1142E4,3.85397E5,2.837234E6,1.110902E6,7.9541E4,1.887313E6,1.048819E6,4.7572E4,2.34993E5,5.19182E5,1.236185E6,5.5759E4,4.3142E4,1.694187E7,6.841112E6,7.17901E5,2.33189E5,2.0854E4,2.9474E4,3.4256E4,1.150838E6,9.912615E6,2.106019E6,1.358621E6,1.922889E6,1.5733E4,3.00754E5,1.92113E5,1.3955E5,9.181218E6,1.095129E7,8.6356E4,9.695E3,5.069E3,2.2158E4,4.91E3,1.6232E4,2.27746E5,1.57651E5,1.7361E5,2.663624E6,7.57786E5,3.53116E5,2.1676E4,5.7865E4,1.8123E5,1.706083E6,4.77617E5,5.71202E5,2.3756E4,2.3816E4,1.76046E5,5.8947E4,1.09885E5,4.09297E5,1.81943E5,1.054242E6,4.9486E4,6.273E3,6.916E3,3.6226E4,6.823643E6,1.0118227E7,5.756514E6,1.084598E6,2.97011E5,4.2089E5,1.08921E5,1.24268E5,1.3444E4,7.41E3,1.918E4,1.0294E4,1.4567E4,1.9689E4,4.31543E5,7.19295E5,2.722563E6,7.190052E6,7.31193E5,1.374826E6,1.89771E5,1.16885E6,1.700663E6,2.22226E5,5.16E2,1.5217E4,2.18409E5,8.2345E4,1.31982E5,6.0131E4,1.23039E5,1.6511E4],"tree_param":{"num_deleted":"0","num_feature":"9","num_nodes":"127","size_leaf_vector":"0"}},{"base_weights":[-6.4035757E-3,-1.6304538E-2,1.8218659E-3,-1.7676048E-2,-2.0852739E-3,-2.9261059E-3,6.4798747E-3,-1.9610014E-2,-9.937737E-3,-2.0671826E-2,2.232039E-4,-1.3965124E-3,-1.7551113E-2,-3.2090228E-2,7.0388946E-3,-1.972715E-2,9.481542E-2,-9.179132E-3,-6.722107E-2,1.0751907E-3,-2.9221095E-2,4.5422236E-3,-1.096792E-2,-1.5746966E-2,3.208839E-5,-8.204765E-2,-1.6422646E-2,2.2941068E-2,-4.5167748E-2,6.326565E-3,3.1190777E-2,-1.1616727E-2,-2.095706E-2,1.3151686E-1,-4.693055E-3,1.8997707E-3,-1.1959384E-2,-1.10912345E-1,-2.143209E-2,-4.5864705E-2,2.9459653E-2,-3.357978E-2,-7.353158E-3,1.5231594E-3,2.4391891E-2,-1.3975361E-2,2.8021798E-2,-2.02519E-2,6.0462666E-4,2.3251097E-3,-8.294306E-3,-4.3051623E-2,-1.08832456E-1,-2.6409063E-2,-9.98099E-3,5.5110166E-3,5.4593347E-2,-5.5496264E-2,1.9237632E-2,7.0310896E-3,-4.506396E-2,3.6039848E-2,1.3920887E-2,-6.5699457E-3,2.9303965E-3,-1.0622786E-3,-6.7291213E-3,3.0693084E-2,5.8244813E-2,-9.100721E-3,3.846803E-2,1.5002443E-4,1.1883263E-2,-1.4542092E-3,-4.6267277E-3,1.2807715E-2,-3.8579594E-2,2.475583E-2,-1.0318932E-2,-2.4459384E-2,-9.910917E-3,1.4454569E-2,2.8940146E-3,4.3512485E-3,-1.0626743E-2,-1.0132209E-2,1.8966482E-3,2.5485936E-3,-1.7751011E-3,-1.2596126E-2,8.031873E-3,-3.1764165E-3,-1.52597865E-2,-2.1324097E-3,2.2485245E-2,-3.5773955E-2,-5.802839E-3,5.6796363E-3,-1.5227881E-3,-2.6541085E-3,1.7855939E-3,2.7878403E-3,-3.3991751E-3,-5.3126574E-2,-8.553174E-3,-4.947689E-2,-2.811112E-2,-2.6887811E-3,-1.0249832E-2,-2.0998265E-3,-6.097802E-3,9.1323955E-3,-2.6866428E-3,1.2221768E-2,2.8310208E-2,-2.7532838E-2,-1.3628177E-2,-4.9525325E-4,1.1898328E-2,2.2189133E-3,-2.1100374E-2,2.4433577E-2,-1.5755195E-2,1.2289657E-2,4.3509942E-3,-2.4045901E-3,9.424475E-3],"categories":[],"categories_nodes":[],"categories_segments":[],"categories_sizes":[],"default_left":[0,0,0,0,0,0,0,0,0,0,0,0,0,0,0,0,0,0,0,0,0,0,0,0,0,0,0,0,0,0,0,0,0,0,0,0,0,0,0,0,0,0,0,0,0,0,0,0,0,0,0,0,0,0,0,0,0,0,0,0,0,0,0,0,0,0,0,0,0,0,0,0,0,0,0,0,0,0,0,0,0,0,0,0,0,0,0,0,0,0,0,0,0,0,0,0,0,0,0,0,0,0,0,0,0,0,0,0,0,0,0,0,0,0,0,0,0,0,0,0,0,0,0,0,0,0,0],"id":12,"left_children":[1,3,5,7,9,11,13,15,17,19,21,23,25,27,29,31,33,35,37,39,41,43,45,47,49,51,53,55,57,59,61,63,65,67,69,71,73,75,77,79,81,83,85,87,89,91,93,95,97,99,101,103,105,107,109,111,113,115,117,119,121,123,125,-1,-1,-1,-1,-1,-1,-1,-1,-1,-1,-1,-1,-1,-1,-1,-1,-1,-1,-1,-1,-1,-1,-1,-1,-1,-1,-1,-1,-1,-1,-1,-1,-1,-1,-1,-1,-1,-1,-1,-1,-1,-1,-1,-1,-1,-1,-1,-1,-1,-1,-1,-1,-1,-1,-1,-1,-1,-1,-1,-1,-1,-1,-1,-1],"loss_changes":[5.837665E3,6.343457E2,8.65918E2,4.439707E2,1.22773926E2,4.3374713E2,4.261386E2,3.1812207E2,2.577644E2,5.8775085E1,1.23025925E2,3.598661E2,1.3361823E2,2.0320642E2,3.3516205E2,2.3650977E2,8.864453E1,1.8032147E2,1.5509653E2,1.1886019E2,2.1628845E1,1.1005786E2,8.311062E1,1.17069305E2,3.0479947E2,3.2969177E1,1.1606949E2,2.9910711E1,1.517645E2,6.851389E2,4.673828E1,6.865488E2,5.2828613E2,3.241693E1,2.229837E1,6.1989044E1,1.1525958E2,1.0778238E2,5.1019997E1,1.53785095E1,2.062135E1,1.676509E1,1.3626803E1,8.26907E1,3.8320526E1,8.222522E1,8.367731E1,1.1213162E2,3.5738773E1,5.0719366E2,1.840741E2,2.5051771E1,1.5864838E1,9.5746796E1,3.3830597E1,1.2610178E1,1.0605213E1,7.181903E1,1.3451661E1,5.275585E2,2.4131305E2,4.622632E1,4.6955025E1,0E0,0E0,0E0,0E0,0E0,0E0,0E0,0E0,0E0,0E0,0E0,0E0,