{"learner":{"attributes":{"best_iteration":"99","best_ntree_limit":"100","scikit_learn":"{\"n_estimators\": 100, \"objective\": null, \"max_depth\": null, \"max_leaves\": null, \"max_bin\": null, \"grow_policy\": null, \"learning_rate\": null, \"verbosity\": null, \"booster\": null, \"tree_method\": null, \"gamma\": null, \"min_child_weight\": null, \"max_delta_step\": null, \"subsample\": null, \"sampling_method\": null, \"colsample_bytree\": null, \"colsample_bylevel\": null, \"colsample_bynode\": null, \"reg_alpha\": null, \"reg_lambda\": null, \"scale_pos_weight\": null, \"base_score\": null, \"missing\": NaN, \"num_parallel_tree\": null, \"random_state\": null, \"n_jobs\": null, \"monotone_constraints\": null, \"interaction_constraints\": null, \"importance_type\": null, \"gpu_id\": null, \"validate_parameters\": null, \"predictor\": null, \"enable_categorical\": false, \"feature_types\": null, \"max_cat_to_onehot\": null, \"max_cat_threshold\": null, \"eval_metric\": null, \"early_stopping_rounds\": null, \"callbacks\": null, \"_estimator_type\": \"regressor\"}"},"feature_names":[],"feature_types":[],"gradient_booster":{"model":{"gbtree_model_param":{"num_parallel_tree":"1","num_trees":"100","size_leaf_vector":"0"},"tree_info":[0,0,0,0,0,0,0,0,0,0,0,0,0,0,0,0,0,0,0,0,0,0,0,0,0,0,0,0,0,0,0,0,0,0,0,0,0,0,0,0,0,0,0,0,0,0,0,0,0,0,0,0,0,0,0,0,0,0,0,0,0,0,0,0,0,0,0,0,0,0,0,0,0,0,0,0,0,0,0,0,0,0,0,0,0,0,0,0,0,0,0,0,0,0,0,0,0,0,0,0],"trees":[{"base_weights":[-4.626416E-1,-1.1267029E0,1.349599E-1,-1.2458197E0,-8.5456765E-1,-1.6866466E-1,2.4069461E-1,-1.2802277E0,-9.6736854E-1,-9.517965E-1,-6.9653744E-1,-3.3746743E-1,-6.965103E-2,-2.9153928E-2,2.7610672E-1,-1.3267639E0,-1.0145578E0,-9.0907854E-1,-1.0980592E0,-9.940942E-1,-7.483067E-1,-7.621039E-1,-6.0762E-1,-4.3482348E-1,-2.7379498E-1,-2.6976293E-1,-2.5632568E-2,-1.4723743E-1,4.0842723E-2,-1.3124649E-2,3.1761128E-1,-1.3493439E0,-1.2130632E0,-9.256568E-1,-1.1518321E0,-9.6674085E-1,-8.0969775E-1,-1.1413673E0,-1.0194693E0,-1.0522413E0,-7.8673166E-1,-6.8771327E-1,-8.6539644E-1,-6.2777764E-1,-7.9539496E-1,-6.524953E-1,-5.6465846E-1,-4.8716328E-1,-4.0154806E-1,-3.9257744E-1,-2.422313E-1,-1.6569142E-1,-3.1695998E-1,-2.2336172E-1,3.8849466E-2,-1.0561737E-2,-1.748695E-1,1.6306877E-1,7.3810277E-4,1.0730466E-1,-1.0083837E-1,2.554798E-1,3.467207E-1,-4.133455E-1,-3.762452E-1,-3.3975503E-1,-3.871172E-1,-2.9559764E-1,-2.4429089E-1,-3.5684377E-1,-2.960576E-1,-3.091512E-1,-2.7136195E-1,-2.6367012E-1,-2.251817E-1,-3.2647035E-1,-3.590664E-1,-3.3527333E-1,-2.933382E-1,-2.7327284E-1,-3.237002E-1,-2.087468E-1,-2.7181113E-1,-2.180014E-1,-1.892077E-1,-2.4666978E-1,-2.7899584E-1,-2.1707834E-1,-1.8000802E-1,-1.9994253E-1,-2.5434384E-1,-1.706153E-1,-2.0269145E-1,-1.7535737E-1,-1.584939E-1,-1.4755243E-1,-1.4196561E-1,-1.3749821E-1,-1.15633644E-1,-9.4583556E-2,-1.2551624E-1,-1.0971731E-1,-5.800915E-2,-2.2195831E-2,-6.0499195E-2,-1.1185436E-1,-8.00356E-2,-3.661963E-2,-8.908595E-2,1.8541466E-2,-3.370492E-2,-1.9367326E-2,2.1791026E-2,-7.08669E-2,-3.0570107E-2,6.994166E-2,3.7363175E-2,-1.3194676E-2,1.4847247E-2,-1.2975105E-2,4.3347623E-2,-6.1159074E-2,-9.449153E-3,8.122996E-2,2.467205E-2,7.033084E-2,1.0786248E-1],"categories":[],"categories_nodes":[],"categories_segments":[],"categories_sizes":[],"default_left":[0,0,0,0,0,0,0,0,0,0,0,0,0,0,0,0,0,0,0,0,0,0,0,0,0,0,0,0,0,0,0,0,0,0,0,0,0,0,0,0,0,0,0,0,0,0,0,0,0,0,0,0,0,0,0,0,0,0,0,0,0,0,0,0,0,0,0,0,0,0,0,0,0,0,0,0,0,0,0,0,0,0,0,0,0,0,0,0,0,0,0,0,0,0,0,0,0,0,0,0,0,0,0,0,0,0,0,0,0,0,0,0,0,0,0,0,0,0,0,0,0,0,0,0,0,0,0],"id":0,"left_children":[1,3,5,7,9,11,13,15,17,19,21,23,25,27,29,31,33,35,37,39,41,43,45,47,49,51,53,55,57,59,61,63,65,67,69,71,73,75,77,79,81,83,85,87,89,91,93,95,97,99,101,103,105,107,109,111,113,115,117,119,121,123,125,-1,-1,-1,-1,-1,-1,-1,-1,-1,-1,-1,-1,-1,-1,-1,-1,-1,-1,-1,-1,-1,-1,-1,-1,-1,-1,-1,-1,-1,-1,-1,-1,-1,-1,-1,-1,-1,-1,-1,-1,-1,-1,-1,-1,-1,-1,-1,-1,-1,-1,-1,-1,-1,-1,-1,-1,-1,-1,-1,-1,-1,-1,-1,-1],"loss_changes":[2.8446076E7,1.1006E6,1.211217E6,2.26256E5,1.588255E5,1.6287516E5,2.6740625E5,2.59856E5,1.978475E4,5.5081E4,2.295425E4,2.2333188E4,5.4104156E4,2.6831648E4,2.9695475E5,4.5918E4,3.823275E4,1.0292E4,2.725375E3,6.38825E4,7.8129375E3,1.013375E4,3.221375E3,2.480875E3,8.1664688E3,5.4397344E3,6.41924E4,4.562672E3,9.990457E3,3.279167E4,3.912525E4,4.0446E4,1.84555E4,1.2633375E4,7.647E3,4.507E3,2.69625E3,1.522375E3,1.1626562E3,1.5648E4,1.2584125E4,1.6117188E3,1.0462812E3,1.1964062E3,1.227225E4,1.5842812E3,6.16125E2,3.5890625E1,7.960781E2,9.121953E2,1.0385305E4,1.1398945E3,2.1364922E3,9.2295625E3,1.3177367E4,9.1274994E2,4.49909E3,1.359206E3,3.3457617E3,7.324212E3,1.2831242E4,1.8277594E4,2.120675E4,0E0,0E0,0E0,0E0,0E0,0E0,0E0,0E0,0E0,0E0,0E0,0E0,0E0,0E0,0E0,0E0,0E0,0E0,0E0,0E0,0E0,0E0,0E0,0E0,0E0,0E0,0E0,0E0,0E0,0E0,0E0,0E0,0E0,0E0,0E0,0E0,0E0,0E0,0E0,0E0,0E0,0E0,0E0,0E0,0E0,0E0,0E0,0E0,0E0,0E0,0E0,0E0,0E0,0E0,0E0,0E0,0E0,0E0,0E0,0E0,0E0,0E0,0E0,0E0],"parents":[2147483647,0,0,1,1,2,2,3,3,4,4,5,5,6,6,7,7,8,8,9,9,10,10,11,11,12,12,13,13,14,14,15,15,16,16,17,17,18,18,19,19,20,20,21,21,22,22,23,23,24,24,25,25,26,26,27,27,28,28,29,29,30,30,31,31,32,32,33,33,34,34,35,35,36,36,37,37,38,38,39,39,40,40,41,41,42,42,43,43,44,44,45,45,46,46,47,47,48,48,49,49,50,50,51,51,52,52,53,53,54,54,55,55,56,56,57,57,58,58,59,59,60,60,61,61,62,62],"right_children":[2,4,6,8,10,12,14,16,18,20,22,24,26,28,30,32,34,36,38,40,42,44,46,48,50,52,54,56,58,60,62,64,66,68,70,72,74,76,78,80,82,84,86,88,90,92,94,96,98,100,102,104,106,108,110,112,114,116,118,120,122,124,126,-1,-1,-1,-1,-1,-1,-1,-1,-1,-1,-1,-1,-1,-1,-1,-1,-1,-1,-1,-1,-1,-1,-1,-1,-1,-1,-1,-1,-1,-1,-1,-1,-1,-1,-1,-1,-1,-1,-1,-1,-1,-1,-1,-1,-1,-1,-1,-1,-1,-1,-1,-1,-1,-1,-1,-1,-1,-1,-1,-1,-1,-1,-1,-1],"split_conditions":[0E0,-5.8941722E-2,4.8218023E-2,1.3946332E-3,-2.0902006E-2,1.6942376E-2,1.4382034E-3,-1.3124071E-2,-1.3624631E-1,4.1014206E-2,-8.712167E-3,5.8714137E-3,-3.5013083E-2,-6.6386685E-2,0E0,-5.7143725E-2,-1.5841576E-1,8.715266E-2,4.831322E-2,3.6866724E-2,-8.632328E-2,-7.0033334E-2,-4.4280477E-3,1.4053922E-3,-4.3241493E-2,7.3989175E-2,-2.703645E-2,7.893477E-2,6.462125E-2,1.449689E-1,1.1277909E-1,-8.033835E-2,-1.1963536E-1,8.053779E-2,6.621911E-2,-1.1964215E-1,-1.3033086E-1,-5.0049968E-2,-1.1185453E-1,-1.1184286E-1,-1.14414215E-1,1.0691145E-1,0E0,2.837506E-2,-6.281168E-2,-5.715451E-2,-1.5568397E-3,1.2329032E-3,-4.654309E-2,4.3900352E-2,-3.8239017E-2,-2.5328131E-2,-8.845188E-2,1.011873E-1,1.2767763E-1,9.774317E-2,1.1087364E-1,-1.9296484E-2,9.577974E-2,-7.8256644E-2,-8.033734E-2,1.7476028E-1,6.1585817E-2,-4.133455E-1,-3.762452E-1,-3.3975503E-1,-3.871172E-1,-2.9559764E-1,-2.4429089E-1,-3.5684377E-1,-2.960576E-1,-3.091512E-1,-2.7136195E-1,-2.6367012E-1,-2.251817E-1,-3.2647035E-1,-3.590664E-1,-3.3527333E-1,-2.933382E-1,-2.7327284E-1,-3.237002E-1,-2.087468E-1,-2.7181113E-1,-2.180014E-1,-1.892077E-1,-2.4666978E-1,-2.7899584E-1,-2.1707834E-1,-1.8000802E-1,-1.9994253E-1,-2.5434384E-1,-1.706153E-1,-2.0269145E-1,-1.7535737E-1,-1.584939E-1,-1.4755243E-1,-1.4196561E-1,-1.3749821E-1,-1.15633644E-1,-9.4583556E-2,-1.2551624E-1,-1.0971731E-1,-5.800915E-2,-2.2195831E-2,-6.0499195E-2,-1.1185436E-1,-8.00356E-2,-3.661963E-2,-8.908595E-2,1.8541466E-2,-3.370492E-2,-1.9367326E-2,2.1791026E-2,-7.08669E-2,-3.0570107E-2,6.994166E-2,3.7363175E-2,-1.3194676E-2,1.4847247E-2,-1.2975105E-2,4.3347623E-2,-6.1159074E-2,-9.449153E-3,8.122996E-2,2.467205E-2,7.033084E-2,1.0786248E-1],"split_indices":[0,0,0,2,0,0,3,3,4,2,0,0,3,3,2,2,1,2,2,3,4,3,0,0,3,1,2,1,1,4,0,3,4,3,3,0,0,4,0,4,1,2,4,1,2,3,0,5,3,1,2,1,3,4,1,0,0,1,0,2,2,4,3,0,0,0,0,0,0,0,0,0,0,0,0,0,0,0,0,0,0,0,0,0,0,0,0,0,0,0,0,0,0,0,0,0,0,0,0,0,0,0,0,0,0,0,0,0,0,0,0,0,0,0,0,0,0,0,0,0,0,0,0,0,0,0,0],"split_type":[0,0,0,0,0,0,0,0,0,0,0,0,0,0,0,0,0,0,0,0,0,0,0,0,0,0,0,0,0,0,0,0,0,0,0,0,0,0,0,0,0,0,0,0,0,0,0,0,0,0,0,0,0,0,0,0,0,0,0,0,0,0,0,0,0,0,0,0,0,0,0,0,0,0,0,0,0,0,0,0,0,0,0,0,0,0,0,0,0,0,0,0,0,0,0,0,0,0,0,0,0,0,0,0,0,0,0,0,0,0,0,0,0,0,0,0,0,0,0,0,0,0,0,0,0,0,0],"sum_hessian":[7.168075E7,3.3952436E7,3.772832E7,2.36156E7,1.0336836E7,9.744967E6,2.7983352E7,2.1018378E7,2.597223E6,6.399504E6,3.937332E6,3.602783E6,6.142184E6,3.24624E6,2.4737112E7,1.7885454E7,3.132924E6,1.79613E6,8.01093E5,5.298207E6,1.101297E6,2.266235E6,1.671097E6,1.424578E6,2.178205E6,1.107479E6,5.034705E6,1.208133E6,2.038107E6,3.104299E6,2.1632812E7,1.4922049E7,2.963405E6,1.901494E6,1.23143E6,1.13663E6,6.595E5,5.16471E5,2.84622E5,4.137886E6,1.160321E6,7.25738E5,3.75559E5,4.50109E5,1.816126E6,8.17336E5,8.53761E5,5.53675E5,8.70903E5,4.5729E5,1.720915E6,3.45544E5,7.61935E5,1.238116E6,3.796589E6,2.03175E5,1.004958E6,5.03524E5,1.534583E6,1.308185E6,1.796114E6,6.901717E6,1.4731095E7,1.1486262E7,3.435787E6,1.451497E6,1.511908E6,1.23807E6,6.63424E5,1.002624E6,2.28806E5,5.6126E5,5.7537E5,3.03757E5,3.55743E5,2.63921E5,2.5255E5,8.485E4,1.99772E5,6.58735E5,3.479151E6,6.58534E5,5.01787E5,4.31153E5,2.94585E5,2.25126E5,1.50433E5,1.0108E5,3.49029E5,5.24976E5,1.29115E6,1.76917E5,6.40419E5,5.52018E5,3.01743E5,4.14563E5,1.39112E5,1.92412E5,6.78491E5,1.14471E5,3.42819E5,4.8791E5,1.233005E6,9.7356E4,2.48188E5,3.60443E5,4.01492E5,5.20991E5,7.17125E5,3.296159E6,5.0043E5,1.23211E5,7.9964E4,5.4593E5,4.59028E5,1.78627E5,3.24897E5,8.00392E5,7.34191E5,2.59121E5,1.049064E6,7.22557E5,1.073557E6,6.342089E6,5.59628E5,1.509655E6,1.322144E7],"tree_param":{"num_deleted":"0","num_feature":"13","num_nodes":"127","size_leaf_vector":"0"}},{"base_weights":[-3.2384923E-1,-7.8869224E-1,9.44719E-2,-8.6331224E-1,-5.7071704E-1,-9.7728565E-2,1.7808722E-1,-8.886262E-1,-6.6088736E-1,-6.266884E-1,-4.5489427E-1,-2.0941065E-1,-1.0737569E-2,6.5719862E-3,2.0439054E-1,-9.21512E-1,-6.8143946E-1,-6.2595046E-1,-7.692043E-1,-6.5997297E-1,-5.073959E-1,-4.891197E-1,-4.048228E-1,-2.8939208E-1,-1.5789425E-1,-1.5268348E-1,2.4760786E-2,8.072129E-2,-5.945001E-2,3.655038E-2,2.4150449E-1,-9.585485E-1,-8.759469E-1,-6.319207E-1,-8.0374175E-1,-6.555593E-1,-5.291606E-1,-7.329988E-1,-8.2070065E-1,-5.215405E-1,-7.14012E-1,-4.666746E-1,-5.994786E-1,-5.115398E-1,-4.04523E-1,-4.282748E-1,-3.7981015E-1,-3.313383E-1,-2.5747633E-1,-2.6940113E-1,-1.350571E-1,-8.70128E-2,-2.0627753E-1,-1.1546477E-1,8.2592905E-2,6.3511175E-3,1.206081E-1,-1.5930556E-1,-2.4764776E-2,1.4351188E-1,-2.8042927E-2,1.6208099E-1,2.5093704E-1,-2.920708E-1,-2.6149836E-1,-2.2615974E-1,-2.678662E-1,-2.0828797E-1,-1.7162775E-1,-2.5070974E-1,-1.9891962E-1,-2.1077763E-1,-1.7910925E-1,-1.8283075E-1,-1.4916909E-1,-2.2809905E-1,-1.9377695E-1,-2.6205447E-1,-2.363946E-1,-2.0243807E-1,-1.394353E-1,-2.303333E-1,-1.9917312E-1,-1.2693737E-1,-1.4948264E-1,-1.9392413E-1,-1.5699047E-1,-1.655124E-1,-1.2585895E-1,-1.1653914E-1,-1.3832736E-1,-1.1048386E-1,-1.3289864E-1,-1.0569947E-1,-1.1633404E-1,-1.0230444E-1,-9.393595E-2,-7.2589695E-2,-9.5035434E-2,-5.462979E-2,-8.5056245E-2,-2.9127859E-2,-7.1980745E-2,-3.9056513E-2,-9.266026E-3,-7.5837605E-2,-4.8381876E-2,-1.1962065E-3,-5.083477E-2,2.9650034E-2,-2.0468047E-2,-6.900937E-3,2.767179E-2,5.483256E-2,2.845755E-2,-5.9179984E-2,-2.2991901E-2,-1.980686E-2,7.504676E-3,1.0489934E-2,5.0601803E-2,-3.3466835E-2,6.5109935E-3,6.392325E-2,2.1405522E-2,5.5917684E-2,7.898751E-2],"categories":[],"categories_nodes":[],"categories_segments":[],"categories_sizes":[],"default_left":[0,0,0,0,0,0,0,0,0,0,0,0,0,0,0,0,0,0,0,0,0,0,0,0,0,0,0,0,0,0,0,0,0,0,0,0,0,0,0,0,0,0,0,0,0,0,0,0,0,0,0,0,0,0,0,0,0,0,0,0,0,0,0,0,0,0,0,0,0,0,0,0,0,0,0,0,0,0,0,0,0,0,0,0,0,0,0,0,0,0,0,0,0,0,0,0,0,0,0,0,0,0,0,0,0,0,0,0,0,0,0,0,0,0,0,0,0,0,0,0,0,0,0,0,0,0,0],"id":1,"left_children":[1,3,5,7,9,11,13,15,17,19,21,23,25,27,29,31,33,35,37,39,41,43,45,47,49,51,53,55,57,59,61,63,65,67,69,71,73,75,77,79,81,83,85,87,89,91,93,95,97,99,101,103,105,107,109,111,113,115,117,119,121,123,125,-1,-1,-1,-1,-1,-1,-1,-1,-1,-1,-1,-1,-1,-1,-1,-1,-1,-1,-1,-1,-1,-1,-1,-1,-1,-1,-1,-1,-1,-1,-1,-1,-1,-1,-1,-1,-1,-1,-1,-1,-1,-1,-1,-1,-1,-1,-1,-1,-1,-1,-1,-1,-1,-1,-1,-1,-1,-1,-1,-1,-1,-1,-1,-1],"loss_changes":[1.3938582E7,5.5225E5,6.063281E5,1.29606E5,5.613275E4,1.1111995E5,1.18608625E5,1.5318E5,1.0638875E4,2.3179E4,4.834375E3,2.0634922E4,3.2397385E4,1.7113643E4,1.419945E5,3.2743E4,1.865075E4,6.091875E3,1.27775E3,3.41435E4,4.7749688E3,3.1780625E3,6.7171875E2,2.6265156E3,7.7567812E3,4.527008E3,4.1709613E4,4.8843203E3,6.404883E3,2.8518998E4,1.3984875E4,1.3968E4,1.7991E4,8.179875E3,3.9895625E3,4.480625E3,1.276125E3,9.576875E2,4.884375E2,1.1146031E4,8.842625E3,1.2150312E3,1.3957969E3,4.8954375E3,3.1873828E2,5.2191406E2,1.2125E2,1.4935156E2,1.0249062E3,6.3823047E2,1.0066656E4,1.4006582E3,1.4825762E3,9.038012E3,8.919371E3,1.4492003E3,1.7156113E3,1.4960469E3,2.818907E3,4.244623E3,1.0692008E4,9.168699E3,1.33055E4,0E0,0E0,0E0,0E0,0E0,0E0,0E0,0E0,0E0,0E0,0E0,0E0,0E0,0E0,0E0,0E0,0E0,0E0,0E0,0E0,0E0,0E0,0E0,0E0,0E0,0E0,0E0,0E0,0E0,0E0,0E0,0E0,0E0,0E0,0E0,0E0,0E0,0E0,0E0,0E0,0E0,0E0,0E0,0E0,0E0,0E0,0E0,0E0,0E0,0E0,0E0,0E0,0E0,0E0,0E0,0E0,0E0,0E0,0E0,0E0,0E0,0E0,0E0,0E0],"parents":[2147483647,0,0,1,1,2,2,3,3,4,4,5,5,6,6,7,7,8,8,9,9,10,10,11,11,12,12,13,13,14,14,15,15,16,16,17,17,18,18,19,19,20,20,21,21,22,22,23,23,24,24,25,25,26,26,27,27,28,28,29,29,30,30,31,31,32,32,33,33,34,34,35,35,36,36,37,37,38,38,39,39,40,40,41,41,42,42,43,43,44,44,45,45,46,46,47,47,48,48,49,49,50,50,51,51,52,52,53,53,54,54,55,55,56,56,57,57,58,58,59,59,60,60,61,61,62,62],"right_children":[2,4,6,8,10,12,14,16,18,20,22,24,26,28,30,32,34,36,38,40,42,44,46,48,50,52,54,56,58,60,62,64,66,68,70,72,74,76,78,80,82,84,86,88,90,92,94,96,98,100,102,104,106,108,110,112,114,116,118,120,122,124,126,-1,-1,-1,-1,-1,-1,-1,-1,-1,-1,-1,-1,-1,-1,-1,-1,-1,-1,-1,-1,-1,-1,-1,-1,-1,-1,-1,-1,-1,-1,-1,-1,-1,-1,-1,-1,-1,-1,-1,-1,-1,-1,-1,-1,-1,-1,-1,-1,-1,-1,-1,-1,-1,-1,-1,-1,-1,-1,-1,-1,-1,-1,-1,-1],"split_conditions":[0E0,-4.830476E-2,5.711707E-2,7.182241E-3,-1.483639E-2,2.4050932E-2,1.5707571E-2,0E0,-9.527699E-2,3.2508384E-2,-5.946049E-3,8.616733E-3,-2.240686E-2,1.5308073E-1,2.6806636E-2,-1.6183056E-1,-1.11864395E-1,1.2335778E-1,-1.0246888E-2,-1.02036566E-1,-5.5365548E-2,4.9720906E-2,-2.8649343E-3,2.9188339E-3,-5.1837154E-2,1.0877073E-1,-1.1861142E-2,-3.6426533E-2,-1.0684965E-1,1.1703731E-1,4.6976198E-2,-1.0442124E-1,-1.8784057E-1,-1.06853664E-1,2.5850287E-1,-9.527613E-2,-1.691093E-1,7.0662744E-2,-8.451368E-2,-2.8604397E-3,-3.1865932E-2,-2.004938E-1,1.7474873E-1,4.119829E-2,-1.7705984E-2,-6.074773E-2,-5.0049193E-2,1.4053922E-3,6.303718E-2,7.1854247E-3,6.774382E-2,-1.3033669E-1,-1.3337843E-1,7.250784E-2,1.5031807E-1,1.2550429E-1,2.837506E-2,1.6816248E-1,1.2335778E-1,-5.1783957E-2,-5.3597506E-2,1.3970858E-1,6.6216044E-2,-2.920708E-1,-2.6149836E-1,-2.2615974E-1,-2.678662E-1,-2.0828797E-1,-1.7162775E-1,-2.5070974E-1,-1.9891962E-1,-2.1077763E-1,-1.7910925E-1,-1.8283075E-1,-1.4916909E-1,-2.2809905E-1,-1.9377695E-1,-2.6205447E-1,-2.363946E-1,-2.0243807E-1,-1.394353E-1,-2.303333E-1,-1.9917312E-1,-1.2693737E-1,-1.4948264E-1,-1.9392413E-1,-1.5699047E-1,-1.655124E-1,-1.2585895E-1,-1.1653914E-1,-1.3832736E-1,-1.1048386E-1,-1.3289864E-1,-1.0569947E-1,-1.1633404E-1,-1.0230444E-1,-9.393595E-2,-7.2589695E-2,-9.5035434E-2,-5.462979E-2,-8.5056245E-2,-2.9127859E-2,-7.1980745E-2,-3.9056513E-2,-9.266026E-3,-7.5837605E-2,-4.8381876E-2,-1.1962065E-3,-5.083477E-2,2.9650034E-2,-2.0468047E-2,-6.900937E-3,2.767179E-2,5.483256E-2,2.845755E-2,-5.9179984E-2,-2.2991901E-2,-1.980686E-2,7.504676E-3,1.0489934E-2,5.0601803E-2,-3.3466835E-2,6.5109935E-3,6.392325E-2,2.1405522E-2,5.5917684E-2,7.898751E-2],"split_indices":[0,0,0,2,0,0,3,3,4,2,0,0,3,1,2,0,1,2,4,1,4,2,0,0,3,1,2,3,3,4,3,2,1,0,4,0,0,2,0,4,0,4,1,3,4,2,3,0,2,1,3,4,4,4,1,0,1,0,0,2,2,1,2,0,0,0,0,0,0,0,0,0,0,0,0,0,0,0,0,0,0,0,0,0,0,0,0,0,0,0,0,0,0,0,0,0,0,0,0,0,0,0,0,0,0,0,0,0,0,0,0,0,0,0,0,0,0,0,0,0,0,0,0,0,0,0,0],"split_type":[0,0,0,0,0,0,0,0,0,0,0,0,0,0,0,0,0,0,0,0,0,0,0,0,0,0,0,0,0,0,0,0,0,0,0,0,0,0,0,0,0,0,0,0,0,0,0,0,0,0,0,0,0,0,0,0,0,0,0,0,0,0,0,0,0,0,0,0,0,0,0,0,0,0,0,0,0,0,0,0,0,0,0,0,0,0,0,0,0,0,0,0,0,0,0,0,0,0,0,0,0,0,0,0,0,0,0,0,0,0,0,0,0,0,0,0,0,0,0,0,0,0,0,0,0,0,0],"sum_hessian":[7.168075E7,3.3952436E7,3.772832E7,2.5293608E7,8.658829E6,1.143758E7,2.6290738E7,2.2482132E7,2.811475E6,5.837736E6,2.821093E6,5.008058E6,6.429522E6,3.495799E6,2.279494E7,1.9402466E7,3.079667E6,2.125815E6,6.8566E5,4.564235E6,1.273501E6,1.675694E6,1.145399E6,1.961986E6,3.046072E6,1.286248E6,5.143274E6,1.646554E6,1.849245E6,4.127804E6,1.8667136E7,1.0702876E7,8.69959E6,2.192112E6,8.87555E5,1.627839E6,4.97976E5,4.02611E5,2.83049E5,1.281475E6,3.28276E6,8.83015E5,3.90486E5,1.324631E6,3.51063E5,5.91133E5,5.54266E5,8.4777E5,1.114216E6,5.178E5,2.528272E6,5.78003E5,7.08245E5,1.501817E6,3.641457E6,5.74808E5,1.071746E6,4.76743E5,1.372502E6,1.554188E6,2.573616E6,1.981621E6,1.6685514E7,9.125309E6,1.577567E6,1.060088E6,7.639502E6,1.07323E6,1.118882E6,7.2325E5,1.64305E5,9.0255E5,7.25289E5,1.41704E5,3.56272E5,3.06423E5,9.6188E4,1.08264E5,1.74785E5,3.46323E5,9.35152E5,1.583473E6,1.699287E6,3.71313E5,5.11702E5,2.41613E5,1.48873E5,9.2208E5,4.02551E5,2.73443E5,7.762E4,1.16471E5,4.74662E5,1.24627E5,4.29639E5,5.53675E5,2.94095E5,8.83233E5,2.30983E5,7.2089E4,4.45711E5,1.856319E6,6.71953E5,3.26691E5,2.51312E5,3.48278E5,3.59967E5,4.89991E5,1.011826E6,3.287458E6,3.53999E5,4.28395E5,1.46413E5,3.13898E5,7.57848E5,3.26712E5,1.50031E5,7.50492E5,6.2201E5,2.92467E5,1.261721E6,9.6074E5,1.612876E6,1.268583E6,7.13038E5,2.680691E6,1.4004823E7],"tree_param":{"num_deleted":"0","num_feature":"13","num_nodes":"127","size_leaf_vector":"0"}},{"base_weights":[-2.2669454E-1,-5.5208474E-1,6.6130325E-2,-6.2373894E-1,-4.3468085E-1,-1.1079442E-1,1.1242603E-1,-6.436423E-1,-5.078119E-1,-4.8878446E-1,-3.507097E-1,-1.879525E-1,-6.865087E-2,-3.7274454E-2,1.3012813E-1,-6.705905E-1,-5.2605075E-1,-4.4492126E-1,-5.6668806E-1,-3.474783E-1,-5.09113E-1,-3.8726223E-1,-3.0458254E-1,-2.2552696E-1,-1.6311564E-1,-1.463199E-1,-4.1828647E-2,-1.3448386E-1,-1.4730693E-2,5.729804E-3,1.5758954E-1,-6.126621E-1,-6.7866653E-1,-4.4359207E-1,-5.989647E-1,-5.1153255E-1,-4.0563896E-1,-6.2731564E-1,-5.479244E-1,-5.206836E-1,-3.228557E-1,-3.6829314E-1,-5.414943E-1,-3.1026417E-1,-4.1239044E-1,-2.6109257E-1,-3.1883875E-1,-2.1725601E-1,-2.52156E-1,-2.4235334E-1,-1.5056963E-1,-7.010626E-2,-1.7485979E-1,-1.6839229E-1,-4.6636765E-3,-1.6135387E-1,-6.982526E-2,9.261589E-2,-3.2694057E-2,9.904513E-2,-3.302723E-2,7.839634E-2,1.6924788E-1,-2.0679703E-1,-1.532308E-1,-1.8407597E-1,-2.0759585E-1,-1.395432E-1,-1.0229564E-1,-1.6761084E-1,-1.9741054E-1,-1.4087512E-1,-1.6945326E-1,-1.0480902E-1,-1.3169764E-1,-1.9248092E-1,-1.7354695E-1,-1.557906E-1,-1.8093476E-1,-1.2238131E-1,-1.7218588E-1,-8.091503E-2,-1.07233405E-1,-1.4998937E-1,-1.038788E-1,-1.6899166E-1,-1.3697731E-1,-1.1702284E-1,-8.873442E-2,-9.99692E-2,-1.3964617E-1,-9.2600554E-2,-7.523734E-2,-7.7786535E-2,-1.0344278E-1,-7.2412014E-2,-6.0318638E-2,-8.087407E-2,-7.37293E-2,-5.704128E-2,-7.83775E-2,-3.7563205E-2,-6.3970335E-2,-3.1245032E-2,-8.4785226E-4,-5.9526626E-2,-4.2177018E-2,-1.138631E-2,-6.0903125E-2,4.0366575E-3,-3.3614196E-2,-6.546809E-2,-4.016686E-2,-4.8046825E-3,-3.4838237E-2,4.2689025E-2,1.8370911E-2,-2.1081563E-2,1.2147864E-3,-2.2549672E-2,3.3809647E-2,-4.3193843E-2,-2.5176485E-3,3.9289154E-2,8.976725E-3,3.3861894E-2,5.3531345E-2],"categories":[],"categories_nodes":[],"categories_segments":[],"categories_sizes":[],"default_left":[0,0,0,0,0,0,0,0,0,0,0,0,0,0,0,0,0,0,0,0,0,0,0,0,0,0,0,0,0,0,0,0,0,0,0,0,0,0,0,0,0,0,0,0,0,0,0,0,0,0,0,0,0,0,0,0,0,0,0,0,0,0,0,0,0,0,0,0,0,0,0,0,0,0,0,0,0,0,0,0,0,0,0,0,0,0,0,0,0,0,0,0,0,0,0,0,0,0,0,0,0,0,0,0,0,0,0,0,0,0,0,0,0,0,0,0,0,0,0,0,0,0,0,0,0,0,0],"id":2,"left_children":[1,3,5,7,9,11,13,15,17,19,21,23,25,27,29,31,33,35,37,39,41,43,45,47,49,51,53,55,57,59,61,63,65,67,69,71,73,75,77,79,81,83,85,87,89,91,93,95,97,99,101,103,105,107,109,111,113,115,117,119,121,123,125,-1,-1,-1,-1,-1,-1,-1,-1,-1,-1,-1,-1,-1,-1,-1,-1,-1,-1,-1,-1,-1,-1,-1,-1,-1,-1,-1,-1,-1,-1,-1,-1,-1,-1,-1,-1,-1,-1,-1,-1,-1,-1,-1,-1,-1,-1,-1,-1,-1,-1,-1,-1,-1,-1,-1,-1,-1,-1,-1,-1,-1,-1,-1,-1],"loss_changes":[6.829909E6,2.85625E5,3.0902722E5,4.8648E4,5.846175E4,2.5444062E4,7.924469E4,5.70235E4,1.14394375E4,2.2480125E4,8.5015625E3,2.5795312E3,1.0542699E4,6.929781E3,9.135253E4,6.8485E3,2.0171125E4,3.908625E3,1.8149062E3,4.1974297E3,3.1197125E4,5.44275E3,1.3820312E3,2.4221875E2,1.6543125E3,2.8255762E3,1.7693762E4,1.0342207E3,4.949742E3,1.7489078E4,2.0224562E4,1.39916875E4,1.1137E4,3.4815E3,4.2341875E3,1.239E3,1.7636094E3,2.6270312E2,1.9246562E3,7.355039E2,1.5838203E3,3.7102031E3,1.0300625E4,7.9996875E2,8.9144375E3,2.6964844E2,2.5963438E3,3.277461E2,2.8966797E1,2.244961E2,2.283002E3,8.1065283E2,7.631328E2,3.8556094E3,5.6576914E3,6.568242E2,4.3541095E2,5.7363794E2,3.0361238E3,3.3754238E3,9.338869E3,7.162838E3,9.8925E3,0E0,0E0,0E0,0E0,0E0,0E0,0E0,0E0,0E0,0E0,0E0,0E0,0E0,0E0,0E0,0E0,0E0,0E0,0E0,0E0,0E0,0E0,0E0,0E0,0E0,0E0,0E0,0E0,0E0,0E0,0E0,0E0,0E0,0E0,0E0,0E0,0E0,0E0,0E0,0E0,0E0,0E0,0E0,0E0,0E0,0E0,0E0,0E0,0E0,0E0,0E0,0E0,0E0,0E0,0E0,0E0,0E0,0E0,0E0,0E0,0E0,0E0,0E0,0E0],"parents":[2147483647,0,0,1,1,2,2,3,3,4,4,5,5,6,6,7,7,8,8,9,9,10,10,11,11,12,12,13,13,14,14,15,15,16,16,17,17,18,18,19,19,20,20,21,21,22,22,23,23,24,24,25,25,26,26,27,27,28,28,29,29,30,30,31,31,32,32,33,33,34,34,35,35,36,36,37,37,38,38,39,39,40,40,41,41,42,42,43,43,44,44,45,45,46,46,47,47,48,48,49,49,50,50,51,51,52,52,53,53,54,54,55,55,56,56,57,57,58,58,59,59,60,60,61,61,62,62],"right_children":[2,4,6,8,10,12,14,16,18,20,22,24,26,28,30,32,34,36,38,40,42,44,46,48,50,52,54,56,58,60,62,64,66,68,70,72,74,76,78,80,82,84,86,88,90,92,94,96,98,100,102,104,106,108,110,112,114,116,118,120,122,124,126,-1,-1,-1,-1,-1,-1,-1,-1,-1,-1,-1,-1,-1,-1,-1,-1,-1,-1,-1,-1,-1,-1,-1,-1,-1,-1,-1,-1,-1,-1,-1,-1,-1,-1,-1,-1,-1,-1,-1,-1,-1,-1,-1,-1,-1,-1,-1,-1,-1,-1,-1,-1,-1,-1,-1,-1,-1,-1,-1,-1,-1,-1,-1,-1],"split_conditions":[0E0,-7.6228246E-2,3.8325824E-2,-2.858164E-2,-2.7036877E-2,1.2694784E-2,-1.0234598E-2,-3.825108E-2,-2.239936E-1,-1.7607883E-1,-1.1671137E-2,4.214221E-3,-1.9288186E-2,-1.3031729E-1,1.7048946E-2,-3.1300467E-1,-2.1422487E-1,-1.8415502E-1,-1.4235803E-1,-7.02875E-2,-1.393245E-1,-6.0761668E-2,-4.830504E-2,6.4609565E-2,-7.021251E-2,4.696941E-2,-8.4516786E-2,1.4484219E-1,2.2699816E-2,8.035357E-2,3.2498583E-2,-1.8416695E-1,-2.5824878E-1,1.3002032E-1,-8.034081E-2,-4.1255918E-1,-3.5932776E-1,2.7420992E-1,-5.8936752E-2,-2.863003E-1,-2.785904E-1,-4.6544142E-2,1.5707571E-2,-1.0254719E-2,-5.0060593E-2,5.601695E-3,-7.4219815E-2,-3.5013083E-2,-9.7559646E-2,6.6211954E-2,5.5586867E-2,-1.0201931E-1,-9.063869E-2,1.4223986E-2,1.3477781E-1,-2.1930718E-1,4.4002056E-1,-5.3601958E-2,8.199803E-2,-1.09335065E-1,-1.1184286E-1,9.78018E-2,5.116907E-2,-2.0679703E-1,-1.532308E-1,-1.8407597E-1,-2.0759585E-1,-1.395432E-1,-1.0229564E-1,-1.6761084E-1,-1.9741054E-1,-1.4087512E-1,-1.6945326E-1,-1.0480902E-1,-1.3169764E-1,-1.9248092E-1,-1.7354695E-1,-1.557906E-1,-1.8093476E-1,-1.2238131E-1,-1.7218588E-1,-8.091503E-2,-1.07233405E-1,-1.4998937E-1,-1.038788E-1,-1.6899166E-1,-1.3697731E-1,-1.1702284E-1,-8.873442E-2,-9.99692E-2,-1.3964617E-1,-9.2600554E-2,-7.523734E-2,-7.7786535E-2,-1.0344278E-1,-7.2412014E-2,-6.0318638E-2,-8.087407E-2,-7.37293E-2,-5.704128E-2,-7.83775E-2,-3.7563205E-2,-6.3970335E-2,-3.1245032E-2,-8.4785226E-4,-5.9526626E-2,-4.2177018E-2,-1.138631E-2,-6.0903125E-2,4.0366575E-3,-3.3614196E-2,-6.546809E-2,-4.016686E-2,-4.8046825E-3,-3.4838237E-2,4.2689025E-2,1.8370911E-2,-2.1081563E-2,1.2147864E-3,-2.2549672E-2,3.3809647E-2,-4.3193843E-2,-2.5176485E-3,3.9289154E-2,8.976725E-3,3.3861894E-2,5.3531345E-2],"split_indices":[0,0,0,2,0,0,3,3,4,1,0,0,3,3,2,1,1,0,0,4,4,3,3,3,2,1,1,0,1,4,3,3,4,3,1,4,4,1,4,1,1,1,3,1,2,1,1,3,2,4,2,4,4,4,4,3,1,1,0,2,2,1,2,0,0,0,0,0,0,0,0,0,0,0,0,0,0,0,0,0,0,0,0,0,0,0,0,0,0,0,0,0,0,0,0,0,0,0,0,0,0,0,0,0,0,0,0,0,0,0,0,0,0,0,0,0,0,0,0,0,0,0,0,0,0,0,0],"split_type":[0,0,0,0,0,0,0,0,0,0,0,0,0,0,0,0,0,0,0,0,0,0,0,0,0,0,0,0,0,0,0,0,0,0,0,0,0,0,0,0,0,0,0,0,0,0,0,0,0,0,0,0,0,0,0,0,0,0,0,0,0,0,0,0,0,0,0,0,0,0,0,0,0,0,0,0,0,0,0,0,0,0,0,0,0,0,0,0,0,0,0,0,0,0,0,0,0,0,0,0,0,0,0,0,0,0,0,0,0,0,0,0,0,0,0,0,0,0,0,0,0,0,0,0,0,0,0],"sum_hessian":[7.168075E7,3.3952436E7,3.772832E7,2.1084248E7,1.286819E7,7.824816E6,2.9903502E7,1.7994744E7,3.089504E6,7.825877E6,5.042313E6,2.764131E6,5.060685E6,3.162167E6,2.6741336E7,1.4639776E7,3.354967E6,1.493828E6,1.595676E6,9.84251E5,6.841626E6,2.813112E6,2.229201E6,1.099995E6,1.664136E6,1.299044E6,3.761641E6,5.95283E5,2.566884E6,4.835743E6,2.1905592E7,1.791269E6,1.2848507E7,1.574436E6,1.780531E6,5.54146E5,9.39682E5,3.77121E5,1.218555E6,1.22502E5,8.61749E5,1.279097E6,5.562529E6,6.92171E5,2.120941E6,5.50343E5,1.678858E6,8.39314E5,2.60681E5,2.2747E5,1.436666E6,3.53923E5,9.45121E5,8.53859E5,2.907782E6,4.20525E5,1.74758E5,3.67966E5,2.198918E6,1.419063E6,3.41668E6,2.810992E6,1.90946E7,1.022193E6,7.69076E5,2.182894E6,1.0665613E7,1.301136E6,2.733E5,1.058843E6,7.21688E5,3.10128E5,2.44018E5,3.49684E5,5.89998E5,2.9174E5,8.5381E4,8.02425E5,4.1613E5,3.931E4,8.3192E4,3.3977E5,5.21979E5,1.83333E5,1.095764E6,4.425611E6,1.136918E6,1.06307E5,5.85864E5,8.51493E5,1.269448E6,9.7949E4,4.52394E5,5.0983E5,1.169028E6,3.37165E5,5.02149E5,6.995E4,1.90731E5,6.0468E4,1.67002E5,1.022776E6,4.1389E5,2.35008E5,1.18915E5,5.60051E5,3.8507E5,1.79085E5,6.74774E5,2.487978E6,4.19804E5,1.36941E5,2.83584E5,8.0827E4,9.3931E4,1.42443E5,2.25523E5,1.087114E6,1.111804E6,1.03135E5,1.315928E6,6.20781E5,2.795899E6,1.348553E6,1.462439E6,2.676407E6,1.6418193E7],"tree_param":{"num_deleted":"0","num_feature":"13","num_nodes":"127","size_leaf_vector":"0"}},{"base_weights":[-1.5868625E-1,-3.8845488E-1,4.4623286E-2,-4.4362566E-1,-3.1549126E-1,-4.3001197E-2,9.5444925E-2,-4.5783532E-1,-3.667457E-1,-3.5654196E-1,-2.595948E-1,-1.0257212E-1,4.1327365E-3,-1.8183418E-2,1.04001924E-1,-4.7788343E-1,-3.8279417E-1,-3.2467324E-1,-4.2024842E-1,-2.6689297E-1,-3.756813E-1,-2.7118483E-1,-1.6147687E-1,-1.4335193E-1,-7.4119255E-2,1.7486341E-2,-1.5063122E-1,1.6369183E-2,-7.700938E-2,3.699928E-2,1.1876803E-1,-4.8645496E-1,-4.2737886E-1,-3.293732E-1,-4.5319366E-1,-3.5645053E-1,-2.9031298E-1,-4.0503964E-1,-4.600957E-1,-3.772102E-1,-2.4064434E-1,-2.8980252E-1,-4.138005E-1,-2.992091E-1,-2.0814241E-1,-1.9015367E-1,-1.1720384E-1,-1.6397889E-1,-1.2622942E-1,-5.6747094E-2,-1.357598E-1,3.3850804E-2,-1.1224759E-1,-1.0834018E-1,-2.142979E-1,1.0551668E-4,8.736441E-2,-1.0585897E-1,-5.5472436E-3,8.1472024E-2,-4.8335467E-2,7.683969E-2,1.3158299E-1,-1.4997475E-1,-1.347782E-1,-1.0427471E-1,-1.4356555E-1,-7.948867E-2,-1.0650394E-1,-1.4167942E-1,-1.0980269E-1,-1.1076275E-1,-7.3164254E-2,-7.5559124E-2,-9.712683E-2,-1.4086719E-1,-1.18139125E-1,-1.4462799E-1,-1.2620205E-1,-8.807125E-2,-1.2321543E-1,-7.791517E-2,-5.262444E-2,-6.7051716E-2,-9.781881E-2,-1.2700859E-1,-7.249414E-2,-7.38624E-2,-9.9360056E-2,-5.7675734E-2,-7.9772726E-2,-4.8877154E-2,-7.796211E-2,-4.060101E-2,-2.9379567E-2,-5.0384007E-2,-4.573125E-2,-3.340225E-2,-5.1265445E-2,-3.4962114E-2,-7.292558E-3,-3.385533E-2,-5.1031668E-2,-2.207163E-2,1.410157E-2,-2.2819215E-2,-4.6472054E-2,-4.9085177E-2,-2.005785E-2,-6.658895E-2,1.1137099E-2,2.4637539E-2,-3.81147E-3,-2.208159E-3,3.1000925E-2,-2.4005387E-2,-4.4568207E-2,1.1292505E-2,-1.3859369E-2,4.231676E-2,1.7433269E-2,-2.726668E-2,3.0022408E-3,3.163069E-2,-6.70136E-3,4.260434E-2,2.1284206E-2],"categories":[],"categories_nodes":[],"categories_segments":[],"categories_sizes":[],"default_left":[0,0,0,0,0,0,0,0,0,0,0,0,0,0,0,0,0,0,0,0,0,0,0,0,0,0,0,0,0,0,0,0,0,0,0,0,0,0,0,0,0,0,0,0,0,0,0,0,0,0,0,0,0,0,0,0,0,0,0,0,0,0,0,0,0,0,0,0,0,0,0,0,0,0,0,0,0,0,0,0,0,0,0,0,0,0,0,0,0,0,0,0,0,0,0,0,0,0,0,0,0,0,0,0,0,0,0,0,0,0,0,0,0,0,0,0,0,0,0,0,0,0,0,0,0,0,0],"id":3,"left_children":[1,3,5,7,9,11,13,15,17,19,21,23,25,27,29,31,33,35,37,39,41,43,45,47,49,51,53,55,57,59,61,63,65,67,69,71,73,75,77,79,81,83,85,87,89,91,93,95,97,99,101,103,105,107,109,111,113,115,117,119,121,123,125,-1,-1,-1,-1,-1,-1,-1,-1,-1,-1,-1,-1,-1,-1,-1,-1,-1,-1,-1,-1,-1,-1,-1,-1,-1,-1,-1,-1,-1,-1,-1,-1,-1,-1,-1,-1,-1,-1,-1,-1,-1,-1,-1,-1,-1,-1,-1,-1,-1,-1,-1,-1,-1,-1,-1,-1,-1,-1,-1,-1,-1,-1,-1,-1],"loss_changes":[3.348506E6,1.354595E5,1.6935625E5,2.093275E4,3.3246125E4,3.9197918E4,2.3403438E4,2.433025E4,6.7284375E3,1.4333625E4,6.9767812E3,7.155082E3,1.6106961E4,3.4262896E3,2.2146062E4,5.525E3,1.282325E4,1.8269844E3,7.9721875E2,4.255711E3,2.2535938E4,9.693875E3,8.2286523E2,8.950625E2,3.889539E3,1.5232014E4,1.6668057E3,1.2261509E3,1.285947E3,1.5340449E4,9.855266E3,5.4625E3,7.5615625E3,3.2015625E3,2.4458125E3,1.2484766E3,1.0337422E3,6.906094E2,3.150078E2,7.915625E2,1.4770078E3,5.0873906E3,7.8479375E3,6.4404375E3,1.5498672E3,7.467285E2,8.9024414E1,5.261328E1,9.206699E2,5.4961973E3,6.283418E2,9.002832E3,1.2404473E3,8.528994E2,4.761914E2,9.078158E2,2.9945386E2,4.903164E2,3.1494922E2,3.6988398E3,3.438236E3,1.2177227E4,8.885734E3,0E0,0E0,0E0,0E0,0E0,0E0,0E0,0E0,0E0,0E0,0E0,0E0,0E0,0E0,0E0,0E0,0E0,0E0,0E0,0E0,0E0,0E0,0E0,0E0,0E0,0E0,0E0,0E0,0E0,0E0,0E0,0E0,0E0,0E0,0E0,0E0,0E0,0E0,0E0,0E0,0E0,0E0,0E0,0E0,0E0,0E0,0E0,0E0,0E0,0E0,0E0,0E0,0E0,0E0,0E0,0E0,0E0,0E0,0E0,0E0,0E0,0E0,0E0,0E0],"parents":[2147483647,0,0,1,1,2,2,3,3,4,4,5,5,6,6,7,7,8,8,9,9,10,10,11,11,12,12,13,13,14,14,15,15,16,16,17,17,18,18,19,19,20,20,21,21,22,22,23,23,24,24,25,25,26,26,27,27,28,28,29,29,30,30,31,31,32,32,33,33,34,34,35,35,36,36,37,37,38,38,39,39,40,40,41,41,42,42,43,43,44,44,45,45,46,46,47,47,48,48,49,49,50,50,51,51,52,52,53,53,54,54,55,55,56,56,57,57,58,58,59,59,60,60,61,61,62,62],"right_children":[2,4,6,8,10,12,14,16,18,20,22,24,26,28,30,32,34,36,38,40,42,44,46,48,50,52,54,56,58,60,62,64,66,68,70,72,74,76,78,80,82,84,86,88,90,92,94,96,98,100,102,104,106,108,110,112,114,116,118,120,122,124,126,-1,-1,-1,-1,-1,-1,-1,-1,-1,-1,-1,-1,-1,-1,-1,-1,-1,-1,-1,-1,-1,-1,-1,-1,-1,-1,-1,-1,-1,-1,-1,-1,-1,-1,-1,-1,-1,-1,-1,-1,-1,-1,-1,-1,-1,-1,-1,-1,-1,-1,-1,-1,-1,-1,-1,-1,-1,-1,-1,-1,-1,-1,-1,-1],"split_conditions":[-1.5568397E-3,-9.062633E-2,6.918461E-2,-4.3074578E-2,-3.5002124E-2,2.837485E-2,-2.0882035E-2,-5.715451E-2,-1.961701E-1,-1.484185E-1,1.5312019E-1,9.992103E-3,1.9781017E-1,2.8291214E-1,3.8323585E-2,-8.84617E-2,-1.7607883E-1,-1.5836115E-1,-3.500649E-2,-3.9795835E-2,-9.7355165E-2,2.6806636E-2,2.4426581E-1,2.9188339E-3,7.249481E-2,1.7139786E-1,2.922594E-1,1.5591882E-1,2.1099435E-1,2.2099137E-1,6.9176264E-2,-1.2760803E-1,-1.7265305E-1,-4.1240537E-1,2.1153583E-1,1.7826372E-1,-3.0290863E-1,3.2503255E-2,1.817775E-1,-2.582321E-1,2.0655218E-1,-2.142166E-1,1.9344777E-1,-6.074799E-2,-1.0246888E-2,-8.714432E-3,3.245039E-1,1.4053922E-3,5.2705098E-2,-4.6544142E-2,1.7474873E-1,-1.11864395E-1,2.4421088E-1,-9.7341575E-2,1.5015401E-1,5.601695E-3,-1.5496396E-1,4.6623337E-1,5.365238E-1,4.698675E-2,1.6493884E-1,2.1098614E-1,3.0166572E-1,-1.4997475E-1,-1.347782E-1,-1.0427471E-1,-1.4356555E-1,-7.948867E-2,-1.0650394E-1,-1.4167942E-1,-1.0980269E-1,-1.1076275E-1,-7.3164254E-2,-7.5559124E-2,-9.712683E-2,-1.4086719E-1,-1.18139125E-1,-1.4462799E-1,-1.2620205E-1,-8.807125E-2,-1.2321543E-1,-7.791517E-2,-5.262444E-2,-6.7051716E-2,-9.781881E-2,-1.2700859E-1,-7.249414E-2,-7.38624E-2,-9.9360056E-2,-5.7675734E-2,-7.9772726E-2,-4.8877154E-2,-7.796211E-2,-4.060101E-2,-2.9379567E-2,-5.0384007E-2,-4.573125E-2,-3.340225E-2,-5.1265445E-2,-3.4962114E-2,-7.292558E-3,-3.385533E-2,-5.1031668E-2,-2.207163E-2,1.410157E-2,-2.2819215E-2,-4.6472054E-2,-4.9085177E-2,-2.005785E-2,-6.658895E-2,1.1137099E-2,2.4637539E-2,-3.81147E-3,-2.208159E-3,3.1000925E-2,-2.4005387E-2,-4.4568207E-2,1.1292505E-2,-1.3859369E-2,4.231676E-2,1.7433269E-2,-2.726668E-2,3.0022408E-3,3.163069E-2,-6.70136E-3,4.260434E-2,2.1284206E-2],"split_indices":[0,0,0,2,0,0,3,3,4,1,4,0,4,1,2,2,1,0,4,4,3,2,4,0,2,1,4,0,0,4,3,3,4,1,4,2,4,1,1,1,4,4,4,1,4,1,4,0,3,1,1,1,1,1,2,1,3,1,1,4,0,1,4,0,0,0,0,0,0,0,0,0,0,0,0,0,0,0,0,0,0,0,0,0,0,0,0,0,0,0,0,0,0,0,0,0,0,0,0,0,0,0,0,0,0,0,0,0,0,0,0,0,0,0,0,0,0,0,0,0,0,0,0,0,0,0,0],"split_type":[0,0,0,0,0,0,0,0,0,0,0,0,0,0,0,0,0,0,0,0,0,0,0,0,0,0,0,0,0,0,0,0,0,0,0,0,0,0,0,0,0,0,0,0,0,0,0,0,0,0,0,0,0,0,0,0,0,0,0,0,0,0,0,0,0,0,0,0,0,0,0,0,0,0,0,0,0,0,0,0,0,0,0,0,0,0,0,0,0,0,0,0,0,0,0,0,0,0,0,0,0,0,0,0,0,0,0,0,0,0,0,0,0,0,0,0,0,0,0,0,0,0,0,0,0,0,0],"sum_hessian":[7.168075E7,3.3650696E7,3.803006E7,1.9161724E7,1.4488969E7,1.3960305E7,2.4069756E7,1.6172564E7,2.989161E6,8.353845E6,6.135124E6,6.16658E6,7.793725E6,1.685675E6,2.238408E7,1.2762821E7,3.409743E6,1.673328E6,1.315833E6,1.469711E6,6.884134E6,5.486981E6,6.48143E5,2.534306E6,3.632274E6,7.174669E6,6.19056E5,1.06193E6,6.23745E5,4.042202E6,1.834188E7,1.0911014E7,1.851807E6,1.938651E6,1.471092E6,8.69335E5,8.03993E5,9.52353E5,3.6348E5,2.82483E5,1.187228E6,2.116308E6,4.767826E6,3.798451E6,1.68853E6,3.93354E5,2.54789E5,1.149513E6,1.384793E6,2.833664E6,7.9861E5,6.371036E6,8.03633E5,3.71973E5,2.47083E5,8.64004E5,1.97926E5,4.44356E5,1.79389E5,2.657322E6,1.38488E6,4.293687E6,1.4048192E7,8.011568E6,2.899446E6,7.23549E5,1.128258E6,5.51989E5,1.386662E6,1.207053E6,2.64039E5,7.80833E5,8.8502E4,3.74008E5,4.29985E5,1.4132E5,8.11033E5,2.33292E5,1.30188E5,8.0802E4,2.01681E5,9.18623E5,2.68605E5,7.48247E5,1.368061E6,4.516952E6,2.50874E5,1.429742E6,2.368709E6,1.324266E6,3.64264E5,2.82877E5,1.10477E5,1.31271E5,1.23518E5,8.55418E5,2.94095E5,1.038537E6,3.46256E5,9.96618E5,1.837046E6,4.79072E5,3.19538E5,6.9505E5,5.675986E6,4.34821E5,3.68812E5,1.59466E5,2.12507E5,2.39773E5,7.31E3,1.16716E5,7.47288E5,2.8558E4,1.69368E5,2.76833E5,1.67523E5,8.6979E4,9.241E4,7.48423E5,1.908899E6,8.00801E5,5.84079E5,3.332752E6,9.60935E5,1.1986151E7,2.062041E6],"tree_param":{"num_deleted":"0","num_feature":"13","num_nodes":"127","size_leaf_vector":"0"}},{"base_weights":[-1.1108042E-1,-2.7314785E-1,3.0309089E-2,-3.1520405E-1,-2.2700185E-1,-6.66777E-2,5.3997334E-2,-2.4750888E-1,-3.227806E-1,-2.5564322E-1,-1.8771383E-1,-9.9404275E-2,-4.4311706E-2,1.4728872E-2,7.469266E-2,-3.511835E-1,-2.0318604E-1,-3.380216E-1,-2.7131584E-1,-2.6760647E-1,-1.677243E-1,-1.986058E-1,-1.1873024E-1,-1.2061118E-1,-9.041544E-2,-3.5698563E-2,-1.3627897E-1,2.8598046E-2,-7.6095924E-2,8.085828E-2,2.4192717E-3,-3.8841262E-1,-3.043284E-1,-1.2074035E-1,-2.3204191E-1,-3.5203052E-1,-3.046904E-1,-2.2259314E-1,-3.065668E-1,-1.974845E-1,-2.9171452E-1,-1.5136598E-1,-2.7418834E-1,-2.1636307E-1,-1.307111E-1,-1.0782483E-1,-1.7649867E-1,-1.2881292E-1,-1.1012018E-1,-1.2225778E-1,-7.384569E-2,-9.368112E-2,-1.4692395E-2,-1.4781395E-1,-3.0881358E-2,-5.223138E-2,5.1503975E-2,-4.261345E-2,-1.4496827E-1,9.267614E-2,2.1613587E-2,-5.8503877E-2,1.2093074E-1,-1.23550445E-1,-1.10990085E-1,-7.295272E-2,-1.0125229E-1,-4.4615902E-2,-1.6110983E-2,-8.027533E-2,-5.1589046E-2,-1.0988175E-1,-9.5588215E-2,-7.920692E-2,-1.08494006E-1,-8.039916E-2,-6.0935143E-2,-8.6444736E-2,-1.02025084E-1,-8.2711905E-2,-5.1648285E-2,-6.701668E-2,-9.4931975E-2,-5.135509E-2,-3.0983241E-2,-9.1251746E-2,-6.916313E-2,-4.729795E-2,-7.0745274E-2,-3.2933403E-2,-6.242917E-2,-3.6064055E-2,-2.6294397E-2,-6.5680906E-2,-4.489356E-2,-3.202946E-2,-4.028869E-2,-2.7159788E-2,-3.5230067E-2,-2.3090309E-2,-3.925359E-2,-3.2279864E-2,-1.4564672E-2,7.304467E-3,-3.4630854E-2,-2.051162E-2,3.1465758E-3,-3.5353947E-2,-5.5056527E-2,-4.8377994E-4,-4.1495148E-2,1.6994253E-2,-2.3160504E-2,-1.1848783E-2,2.0574303E-2,-2.8081497E-2,-9.130436E-4,-3.4498528E-2,-5.2791525E-2,2.29657E-2,3.7369817E-2,-1.5850551E-2,4.115337E-2,-2.742104E-2,-1.0035008E-2,2.2563215E-2,5.2164752E-2],"categories":[],"categories_nodes":[],"categories_segments":[],"categories_sizes":[],"default_left":[0,0,0,0,0,0,0,0,0,0,0,0,0,0,0,0,0,0,0,0,0,0,0,0,0,0,0,0,0,0,0,0,0,0,0,0,0,0,0,0,0,0,0,0,0,0,0,0,0,0,0,0,0,0,0,0,0,0,0,0,0,0,0,0,0,0,0,0,0,0,0,0,0,0,0,0,0,0,0,0,0,0,0,0,0,0,0,0,0,0,0,0,0,0,0,0,0,0,0,0,0,0,0,0,0,0,0,0,0,0,0,0,0,0,0,0,0,0,0,0,0,0,0,0,0,0,0],"id":4,"left_children":[1,3,5,7,9,11,13,15,17,19,21,23,25,27,29,31,33,35,37,39,41,43,45,47,49,51,53,55,57,59,61,63,65,67,69,71,73,75,77,79,81,83,85,87,89,91,93,95,97,99,101,103,105,107,109,111,113,115,117,119,121,123,125,-1,-1,-1,-1,-1,-1,-1,-1,-1,-1,-1,-1,-1,-1,-1,-1,-1,-1,-1,-1,-1,-1,-1,-1,-1,-1,-1,-1,-1,-1,-1,-1,-1,-1,-1,-1,-1,-1,-1,-1,-1,-1,-1,-1,-1,-1,-1,-1,-1,-1,-1,-1,-1,-1,-1,-1,-1,-1,-1,-1,-1,-1,-1,-1],"loss_changes":[1.6425385E6,6.481625E4,8.79522E4,8.962E3,1.7919562E4,5.500535E3,2.5004172E4,8.081922E3,1.2326125E4,9.6873125E3,5.0449844E3,5.815469E2,3.5360547E3,1.3376259E4,8.9785625E3,9.187031E2,2.9311328E3,5.661E3,6.1666562E3,1.37051875E4,1.9211895E3,6.9912188E3,5.767949E2,7.812988E1,1.1304746E3,4.971513E3,4.647456E2,1.7056104E4,3.2439204E3,1.2998281E4,1.1435096E4,1.2665625E2,4.7312305E2,5.991279E2,1.9487656E3,4.060875E3,8.310125E3,1.3327812E3,1.2859062E3,4.108578E3,1.0191969E4,9.112754E2,1.9220312E2,5.2495156E3,1.9474766E3,1.9251172E2,1.6565918E2,6.1598633E1,5.7072266E1,2.85208E2,1.2033252E3,2.7872568E3,4.0500422E3,3.6868457E2,1.1858249E2,5.5303345E3,1.1154719E4,1.9098955E3,4.2760156E2,7.9584062E3,2.6562992E4,8.622129E2,1.301834E3,0E0,0E0,0E0,0E0,0E0,0E0,0E0,0E0,0E0,0E0,0E0,0E0,0E0,0E0,0E0,0E0,0E0,0E0,0E0,0E0,0E0,0E0,0E0,0E0,0E0,0E0,0E0,0E0,0E0,0E0,0E0,0E0,0E0,0E0,0E0,0E0,0E0,0E0,0E0,0E0,0E0,0E0,0E0,0E0,0E0,0E0,0E0,0E0,0E0,0E0,0E0,0E0,0E0,0E0,0E0,0E0,0E0,0E0,0E0,0E0,0E0,0E0,0E0,0E0],"parents":[2147483647,0,0,1,1,2,2,3,3,4,4,5,5,6,6,7,7,8,8,9,9,10,10,11,11,12,12,13,13,14,14,15,15,16,16,17,17,18,18,19,19,20,20,21,21,22,22,23,23,24,24,25,25,26,26,27,27,28,28,29,29,30,30,31,31,32,32,33,33,34,34,35,35,36,36,37,37,38,38,39,39,40,40,41,41,42,42,43,43,44,44,45,45,46,46,47,47,48,48,49,49,50,50,51,51,52,52,53,53,54,54,55,55,56,56,57,57,58,58,59,59,60,60,61,61,62,62],"right_children":[2,4,6,8,10,12,14,16,18,20,22,24,26,28,30,32,34,36,38,40,42,44,46,48,50,52,54,56,58,60,62,64,66,68,70,72,74,76,78,80,82,84,86,88,90,92,94,96,98,100,102,104,106,108,110,112,114,116,118,120,122,124,126,-1,-1,-1,-1,-1,-1,-1,-1,-1,-1,-1,-1,-1,-1,-1,-1,-1,-1,-1,-1,-1,-1,-1,-1,-1,-1,-1,-1,-1,-1,-1,-1,-1,-1,-1,-1,-1,-1,-1,-1,-1,-1,-1,-1,-1,-1,-1,-1,-1,-1,-1,-1,-1,-1,-1,-1,-1,-1,-1,-1,-1,-1,-1,-1],"split_conditions":[-2.8649343E-3,-1.0441311E-1,3.3923823E-2,-3.737686E-1,-3.9884128E-2,1.1336083E-2,9.222447E-2,-2.785957E-1,-7.622916E-2,1.3004711E-1,1.2767763E-1,-3.0296994E-2,1.8177745E-1,1.5888365E-1,3.9964226E-1,-2.0953241E-1,-6.433604E-1,-9.963345E-2,-2.4557862E-1,-1.2762713E-1,4.8306845E-2,9.9301934E-2,4.9700946E-2,-1.06860876E-1,-6.074799E-2,-5.8936752E-2,1.2767763E-1,-6.833232E-2,2.6601335E-1,2.741496E-1,2.1608216E-1,-6.440385E-1,-7.820649E-1,-2.640652E-1,-2.1422581E-1,-1.4841725E-1,-1.3337709E-1,-2.3993148E-1,-7.6229595E-2,-2.8577896E-2,-1.0201931E-1,2.5171998E-1,2.1098614E-1,-8.2429856E-2,1.4316833E-3,2.1609195E-1,-2.3750711E-2,-2.8581016E-2,3.5330895E-2,-1.0246888E-2,2.9188339E-3,-3.8245242E-2,-3.324374E-2,2.5850287E-1,1.4759578E-1,-1.0254719E-2,-6.658645E-2,-6.074799E-2,3.4990802E-1,1.9783463E-1,1.8544142E-1,2.3260307E-1,2.0655218E-1,-1.23550445E-1,-1.10990085E-1,-7.295272E-2,-1.0125229E-1,-4.4615902E-2,-1.6110983E-2,-8.027533E-2,-5.1589046E-2,-1.0988175E-1,-9.5588215E-2,-7.920692E-2,-1.08494006E-1,-8.039916E-2,-6.0935143E-2,-8.6444736E-2,-1.02025084E-1,-8.2711905E-2,-5.1648285E-2,-6.701668E-2,-9.4931975E-2,-5.135509E-2,-3.0983241E-2,-9.1251746E-2,-6.916313E-2,-4.729795E-2,-7.0745274E-2,-3.2933403E-2,-6.242917E-2,-3.6064055E-2,-2.6294397E-2,-6.5680906E-2,-4.489356E-2,-3.202946E-2,-4.028869E-2,-2.7159788E-2,-3.5230067E-2,-2.3090309E-2,-3.925359E-2,-3.2279864E-2,-1.4564672E-2,7.304467E-3,-3.4630854E-2,-2.051162E-2,3.1465758E-3,-3.5353947E-2,-5.5056527E-2,-4.8377994E-4,-4.1495148E-2,1.6994253E-2,-2.3160504E-2,-1.1848783E-2,2.0574303E-2,-2.8081497E-2,-9.130436E-4,-3.4498528E-2,-5.2791525E-2,2.29657E-2,3.7369817E-2,-1.5850551E-2,4.115337E-2,-2.742104E-2,-1.0035008E-2,2.2563215E-2,5.2164752E-2],"split_indices":[0,0,0,1,0,0,0,3,2,1,1,3,4,4,1,4,1,3,4,1,4,4,4,4,1,4,1,4,4,4,3,3,1,0,0,2,1,0,4,4,4,1,1,4,1,1,0,1,1,4,0,1,1,4,3,1,1,1,4,0,2,0,4,0,0,0,0,0,0,0,0,0,0,0,0,0,0,0,0,0,0,0,0,0,0,0,0,0,0,0,0,0,0,0,0,0,0,0,0,0,0,0,0,0,0,0,0,0,0,0,0,0,0,0,0,0,0,0,0,0,0,0,0,0,0,0,0],"split_type":[0,0,0,0,0,0,0,0,0,0,0,0,0,0,0,0,0,0,0,0,0,0,0,0,0,0,0,0,0,0,0,0,0,0,0,0,0,0,0,0,0,0,0,0,0,0,0,0,0,0,0,0,0,0,0,0,0,0,0,0,0,0,0,0,0,0,0,0,0,0,0,0,0,0,0,0,0,0,0,0,0,0,0,0,0,0,0,0,0,0,0,0,0,0,0,0,0,0,0,0,0,0,0,0,0,0,0,0,0,0,0,0,0,0,0,0,0,0,0,0,0,0,0,0,0,0,0],"sum_hessian":[7.168075E7,3.3398172E7,3.8282584E7,1.7473394E7,1.5924777E7,7.514788E6,3.0767796E7,1.758806E6,1.5714588E7,9.210339E6,6.714438E6,3.050785E6,4.464003E6,1.06189E7,2.0148896E7,5.26732E5,1.232074E6,1.2124097E7,3.590491E6,8.107181E6,1.103158E6,5.798844E6,9.15594E5,9.08171E5,2.142614E6,4.081732E6,3.82271E5,9.212178E6,1.406722E6,1.856511E7,1.583786E6,2.93512E5,2.3322E5,3.19427E5,9.12647E5,8.53632E6,3.587777E6,1.507241E6,2.08325E6,2.074164E6,6.033017E6,9.56234E5,1.46924E5,4.596633E6,1.202211E6,7.702E5,1.45394E5,5.0969E5,3.98481E5,7.33339E5,1.409275E6,1.08549E6,2.996242E6,3.44561E5,3.771E4,2.034152E6,7.178026E6,9.46554E5,4.60168E5,1.5477691E7,3.087419E6,1.046046E6,5.3774E5,1.29303E5,1.64209E5,8.2033E4,1.51187E5,2.25365E5,9.4062E4,5.73412E5,3.39235E5,5.98466E6,2.55166E6,2.093211E6,1.494566E6,4.52447E5,1.054794E6,1.344467E6,7.38783E5,5.07265E5,1.566899E6,1.603088E6,4.429929E6,6.77166E5,2.79068E5,8.7088E4,5.9836E4,1.144165E6,3.452468E6,9.46251E5,2.5596E5,4.77195E5,2.93005E5,5.6344E4,8.905E4,1.01508E5,4.08182E5,1.08336E5,2.90145E5,1.16888E5,6.16451E5,6.0372E5,8.05555E5,1.68938E5,9.16552E5,9.56729E5,2.039513E6,1.87341E5,1.5722E5,2.9637E4,8.073E3,3.79482E5,1.65467E6,1.134186E6,6.04384E6,4.13587E5,5.32967E5,2.33974E5,2.26194E5,1.0280026E7,5.197665E6,1.877742E6,1.209677E6,4.52215E5,5.93831E5,2.88577E5,2.49163E5],"tree_param":{"num_deleted":"0","num_feature":"13","num_nodes":"127","size_leaf_vector":"0"}},{"base_weights":[-7.775633E-2,-1.93294E-1,1.9750401E-2,-2.248931E-1,-1.6500576E-1,-2.3353092E-2,4.882369E-2,-1.8027756E-1,-2.3232292E-1,-1.727847E-1,-8.218249E-2,-6.2147293E-2,-1.8498899E-3,4.9092006E-3,5.6532726E-2,-2.705906E-1,-1.3712865E-1,-1.8377075E-1,-2.4660297E-1,-1.8972923E-1,-1.1828924E-1,-1.05426386E-1,-2.25289E-2,-7.528435E-2,-4.8675805E-2,1.1526817E-2,-5.5287164E-2,1.00110516E-1,-1.6532322E-2,-1.1642241E-3,6.7742184E-2,-2.918945E-1,-2.3490977E-1,-1.0980311E-1,-1.5685193E-1,-2.4901488E-1,-1.5895212E-1,-2.6916572E-1,-2.3314361E-1,-1.4966923E-1,-2.0890784E-1,-1.305772E-1,-7.928393E-2,-8.757269E-2,-1.8701848E-1,-1.8688995E-2,-1.4628619E-1,-8.4591694E-2,-7.221528E-2,-3.737201E-2,-9.686257E-2,3.354476E-2,-5.477752E-2,-7.854072E-2,-1.0661422E-3,1.3019042E-1,6.6752836E-2,2.1176436E-3,-4.484832E-2,6.747024E-2,-1.9512346E-2,5.943457E-2,1.0965085E-1,-9.013161E-2,-8.2706735E-2,-5.7595562E-2,-7.950364E-2,-4.317462E-2,-2.4386447E-2,-5.186763E-2,-3.6014523E-2,-5.261901E-2,-7.927164E-2,-5.4290242E-2,-3.8395457E-2,-8.3537295E-2,-7.3389255E-2,-5.6841154E-2,-7.23554E-2,-6.240795E-2,-3.530999E-2,-4.380845E-2,-6.822126E-2,-3.574711E-2,-5.971915E-2,-2.7320841E-2,-1.4487367E-2,-9.2169475E-3,-2.7673531E-2,-6.569373E-2,-3.383101E-2,-1.1527736E-2,5.6113694E-3,-6.458895E-2,-2.7302219E-2,-2.0967038E-2,-2.8182486E-2,-2.3897192E-2,-1.8457377E-2,-5.3074947E-3,-2.5567768E-2,-3.27355E-2,-1.4765954E-2,-6.912521E-3,1.5612372E-2,-2.1935472E-2,2.9141668E-3,-2.1278452E-2,-3.5998184E-2,8.992318E-3,-1.9209463E-2,-1.5145297E-2,4.0362474E-2,5.560743E-3,2.7437348E-2,-6.25178E-3,1.381297E-2,-2.4929026E-2,-7.963138E-3,-5.6303004E-3,2.7283613E-2,-1.7253503E-2,-1.0938732E-3,1.998135E-2,-1.8300613E-2,3.4886315E-2,1.244337E-2],"categories":[],"categories_nodes":[],"categories_segments":[],"categories_sizes":[],"default_left":[0,0,0,0,0,0,0,0,0,0,0,0,0,0,0,0,0,0,0,0,0,0,0,0,0,0,0,0,0,0,0,0,0,0,0,0,0,0,0,0,0,0,0,0,0,0,0,0,0,0,0,0,0,0,0,0,0,0,0,0,0,0,0,0,0,0,0,0,0,0,0,0,0,0,0,0,0,0,0,0,0,0,0,0,0,0,0,0,0,0,0,0,0,0,0,0,0,0,0,0,0,0,0,0,0,0,0,0,0,0,0,0,0,0,0,0,0,0,0,0,0,0,0,0,0,0,0],"id":5,"left_children":[1,3,5,7,9,11,13,15,17,19,21,23,25,27,29,31,33,35,37,39,41,43,45,47,49,51,53,55,57,59,61,63,65,67,69,71,73,75,77,79,81,83,85,87,89,91,93,95,97,99,101,103,105,107,109,111,113,115,117,119,121,123,125,-1,-1,-1,-1,-1,-1,-1,-1,-1,-1,-1,-1,-1,-1,-1,-1,-1,-1,-1,-1,-1,-1,-1,-1,-1,-1,-1,-1,-1,-1,-1,-1,-1,-1,-1,-1,-1,-1,-1,-1,-1,-1,-1,-1,-1,-1,-1,-1,-1,-1,-1,-1,-1,-1,-1,-1,-1,-1,-1,-1,-1,-1,-1,-1],"loss_changes":[8.075339E5,2.9325625E4,4.8714992E4,5.136875E3,1.11526875E4,1.3062393E4,7.859215E3,8.62093E3,9.210375E3,1.4612E4,2.060791E3,9.882539E2,7.20136E3,7.0765645E3,1.2772277E4,5.436094E2,8.0680664E2,4.8888438E3,3.117375E3,9.273969E3,1.7989141E3,1.557959E3,1.9803554E2,8.075195E1,1.501708E3,1.1762963E4,2.5430806E3,6.3942285E2,1.4942344E3,4.045668E3,5.7571094E3,6.192578E1,3.4545996E2,6.104321E2,5.1324805E2,9.3241797E2,1.4911055E3,8.743125E2,2.2579375E3,7.2908594E3,9.493781E3,2.2322617E3,3.284214E2,2.3308252E2,4.5561963E2,2.9830673E2,4.78219E1,9.636084E1,1.6914941E2,2.1031223E3,3.0587158E2,6.33099E3,2.37587E3,4.4544238E2,1.1832206E3,2.6343994E2,3.599458E2,1.7202394E3,7.866372E2,1.3719004E3,1.5283132E3,1.1916746E4,1.2377383E3,0E0,0E0,0E0,0E0,0E0,0E0,0E0,0E0,0E0,0E0,0E0,0E0,0E0,0E0,0E0,0E0,0E0,0E0,0E0,0E0,0E0,0E0,0E0,0E0,0E0,0E0,0E0,0E0,0E0,0E0,0E0,0E0,0E0,0E0,0E0,0E0,0E0,0E0,0E0,0E0,0E0,0E0,0E0,0E0,0E0,0E0,0E0,0E0,0E0,0E0,0E0,0E0,0E0,0E0,0E0,0E0,0E0,0E0,0E0,0E0,0E0,0E0,0E0,0E0],"parents":[2147483647,0,0,1,1,2,2,3,3,4,4,5,5,6,6,7,7,8,8,9,9,10,10,11,11,12,12,13,13,14,14,15,15,16,16,17,17,18,18,19,19,20,20,21,21,22,22,23,23,24,24,25,25,26,26,27,27,28,28,29,29,30,30,31,31,32,32,33,33,34,34,35,35,36,36,37,37,38,38,39,39,40,40,41,41,42,42,43,43,44,44,45,45,46,46,47,47,48,48,49,49,50,50,51,51,52,52,53,53,54,54,55,55,56,56,57,57,58,58,59,59,60,60,61,61,62,62],"right_children":[2,4,6,8,10,12,14,16,18,20,22,24,26,28,30,32,34,36,38,40,42,44,46,48,50,52,54,56,58,60,62,64,66,68,70,72,74,76,78,80,82,84,86,88,90,92,94,96,98,100,102,104,106,108,110,112,114,116,118,120,122,124,126,-1,-1,-1,-1,-1,-1,-1,-1,-1,-1,-1,-1,-1,-1,-1,-1,-1,-1,-1,-1,-1,-1,-1,-1,-1,-1,-1,-1,-1,-1,-1,-1,-1,-1,-1,-1,-1,-1,-1,-1,-1,-1,-1,-1,-1,-1,-1,-1,-1,-1,-1,-1,-1,-1,-1,-1,-1,-1,-1,-1,-1,-1,-1,-1],"split_conditions":[-5.946049E-3,-1.2233758E-1,7.398975E-2,-3.2249063E-1,1.681275E-1,2.1170162E-2,-8.632328E-2,-2.4554901E-1,-2.6409647E-1,1.7048946E-2,3.0166572E-1,7.1866503E-3,1.19040266E-1,1.4316833E-3,-8.241857E-2,-3.7563813E-1,-4.6526223E-1,-9.7315535E-2,-2.2929232E-1,-9.527163E-2,2.0616528E-1,1.5719136E-2,2.0235175E-1,-7.4219815E-2,1.1086993E-1,1.0876038E-1,2.270095E-2,-7.219509E-2,2.5171998E-1,5.8589E-2,3.2387218E-1,-5.070812E-1,-4.6526223E-1,-3.3409297E-1,-3.3399954E-1,-5.590735E-1,-2.2929232E-1,-1.8019618E-1,-2.0953241E-1,-2.0892264E-2,-9.284682E-2,1.3966673E-3,3.5053742E-1,3.8321115E-2,-2.8575279E-2,-1.2762713E-1,9.223036E-2,0E0,1.4053922E-3,8.370514E-2,4.404973E-2,-5.0049968E-2,2.544702E-2,3.011419E-1,2.0616528E-1,-4.3786207E-1,9.3892336E-2,1.7142512E-1,1.6194628E-1,-2.3993148E-1,1.2127988E-1,3.357694E-1,5.365238E-1,-9.013161E-2,-8.2706735E-2,-5.7595562E-2,-7.950364E-2,-4.317462E-2,-2.4386447E-2,-5.186763E-2,-3.6014523E-2,-5.261901E-2,-7.927164E-2,-5.4290242E-2,-3.8395457E-2,-8.3537295E-2,-7.3389255E-2,-5.6841154E-2,-7.23554E-2,-6.240795E-2,-3.530999E-2,-4.380845E-2,-6.822126E-2,-3.574711E-2,-5.971915E-2,-2.7320841E-2,-1.4487367E-2,-9.2169475E-3,-2.7673531E-2,-6.569373E-2,-3.383101E-2,-1.1527736E-2,5.6113694E-3,-6.458895E-2,-2.7302219E-2,-2.0967038E-2,-2.8182486E-2,-2.3897192E-2,-1.8457377E-2,-5.3074947E-3,-2.5567768E-2,-3.27355E-2,-1.4765954E-2,-6.912521E-3,1.5612372E-2,-2.1935472E-2,2.9141668E-3,-2.1278452E-2,-3.5998184E-2,8.992318E-3,-1.9209463E-2,-1.5145297E-2,4.0362474E-2,5.560743E-3,2.7437348E-2,-6.25178E-3,1.381297E-2,-2.4929026E-2,-7.963138E-3,-5.6303004E-3,2.7283613E-2,-1.7253503E-2,-1.0938732E-3,1.998135E-2,-1.8300613E-2,3.4886315E-2,1.244337E-2],"split_indices":[0,0,0,4,4,0,4,2,1,2,4,0,1,1,1,2,4,4,0,1,1,1,1,1,1,4,4,1,1,4,0,2,4,0,3,1,0,2,4,4,4,4,1,3,0,1,3,0,0,4,4,4,1,1,1,1,2,0,0,1,0,4,1,0,0,0,0,0,0,0,0,0,0,0,0,0,0,0,0,0,0,0,0,0,0,0,0,0,0,0,0,0,0,0,0,0,0,0,0,0,0,0,0,0,0,0,0,0,0,0,0,0,0,0,0,0,0,0,0,0,0,0,0,0,0,0,0],"split_type":[0,0,0,0,0,0,0,0,0,0,0,0,0,0,0,0,0,0,0,0,0,0,0,0,0,0,0,0,0,0,0,0,0,0,0,0,0,0,0,0,0,0,0,0,0,0,0,0,0,0,0,0,0,0,0,0,0,0,0,0,0,0,0,0,0,0,0,0,0,0,0,0,0,0,0,0,0,0,0,0,0,0,0,0,0,0,0,0,0,0,0,0,0,0,0,0,0,0,0,0,0,0,0,0,0,0,0,0,0,0,0,0,0,0,0,0,0,0,0,0,0,0,0,0,0,0,0],"sum_hessian":[7.168075E7,3.2807038E7,3.8873716E7,1.549666E7,1.7310378E7,1.5658591E7,2.3215126E7,2.212257E6,1.3284403E7,1.5824139E7,1.486239E6,5.584151E6,1.007444E7,3.466759E6,1.9748368E7,7.15232E5,1.497025E6,3.019184E6,1.0265219E7,1.2070881E7,3.753258E6,1.069507E6,4.16732E5,2.827166E6,2.756985E6,8.057455E6,2.016985E6,6.37266E5,2.829493E6,3.212596E6,1.6535771E7,4.47836E5,2.67396E5,6.27569E5,8.69456E5,8.31995E5,2.187189E6,3.835502E6,6.429717E6,3.907974E6,8.162907E6,2.854115E6,8.99143E5,8.77498E5,1.92009E5,4.04192E5,1.254E4,7.01066E5,2.1261E6,2.233132E6,5.23853E5,6.048805E6,2.00865E6,1.411598E6,6.05387E5,3.35095E5,3.02171E5,1.705915E6,1.123578E6,6.77665E5,2.534931E6,1.3800151E7,2.73562E6,2.9322E5,1.54616E5,1.10226E5,1.5717E5,2.85738E5,3.41831E5,6.05539E5,2.63917E5,1.42572E5,6.89423E5,1.278365E6,9.08824E5,2.781918E6,1.053584E6,9.9976E5,5.429957E6,1.383147E6,2.524827E6,1.855389E6,6.307518E6,2.446211E6,4.07904E5,6.51425E5,2.47718E5,6.6644E4,8.10854E5,1.34228E5,5.7781E4,2.64556E5,1.39636E5,5.576E3,6.964E3,2.7254E5,4.28526E5,1.253503E6,8.72597E5,1.582369E6,6.50763E5,4.16667E5,1.07186E5,1.490106E6,4.558699E6,1.563894E6,4.44756E5,1.192591E6,2.19007E5,4.0549E5,1.99897E5,7.88E3,3.27215E5,1.02372E5,1.99799E5,1.120373E6,5.85542E5,3.63668E5,7.5991E5,1.44999E5,5.32666E5,7.46665E5,1.788266E6,1.3024751E7,7.754E5,2.492925E6,2.42695E5],"tree_param":{"num_deleted":"0","num_feature":"13","num_nodes":"127","size_leaf_vector":"0"}},{"base_weights":[-5.442945E-2,-1.3749784E-1,1.25259925E-2,-1.5179595E-1,-1.0502414E-1,-3.8250584E-2,2.6661277E-2,-1.5689588E-1,-1.096133E-1,-1.14714354E-1,-6.568847E-2,-5.4581117E-2,-2.9015543E-2,-1.0618705E-2,3.3578213E-2,-1.6642228E-1,-1.1910174E-1,-1.33819E-1,-8.174489E-2,-1.3532235E-1,-6.913965E-2,-5.168876E-2,-1.23596154E-1,-3.7507184E-2,-6.081036E-2,-4.6789363E-2,-1.9986606E-3,2.7737476E-2,-2.1754801E-2,-8.656793E-4,4.5658726E-2,-1.3729882E-1,-1.7505616E-1,-1.1117071E-1,-1.811359E-1,-8.0457225E-2,-1.4752157E-1,-6.253188E-2,-1.5543178E-1,-9.993407E-2,-1.5311687E-1,-4.507256E-2,-1.4559825E-1,-1.4232723E-2,-5.9315156E-2,-1.5535896E-1,-7.867948E-2,-7.2759986E-2,-9.657208E-3,-4.4153865E-2,-6.659088E-2,-8.033757E-2,-3.860203E-2,-7.513285E-2,1.215862E-2,-6.798377E-2,3.8043946E-2,-3.097618E-2,1.0675208E-2,8.082802E-2,-2.2223646E-2,-2.2883607E-4,5.371607E-2,-5.3863388E-2,-2.9141303E-2,-4.1470937E-2,-5.5274714E-2,-2.6295418E-2,-3.6361758E-2,-5.9934046E-2,-4.1497923E-2,-1.2683491E-2,-3.2060735E-2,-3.7758518E-2,-5.0773297E-2,-2.2683933E-2,6.907716E-4,-5.412818E-2,-1.7065689E-2,-4.726479E-2,-1.7646994E-2,-2.6830893E-2,-5.467184E-2,-7.6847157E-4,-1.7848764E-2,-4.828579E-2,-9.701525E-4,4.4423495E-3,-2.013896E-2,-2.2642624E-2,-1.3758135E-2,-4.961314E-2,-3.673336E-3,-1.1950497E-2,-3.4907002E-2,-1.5490237E-2,-2.6915653E-2,-1.2128319E-2,1.0938134E-2,-1.0709987E-2,-2.0249918E-2,-2.1704577E-2,-1.2303285E-2,-8.690416E-3,-3.1691037E-2,-3.010901E-3,-1.4986617E-2,-2.5912948E-2,-1.8418968E-2,8.736294E-3,-1.3540916E-2,-3.7148423E-2,-9.628189E-3,6.297607E-3,2.015371E-2,-1.9669645E-2,-4.567392E-3,-2.0806536E-2,5.9477543E-3,4.285779E-3,2.8327001E-2,-1.775236E-2,-1.252523E-3,1.5509034E-2,-7.234244E-3,1.929168E-2,1.0731537E-2],"categories":[],"categories_nodes":[],"categories_segments":[],"categories_sizes":[],"default_left":[0,0,0,0,0,0,0,0,0,0,0,0,0,0,0,0,0,0,0,0,0,0,0,0,0,0,0,0,0,0,0,0,0,0,0,0,0,0,0,0,0,0,0,0,0,0,0,0,0,0,0,0,0,0,0,0,0,0,0,0,0,0,0,0,0,0,0,0,0,0,0,0,0,0,0,0,0,0,0,0,0,0,0,0,0,0,0,0,0,0,0,0,0,0,0,0,0,0,0,0,0,0,0,0,0,0,0,0,0,0,0,0,0,0,0,0,0,0,0,0,0,0,0,0,0,0,0],"id":6,"left_children":[1,3,5,7,9,11,13,15,17,19,21,23,25,27,29,31,33,35,37,39,41,43,45,47,49,51,53,55,57,59,61,63,65,67,69,71,73,75,77,79,81,83,85,87,89,91,93,95,97,99,101,103,105,107,109,111,113,115,117,119,121,123,125,-1,-1,-1,-1,-1,-1,-1,-1,-1,-1,-1,-1,-1,-1,-1,-1,-1,-1,-1,-1,-1,-1,-1,-1,-1,-1,-1,-1,-1,-1,-1,-1,-1,-1,-1,-1,-1,-1,-1,-1,-1,-1,-1,-1,-1,-1,-1,-1,-1,-1,-1,-1,-1,-1,-1,-1,-1,-1,-1,-1,-1,-1,-1,-1],"loss_changes":[3.9867975E5,1.48538125E4,2.8486959E4,4.7783125E3,3.727711E3,1.303459E3,8.0058457E3,7.1344375E3,1.6160918E3,7.369578E3,1.5670557E3,3.3205273E2,2.6510615E3,2.0754282E3,1.0896797E4,3.9795312E3,1.9626523E3,9.374668E2,1.5765903E3,3.4025625E3,4.4959834E3,4.44667E2,5.3689844E2,8.1937244E2,2.2024512E2,9.146631E2,2.268283E3,1.078585E3,1.1261088E3,1.1864637E4,7.1683516E3,6.140125E3,4.1319062E3,8.347969E2,3.608994E2,2.6415503E2,4.799746E2,7.4914575E2,5.6729346E2,4.2822324E3,6.667867E3,1.1394392E3,1.2786602E3,4.045263E2,2.8120654E2,3.16062E2,2.2814984E2,1.3195789E2,6.61626E2,1.1631128E2,2.5010449E2,8.4898096E2,8.6812695E2,5.4870605E1,1.7838114E3,2.1299478E2,4.903573E2,1.5974216E3,6.1053564E2,1.274958E3,3.5950679E3,3.5915906E3,3.1338633E3,0E0,0E0,0E0,0E0,0E0,0E0,0E0,0E0,0E0,0E0,0E0,0E0,0E0,0E0,0E0,0E0,0E0,0E0,0E0,0E0,0E0,0E0,0E0,0E0,0E0,0E0,0E0,0E0,0E0,0E0,0E0,0E0,0E0,0E0,0E0,0E0,0E0,0E0,0E0,0E0,0E0,0E0,0E0,0E0,0E0,0E0,0E0,0E0,0E0,0E0,0E0,0E0,0E0,0E0,0E0,0E0,0E0,0E0,0E0,0E0,0E0,0E0,0E0,0E0],"parents":[2147483647,0,0,1,1,2,2,3,3,4,4,5,5,6,6,7,7,8,8,9,9,10,10,11,11,12,12,13,13,14,14,15,15,16,16,17,17,18,18,19,19,20,20,21,21,22,22,23,23,24,24,25,25,26,26,27,27,28,28,29,29,30,30,31,31,32,32,33,33,34,34,35,35,36,36,37,37,38,38,39,39,40,40,41,41,42,42,43,43,44,44,45,45,46,46,47,47,48,48,49,49,50,50,51,51,52,52,53,53,54,54,55,55,56,56,57,57,58,58,59,59,60,60,61,61,62,62],"right_children":[2,4,6,8,10,12,14,16,18,20,22,24,26,28,30,32,34,36,38,40,42,44,46,48,50,52,54,56,58,60,62,64,66,68,70,72,74,76,78,80,82,84,86,88,90,92,94,96,98,100,102,104,106,108,110,112,114,116,118,120,122,124,126,-1,-1,-1,-1,-1,-1,-1,-1,-1,-1,-1,-1,-1,-1,-1,-1,-1,-1,-1,-1,-1,-1,-1,-1,-1,-1,-1,-1,-1,-1,-1,-1,-1,-1,-1,-1,-1,-1,-1,-1,-1,-1,-1,-1,-1,-1,-1,-1,-1,-1,-1,-1,-1,-1,-1,-1,-1,-1,-1,-1,-1,-1,-1,-1],"split_conditions":[-1.0247571E-2,-6.832747E-2,3.2505605E-2,1.3477781E-1,9.0439424E-2,-1.0234598E-2,1.1338026E-2,6.918324E-2,-1.5495065E-1,6.0001135E-2,2.8376881E-2,1.9807803E-2,0E0,5.403527E-2,-3.6614522E-2,-2.2928078E-1,0E0,-5.590735E-1,-2.5328131E-2,-7.199894E-2,-1.3115325E-2,4.1014206E-2,1.619351E-1,1.4053922E-3,0E0,-1.7607883E-1,1.4053922E-3,-1.0200865E-1,1.3717385E-1,2.270095E-2,-2.3750367E-2,-1.6551384E-1,-2.1901971E-1,-3.4530243E-1,1.7139786E-1,-1.3124071E-2,-1.3124071E-2,3.357694E-1,2.8295633E-1,-2.3755781E-2,-7.4219815E-2,3.6866724E-2,2.2657762E-1,-1.928789E-2,1.619351E-1,2.6601335E-1,1.011873E-1,-1.0201931E-1,-9.063869E-2,-3.0293463E-2,-2.8577896E-2,1.4053922E-3,3.2504633E-2,-1.5568397E-3,9.930697E-2,-3.7475625E-1,-9.7315535E-2,-1.6511753E-1,-2.0950839E-1,-2.1422487E-1,8.370351E-2,6.1590582E-2,1.3477781E-1,-5.3863388E-2,-2.9141303E-2,-4.1470937E-2,-5.5274714E-2,-2.6295418E-2,-3.6361758E-2,-5.9934046E-2,-4.1497923E-2,-1.2683491E-2,-3.2060735E-2,-3.7758518E-2,-5.0773297E-2,-2.2683933E-2,6.907716E-4,-5.412818E-2,-1.7065689E-2,-4.726479E-2,-1.7646994E-2,-2.6830893E-2,-5.467184E-2,-7.6847157E-4,-1.7848764E-2,-4.828579E-2,-9.701525E-4,4.4423495E-3,-2.013896E-2,-2.2642624E-2,-1.3758135E-2,-4.961314E-2,-3.673336E-3,-1.1950497E-2,-3.4907002E-2,-1.5490237E-2,-2.6915653E-2,-1.2128319E-2,1.0938134E-2,-1.0709987E-2,-2.0249918E-2,-2.1704577E-2,-1.2303285E-2,-8.690416E-3,-3.1691037E-2,-3.010901E-3,-1.4986617E-2,-2.5912948E-2,-1.8418968E-2,8.736294E-3,-1.3540916E-2,-3.7148423E-2,-9.628189E-3,6.297607E-3,2.015371E-2,-1.9669645E-2,-4.567392E-3,-2.0806536E-2,5.9477543E-3,4.285779E-3,2.8327001E-2,-1.775236E-2,-1.252523E-3,1.5509034E-2,-7.234244E-3,1.929168E-2,1.0731537E-2],"split_indices":[0,0,0,4,1,3,3,1,0,4,4,1,2,1,1,1,4,1,1,4,1,2,1,0,0,1,0,3,0,4,4,3,4,4,1,3,3,4,4,1,1,3,4,4,1,4,4,4,4,4,4,0,4,0,1,4,4,4,3,1,0,1,4,0,0,0,0,0,0,0,0,0,0,0,0,0,0,0,0,0,0,0,0,0,0,0,0,0,0,0,0,0,0,0,0,0,0,0,0,0,0,0,0,0,0,0,0,0,0,0,0,0,0,0,0,0,0,0,0,0,0,0,0,0,0,0,0],"split_type":[0,0,0,0,0,0,0,0,0,0,0,0,0,0,0,0,0,0,0,0,0,0,0,0,0,0,0,0,0,0,0,0,0,0,0,0,0,0,0,0,0,0,0,0,0,0,0,0,0,0,0,0,0,0,0,0,0,0,0,0,0,0,0,0,0,0,0,0,0,0,0,0,0,0,0,0,0,0,0,0,0,0,0,0,0,0,0,0,0,0,0,0,0,0,0,0,0,0,0,0,0,0,0,0,0,0,0,0,0,0,0,0,0,0,0,0,0,0,0,0,0,0,0,0,0,0,0],"sum_hessian":[7.168075E7,3.1991028E7,3.968973E7,2.2211392E7,9.779634E6,8.642882E6,3.1046846E7,1.9815656E7,2.395736E6,7.846638E6,1.932996E6,3.122062E6,5.52082E6,4.858914E6,2.6187932E7,1.5826437E7,3.98922E6,1.28212E6,1.113616E6,5.403347E6,2.443291E6,1.556661E6,3.76335E5,8.3457E5,2.287492E6,3.330051E6,2.190769E6,1.093288E6,3.765626E6,6.799952E6,1.938798E7,3.619001E6,1.2207436E7,3.537017E6,4.52203E5,2.61964E5,1.020156E6,8.83306E5,2.3031E5,1.807916E6,3.595431E6,1.858338E6,5.84953E5,2.63334E5,1.293327E6,2.20445E5,1.5589E5,3.68331E5,4.66239E5,5.89336E5,1.698156E6,6.5326E5,2.676791E6,3.55307E5,1.835462E6,1.06273E5,9.87015E5,2.931938E6,8.33688E5,1.409323E6,5.390629E6,2.895836E6,1.6492144E7,1.763724E6,1.855277E6,2.438931E6,9.768505E6,1.05782E6,2.479197E6,3.15008E5,1.37195E5,1.07121E5,1.54843E5,5.10821E5,5.09335E5,7.35008E5,1.48298E5,1.83712E5,4.6598E4,7.52838E5,1.055078E6,1.128285E6,2.467146E6,4.70778E5,1.38756E6,5.28006E5,5.6947E4,1.70003E5,9.3331E4,5.87584E5,7.05743E5,2.06023E5,1.4422E4,7.6757E4,7.9133E4,1.64017E5,2.04314E5,2.79651E5,1.86588E5,4.32664E5,1.56672E5,1.38615E6,3.12006E5,2.15564E5,4.37696E5,7.61305E5,1.915486E6,1.95378E5,1.59929E5,1.416194E6,4.19268E5,4.1577E4,6.4696E4,6.22617E5,3.64398E5,9.17396E5,2.014542E6,8.5542E4,7.48146E5,2.39092E5,1.170231E6,1.768983E6,3.621646E6,9.12374E5,1.983462E6,1.0371544E7,6.1206E6],"tree_param":{"num_deleted":"0","num_feature":"13","num_nodes":"127","size_leaf_vector":"0"}},{"base_weights":[-3.810063E-2,-9.848916E-2,7.534017E-3,-1.14483945E-1,-8.549941E-2,-1.480174E-2,2.6440544E-2,-5.8642913E-2,-1.1817948E-1,-2.7192777E-2,-9.052269E-2,-3.3222273E-2,-3.0997384E-3,3.1740956E-2,-1.1548029E-2,-1.3106021E-1,-3.058645E-2,-8.4029175E-2,-1.2302457E-1,2.6486283E-2,-3.712889E-2,-4.62498E-2,-9.826995E-2,-4.0399786E-2,-2.6422262E-2,-7.953135E-2,1.4883465E-3,4.2557407E-2,-1.8079297E-3,-4.933994E-2,7.232305E-2,-1.4424552E-1,-9.988188E-2,-7.22688E-3,-7.180308E-2,-1.5007035E-1,-5.9778888E-2,-1.433149E-1,-1.1425404E-1,-3.771632E-1,2.9689923E-2,-1.3951232E-1,-3.1096445E-2,-1.2446494E-1,-4.0962845E-2,-1.0635161E-1,-6.9566675E-2,-4.5171108E-2,-3.3169802E-2,-2.064612E-2,-4.6990227E-2,7.8187265E-2,-8.8216856E-2,1.3311048E-2,-3.3457503E-2,5.044206E-2,8.140611E-3,-3.8752526E-2,5.6123685E-2,-1.1882289E-1,-3.4068886E-2,3.0976444E-2,9.220662E-2,-3.90323E-2,-4.5720074E-2,-2.5177827E-2,-4.066022E-2,-7.361637E-3,1.5098816E-2,-3.932245E-2,-1.2001964E-2,-5.1121477E-2,-3.9293934E-2,-2.3830183E-2,-1.1979273E-2,-4.5373287E-2,-3.649306E-2,-2.7361842E-2,-3.6603767E-2,-1.328008E-1,-7.5402364E-2,4.529527E-2,5.8431216E-3,-2.4510024E-3,-4.452802E-2,-1.2359598E-2,8.001071E-3,1.0557697E-2,-4.5937095E-2,-4.3154117E-3,-1.6299197E-2,-3.8002606E-2,-2.0629356E-2,-1.4949547E-2,-3.434656E-2,-1.1519661E-2,-1.660888E-2,-6.592845E-3,-1.31358355E-2,-8.138755E-3,3.6711685E-4,-6.9410517E-3,-1.8765058E-2,-3.9387167E-2,3.365687E-2,-3.593609E-2,-2.1419521E-2,8.729595E-3,-6.480757E-3,-1.36798965E-2,-5.571042E-4,1.1477271E-2,2.02249E-2,-4.515111E-3,2.148199E-2,7.3982734E-4,-1.8833766E-2,8.453108E-3,2.5213763E-2,-4.3759868E-2,-1.2761027E-2,-6.8135504E-3,-2.447677E-2,1.3556087E-2,-4.734263E-3,2.1874469E-2,3.427006E-2],"categories":[],"categories_nodes":[],"categories_segments":[],"categories_sizes":[],"default_left":[0,0,0,0,0,0,0,0,0,0,0,0,0,0,0,0,0,0,0,0,0,0,0,0,0,0,0,0,0,0,0,0,0,0,0,0,0,0,0,0,0,0,0,0,0,0,0,0,0,0,0,0,0,0,0,0,0,0,0,0,0,0,0,0,0,0,0,0,0,0,0,0,0,0,0,0,0,0,0,0,0,0,0,0,0,0,0,0,0,0,0,0,0,0,0,0,0,0,0,0,0,0,0,0,0,0,0,0,0,0,0,0,0,0,0,0,0,0,0,0,0,0,0,0,0,0,0],"id":7,"left_children":[1,3,5,7,9,11,13,15,17,19,21,23,25,27,29,31,33,35,37,39,41,43,45,47,49,51,53,55,57,59,61,63,65,67,69,71,73,75,77,79,81,83,85,87,89,91,93,95,97,99,101,103,105,107,109,111,113,115,117,119,121,123,125,-1,-1,-1,-1,-1,-1,-1,-1,-1,-1,-1,-1,-1,-1,-1,-1,-1,-1,-1,-1,-1,-1,-1,-1,-1,-1,-1,-1,-1,-1,-1,-1,-1,-1,-1,-1,-1,-1,-1,-1,-1,-1,-1,-1,-1,-1,-1,-1,-1,-1,-1,-1,-1,-1,-1,-1,-1,-1,-1,-1,-1,-1,-1,-1],"loss_changes":[1.9753852E5,6.4102188E3,1.7241246E4,2.853375E3,4.9867188E3,4.0344814E3,4.4522217E3,1.7438108E3,2.1458281E3,7.202936E2,5.376539E3,3.54875E2,4.0136594E3,7.041297E3,8.5813955E3,9.851074E1,5.9559686E2,2.5805938E3,2.0211406E3,2.727787E2,7.038048E2,9.653579E2,3.094664E3,1.2202344E2,4.4357422E2,8.878882E2,4.460986E3,3.9817773E3,1.0125059E4,1.9803721E3,6.9138477E2,1.9398682E1,4.051068E1,3.934193E2,4.2172546E2,1.6797852E2,4.5977588E2,5.89E2,1.4179766E3,1.3578888E1,2.5923627E2,7.423682E1,6.2800574E2,6.763159E2,7.769136E2,7.9521953E3,2.5983975E3,1.4708252E2,1.6711975E2,4.1330652E2,3.0384265E2,2.4098364E2,3.2617236E2,4.447035E3,1.0472991E3,2.4690918E3,4.0254285E3,2.860728E3,1.4374844E3,6.937627E2,8.2577795E2,1.8145944E2,2.4130713E2,0E0,0E0,0E0,0E0,0E0,0E0,0E0,0E0,0E0,0E0,0E0,0E0,0E0,0E0,0E0,0E0,0E0,0E0,0E0,0E0,0E0,0E0,0E0,0E0,0E0,0E0,0E0,0E0,0E0,0E0,0E0,0E0,0E0,0E0,0E0,0E0,0E0,0E0,0E0,0E0,0E0,0E0,0E0,0E0,0E0,0E0,0E0,0E0,0E0,0E0,0E0,0E0,0E0,0E0,0E0,0E0,0E0,0E0,0E0,0E0,0E0,0E0,0E0,0E0],"parents":[2147483647,0,0,1,1,2,2,3,3,4,4,5,5,6,6,7,7,8,8,9,9,10,10,11,11,12,12,13,13,14,14,15,15,16,16,17,17,18,18,19,19,20,20,21,21,22,22,23,23,24,24,25,25,26,26,27,27,28,28,29,29,30,30,31,31,32,32,33,33,34,34,35,35,36,36,37,37,38,38,39,39,40,40,41,41,42,42,43,43,44,44,45,45,46,46,47,47,48,48,49,49,50,50,51,51,52,52,53,53,54,54,55,55,56,56,57,57,58,58,59,59,60,60,61,61,62,62],"right_children":[2,4,6,8,10,12,14,16,18,20,22,24,26,28,30,32,34,36,38,40,42,44,46,48,50,52,54,56,58,60,62,64,66,68,70,72,74,76,78,80,82,84,86,88,90,92,94,96,98,100,102,104,106,108,110,112,114,116,118,120,122,124,126,-1,-1,-1,-1,-1,-1,-1,-1,-1,-1,-1,-1,-1,-1,-1,-1,-1,-1,-1,-1,-1,-1,-1,-1,-1,-1,-1,-1,-1,-1,-1,-1,-1,-1,-1,-1,-1,-1,-1,-1,-1,-1,-1,-1,-1,-1,-1,-1,-1,-1,-1,-1,-1,-1,-1,-1,-1,-1,-1,-1,-1,-1,-1,-1],"split_conditions":[-1.633604E-2,-1.3932009E-1,8.035062E-2,-5.069043E-1,-2.4554901E-1,1.9817853E-2,3.1298867E-1,-3.9279097E-1,-3.5932776E-1,-4.6528077E-1,-1.8018252E-1,1.4382034E-3,-1.962105E-1,1.9781017E-1,2.3828143E-1,-5.0680655E-1,-1.3124071E-2,-2.8634974E-1,-2.786815E-1,-5.590328E-1,-1.5165585E-1,-1.22108094E-1,6.0016565E-2,2.8233817E-3,1.5312019E-1,-1.2233631E-1,1.050021E-1,1.7139786E-1,1.5886033E-1,3.0112866E-1,1.449689E-1,-7.820649E-1,-6.433604E-1,-3.2264128E-1,-3.0293384E-1,-4.6528077E-1,-2.9419264E-1,-2.1420437E-1,-2.049743E-1,-7.8131497E-1,-1.3124071E-2,-2.1930718E-1,-1.8019618E-1,-3.3415005E-1,7.182241E-3,3.8326487E-2,1.4223986E-2,-3.6426533E-2,6.1590582E-2,7.182241E-3,0E0,-3.6042175E-1,1.0876038E-1,8.545536E-2,3.533644E-2,1.5014997E-1,1.5595898E-1,1.3946332E-3,2.583166E-1,1.3971333E-1,5.9071565E-1,5.9071565E-1,3.0166572E-1,-3.90323E-2,-4.5720074E-2,-2.5177827E-2,-4.066022E-2,-7.361637E-3,1.5098816E-2,-3.932245E-2,-1.2001964E-2,-5.1121477E-2,-3.9293934E-2,-2.3830183E-2,-1.1979273E-2,-4.5373287E-2,-3.649306E-2,-2.7361842E-2,-3.6603767E-2,-1.328008E-1,-7.5402364E-2,4.529527E-2,5.8431216E-3,-2.4510024E-3,-4.452802E-2,-1.2359598E-2,8.001071E-3,1.0557697E-2,-4.5937095E-2,-4.3154117E-3,-1.6299197E-2,-3.8002606E-2,-2.0629356E-2,-1.4949547E-2,-3.434656E-2,-1.1519661E-2,-1.660888E-2,-6.592845E-3,-1.31358355E-2,-8.138755E-3,3.6711685E-4,-6.9410517E-3,-1.8765058E-2,-3.9387167E-2,3.365687E-2,-3.593609E-2,-2.1419521E-2,8.729595E-3,-6.480757E-3,-1.36798965E-2,-5.571042E-4,1.1477271E-2,2.02249E-2,-4.515111E-3,2.148199E-2,7.3982734E-4,-1.8833766E-2,8.453108E-3,2.5213763E-2,-4.3759868E-2,-1.2761027E-2,-6.8135504E-3,-2.447677E-2,1.3556087E-2,-4.734263E-3,2.1874469E-2,3.427006E-2],"split_indices":[0,0,0,1,1,0,1,3,4,1,4,3,1,4,3,3,3,2,0,4,4,1,1,10,4,4,1,1,2,2,4,1,1,0,0,2,0,3,1,4,3,3,2,4,2,4,4,3,1,2,0,1,4,4,4,0,3,2,2,4,1,1,4,0,0,0,0,0,0,0,0,0,0,0,0,0,0,0,0,0,0,0,0,0,0,0,0,0,0,0,0,0,0,0,0,0,0,0,0,0,0,0,0,0,0,0,0,0,0,0,0,0,0,0,0,0,0,0,0,0,0,0,0,0,0,0,0],"split_type":[0,0,0,0,0,0,0,0,0,0,0,0,0,0,0,0,0,0,0,0,0,0,0,0,0,0,0,0,0,0,0,0,0,0,0,0,0,0,0,0,0,0,0,0,0,0,0,0,0,0,0,0,0,0,0,0,0,0,0,0,0,0,0,0,0,0,0,0,0,0,0,0,0,0,0,0,0,0,0,0,0,0,0,0,0,0,0,0,0,0,0,0,0,0,0,0,0,0,0,0,0,0,0,0,0,0,0,0,0,0,0,0,0,0,0,0,0,0,0,0,0,0,0,0,0,0,0],"sum_hessian":[7.168075E7,3.0852932E7,4.0827824E7,1.382709E7,1.7025842E7,1.8716528E7,2.2111296E7,8.58271E5,1.2968819E7,1.350477E6,1.5675365E7,7.270995E6,1.1445532E7,1.9403932E7,2.707363E6,2.39664E5,6.18607E5,1.611348E6,1.1357471E7,2.10932E5,1.139545E6,2.334501E6,1.3340864E7,3.537309E6,3.733686E6,6.48151E5,1.0797381E7,1.4673175E7,4.730758E6,1.866381E6,8.40982E5,1.68431E5,7.1233E4,3.94835E5,2.23772E5,4.32771E5,1.178577E6,3.427663E6,7.929808E6,1.66E3,2.09272E5,6.3405E4,1.07614E6,1.47808E5,2.186693E6,1.0409869E7,2.930995E6,2.130989E6,1.40632E6,2.915049E6,8.18637E5,3.383E4,6.14321E5,8.067893E6,2.729488E6,1.1938212E7,2.734963E6,2.888611E6,1.842147E6,3.36285E5,1.530096E6,2.73097E5,5.67885E5,6.1619E4,1.06812E5,4.9212E4,2.2021E4,3.03537E5,9.1298E4,7.8129E4,1.45643E5,2.09554E5,2.23217E5,5.92165E5,5.86412E5,2.509464E6,9.18199E5,1.997103E6,5.932705E6,1.09E3,5.7E2,1.6251E4,1.93021E5,4.03E3,5.9375E4,9.15958E5,1.60182E5,2.2494E4,1.25314E5,7.31772E5,1.454921E6,6.756536E6,3.653333E6,2.036383E6,8.94612E5,1.280278E6,8.50711E5,6.84548E5,7.21772E5,2.248505E6,6.66544E5,3.2319E5,4.95447E5,4.724E3,2.9106E4,2.13518E5,4.00803E5,5.55567E6,2.512223E6,1.971832E6,7.57656E5,6.949627E6,4.988585E6,2.003038E6,7.31925E5,1.063736E6,1.824875E6,9.20671E5,9.21476E5,2.48272E5,8.8013E4,1.234952E6,2.95144E5,2.09443E5,6.3654E4,3.02741E5,2.65144E5],"tree_param":{"num_deleted":"0","num_feature":"13","num_nodes":"127","size_leaf_vector":"0"}},{"base_weights":[-2.6670458E-2,-6.494599E-2,8.867504E-3,-7.5048245E-2,-3.5623226E-2,-2.0237433E-2,1.7187193E-2,-7.841794E-2,-4.739849E-2,-4.812808E-2,-2.9216204E-2,-2.8347218E-2,-8.670001E-3,1.1597574E-2,3.8363554E-2,-8.173419E-2,-5.0844595E-2,-5.8364563E-2,-3.2623276E-2,-5.58651E-2,-2.8992055E-2,-2.7539067E-2,-3.953623E-2,-2.4505883E-2,-3.4687947E-2,-8.491728E-4,-2.7726814E-2,1.7345974E-2,-4.410396E-2,4.367099E-2,-2.5150143E-3,-8.5245825E-2,-6.29869E-2,-5.4175742E-2,-1.8478049E-2,-6.4375095E-2,-2.8672783E-2,-2.4507983E-2,-7.874258E-2,-3.6395427E-2,-7.1883015E-2,-1.8762631E-2,-6.286018E-2,-2.81015E-2,1.0350698E-2,-1.0966683E-1,-3.571696E-2,-3.612461E-2,-2.098252E-2,-2.8807057E-2,-4.729631E-2,1.6676817E-2,-2.27545E-2,-3.8805965E-2,3.186938E-5,2.3389233E-2,-4.9931295E-2,-8.322662E-2,-3.2465864E-2,5.0185703E-2,6.469575E-3,-2.5417563E-2,6.361597E-2,-2.767114E-2,-1.9766433E-2,-1.45099135E-2,-3.664985E-2,-7.011256E-3,-1.7198104E-2,-1.8256854E-2,-1.7786279E-4,-2.1149058E-2,-1.3574094E-2,-1.1572561E-2,-3.1181688E-3,-1.1105381E-2,1.6911749E-3,-3.9853133E-2,-2.1448402E-2,-1.8466486E-2,-7.8496225E-3,-1.2908441E-2,-2.549362E-2,-1.55314915E-2,-2.4209588E-3,-2.835192E-2,-1.3857848E-2,-1.0841545E-2,-7.743119E-3,8.35222E-3,-2.0620773E-2,-4.462547E-2,-2.6487969E-2,-2.5800547E-2,-9.499533E-3,-7.5044977E-3,-1.879919E-2,-1.3970306E-2,-5.977374E-3,-1.2139634E-2,-7.394123E-3,-1.9290878E-2,-1.0520075E-2,-7.959885E-3,7.38752E-3,-1.2485406E-2,7.681963E-3,-7.826722E-3,-1.9911364E-2,5.521081E-3,-1.6687073E-2,-4.1753007E-3,8.28643E-3,-9.464022E-3,-2.6919642E-2,-3.1178094E-2,-9.239209E-3,-2.65669E-3,-1.7724352E-2,6.976981E-3,1.6604539E-2,-4.0752976E-3,1.8233165E-2,8.742561E-3,-1.2345578E-2,1.20071685E-2,2.4948398E-2],"categories":[],"categories_nodes":[],"categories_segments":[],"categories_sizes":[],"default_left":[0,0,0,0,0,0,0,0,0,0,0,0,0,0,0,0,0,0,0,0,0,0,0,0,0,0,0,0,0,0,0,0,0,0,0,0,0,0,0,0,0,0,0,0,0,0,0,0,0,0,0,0,0,0,0,0,0,0,0,0,0,0,0,0,0,0,0,0,0,0,0,0,0,0,0,0,0,0,0,0,0,0,0,0,0,0,0,0,0,0,0,0,0,0,0,0,0,0,0,0,0,0,0,0,0,0,0,0,0,0,0,0,0,0,0,0,0,0,0,0,0,0,0,0,0,0,0],"id":8,"left_children":[1,3,5,7,9,11,13,15,17,19,21,23,25,27,29,31,33,35,37,39,41,43,45,47,49,51,53,55,57,59,61,63,65,67,69,71,73,75,77,79,81,83,85,87,89,91,93,95,97,99,101,103,105,107,109,111,113,115,117,119,121,123,125,-1,-1,-1,-1,-1,-1,-1,-1,-1,-1,-1,-1,-1,-1,-1,-1,-1,-1,-1,-1,-1,-1,-1,-1,-1,-1,-1,-1,-1,-1,-1,-1,-1,-1,-1,-1,-1,-1,-1,-1,-1,-1,-1,-1,-1,-1,-1,-1,-1,-1,-1,-1,-1,-1,-1,-1,-1,-1,-1,-1,-1,-1,-1,-1],"loss_changes":[9.7502625E4,1.0223109E4,9.0004E3,2.3915156E3,7.085E2,7.751465E2,3.4216123E3,2.0920938E3,4.5178516E2,4.4355908E2,1.0120361E2,1.18312256E2,5.0755908E2,7.322841E3,1.3097139E3,1.3445312E3,2.64833E2,2.8562646E2,4.4458594E2,6.653115E2,2.9883118E2,1.0718799E2,2.1893701E2,1.2383069E2,1.358794E2,9.269906E2,3.047547E2,8.42851E3,9.740928E2,1.2948994E3,1.050656E3,2.3279531E3,2.7878135E3,2.1619385E2,1.7373044E2,1.5585889E2,4.8770706E1,3.809361E2,6.968799E1,2.4783838E2,4.4227197E2,2.338217E2,1.0553381E2,9.1261475E1,1.01767334E2,3.5253357E1,1.579403E2,2.075257E2,6.282495E1,6.0606445E1,1.2122534E2,4.606864E2,9.7904614E2,2.482727E2,2.8903973E2,3.003371E3,1.2502632E3,5.323452E2,1.0361515E3,6.32124E2,8.671536E2,4.423267E2,8.227997E1,0E0,0E0,0E0,0E0,0E0,0E0,0E0,0E0,0E0,0E0,0E0,0E0,0E0,0E0,0E0,0E0,0E0,0E0,0E0,0E0,0E0,0E0,0E0,0E0,0E0,0E0,0E0,0E0,0E0,0E0,0E0,0E0,0E0,0E0,0E0,0E0,0E0,0E0,0E0,0E0,0E0,0E0,0E0,0E0,0E0,0E0,0E0,0E0,0E0,0E0,0E0,0E0,0E0,0E0,0E0,0E0,0E0,0E0,0E0,0E0,0E0,0E0,0E0,0E0],"parents":[2147483647,0,0,1,1,2,2,3,3,4,4,5,5,6,6,7,7,8,8,9,9,10,10,11,11,12,12,13,13,14,14,15,15,16,16,17,17,18,18,19,19,20,20,21,21,22,22,23,23,24,24,25,25,26,26,27,27,28,28,29,29,30,30,31,31,32,32,33,33,34,34,35,35,36,36,37,37,38,38,39,39,40,40,41,41,42,42,43,43,44,44,45,45,46,46,47,47,48,48,49,49,50,50,51,51,52,52,53,53,54,54,55,55,56,56,57,57,58,58,59,59,60,60,61,61,62,62],"right_children":[2,4,6,8,10,12,14,16,18,20,22,24,26,28,30,32,34,36,38,40,42,44,46,48,50,52,54,56,58,60,62,64,66,68,70,72,74,76,78,80,82,84,86,88,90,92,94,96,98,100,102,104,106,108,110,112,114,116,118,120,122,124,126,-1,-1,-1,-1,-1,-1,-1,-1,-1,-1,-1,-1,-1,-1,-1,-1,-1,-1,-1,-1,-1,-1,-1,-1,-1,-1,-1,-1,-1,-1,-1,-1,-1,-1,-1,-1,-1,-1,-1,-1,-1,-1,-1,-1,-1,-1,-1,-1,-1,-1,-1,-1,-1,-1,-1,-1,-1,-1,-1,-1,-1,-1,-1,-1],"split_conditions":[1.4314103E-3,-2.8578231E-2,2.6795577E-2,-1.1681389E-2,-2.8548874E-3,-1.5445951E-3,2.4426083E-1,-1.6305663E-2,3.967058E-2,1.2698407E-2,4.8218023E-2,3.68006E-2,6.1585255E-2,2.2660607E-1,4.6623337E-1,7.066808E-2,2.4426581E-1,1.2127868E-1,2.5434786E-2,-5.1837154E-2,-2.8643233E-3,4.66198E-1,-2.0952913E-1,-1.2487088E-1,-3.5013083E-2,6.0001135E-2,8.619809E-3,2.3832648E-1,2.0670675E-1,4.4005516E-1,3.651701E-1,2.544702E-2,-2.0898897E-2,-3.340953E-1,-2.0496514E-1,-2.8872585E-3,2.3832648E-1,-1.2233223E-1,-9.963345E-2,4.213189E-3,-5.1783357E-2,-4.1554794E-2,-2.3750711E-2,5.8747223E-3,-1.5568397E-3,-6.433604E-1,-4.126696E-1,2.9188339E-3,-1.06853664E-1,1.050021E-1,-5.947794E-3,4.214221E-3,1.8487323E-2,-2.240686E-2,1.9758153E-1,-1.0935033E-1,3.8134706E-1,1.5888365E-1,3.3571085E-1,-5.3601958E-2,3.2387218E-1,3.2498583E-2,4.9885172E-1,-2.767114E-2,-1.9766433E-2,-1.45099135E-2,-3.664985E-2,-7.011256E-3,-1.7198104E-2,-1.8256854E-2,-1.7786279E-4,-2.1149058E-2,-1.3574094E-2,-1.1572561E-2,-3.1181688E-3,-1.1105381E-2,1.6911749E-3,-3.9853133E-2,-2.1448402E-2,-1.8466486E-2,-7.8496225E-3,-1.2908441E-2,-2.549362E-2,-1.55314915E-2,-2.4209588E-3,-2.835192E-2,-1.3857848E-2,-1.0841545E-2,-7.743119E-3,8.35222E-3,-2.0620773E-2,-4.462547E-2,-2.6487969E-2,-2.5800547E-2,-9.499533E-3,-7.5044977E-3,-1.879919E-2,-1.3970306E-2,-5.977374E-3,-1.2139634E-2,-7.394123E-3,-1.9290878E-2,-1.0520075E-2,-7.959885E-3,7.38752E-3,-1.2485406E-2,7.681963E-3,-7.826722E-3,-1.9911364E-2,5.521081E-3,-1.6687073E-2,-4.1753007E-3,8.28643E-3,-9.464022E-3,-2.6919642E-2,-3.1178094E-2,-9.239209E-3,-2.65669E-3,-1.7724352E-2,6.976981E-3,1.6604539E-2,-4.0752976E-3,1.8233165E-2,8.742561E-3,-1.2345578E-2,1.20071685E-2,2.4948398E-2],"split_indices":[7,6,6,12,6,6,0,9,1,3,0,2,2,1,1,4,4,4,4,3,1,5,2,2,3,4,4,4,2,4,3,1,1,1,0,11,4,3,3,1,1,0,0,6,0,1,8,0,0,1,4,0,1,3,1,4,4,4,1,1,2,3,3,0,0,0,0,0,0,0,0,0,0,0,0,0,0,0,0,0,0,0,0,0,0,0,0,0,0,0,0,0,0,0,0,0,0,0,0,0,0,0,0,0,0,0,0,0,0,0,0,0,0,0,0,0,0,0,0,0,0,0,0,0,0,0,0],"split_type":[0,0,0,0,0,0,0,0,0,0,0,0,0,0,0,0,0,0,0,0,0,0,0,0,0,0,0,0,0,0,0,0,0,0,0,0,0,0,0,0,0,0,0,0,0,0,0,0,0,0,0,0,0,0,0,0,0,0,0,0,0,0,0,0,0,0,0,0,0,0,0,0,0,0,0,0,0,0,0,0,0,0,0,0,0,0,0,0,0,0,0,0,0,0,0,0,0,0,0,0,0,0,0,0,0,0,0,0,0,0,0,0,0,0,0,0,0,0,0,0,0,0,0,0,0,0,0],"sum_hessian":[7.168075E7,3.4511144E7,3.7169612E7,2.5668012E7,8.843132E6,8.262998E6,2.8906612E7,2.2879652E7,2.78836E6,2.9959E6,5.847232E6,4.857478E6,3.40552E6,2.286996E7,6.036653E6,2.0423336E7,2.456317E6,1.600486E6,1.187874E6,2.133349E6,8.62551E5,5.029825E6,8.17407E5,3.024926E6,1.832552E6,2.414586E6,9.90934E5,2.0730566E7,2.139394E6,5.342955E6,6.93698E5,1.7201286E7,3.222049E6,2.227104E6,2.29213E5,1.331041E6,2.69445E5,1.01013E6,1.77744E5,9.62924E5,1.170425E6,6.62464E5,2.00087E5,4.956255E6,7.357E4,4.2215E4,7.75192E5,7.03858E5,2.321068E6,1.249673E6,5.82879E5,1.341378E6,1.073208E6,7.08253E5,2.82681E5,1.9021902E7,1.708664E6,4.90505E5,1.648889E6,4.546731E6,7.96224E5,5.15255E5,1.78443E5,1.2637188E7,4.564098E6,2.583728E6,6.38321E5,2.06685E5,2.020419E6,6.8026E4,1.61187E5,1.008332E6,3.22709E5,1.74766E5,9.4679E4,7.13878E5,2.96252E5,2.0997E4,1.56747E5,2.7835E5,6.84574E5,3.65373E5,8.05052E5,1.62088E5,5.00376E5,6.9025E4,1.31062E5,1.099455E6,3.8568E6,6.0247E4,1.3323E4,1.4922E4,2.7293E4,5.7804E4,7.17388E5,4.96162E5,2.07696E5,9.2163E4,2.228905E6,3.28642E5,9.21031E5,2.43816E5,3.39063E5,2.08405E5,1.132973E6,7.72061E5,3.01147E5,4.84662E5,2.23591E5,2.12527E5,7.0154E4,1.93804E6,1.7083862E7,1.168787E6,5.39877E5,3.5166E5,1.38845E5,8.73773E5,7.75116E5,7.31454E5,3.815277E6,5.81498E5,2.14726E5,1.15333E5,3.99922E5,8.0853E4,9.759E4],"tree_param":{"num_deleted":"0","num_feature":"13","num_nodes":"127","size_leaf_vector":"0"}},{"base_weights":[-1.8669324E-2,-4.588774E-2,6.598984E-3,-5.3291462E-2,-2.5965113E-2,-1.6207455E-2,1.2964183E-2,-1.1896646E-4,-5.448302E-2,-3.2517098E-2,-1.9051341E-2,-9.972608E-3,-2.283937E-2,5.3263833E-3,2.3290427E-2,-5.0332457E-2,3.1325992E-2,-6.645349E-2,-4.8773E-2,-1.8539837E-2,-4.678556E-2,-1.2730473E-2,-3.123613E-2,-1.7480202E-2,1.587619E-4,-2.6905987E-2,3.5627368E-3,1.3579906E-2,-2.531039E-2,2.710309E-2,-1.5129276E-3,-7.04068E-2,-1.6500995E-2,6.718896E-2,-8.677338E-3,-4.42305E-2,-7.010068E-2,-5.637487E-3,-5.2282486E-2,-6.240721E-2,-1.1444723E-2,3.2987718E-2,-5.2306805E-2,4.0847254E-3,-1.7903876E-2,-2.6052287E-2,-5.2516714E-2,-7.643007E-3,-2.1307118E-2,1.2773893E-2,-1.4277713E-2,-2.0141542E-2,-3.595274E-2,1.6932005E-2,-1.5492975E-2,2.3888724E-2,-2.6556946E-2,-1.822002E-2,-7.398142E-2,3.150358E-2,-7.3873266E-3,-2.5963772E-2,4.36353E-2,-2.2861376E-2,-1.8477576E-2,-3.0782893E-3,-4.5434095E-2,3.0463059E-2,7.590751E-3,-9.070116E-3,1.0105183E-2,-2.4855264E-2,-7.7476604E-3,-2.4977216E-2,-1.9640516E-2,4.530374E-3,-6.41304E-3,-8.99591E-3,-1.8248804E-2,-3.4504207E-3,-2.3255933E-2,2.9722422E-3,-7.2294385E-3,1.4280666E-2,-1.5779588E-2,-1.9024214E-2,-4.163379E-3,5.4004574E-3,-1.66906E-2,-7.833494E-3,-1.5813318E-3,-1.43219745E-2,-5.447379E-3,5.966991E-3,-1.7388472E-2,-6.123137E-3,1.0046086E-3,-7.241624E-3,-4.009416E-3,-5.6524994E-3,6.35917E-3,-7.6619093E-3,6.995867E-3,-8.784152E-3,-3.5011289E-3,-1.7449565E-2,-4.406065E-3,7.0869583E-3,-1.6315864E-2,2.284719E-3,-1.0791438E-2,-1.2465145E-3,9.701932E-3,-2.6857965E-3,-1.2796857E-2,-8.821304E-3,1.909527E-3,-1.3803626E-2,-3.4959115E-2,8.67428E-3,1.6356146E-2,-6.3604764E-3,1.1330324E-2,-2.331487E-2,-3.9470843E-3,9.709384E-3,1.966765E-2],"categories":[],"categories_nodes":[],"categories_segments":[],"categories_sizes":[],"default_left":[0,0,0,0,0,0,0,0,0,0,0,0,0,0,0,0,0,0,0,0,0,0,0,0,0,0,0,0,0,0,0,0,0,0,0,0,0,0,0,0,0,0,0,0,0,0,0,0,0,0,0,0,0,0,0,0,0,0,0,0,0,0,0,0,0,0,0,0,0,0,0,0,0,0,0,0,0,0,0,0,0,0,0,0,0,0,0,0,0,0,0,0,0,0,0,0,0,0,0,0,0,0,0,0,0,0,0,0,0,0,0,0,0,0,0,0,0,0,0,0,0,0,0,0,0,0,0],"id":9,"left_children":[1,3,5,7,9,11,13,15,17,19,21,23,25,27,29,31,33,35,37,39,41,43,45,47,49,51,53,55,57,59,61,63,65,67,69,71,73,75,77,79,81,83,85,87,89,91,93,95,97,99,101,103,105,107,109,111,113,115,117,119,121,123,125,-1,-1,-1,-1,-1,-1,-1,-1,-1,-1,-1,-1,-1,-1,-1,-1,-1,-1,-1,-1,-1,-1,-1,-1,-1,-1,-1,-1,-1,-1,-1,-1,-1,-1,-1,-1,-1,-1,-1,-1,-1,-1,-1,-1,-1,-1,-1,-1,-1,-1,-1,-1,-1,-1,-1,-1,-1,-1,-1,-1,-1,-1,-1,-1],"loss_changes":[4.9299383E4,5.0901016E3,5.396168E3,1.5940234E3,4.2353125E2,3.353755E2,2.2920454E3,8.7070233E2,1.6819609E3,9.5737256E2,3.5037622E2,3.1798462E2,4.219839E2,4.224092E3,1.1684653E3,1.442138E2,4.8647498E2,6.441328E2,2.522121E3,7.547574E2,1.0462754E3,2.605748E2,1.7141321E2,9.039642E1,3.2405463E2,2.0841602E2,1.336402E2,5.445089E3,1.2234546E3,1.6254644E3,1.8173191E3,6.8062744E0,6.6588264E1,2.5728748E2,1.4637444E2,7.963872E2,4.160547E2,4.0916046E2,2.9359688E3,2.5972827E2,5.639601E2,1.9233702E2,9.483125E2,5.8572473E2,2.3751007E2,2.139248E2,1.1999689E2,9.437786E1,3.8878174E1,2.5288277E2,3.5134668E2,1.5085956E2,6.8826294E2,1.4711502E2,1.02354515E2,2.4815273E3,7.62187E2,8.5087976E2,5.3647656E2,5.6605566E2,7.5590283E2,7.07792E2,1.4290295E2,0E0,0E0,0E0,0E0,0E0,0E0,0E0,0E0,0E0,0E0,0E0,0E0,0E0,0E0,0E0,0E0,0E0,0E0,0E0,0E0,0E0,0E0,0E0,0E0,0E0,0E0,0E0,0E0,0E0,0E0,0E0,0E0,0E0,0E0,0E0,0E0,0E0,0E0,0E0,0E0,0E0,0E0,0E0,0E0,0E0,0E0,0E0,0E0,0E0,0E0,0E0,0E0,0E0,0E0,0E0,0E0,0E0,0E0,0E0,0E0,0E0,0E0,0E0,0E0],"parents":[2147483647,0,0,1,1,2,2,3,3,4,4,5,5,6,6,7,7,8,8,9,9,10,10,11,11,12,12,13,13,14,14,15,15,16,16,17,17,18,18,19,19,20,20,21,21,22,22,23,23,24,24,25,25,26,26,27,27,28,28,29,29,30,30,31,31,32,32,33,33,34,34,35,35,36,36,37,37,38,38,39,39,40,40,41,41,42,42,43,43,44,44,45,45,46,46,47,47,48,48,49,49,50,50,51,51,52,52,53,53,54,54,55,55,56,56,57,57,58,58,59,59,60,60,61,61,62,62],"right_children":[2,4,6,8,10,12,14,16,18,20,22,24,26,28,30,32,34,36,38,40,42,44,46,48,50,52,54,56,58,60,62,64,66,68,70,72,74,76,78,80,82,84,86,88,90,92,94,96,98,100,102,104,106,108,110,112,114,116,118,120,122,124,126,-1,-1,-1,-1,-1,-1,-1,-1,-1,-1,-1,-1,-1,-1,-1,-1,-1,-1,-1,-1,-1,-1,-1,-1,-1,-1,-1,-1,-1,-1,-1,-1,-1,-1,-1,-1,-1,-1,-1,-1,-1,-1,-1,-1,-1,-1,-1,-1,-1,-1,-1,-1,-1,-1,-1,-1,-1,-1,-1,-1,-1,-1,-1,-1],"split_conditions":[1.4190775E-3,-4.3408565E-2,1.1304259E-2,-6.433604E-1,5.6070248E-3,4.9720906E-2,1.421806E-1,-6.433604E-1,-2.0952147E-1,-5.8936752E-2,-2.703645E-2,-7.332409E-3,1.8544583E-1,1.255041E-1,3.5053742E-1,-8.033457E-1,2.0185995E-1,-3.9285842E-1,-2.714773E-1,-3.323256E-2,-1.22108094E-1,3.6866724E-2,1.1484827E-1,-3.825108E-2,5.7134647E-2,-3.5013083E-2,3.011419E-1,1.3245268E-1,3.129649E-1,3.9959988E-1,1.255041E-1,-5.593344E-1,-5.715451E-2,-7.820649E-1,-2.1422581E-1,-3.2264128E-1,-3.6034518E-1,1.3946332E-3,-1.4235875E-1,-2.0950615E-1,3.2508384E-2,-2.8649343E-3,-4.4280477E-3,-3.0296553E-2,-1.14414215E-1,-4.4280477E-3,0E0,9.814332E-3,-2.0819705E-2,-7.199894E-2,1.1337962E-2,-2.004938E-1,-4.429378E-3,4.187887E-1,3.2498583E-2,1.2705568E-2,0E0,4.9885165E-2,0E0,3.9958802E-1,2.8291214E-1,3.8137546E-1,3.0166572E-1,-2.2861376E-2,-1.8477576E-2,-3.0782893E-3,-4.5434095E-2,3.0463059E-2,7.590751E-3,-9.070116E-3,1.0105183E-2,-2.4855264E-2,-7.7476604E-3,-2.4977216E-2,-1.9640516E-2,4.530374E-3,-6.41304E-3,-8.99591E-3,-1.8248804E-2,-3.4504207E-3,-2.3255933E-2,2.9722422E-3,-7.2294385E-3,1.4280666E-2,-1.5779588E-2,-1.9024214E-2,-4.163379E-3,5.4004574E-3,-1.66906E-2,-7.833494E-3,-1.5813318E-3,-1.43219745E-2,-5.447379E-3,5.966991E-3,-1.7388472E-2,-6.123137E-3,1.0046086E-3,-7.241624E-3,-4.009416E-3,-5.6524994E-3,6.35917E-3,-7.6619093E-3,6.995867E-3,-8.784152E-3,-3.5011289E-3,-1.7449565E-2,-4.406065E-3,7.0869583E-3,-1.6315864E-2,2.284719E-3,-1.0791438E-2,-1.2465145E-3,9.701932E-3,-2.6857965E-3,-1.2796857E-2,-8.821304E-3,1.909527E-3,-1.3803626E-2,-3.4959115E-2,8.67428E-3,1.6356146E-2,-6.3604764E-3,1.1330324E-2,-2.331487E-2,-3.9470843E-3,9.709384E-3,1.966765E-2],"split_indices":[11,0,9,1,3,2,0,0,0,4,2,10,0,4,1,0,4,4,4,2,1,3,9,3,4,3,1,1,4,4,4,3,3,1,0,2,0,2,1,1,2,0,0,1,1,0,0,1,10,4,1,4,4,4,3,2,3,1,2,0,2,2,4,0,0,0,0,0,0,0,0,0,0,0,0,0,0,0,0,0,0,0,0,0,0,0,0,0,0,0,0,0,0,0,0,0,0,0,0,0,0,0,0,0,0,0,0,0,0,0,0,0,0,0,0,0,0,0,0,0,0,0,0,0,0,0,0],"split_type":[0,0,0,0,0,0,0,0,0,0,0,0,0,0,0,0,0,0,0,0,0,0,0,0,0,0,0,0,0,0,0,0,0,0,0,0,0,0,0,0,0,0,0,0,0,0,0,0,0,0,0,0,0,0,0,0,0,0,0,0,0,0,0,0,0,0,0,0,0,0,0,0,0,0,0,0,0,0,0,0,0,0,0,0,0,0,0,0,0,0,0,0,0,0,0,0,0,0,0,0,0,0,0,0,0,0,0,0,0,0,0,0,0,0,0,0,0,0,0,0,0,0,0,0,0,0,0],"sum_hessian":[7.168075E7,3.450875E7,3.7172E7,2.5159048E7,9.349706E6,8.110864E6,2.9061136E7,5.51438E5,2.460761E7,4.800451E6,4.549255E6,4.180584E6,3.93028E6,1.670517E7,1.2355967E7,2.12347E5,3.39091E5,7.947174E6,1.6660436E7,2.424972E6,2.375479E6,2.995394E6,1.553861E6,2.40122E6,1.779364E6,3.405711E6,5.24569E5,1.3159903E7,3.545267E6,1.0709716E7,1.646251E6,1.33269E5,7.9078E4,1.78798E5,1.60293E5,1.120401E6,6.826773E6,1.253502E6,1.5406934E7,3.37609E5,2.087363E6,1.53768E5,2.221711E6,7.04746E5,2.290648E6,1.249493E6,3.04368E5,6.72512E5,1.728708E6,9.49583E5,8.29781E5,1.94866E6,1.457051E6,3.08282E5,2.16287E5,1.0470613E7,2.68929E6,3.094468E6,4.50799E5,9.497916E6,1.2118E6,1.067907E6,5.78344E5,8.0388E4,5.2881E4,7.5584E4,3.494E3,9.823E4,8.0568E4,1.06234E5,5.4059E4,3.61609E5,7.58792E5,1.777704E6,5.049069E6,5.40853E5,7.12649E5,4.269397E6,1.1137537E7,7.7284E4,2.60325E5,7.76703E5,1.31066E6,1.31341E5,2.2427E4,1.723547E6,4.98164E5,5.71555E5,1.33191E5,1.388506E6,9.02142E5,3.33443E5,9.1605E5,2.1287E4,2.83081E5,3.11124E5,3.61388E5,1.274368E6,4.5434E5,1.99772E5,7.49811E5,6.38518E5,1.91263E5,9.37378E5,1.011282E6,7.12663E5,7.44388E5,2.8184E5,2.6442E4,1.01618E5,1.14669E5,2.424663E6,8.04595E6,1.2846E6,1.40469E6,2.126895E6,9.67573E5,2.72002E5,1.78797E5,8.537483E6,9.60433E5,9.27922E5,2.83878E5,2.11843E5,8.56064E5,3.81976E5,1.96368E5],"tree_param":{"num_deleted":"0","num_feature":"13","num_nodes":"127","size_leaf_vector":"0"}},{"base_weights":[-1.3068531E-2,-3.2499164E-2,4.9663316E-3,-3.7561752E-2,-1.8125782E-2,-1.1006641E-2,1.0167605E-2,-3.962981E-2,-1.4991165E-2,-1.2665469E-2,-2.1936644E-2,-1.2197913E-2,1.2595988E-2,-4.676586E-3,1.4199534E-2,-4.413363E-2,-2.8183604E-2,-3.4917027E-2,-2.171728E-3,-2.782787E-2,-8.572605E-3,-1.2756474E-2,-2.9174352E-2,-1.6539259E-2,-5.1862826E-3,6.2667966E-2,4.1705184E-3,4.7773723E-2,-1.4100997E-2,-7.989627E-3,2.2586638E-2,-5.0936263E-2,-2.5688887E-2,-1.3175013E-2,-7.518132E-2,-4.8806956E-3,-5.4507837E-2,-9.343792E-3,2.8440539E-2,-3.1660583E-2,4.3456845E-2,1.2823618E-2,-1.5036402E-2,-3.13057E-2,-6.004722E-3,-5.413916E-2,-2.0154264E-2,-6.383971E-3,-2.2602703E-2,1.3456225E-3,-1.6201248E-2,4.0452138E-2,1.0037824E-1,1.1068879E-2,-5.4042798E-2,-4.0058166E-2,5.285205E-2,-4.223406E-2,-6.398948E-3,3.109411E-2,-1.7514016E-2,2.922786E-2,2.9025716E-3,-1.0182327E-2,-1.7097471E-2,-4.543363E-3,-2.2569045E-2,-7.0220213E-3,1.0125929E-2,-2.425106E-2,1.9296791E-3,2.3463904E-3,-1.5419926E-2,-2.2789164E-2,-1.2490805E-2,6.7241243E-3,-4.576153E-3,6.3668715E-4,1.7676309E-2,-4.720887E-3,-1.5651487E-2,1.7561138E-2,3.2484874E-3,7.190231E-3,-1.2280856E-2,-9.6291825E-3,-2.7214806E-3,-1.611951E-2,2.9998391E-3,2.6703165E-3,-9.233679E-3,-1.964561E-2,4.500449E-4,-8.883873E-3,-4.2196764E-3,-2.9032277E-3,6.069399E-3,-2.113675E-2,-5.7619167E-3,4.0092617E-3,-7.132386E-3,-8.604127E-3,4.543334E-3,-1.0422608E-2,1.7820984E-2,1.191941E-2,3.213476E-2,-6.6807535E-3,5.2882195E-3,-2.2116996E-2,1.1742131E-2,-2.6198493E-2,-6.176559E-3,1.8961417E-2,1.0016525E-2,-3.7876747E-3,-1.8905185E-2,4.8619723E-3,-3.5008406E-3,-6.29988E-3,1.3458574E-2,-2.0313608E-2,-2.602701E-3,1.1695929E-2,1.8699696E-4,-8.978178E-3,1.0052807E-2],"categories":[],"categories_nodes":[],"categories_segments":[],"categories_sizes":[],"default_left":[0,0,0,0,0,0,0,0,0,0,0,0,0,0,0,0,0,0,0,0,0,0,0,0,0,0,0,0,0,0,0,0,0,0,0,0,0,0,0,0,0,0,0,0,0,0,0,0,0,0,0,0,0,0,0,0,0,0,0,0,0,0,0,0,0,0,0,0,0,0,0,0,0,0,0,0,0,0,0,0,0,0,0,0,0,0,0,0,0,0,0,0,0,0,0,0,0,0,0,0,0,0,0,0,0,0,0,0,0,0,0,0,0,0,0,0,0,0,0,0,0,0,0,0,0,0,0],"id":10,"left_children":[1,3,5,7,9,11,13,15,17,19,21,23,25,27,29,31,33,35,37,39,41,43,45,47,49,51,53,55,57,59,61,63,65,67,69,71,73,75,77,79,81,83,85,87,89,91,93,95,97,99,101,103,105,107,109,111,113,115,117,119,121,123,125,-1,-1,-1,-1,-1,-1,-1,-1,-1,-1,-1,-1,-1,-1,-1,-1,-1,-1,-1,-1,-1,-1,-1,-1,-1,-1,-1,-1,-1,-1,-1,-1,-1,-1,-1,-1,-1,-1,-1,-1,-1,-1,-1,-1,-1,-1,-1,-1,-1,-1,-1,-1,-1,-1,-1,-1,-1,-1,-1,-1,-1,-1,-1,-1],"loss_changes":[2.5118996E4,2.5108203E3,3.088542E3,1.1910859E3,1.87021E2,2.567622E2,1.6784387E3,1.2050469E3,5.471023E2,2.29263E2,3.5170947E2,2.6461755E2,1.8510335E2,2.9610005E3,4.1042383E3,2.1048047E3,4.655852E3,4.934029E2,2.8614825E2,2.1454694E2,4.0233047E2,2.922533E2,6.665071E2,3.3059497E2,2.3917368E2,5.2938477E1,1.5081865E2,4.0696045E2,1.1002571E3,2.2518555E3,2.0921802E3,1.2611895E3,2.3610784E3,2.40218E3,7.374336E2,1.9558743E2,1.4015552E2,1.9818648E2,1.9845517E2,2.4339911E2,1.9714241E1,4.043498E2,2.2735794E2,5.768365E2,6.3177234E2,4.959336E2,1.2521588E2,1.7594257E2,5.463578E2,6.3001544E2,4.8405484E2,5.6673492E1,9.56839E0,7.341725E1,7.297354E1,4.589518E1,1.7379517E2,6.715785E2,4.749496E2,8.501315E2,2.1580024E3,3.3404033E3,4.0569307E3,0E0,0E0,0E0,0E0,0E0,0E0,0E0,0E0,0E0,0E0,0E0,0E0,0E0,0E0,0E0,0E0,0E0,0E0,0E0,0E0,0E0,0E0,0E0,0E0,0E0,0E0,0E0,0E0,0E0,0E0,0E0,0E0,0E0,0E0,0E0,0E0,0E0,0E0,0E0,0E0,0E0,0E0,0E0,0E0,0E0,0E0,0E0,0E0,0E0,0E0,0E0,0E0,0E0,0E0,0E0,0E0,0E0,0E0,0E0,0E0,0E0,0E0,0E0,0E0],"parents":[2147483647,0,0,1,1,2,2,3,3,4,4,5,5,6,6,7,7,8,8,9,9,10,10,11,11,12,12,13,13,14,14,15,15,16,16,17,17,18,18,19,19,20,20,21,21,22,22,23,23,24,24,25,25,26,26,27,27,28,28,29,29,30,30,31,31,32,32,33,33,34,34,35,35,36,36,37,37,38,38,39,39,40,40,41,41,42,42,43,43,44,44,45,45,46,46,47,47,48,48,49,49,50,50,51,51,52,52,53,53,54,54,55,55,56,56,57,57,58,58,59,59,60,60,61,61,62,62],"right_children":[2,4,6,8,10,12,14,16,18,20,22,24,26,28,30,32,34,36,38,40,42,44,46,48,50,52,54,56,58,60,62,64,66,68,70,72,74,76,78,80,82,84,86,88,90,92,94,96,98,100,102,104,106,108,110,112,114,116,118,120,122,124,126,-1,-1,-1,-1,-1,-1,-1,-1,-1,-1,-1,-1,-1,-1,-1,-1,-1,-1,-1,-1,-1,-1,-1,-1,-1,-1,-1,-1,-1,-1,-1,-1,-1,-1,-1,-1,-1,-1,-1,-1,-1,-1,-1,-1,-1,-1,-1,-1,-1,-1,-1,-1,-1,-1,-1,-1,-1,-1,-1,-1,-1,-1,-1,-1],"split_conditions":[1.4004328E-3,-2.8757187E-2,1.977508E-2,1.473821E-1,-4.3241493E-2,2.2659731E-1,-3.9795835E-2,2.682211E-2,-2.0048079E-1,2.921111E-3,-3.6614522E-2,-1.3212068E-2,1.3946332E-3,-2.3755781E-2,-1.4834926E-2,9.814332E-3,-3.5005163E-2,-5.7143725E-2,2.9225278E-1,1.3966673E-3,3.2508384E-2,1.1340458E-2,-1.7691154E-2,-1.5568397E-3,6.7758314E-2,3.1296644E-1,5.366874E-1,-9.283678E-2,1.0691145E-1,3.8326487E-2,1.8545187E-1,-2.0950615E-1,-3.1864222E-2,-1.2487088E-1,2.3832648E-1,-1.0201931E-1,-3.0293384E-1,7.182241E-3,-2.142166E-1,-1.2506859E-1,-7.020633E-2,-3.9795835E-2,1.03048824E-1,0E0,0E0,1.0119955E-1,0E0,2.741496E-1,-3.340953E-1,7.3989175E-2,3.1075379E-2,-5.590735E-1,-2.4554901E-1,1.1713332E-1,4.6616068E-1,-3.7475625E-1,-6.44515E-2,3.4087762E-2,8.555307E-2,-1.4524725E-1,1.0320751E-1,1.5038346E-1,1.7824915E-1,-1.0182327E-2,-1.7097471E-2,-4.543363E-3,-2.2569045E-2,-7.0220213E-3,1.0125929E-2,-2.425106E-2,1.9296791E-3,2.3463904E-3,-1.5419926E-2,-2.2789164E-2,-1.2490805E-2,6.7241243E-3,-4.576153E-3,6.3668715E-4,1.7676309E-2,-4.720887E-3,-1.5651487E-2,1.7561138E-2,3.2484874E-3,7.190231E-3,-1.2280856E-2,-9.6291825E-3,-2.7214806E-3,-1.611951E-2,2.9998391E-3,2.6703165E-3,-9.233679E-3,-1.964561E-2,4.500449E-4,-8.883873E-3,-4.2196764E-3,-2.9032277E-3,6.069399E-3,-2.113675E-2,-5.7619167E-3,4.0092617E-3,-7.132386E-3,-8.604127E-3,4.543334E-3,-1.0422608E-2,1.7820984E-2,1.191941E-2,3.213476E-2,-6.6807535E-3,5.2882195E-3,-2.2116996E-2,1.1742131E-2,-2.6198493E-2,-6.176559E-3,1.8961417E-2,1.0016525E-2,-3.7876747E-3,-1.8905185E-2,4.8619723E-3,-3.5008406E-3,-6.29988E-3,1.3458574E-2,-2.0313608E-2,-2.602701E-3,1.1695929E-2,1.8699696E-4,-8.978178E-3,1.0052807E-2],"split_indices":[10,11,12,1,3,0,4,4,0,1,1,12,2,1,1,1,1,2,1,4,2,4,0,0,4,0,4,3,2,4,1,1,4,2,4,4,0,2,4,4,1,4,1,0,0,1,4,4,1,1,1,1,2,2,2,4,1,1,1,1,3,4,3,0,0,0,0,0,0,0,0,0,0,0,0,0,0,0,0,0,0,0,0,0,0,0,0,0,0,0,0,0,0,0,0,0,0,0,0,0,0,0,0,0,0,0,0,0,0,0,0,0,0,0,0,0,0,0,0,0,0,0,0,0,0,0,0],"split_type":[0,0,0,0,0,0,0,0,0,0,0,0,0,0,0,0,0,0,0,0,0,0,0,0,0,0,0,0,0,0,0,0,0,0,0,0,0,0,0,0,0,0,0,0,0,0,0,0,0,0,0,0,0,0,0,0,0,0,0,0,0,0,0,0,0,0,0,0,0,0,0,0,0,0,0,0,0,0,0,0,0,0,0,0,0,0,0,0,0,0,0,0,0,0,0,0,0,0,0,0,0,0,0,0,0,0,0,0,0,0,0,0,0,0,0,0,0,0,0,0,0,0,0,0,0,0,0],"sum_hessian":[7.168075E7,3.4505148E7,3.717561E7,2.5517412E7,8.987736E6,9.131871E6,2.8043736E7,2.3375596E7,2.141817E6,3.694359E6,5.293377E6,8.693113E6,4.38758E5,5.990127E6,2.2053608E7,1.677501E7,6.600586E6,8.38498E5,1.303319E6,7.85265E5,2.909094E6,2.33355E6,2.959827E6,5.36889E6,3.324223E6,6.3194E4,3.75564E5,9.12382E5,5.077745E6,6.049329E6,1.6004279E7,1.2255162E7,4.519848E6,5.002919E6,1.597667E6,3.31006E5,5.07492E5,1.055929E6,2.4739E5,7.45199E5,4.0066E4,6.74938E5,2.234156E6,6.22724E5,1.710826E6,7.8558E5,2.174247E6,2.007184E6,3.361706E6,2.086766E6,1.237457E6,3.9768E4,2.3426E4,3.35775E5,3.9789E4,4.9869E4,8.62513E5,1.09136E6,3.986385E6,1.185319E6,4.86401E6,1.1966793E7,4.037486E6,3.219403E6,9.035759E6,3.726667E6,7.93181E5,4.107387E6,8.95532E5,1.494129E6,1.03538E5,2.60011E5,7.0995E4,1.90291E5,3.17201E5,1.65675E5,8.90254E5,1.3276E5,1.1463E5,4.19506E5,3.25693E5,2.7401E4,1.2665E4,5.59053E5,1.15885E5,5.78757E5,1.655399E6,4.03597E5,2.19127E5,1.068155E6,6.42671E5,6.52516E5,1.33064E5,8.51482E5,1.322765E6,1.78616E6,2.21024E5,2.2278E5,3.138926E6,1.411463E6,6.75303E5,8.8509E5,3.52367E5,8.005E3,3.1763E4,2.343E3,2.1083E4,5.5197E4,2.80578E5,3.2851E4,6.938E3,1.4547E4,3.5322E4,5.63034E5,2.99479E5,4.50114E5,6.41246E5,7.53705E5,3.23268E6,2.47781E5,9.37538E5,7.28191E5,4.135819E6,8.922754E6,3.044039E6,1.947999E6,2.089487E6],"tree_param":{"num_deleted":"0","num_feature":"13","num_nodes":"127","size_leaf_vector":"0"}},{"base_weights":[-9.147972E-3,-2.3265913E-2,3.95716E-3,-2.7877562E-2,-1.2099177E-2,-7.876748E-3,8.564709E-3,-2.971764E-2,-9.241269E-3,-1.0130926E-2,-1.9913903E-2,-4.0823375E-3,-1.5162832E-2,4.3429835E-3,1.664162E-2,-4.797391E-3,-3.0961493E-2,-1.0814337E-2,1.9930024E-2,-1.6206073E-2,-7.086971E-3,-2.589295E-3,-2.7297279E-2,-1.7437259E-2,-1.2163222E-3,-8.920278E-3,-2.2469593E-2,1.0470298E-2,-1.5032465E-2,6.0413375E-2,1.4766118E-2,-3.8456343E-2,9.80375E-3,-1.4066383E-2,-3.317075E-2,-1.4742381E-2,-1.0472622E-3,-5.1242866E-2,2.485677E-2,-1.881133E-2,-1.5939053E-3,-2.396297E-3,-1.0600157E-2,-2.2980567E-2,2.7101915E-2,-4.163008E-2,-1.5107202E-2,-2.4765965E-3,-2.3667226E-2,-5.260037E-3,4.650033E-3,-9.560543E-3,6.902997E-2,-3.888675E-2,-1.042099E-2,2.0047188E-2,-1.2345656E-2,4.183539E-3,-2.5054943E-2,-8.377158E-4,7.1635276E-2,-1.2286913E-2,1.8711897E-2,-7.12195E-3,-1.3663777E-2,7.3113125E-3,-6.848877E-3,-1.4681083E-2,5.004525E-4,-7.586943E-3,-1.1344714E-2,-6.427446E-4,-6.419723E-3,2.0696966E-3,-1.0516108E-2,-2.646287E-2,1.5542776E-2,-7.852479E-3,8.095987E-3,-2.4442212E-3,-7.139039E-3,-7.378382E-3,1.3663387E-3,-2.7328958E-3,2.0119606E-3,-4.010858E-3,-1.1442998E-4,-1.1913865E-2,5.05938E-3,-3.2955904E-3,1.3538607E-2,-9.773466E-3,-2.2344507E-2,-9.411329E-4,-9.676308E-3,-6.2848916E-3,5.054348E-3,-1.563801E-2,-3.3223133E-3,1.772592E-3,-3.1851975E-3,5.709366E-3,-1.5844383E-3,-4.471157E-3,-3.7133033E-4,1.6382715E-2,3.5912927E-2,-1.6674612E-2,-2.129145E-3,3.1598054E-3,-8.401546E-3,3.4446034E-4,7.807896E-3,-1.9503101E-3,-1.2112637E-2,-4.6981955E-3,5.465108E-3,-1.7232565E-2,-8.365746E-4,-2.2046551E-2,1.3302282E-2,1.8003244E-2,3.4098152E-2,8.242229E-3,-1.104382E-2,5.439555E-4,7.2088735E-3],"categories":[],"categories_nodes":[],"categories_segments":[],"categories_sizes":[],"default_left":[0,0,0,0,0,0,0,0,0,0,0,0,0,0,0,0,0,0,0,0,0,0,0,0,0,0,0,0,0,0,0,0,0,0,0,0,0,0,0,0,0,0,0,0,0,0,0,0,0,0,0,0,0,0,0,0,0,0,0,0,0,0,0,0,0,0,0,0,0,0,0,0,0,0,0,0,0,0,0,0,0,0,0,0,0,0,0,0,0,0,0,0,0,0,0,0,0,0,0,0,0,0,0,0,0,0,0,0,0,0,0,0,0,0,0,0,0,0,0,0,0,0,0,0,0,0,0],"id":11,"left_children":[1,3,5,7,9,11,13,15,17,19,21,23,25,27,29,31,33,35,37,39,41,43,45,47,49,51,53,55,57,59,61,63,65,67,69,71,73,75,77,79,81,83,85,87,89,91,93,95,97,99,101,103,105,107,109,111,113,115,117,119,121,123,125,-1,-1,-1,-1,-1,-1,-1,-1,-1,-1,-1,-1,-1,-1,-1,-1,-1,-1,-1,-1,-1,-1,-1,-1,-1,-1,-1,-1,-1,-1,-1,-1,-1,-1,-1,-1,-1,-1,-1,-1,-1,-1,-1,-1,-1,-1,-1,-1,-1,-1,-1,-1,-1,-1,-1,-1,-1,-1,-1,-1,-1,-1,-1,-1],"loss_changes":[1.3262192E4,1.7770078E3,2.0269124E3,8.374629E2,1.551294E2,2.8800824E2,9.123468E2,6.889668E2,1.0070659E2,1.4898352E2,2.5955432E2,2.6219318E2,1.6271906E2,2.0860994E3,7.539961E2,5.1931244E2,7.901875E2,7.988861E1,3.9375507E1,1.0237518E2,8.8447296E1,3.6711435E2,2.485835E2,1.1280817E2,1.3378764E2,9.6015076E1,3.2511017E2,2.917029E3,8.13082E2,2.5938257E2,9.401255E2,3.3354248E1,3.5034418E2,1.3432319E3,6.8534766E2,1.2455704E2,1.6139102E2,2.7699608E1,1.1415314E1,1.2133838E2,5.7545986E1,1.4045845E2,8.6844635E1,2.3966461E2,1.6950642E2,1.9445117E2,1.5781078E2,1.2702628E2,3.0623938E2,1.9975864E2,3.2868536E2,8.4856674E1,1.1448059E1,3.692229E2,3.4926447E2,1.0625364E3,6.465907E2,4.0301E2,2.0008907E3,1.9179585E2,1.5579822E2,1.0932167E3,6.906907E2,0E0,0E0,0E0,0E0,0E0,0E0,0E0,0E0,0E0,0E0,0E0,0E0,0E0,0E0,0E0,0E0,0E0,0E0,0E0,0E0,0E0,0E0,0E0,0E0,0E0,0E0,0E0,0E0,0E0,0E0,0E0,0E0,0E0,0E0,0E0,0E0,0E0,0E0,0E0,0E0,0E0,0E0,0E0,0E0,0E0,0E0,0E0,0E0,0E0,0E0,0E0,0E0,0E0,0E0,0E0,0E0,0E0,0E0,0E0,0E0,0E0,0E0,0E0,0E0],"parents":[2147483647,0,0,1,1,2,2,3,3,4,4,5,5,6,6,7,7,8,8,9,9,10,10,11,11,12,12,13,13,14,14,15,15,16,16,17,17,18,18,19,19,20,20,21,21,22,22,23,23,24,24,25,25,26,26,27,27,28,28,29,29,30,30,31,31,32,32,33,33,34,34,35,35,36,36,37,37,38,38,39,39,40,40,41,41,42,42,43,43,44,44,45,45,46,46,47,47,48,48,49,49,50,50,51,51,52,52,53,53,54,54,55,55,56,56,57,57,58,58,59,59,60,60,61,61,62,62],"right_children":[2,4,6,8,10,12,14,16,18,20,22,24,26,28,30,32,34,36,38,40,42,44,46,48,50,52,54,56,58,60,62,64,66,68,70,72,74,76,78,80,82,84,86,88,90,92,94,96,98,100,102,104,106,108,110,112,114,116,118,120,122,124,126,-1,-1,-1,-1,-1,-1,-1,-1,-1,-1,-1,-1,-1,-1,-1,-1,-1,-1,-1,-1,-1,-1,-1,-1,-1,-1,-1,-1,-1,-1,-1,-1,-1,-1,-1,-1,-1,-1,-1,-1,-1,-1,-1,-1,-1,-1,-1,-1,-1,-1,-1,-1,-1,-1,-1,-1,-1,-1,-1,-1,-1,-1,-1,-1],"split_conditions":[1.4099693E-3,-1.4838746E-2,2.1165757E-2,-3.0299354E-2,4.8218023E-2,4.9720906E-2,1.7475608E-1,-4.3786207E-1,1.3970539E-1,1.1346333E-2,1.7048946E-2,-1.3932009E-1,-2.240686E-2,1.2127868E-1,1.3946332E-3,-3.3399954E-1,-2.8629473E-1,4.698675E-2,-5.5906934E-1,1.4053922E-3,-3.5013083E-2,-1.4524725E-1,1.3245268E-1,-1.3124071E-2,1.4202779E-2,3.1296644E-1,1.3966673E-3,1.12759486E-1,0E0,-4.6528077E-1,1.1086842E-1,-7.820649E-1,1.4382034E-3,-2.0952913E-1,-1.1964106E-1,-9.9648185E-2,2.544702E-2,-1.5445951E-3,-4.3786207E-1,-6.658645E-2,-8.450758E-2,-1.1184286E-1,1.01197734E-1,1.473821E-1,1.1276382E-1,1.5596515E-1,2.659631E-1,-6.25854E-2,1.449689E-1,-3.9880954E-2,5.1252507E-2,-1.393245E-1,4.4002056E-1,1.3005003E-1,9.764179E-2,1.9818049E-2,2.659631E-1,-1.4524725E-1,3.5330895E-2,4.1867554E-1,2.9224628E-1,1.449689E-1,1.3244915E-1,-7.12195E-3,-1.3663777E-2,7.3113125E-3,-6.848877E-3,-1.4681083E-2,5.004525E-4,-7.586943E-3,-1.1344714E-2,-6.427446E-4,-6.419723E-3,2.0696966E-3,-1.0516108E-2,-2.646287E-2,1.5542776E-2,-7.852479E-3,8.095987E-3,-2.4442212E-3,-7.139039E-3,-7.378382E-3,1.3663387E-3,-2.7328958E-3,2.0119606E-3,-4.010858E-3,-1.1442998E-4,-1.1913865E-2,5.05938E-3,-3.2955904E-3,1.3538607E-2,-9.773466E-3,-2.2344507E-2,-9.411329E-4,-9.676308E-3,-6.2848916E-3,5.054348E-3,-1.563801E-2,-3.3223133E-3,1.772592E-3,-3.1851975E-3,5.709366E-3,-1.5844383E-3,-4.471157E-3,-3.7133033E-4,1.6382715E-2,3.5912927E-2,-1.6674612E-2,-2.129145E-3,3.1598054E-3,-8.401546E-3,3.4446034E-4,7.807896E-3,-1.9503101E-3,-1.2112637E-2,-4.6981955E-3,5.465108E-3,-1.7232565E-2,-8.365746E-4,-2.2046551E-2,1.3302282E-2,1.8003244E-2,3.4098152E-2,8.242229E-3,-1.104382E-2,5.439555E-4,7.2088735E-3],"split_indices":[8,5,5,0,0,2,0,1,0,5,2,2,3,4,2,3,4,4,5,0,3,1,2,3,0,0,4,1,2,1,2,1,3,2,1,4,1,6,4,1,4,4,3,0,3,4,1,4,4,3,4,4,0,0,8,2,1,1,1,3,0,4,3,0,0,0,0,0,0,0,0,0,0,0,0,0,0,0,0,0,0,0,0,0,0,0,0,0,0,0,0,0,0,0,0,0,0,0,0,0,0,0,0,0,0,0,0,0,0,0,0,0,0,0,0,0,0,0,0,0,0,0,0,0,0,0,0],"split_type":[0,0,0,0,0,0,0,0,0,0,0,0,0,0,0,0,0,0,0,0,0,0,0,0,0,0,0,0,0,0,0,0,0,0,0,0,0,0,0,0,0,0,0,0,0,0,0,0,0,0,0,0,0,0,0,0,0,0,0,0,0,0,0,0,0,0,0,0,0,0,0,0,0,0,0,0,0,0,0,0,0,0,0,0,0,0,0,0,0,0,0,0,0,0,0,0,0,0,0,0,0,0,0,0,0,0,0,0,0,0,0,0,0,0,0,0,0,0,0,0,0,0,0,0,0,0,0],"sum_hessian":[7.168075E7,3.450697E7,3.7173784E7,2.4421396E7,1.0085574E7,1.0417571E7,2.6756216E7,2.2226804E7,2.194591E6,8.056445E6,2.029129E6,6.850173E6,3.567398E6,1.757167E7,9.184545E6,1.056673E6,2.1170132E7,2.082303E6,1.12288E5,2.689239E6,5.367206E6,6.06356E5,1.422773E6,1.21033E6,5.639843E6,1.923798E6,1.6436E6,1.3349887E7,4.221783E6,3.77363E5,8.807182E6,3.19697E5,7.36976E5,2.448146E6,1.8721984E7,1.485055E6,5.97248E5,7.269E3,1.05019E5,2.282316E6,4.06923E5,2.29843E6,3.068776E6,3.59476E5,2.4688E5,6.53914E5,7.68859E5,3.55833E5,8.54497E5,3.338556E6,2.301287E6,1.908126E6,1.5672E4,6.9568E5,9.4792E5,9.403015E6,3.946872E6,1.447159E6,2.774624E6,5.8432E4,3.18931E5,1.121049E6,7.686133E6,1.03941E5,2.15756E5,5.09527E5,2.27449E5,7.61197E5,1.686949E6,6.94265E6,1.1779335E7,5.1336E5,9.71695E5,4.84124E5,1.13124E5,5.35E3,1.919E3,4.207E3,1.00812E5,7.27084E5,1.555232E6,8.5831E4,3.21092E5,1.322836E6,9.75594E5,2.41444E6,6.54336E5,2.53164E5,1.06312E5,7.9311E4,1.67569E5,5.12659E5,1.41255E5,4.52782E5,3.16077E5,1.81924E5,1.73909E5,2.62117E5,5.9238E5,1.082273E6,2.256283E6,9.40053E5,1.361234E6,1.162066E6,7.4606E5,1.2202E4,3.47E3,4.56129E5,2.39551E5,4.3252E5,5.154E5,2.259892E6,7.143123E6,3.265888E6,6.80984E5,5.99471E5,8.47688E5,1.130412E6,1.644212E6,2.2404E4,3.6028E4,2.49829E5,6.9102E4,4.27687E5,6.93362E5,1.839741E6,5.846392E6],"tree_param":{"num_deleted":"0","num_feature":"13","num_nodes":"127","size_leaf_vector":"0"}},{"base_weights":[-6.4035794E-3,-1.5940828E-2,3.173434E-3,-2.5904194E-2,-1.2533152E-2,-2.2850146E-3,9.048673E-3,-2.4124203E-2,-6.467537E-2,-4.7471534E-4,-1.4298049E-2,1.0704162E-3,-1.0555374E-2,1.202392E-2,-5.402409E-3,-2.7865835E-2,-8.416951E-3,-8.598146E-3,-7.6039776E-2,2.1593586E-2,-1.2623718E-2,-5.7577687E-5,-1.7511308E-2,9.583411E-3,-1.0753475E-2,-1.5791023E-2,3.2057427E-3,1.8678252E-2,-1.9319123E-3,-1.728997E-2,2.6228018E-2,-3.4665722E-2,-1.905876E-2,4.0742313E-3,-3.2355342E-2,-7.7818915E-2,1.6673323E-2,-1.0401303E-1,-5.799872E-2,-3.3181544E-2,5.3486478E-2,-4.9748207E-3,-3.287062E-2,1.9157605E-2,-1.4241625E-2,-2.4064984E-2,-4.9907565E-3,-1.4961511E-2,1.6828978E-2,-1.6128736E-2,1.6093623E-2,-3.3568789E-3,-5.2011695E-2,1.7419787E-2,-2.5847798E-2,-2.2598932E-2,2.0306908E-2,-1.3411246E-2,2.2455746E-2,1.4674178E-2,-3.3141784E-2,2.9776823E-2,-1.3171896E-2,-5.0630895E-3,-1.2142686E-2,-2.2440332E-3,-1.3547426E-2,1.8969124E-2,3.6675972E-4,-1.0786023E-2,-1.4265506E-3,-3.662051E-2,-1.7809553E-2,-4.247398E-3,8.415712E-3,-2.0463856E-2,-3.60109E-2,-3.0364836E-2,-1.1727636E-2,3.9621852E-2,-1.0956882E-2,1.0919601E-2,2.4600744E-2,-5.2235276E-3,5.9845964E-3,-1.6140616E-2,-5.214598E-3,-6.00714E-3,9.941638E-3,-8.676171E-3,-1.6636768E-3,-7.792204E-3,8.621983E-3,1.8051647E-3,-2.4586236E-3,1.5364679E-3,-8.851605E-3,-1.4595424E-3,8.923251E-3,-1.270034E-3,-1.1494618E-2,7.1122497E-3,-1.536631E-2,-3.3816695E-3,1.0556164E-3,-2.66928E-2,-9.259867E-3,7.3045404E-3,-1.7106296E-2,1.9995251E-3,-1.3220802E-2,-1.2231379E-2,-5.8559704E-5,-2.1079231E-2,6.339559E-3,7.89454E-3,-8.984947E-3,8.485978E-3,-4.6524694E-3,2.3938094E-3,2.0014128E-2,-2.0614594E-2,-3.9848993E-3,5.1704324E-3,1.035177E-2,-1.9473758E-2,2.3322199E-3],"categories":[],"categories_nodes":[],"categories_segments":[],"categories_sizes":[],"default_left":[0,0,0,0,0,0,0,0,0,0,0,0,0,0,0,0,0,0,0,0,0,0,0,0,0,0,0,0,0,0,0,0,0,0,0,0,0,0,0,0,0,0,0,0,0,0,0,0,0,0,0,0,0,0,0,0,0,0,0,0,0,0,0,0,0,0,0,0,0,0,0,0,0,0,0,0,0,0,0,0,0,0,0,0,0,0,0,0,0,0,0,0,0,0,0,0,0,0,0,0,0,0,0,0,0,0,0,0,0,0,0,0,0,0,0,0,0,0,0,0,0,0,0,0,0,0,0],"id":12,"left_children":[1,3,5,7,9,11,13,15,17,19,21,23,25,27,29,31,33,35,37,39,41,43,45,47,49,51,53,55,57,59,61,63,65,67,69,71,73,75,77,79,81,83,85,87,89,91,93,95,97,99,101,103,105,107,109,111,113,115,117,119,121,123,125,-1,-1,-1,-1,-1,-1,-1,-1,-1,-1,-1,-1,-1,-1,-1,-1,-1,-1,-1,-1,-1,-1,-1,-1,-1,-1,-1,-1,-1,-1,-1,-1,-1,-1,-1,-1,-1,-1,-1,-1,-1,-1,-1,-1,-1,-1,-1,-1,-1,-1,-1,-1,-1,-1,-1,-1,-1,-1,-1,-1,-1,-1,-1,-1],"loss_changes":[6.547203E3,1.2193809E3,1.1469988E3,6.316748E2,5.6954297E2,5.145116E2,7.4061E2,5.143218E2,2.560437E2,9.160778E2,1.0682285E3,1.3276001E3,3.855428E2,1.3265413E3,1.1058121E3,4.2326514E2,5.0343027E2,1.18434875E2,1.6858911E2,2.1193147E3,3.4127393E2,1.1713763E3,1.5629263E3,1.3637495E3,7.967451E2,1.7458008E3,6.0905475E2,6.502412E2,1.2911316E3,1.0830839E3,1.12327515E2,4.1219824E2,9.3057263E2,1.8663174E2,5.732843E1,1.4778343E1,1.7400568E1,7.512671E1,1.659422E2,2.4651462E2,3.736062E2,4.957793E2,1.9589154E2,9.9986127E2,3.1562817E2,1.2603584E3,2.3086443E2,5.104875E2,1.6588531E3,1.2140295E3,4.720427E2,1.570486E2,7.743025E2,5.1078555E2,2.870355E2,1.4947867E2,6.952622E2,2.060327E3,3.2674524E2,2.4688664E2,